tree
version=v4
num_class=1
num_tree_per_iteration=1
label_index=0
max_feature_idx=38
objective=quantile
feature_names=price_lag_1d return_1d return_3d return_7d return_14d return_30d return_60d price_std_7d price_std_14d price_std_30d price_std_60d price_zscore_30d vol_regime_60_30 trend_divergence_30_60 price_accel_7d price_log price_tier log_return_1d log_return_7d autocorr_1d autocorr_7d bb_pct_b bb_width rsi_14 macd_line macd_signal macd_histogram volume_missing volume_lag_1d volume_lag_7d volume_std_30d volume_mean_60d volume_log_change_1d volume_log_change_7d volume_zscore_30d volume_price_conf_7d volume_price_conf_1d rsi_missing macd_missing
feature_infos=[0.029999999329447746:449.08499145507812] [-99.944244384765625:500] [-99.944244384765625:500] [-99.634101867675781:500] [-99.634101867675781:500] [-99.529632568359375:500] [-99.696243286132812:500] [0:82.714279174804688] [0:60.404327392578125] [0:66.041351318359375] [0:83.876434326171875] [-4.9878606796264648:5.2946515083312988] [0.70178574323654175:3191.88232421875] [-299759592013824:2771.76318359375] [-599.63409423828125:597.15875244140625] [-3.5065579414367676:6.1072120666503906] [0:4] [-7.4919800758361816:7.4919800758361816] [-5.610569953918457:7.4919800758361816] [-49972.125:104660.375] [-49817.05078125:133939.390625] [-0.54071199893951416:1.5621322393417358] [0.0016972259618341923:17.690479278564453] [0:99.998138427734375] [-23.050159454345703:37.798225402832031] [-20.377595901489258:34.973644256591797] [-9.5351839065551758:14.867011070251465] none [1:378600] [1:372357] [0:87607.3984375] [1:297578] [-6.308098316192627:10.422162055969238] [-6.7117404937744141:9.4828834533691406] [-4.9106183052062988:5.2923283576965332] [-99.39617919921875:500] [-99.944244384765625:500] [0:1] [0:1]
tree_sizes=5011 5372 5075 5396 5175 6332 4945 5372 5278 6541 5173 5039 5154

Tree=0
num_leaves=47
num_cat=0
split_feature=2 15 1 22 38 1 4 1 2 1 12 21 34 18 31 28 22 31 38 28 1 0 4 34 29 34 34 0 22 22 26 11 30 15 21 30 7 15 34 31 9 4 13 24 31 30
split_gain=3484.41 800.269 635.003 515.534 408.543 348.923 150.978 101.654 79.6597 61.3429 49.6221 40.6891 39.8731 37.5386 34.3909 45.2277 28.3236 25.4727 24.9062 17.9983 16.4964 16.1956 14.5182 13.3432 12.8066 12.3431 10.8958 10.1392 9.73984 9.70435 9.45172 9.37179 9.22576 9.50729 9.1436 9.09244 7.611 6.62587 4.94449 4.46519 5.01833 3.10129 2.94258 7.85447 2.74341 2.25973
threshold=11.542535781860353 -3.498293280601501 23.2382345199585 0.21600311249494555 1.0000000180025095e-35 9.4791135787963885 31.172650337219242 9.4791135787963885 34.055976867675788 6.9770436286926278 0.81001481413841259 0.76586198806762706 1.5094250440597536 0.088950440287590041 26.92499923706055 30.500000000000004 0.67172405123710643 340.55833435058599 1.0000000180025095e-35 69.500000000000014 3.7750099897384648 0.034250000491738326 40.015949249267585 2.3840564489364628 185.50000000000003 -0.32665535807609553 1.3463041782379153 0.89024999737739574 2.5542645454406743 0.15304718911647799 -0.0001425504306098446 -0.10005075857043265 904.69653320312511 -3.263633012771606 1.2083246707916262 184.0856857299805 0.16491369158029559 -2.4739711284637447 -0.70221617817878712 19.158332824707035 0.0049954575952142486 59.953170776367195 1.240929186344147 -0.051727555692195885 110.70833206176759 8.2451310157775897
decision_type=2 2 2 2 2 2 2 2 2 2 2 2 2 2 2 2 2 2 2 2 2 2 2 2 2 2 2 2 2 2 2 2 2 2 2 2 2 2 2 2 2 2 2 2 2 2
left_child=1 -1 7 9 5 6 -5 8 16 20 26 25 21 -7 15 -6 19 -16 -18 -2 29 35 31 34 -23 30 42 37 -24 -3 -12 -10 33 -11 -13 -9 -27 -28 -22 41 -41 -14 -4 -44 -25 -29
right_child=2 3 10 4 14 13 -8 12 22 32 11 23 39 -15 17 -17 18 -19 -20 -21 38 24 28 44 -26 36 27 45 -30 -31 -32 -33 -34 -35 -36 -37 -38 -39 -40 40 -42 -43 43 -45 -46 -47
leaf_value=-7.5541495397652767 -8.1052971672414049 -7.7157073223088419 -10.776854802032926 -7.8349228772740149 -8.7530961435432975 -8.1109840941325544 -8.1554370878612765 -8.1052971672414049 -8.1346942878487809 -7.9116507248423069 -8.5235384434948376 -9.4534135877050449 -8.279090896976868 -8.3808710125163906 -8.4811863643296466 -10.213228359928564 -8.1800977206372156 -8.6787691624686136 -9.2396810452649625 -7.9483478434873476 -7.8463241997148643 -8.4577753091600023 -8.8811459214606252 -10.235042687715547 -8.2166262842682372 -8.6346579543552178 -9.8325802476854882 -9.4493535156562594 -10.708633573186724 -7.7501131416969091 -9.7600139447605176 -9.2610824716601581 -9.1205691258708725 -7.8803271507003103 -10.730816613022915 -8.1187398430685498 -7.6701930072834692 -10.734605285824886 -7.7903556725843863 -8.0629012007489216 -8.0066707752545501 -9.878792026864744 -7.6219606302883562 -9.7825886479578656 -8.4604812400912852 -7.9704212601351587
leaf_weight=99895.005535244942 2677.4225337505341 41577.479804217815 1756.8324620723724 80615.120569348335 401.20423823595047 3241.7689139246941 4926.9238198399544 439.05120140314102 182.26288264989853 130.57320034503937 83.726299524307251 903.10941153764725 61.77032333612442 2013.0931510925293 5179.9089837670326 307.71405005455017 2408.3257096409798 2305.0399970412254 284.86360877752304 2881.0268763303757 1504.5649235248566 3080.9172380566597 572.33352649211884 170.20573389530182 571.47401052713394 274.06582671403885 45.331586241722107 5.2659742832183829 213.10930669307709 26699.384834647179 163.44270515441895 506.02721917629242 25.599021196365356 2151.7897611260414 823.36012583971024 73.443268954753876 65.939876198768616 332.0109995007515 4952.3663668036461 98.876328527927399 423.27461719512939 17.653472900390625 11.354781866073607 174.07569950819016 77.890495777130127 29.597427129745483
leaf_count=106734 2751 49340 447 71988 172 2492 3939 368 79 165 45 527 47 1533 1821 46 1210 833 138 3209 1611 2378 421 133 544 145 29 3 43 31858 59 286 11 2432 551 56 21 100 5791 122 418 11 2 65 77 17
internal_value=-7.81251 -7.81156 -7.82605 -7.8129 -7.81448 -7.81384 -7.81333 -7.82257 -7.82062 -7.81087 -7.83632 -7.83309 -7.82653 -7.82211 -7.82155 -7.82854 -7.81935 -7.82088 -7.82214 -7.81799 -7.81071 -7.82768 -7.82771 -7.83538 -7.82688 -7.82535 -7.83982 -7.8346 -7.83083 -7.81056 -7.83103 -7.82411 -7.81618 -7.81594 -7.83644 -7.83328 -7.82113 -7.83619 -7.81231 -7.81851 -7.81733 -7.8259 -7.84091 -7.83598 -7.8279 -7.81681
internal_weight=295336 275928 19408 176033 98990.8 90796.9 85542 14491.8 9725.37 77041.8 4916.21 2561.74 4766.46 5254.86 8193.87 708.918 8251.64 7484.95 2693.19 5558.45 74733.8 4164.89 1473.73 1974.57 3652.39 587.175 2354.47 412.206 785.443 68276.9 247.169 688.29 2307.96 2282.36 1726.47 512.494 340.006 377.343 6456.93 601.575 522.151 79.4238 1942.26 185.43 248.096 34.8634
internal_count=295068 280766 14302 174032 82824 79952 75927 12081 8137 91208 2221 1558 3944 4025 2872 218 7308 2654 1348 5960 88600 3346 829 1288 2922 270 663 149 464 81198 104 365 2608 2597 1078 424 166 129 7402 598 540 58 514 67 210 20
is_linear=0
shrinkage=1


Tree=1
num_leaves=49
num_cat=0
split_feature=1 15 22 2 2 38 37 21 2 2 31 1 22 3 2 34 22 1 4 0 38 15 34 3 0 4 12 34 1 19 31 34 12 21 22 22 0 21 9 15 15 8 4 23 1 24 8 12
split_gain=3292.13 826.192 541.265 449.013 273.792 232.963 178.229 138.122 95.441 82.94 75.6956 66.7755 49.6831 45.983 45.9622 40.3383 33.4571 31.6075 31.5955 26.6971 25.5108 22.9513 22.1736 19.6872 17.9626 17.2514 17.0062 16.8054 14.6762 13.7747 11.8984 10.1983 9.98237 13.7958 9.8516 8.60081 8.02335 6.83898 6.74651 6.70209 6.57877 6.12141 7.06236 6.8792 4.49509 2.49972 0.270178 0.191841
threshold=9.4791135787963885 -3.498293280601501 0.34831854701042181 34.055976867675788 11.542535781860353 1.0000000180025095e-35 1.0000000180025095e-35 0.47986330091953283 11.542535781860353 8.8615331649780291 24.305171966552738 23.2382345199585 0.18237386643886569 8.5054507255554217 34.055976867675788 1.3463041782379153 0.18751537799835208 14.759599208831789 26.030408859252933 0.048250000923872001 1.0000000180025095e-35 -3.3740954399108882 1.5094250440597536 29.463113784790043 0.039250001311302192 40.015949249267585 0.73783251643180858 -0.43530520796775812 14.759599208831789 -16.811127662658688 40.658334732055671 -0.38016845285892481 0.81001481413841259 0.84614554047584545 2.5542645454406743 0.86368936300277721 4.4735000133514413 0.44409851729869848 0.0049954575952142486 -2.3618079423904415 -1.4642564654350279 0.009571162052452566 14.290558338165285 28.575837135314945 23.2382345199585 0.0014599312562495472 0.010233134031295778 0.84665271639823925
decision_type=2 2 2 2 2 2 2 2 2 2 2 2 2 2 2 2 2 2 2 2 2 2 2 2 2 2 2 2 2 2 2 2 2 2 2 2 2 2 2 2 2 2 2 2 2 2 2 2
left_child=1 -1 6 8 5 7 9 -4 13 12 21 31 -3 27 20 17 -12 34 32 29 -6 -8 39 -7 -11 -16 -19 40 -21 -15 -29 41 46 -34 -10 -24 37 -33 45 -20 -2 42 -5 -43 -40 -17 -13 -38
right_child=3 2 4 11 14 23 10 -9 15 24 16 18 -14 19 25 38 -18 26 22 28 -22 -23 35 -25 -26 -27 -28 30 -30 -31 -32 36 33 -35 -36 -37 47 -39 44 -41 -42 43 -44 -45 -46 -47 -48 -49
leaf_value=0.24980710531587619 -0.47212659608362451 0.080822696724126522 -0.021681378309083156 -0.027871419070881774 -0.3319626129996186 -0.60626820395098502 0.0072534310735395862 -0.19738326483738156 -0.32063801815205945 -0.25929707914326566 -0.03392771684362151 -0.89972449166354806 0.022885826380545177 -0.64651357257697428 -1.3471895158926126 -0.32291599562254281 -1.2559715339659756 -0.4450026229426175 -1.3411544479252269 -0.23252670088949554 -1.1413266846026235 -2.3232780726859334 -0.86921382747973763 -1.8103769368745342 -0.081624497421031339 -1.3317291188101168 -0.56823047760588563 -0.3441652851453833 -0.69001511784151282 -0.56880173739275186 -0.17269711965780213 -0.0158404636940935 -1.018716124349307 -2.6904472257492098 -0.53899817135166261 -2.8363247324850365 -0.11627725360822418 -0.99375799209187332 -0.20607653659302574 -2.8678886597569102 -0.28305036354839175 -1.5670134830210118 -0.78323861141029294 -1.8112235856840497 -0.74086380276355313 -0.41310376971399426 -2.7279106737835646 0.38811406531514975
leaf_weight=99895.005535244942 973.76227903366089 58976.874219298363 36732.826997756958 33.448858082294464 4973.8286399245262 4612.5252273082733 38.648199796676636 15031.499969363213 1639.7816787362099 300.39303362369537 925.81183087825775 15.63526666164398 47583.177217721939 501.32572305202484 680.72983455657959 125.69779121875763 1724.0431847572327 390.3302406668663 545.1950010061264 1045.5955967307091 386.46552550792694 291.29534327983856 140.03354424238205 143.28794515132904 5506.8391044735909 785.44283318519592 2108.8246542215347 1161.8128689527512 618.98775416612625 356.11545991897583 1830.9524005055428 27.29500937461853 263.21460539102554 258.16766804456711 158.53624212741852 421.735082924366 12.703834772109984 457.1272908449173 462.66800963878632 2025.9117302894592 575.66210973262787 18.801637887954712 37.882757306098938 245.00165730714798 155.03834295272827 17.150697410106659 89.288664281368256 33.199600756168365
leaf_count=106734 670 70815 22209 20 3843 1968 47 14115 1574 342 283 10 55657 339 356 144 251 145 321 942 179 39 139 53 6349 464 1755 841 480 264 1263 11 96 110 22 147 8 305 449 576 400 3 34 129 114 21 17 15
internal_value=4.20079e-05 0.000898106 -0.000448279 -0.0141976 -0.00290422 -0.00214819 0.00090035 -0.0015042 -0.010849 0.00111218 -0.00707991 -0.0229673 0.00132203 -0.00835835 -0.00916014 -0.0143219 -0.00520715 -0.0155681 -0.0248826 -0.0119468 -0.00773166 -0.0220094 -0.0262556 -0.0091524 -0.0027351 -0.0143625 -0.0179922 -0.00636005 -0.00947154 -0.0167162 -0.00489796 -0.0146101 -0.0179573 -0.0159484 -0.012182 -0.0201083 -0.0116347 -0.0128878 -0.00724739 -0.027584 -0.00916847 -0.0192206 -0.00997326 -0.0216115 -0.00568707 -0.0137932 -0.0275388 0.00122978
internal_weight=295336 278589 178694 16746.9 63346.6 56520.1 115347 51764.3 12122.2 112367 2979.8 4624.64 106560 7064.21 6826.47 5058.03 2649.86 4297.47 3759.18 2522.02 5360.29 329.944 3132.88 4755.81 5807.23 1466.17 2499.15 4542.19 1664.58 857.441 2992.77 865.461 626.306 521.382 1798.32 561.769 530.326 484.422 760.555 2571.11 1549.42 335.135 71.3316 263.803 617.706 142.848 104.924 45.9034
internal_count=295068 283704 176970 11364 43187 38345 133783 36324 9423 133163 620 1941 126472 5199 4842 4224 534 3496 1416 2025 4022 86 1183 2021 6691 820 1900 3174 1422 603 2104 525 233 206 1596 286 339 316 728 897 1070 186 54 132 563 165 27 23
is_linear=0
shrinkage=0.0330689


Tree=2
num_leaves=46
num_cat=0
split_feature=1 15 22 2 2 3 1 24 0 2 4 12 1 34 4 2 33 35 22 28 33 3 11 34 1 9 22 28 15 1 34 29 12 3 11 2 19 34 9 25 7 2 30 31 15
split_gain=3099.75 804.867 502.585 447.355 301.78 134.662 121.18 93.2826 76.0993 53.6956 43.3418 40.6537 37.528 28.3688 21.7977 20.9485 20.4365 19.3455 18.9979 18.7724 18.5941 17.1408 14.0989 13.3043 13.0982 11.9025 11.7325 9.96171 9.82666 9.72381 8.35582 8.22097 6.09782 5.85371 7.77458 5.68746 5.60581 5.88325 5.17681 5.75678 5.03448 4.9768 3.17136 3.15583 2.86699
threshold=9.4791135787963885 -3.498293280601501 0.21600311249494555 21.965879440307621 11.542535781860353 29.463113784790043 23.2382345199585 -0.00039526012551505113 0.03024999983608723 21.965879440307621 11.981972694396974 0.76651698350906383 4.1540527343750009 -0.21519058942794797 8.4217143058776873 6.0246665477752694 1.5225663781166079 53.821811676025398 1.0516322255134585 30.500000000000004 0.68388766050338756 6.0607674121856698 1.4010179042816164 -0.38016845285892481 14.759599208831789 0.17438976466655734 0.15304718911647799 45.500000000000007 -0.1502418369054794 11.384126186370851 0.31960773468017584 208.50000000000003 0.71558824181556713 -29.697243690490719 1.0000000180025095e-35 5.512413978576661 33.628753662109382 -0.70221617817878712 0.057256154716014869 0.0019344707834534349 0.01496762363240123 7.9550316333770761 36.486724853515632 264.49166870117193 -1.3384574651718137
decision_type=2 2 2 2 2 2 2 2 2 2 2 2 2 2 2 2 2 2 2 2 2 2 2 2 2 2 2 2 2 2 2 2 2 2 2 2 2 2 2 2 2 2 2 2 2
left_child=1 -1 12 8 5 7 23 -4 21 19 15 16 26 24 22 25 40 -11 -7 -6 -16 32 -13 33 -12 -10 35 -18 31 -15 -17 -25 -2 -5 -35 -3 37 -14 39 -23 -8 -28 -30 -34 -38
right_child=3 2 4 6 9 18 11 -9 10 17 13 14 36 29 20 30 27 -19 -20 -21 -22 38 -24 28 -26 -27 41 -29 42 -31 -32 -33 43 34 -36 -37 44 -39 -40 -41 -42 -43 -44 -45 -46
leaf_value=0.24154626939545881 -0.26839897007594959 0.093999966018971537 -0.0034067897276954229 -1.6318236909112953 -0.41470237452318437 -0.34382286681899527 -1.2310874188454339 -0.13189246876096758 -0.3460249083454191 -0.62701198661639224 -0.33687589551137254 -0.98474814805034672 -0.048903762160945836 -0.13990241551851129 -2.2973799766202081 -0.29583856082616056 -2.667706431757888 -1.9043496813023926 -0.68739877782994807 -0.1800770713502553 -1.5515238986529423 -0.26839897007594959 -2.6084728331651528 -0.83625168170184894 -0.79432252819032545 -0.12484413617075199 0.059626869859998953 -1.914368509619679 -0.57101768418900356 -0.41329184132025165 -0.24039602816556144 -0.4346093709776645 -0.36521409702061941 -0.40936283479018148 -0.95276212887670919 0.025436995868197459 -0.17108069712086524 0.0013519778028229582 -0.31320773494940141 0.57808556051992821 -2.7957012839466624 -0.026089734205860225 -0.067998217680447018 -0.01348524725727894 -0.043301540444465263
leaf_weight=99895.005535244942 23.411665916442871 40129.753638029099 44134.431070506573 47.401363134384155 1645.4336884021759 1092.3804407715797 244.12156981229782 46452.376479327679 2588.5423359274864 2526.9461134076118 817.13827550411224 350.08345007896423 1623.1334686875343 460.09924167394638 1393.0738061666489 1581.5084189772606 69.34608006477356 551.50305706262589 1064.4667767286301 4128.8442887067795 591.97708171606064 596.15943688154221 210.46215736865997 745.18601828813553 829.65469211339951 874.77043318748474 26301.025707066059 123.74009937047958 111.34735780954361 1430.7472683787346 784.75791382789612 166.12234628200531 222.66710138320923 151.82865941524506 521.87692588567734 2187.1637529730797 157.31479126214981 5308.0147321820259 86.788661956787109 11.706628799438475 1538.6608092188835 1277.8384395241737 109.90451812744141 63.799740970134735 113.06266194581985
leaf_count=106734 3 47636 37663 13 1334 1044 129 39346 1934 1832 744 154 1723 429 858 1325 19 277 525 3669 399 545 68 548 604 323 31434 53 109 1167 719 165 164 72 424 2567 174 6128 9 3 272 1481 82 30 137
internal_value=9.86854e-05 0.000929395 -0.000399499 -0.0137186 -0.00192731 -0.00137021 -0.0206145 -0.00117551 -0.0094768 -0.00776086 -0.00854412 -0.0235401 0.00161358 -0.0114393 -0.020728 -0.00678269 -0.0271423 -0.0112942 -0.00953563 -0.00587265 -0.0223775 -0.0181403 -0.0148279 -0.0134608 -0.0146295 -0.00513067 0.00184783 -0.0165639 -0.0111622 -0.00864593 -0.00919045 -0.0126913 -0.0114927 -0.0170275 -0.0161328 0.00219431 -0.000657601 -0.000472361 -0.0210612 -0.019821 -0.0282688 0.00131553 -0.00476106 -0.0100048 -0.00532606
internal_weight=295336 278589 178694 16746.9 101596 92743.7 6375.13 90586.8 10371.8 8852.73 9367.22 4521.47 77097.3 3537.64 2545.6 5829.58 1975.87 3078.45 2156.85 5774.28 1985.05 1004.53 560.546 1853.67 1646.79 3463.31 69895.8 193.086 1132.56 1890.85 2366.27 911.308 309.879 721.107 673.706 42316.9 7201.53 6931.15 694.655 607.866 1782.78 27578.9 221.252 286.467 270.377
internal_count=295068 283704 176970 11364 85690 78578 3365 77009 7999 7112 7245 1952 91280 2944 1479 4301 473 2109 1569 5003 1257 754 222 1413 1348 2257 83118 72 904 1596 2044 713 197 509 496 50203 8162 7851 557 548 401 32915 191 194 311
is_linear=0
shrinkage=0.0330689


Tree=3
num_leaves=49
num_cat=0
split_feature=2 15 17 17 38 5 17 10 21 28 2 3 17 17 19 33 34 3 0 28 34 17 9 34 34 3 12 11 34 38 34 8 3 20 28 0 31 7 34 0 19 34 31 9 0 11 20 9
split_gain=2848.18 748.689 609.165 334.206 320.959 195.53 91.0804 70.8366 64.0785 60.2447 55.8413 47.3272 44.3984 43.8688 40.1901 40.155 33.3899 28.8076 21.8841 21.0722 20.4828 16.1504 15.9164 13.7527 13.5162 13.4923 13.3961 16.4646 11.8044 11.5319 11.3151 10.2558 9.30084 9.28585 9.13145 7.7225 6.43692 5.86622 5.74397 5.55754 5.42485 5.28936 5.07892 4.3482 3.52029 3.40138 2.4637 0.659718
threshold=11.542535781860353 -3.498293280601501 0.20894917100667956 0.07778534293174745 1.0000000180025095e-35 32.078548431396491 0.090563602745533003 0.0094839665107429045 1.2083246707916262 30.500000000000004 21.965879440307621 45.185478210449226 1.0000000180025095e-35 0.13766930997371676 33.628753662109382 0.8651798963546754 1.5094250440597536 6.0607674121856698 0.034250000491738326 30.500000000000004 -0.51976409554481495 -0.20461174845695493 0.17438976466655734 0.96622970700263988 -0.15104751288890836 6.5951936244964608 0.81001481413841259 0.69572269916534435 -0.079453326761722551 1.0000000180025095e-35 -0.38016845285892481 0.27225352823734289 8.5054507255554217 13.685273170471193 343.50000000000006 0.034250000491738326 75.153949737548842 0.017615435644984249 -0.57757505774497975 3.1772500276565556 25.409186363220218 0.37497001886367803 14.672316551208498 0.003491711569949985 0.18625000119209292 -0.30817307531833643 -498.60307312011713 0.0057657829020172366
decision_type=2 2 2 2 2 2 2 2 2 2 2 2 2 2 2 2 2 2 2 2 2 2 2 2 2 2 2 2 2 2 2 2 2 2 2 2 2 2 2 2 2 2 2 2 2 2 2 2
left_child=1 -1 6 4 5 9 10 14 20 -3 19 -7 -9 24 -6 37 18 22 34 32 25 33 -15 -19 40 38 31 -28 -21 -23 -20 -22 -2 -12 -8 47 -26 41 -4 -37 -5 -10 46 -44 -39 -27 -18 -17
right_child=2 3 8 13 7 11 16 12 15 -11 21 -13 -14 17 -16 35 42 23 30 28 26 29 -24 -25 36 45 27 -29 -30 -31 -32 -33 -34 -35 -36 39 -38 44 -40 -41 -42 -43 43 -45 -46 -47 -48 -49
leaf_value=0.23355860989257279 -0.26690254581644229 -0.037929302747530709 -1.8015049477223908 -0.19511925001967489 0.0025289827467940987 -0.1613565269609048 -0.26137146418631146 -0.93390382123049209 -1.1876677942021427 0.045138396364433057 -3.7023853052515121 -0.53291024197016423 -0.27235503639341391 -0.58276877697242158 -1.4378482486005553 -0.63757479377778759 -0.34133859382418952 -0.75662863416504855 -0.59736534586159973 -0.18744676911261979 -2.0208388854279744 -0.49653487631862153 -0.2772042216488837 -0.26161579118725736 -0.15261776918172171 -0.091260489864247216 -0.68520595887040325 -1.4083925823992378 -0.097829180508012134 -1.7520017839668329 -0.50907108455840788 -0.57997247296977261 -0.41140169014487254 -1.4317079476808059 -0.2295390895157742 -2.0407049789880749 -0.065859204357995915 -2.7429169380770935 -1.2618840262010207 0.14046667945492716 -0.28829176198438344 -0.69660052594721156 -0.26496257409085239 -0.19131219834181831 -2.4029717744808066 -1.548872492482714 -1.1402326172250647 -2.4078248874369184
leaf_weight=99895.005535244942 863.89267009496689 22943.871415555477 176.00900089740753 2884.342042028904 2559.0936532616615 9783.9702087640762 450.53654831647873 6174.7463914752007 250.24333226680756 122244.53000628948 233.94319295883179 784.83871620893478 1996.263573884964 1286.7540286183357 122.7816082239151 49.343408107757568 13.302992224693297 1019.6539024710655 1605.1545324921608 2653.5172062516212 318.51729840040207 2345.8079301118851 458.22844433784485 188.04902356863022 1643.5619428753853 9.3639949560165388 353.49046325683594 760.32022738456726 2208.6074685454369 389.91725015640259 2047.2367160916328 111.5248281955719 909.25559437274933 120.43035101890564 61.957922041416168 399.42473113536835 1513.3349176645279 1453.9951202869415 20.169668316841125 17.570992588996887 428.51175993680954 58.534999787807465 60.118958652019501 477.28614050149918 400.92905825376511 476.57325482368469 50.866650581359863 60.199026584625244
leaf_count=106734 701 21929 62 2442 1138 8153 372 2123 229 131925 63 473 986 782 33 54 7 713 1271 2407 101 1885 142 146 1384 7 171 456 2125 132 1651 18 782 42 52 237 1351 287 7 10 312 54 76 480 300 214 35 14
internal_value=0.000158713 0.00102005 -0.0120857 -0.000277483 6.5094e-05 0.000448332 -0.00867045 -0.00543303 -0.0221459 0.000764554 -0.00683007 -0.00389385 -0.0069637 -0.00633614 -0.000762417 -0.0256014 -0.0124198 -0.00968176 -0.0134743 -0.00511387 -0.0179525 -0.010507 -0.00693831 -0.013623 -0.00480544 -0.0228017 -0.0157859 -0.0138011 -0.00398043 -0.00962598 -0.0125569 -0.0208442 -0.00820855 -0.0172159 -0.0199426 -0.0172661 -0.00324453 -0.0276133 -0.0151382 -0.0150437 -0.00628645 -0.0228622 -0.00508181 -0.00397243 -0.0283825 -0.0258241 -0.0139154 -0.0253643
internal_weight=295336 275928 19408 176033 166610 155757 14491.8 10852.9 4916.21 145188 9725.37 10568.8 8171.01 9422.44 2681.88 2690.24 4766.46 2952.69 4164.89 6635.27 2225.97 3090.1 1744.98 1207.7 6469.75 682.116 1543.85 1113.81 4862.12 2735.73 3652.39 430.042 1773.15 354.374 512.494 526.538 3156.9 2163.7 196.179 416.996 3312.85 308.778 601.575 537.405 1854.92 485.937 64.1696 109.542
internal_count=295068 280766 14302 174032 166760 162480 12081 4280 2221 153854 8137 8626 3109 7272 1171 1185 3944 1783 3346 6015 1036 2122 924 859 5489 290 746 627 4532 2017 2922 119 1483 105 424 315 2735 870 69 247 2754 283 598 556 587 221 42 68
is_linear=0
shrinkage=0.0330689


Tree=4
num_leaves=47
num_cat=0
split_feature=1 15 2 22 38 3 37 3 22 6 31 1 1 3 22 34 22 12 22 1 33 4 3 2 14 15 31 34 34 3 9 24 0 8 11 22 4 0 32 34 34 20 7 0 33 9
split_gain=2643.04 768.416 483.889 446.336 223.276 203.774 142.942 83.0218 75.281 73.0774 69.1471 64.0115 60.7425 46.6531 44.151 30.0894 28.4204 27.8775 27.19 27.1512 24.8538 24.7279 24.2038 23.8078 15.9058 15.8262 15.5377 13.5108 11.9813 11.7612 11.1722 11.0919 10.6183 9.16357 9.03492 8.96375 8.92707 7.88519 8.35973 7.61614 7.36045 7.29621 7.17541 6.18605 5.43944 1.8002
threshold=9.4791135787963885 -3.498293280601501 34.055976867675788 0.33486993610858923 1.0000000180025095e-35 16.162512779235843 1.0000000180025095e-35 11.29057550430298 2.5542645454406743 47.541807174682624 21.858333587646488 5.0233771800994882 14.759599208831789 45.185478210449226 0.18237386643886569 1.1997777223587038 0.21600311249494555 0.73783251643180858 0.18751537799835208 23.2382345199585 0.68388766050338756 15.807462692260744 45.185478210449226 11.542535781860353 56.945711135864265 -1.1671591401100156 38.587963104248054 1.5094250440597536 -0.38016845285892481 -13.634693145751951 0.12949556112289431 0.003491760697215796 0.034250000491738326 0.0012849504710175099 0.80255013704299938 0.61395353078842174 40.015949249267585 0.32325001060962683 -0.18685941398143766 -0.18436331301927564 -0.66976776719093312 -3.6182698011398311 0.016235616058111194 0.034250000491738326 1.5225663781166079 0.0053931095171719798
decision_type=2 2 2 2 2 2 2 2 2 2 2 2 2 2 2 2 2 2 2 2 2 2 2 2 2 2 2 2 2 2 2 2 2 2 2 2 2 2 2 2 2 2 2 2 2 2
left_child=1 -1 7 6 5 9 11 23 19 -5 16 14 27 -7 -3 17 -8 -14 -12 28 21 -21 25 26 37 -6 31 33 35 36 -28 -2 -22 -9 -30 -4 -25 38 -10 -13 -24 -31 -26 -17 -44 -29
right_child=2 3 8 4 22 13 10 12 24 -11 18 39 15 -15 -16 43 -18 -19 -20 20 32 -23 40 29 42 -27 30 45 34 41 -32 -33 -34 -35 -36 -37 -38 -39 -40 -41 -42 -43 44 -45 -46 -47
leaf_value=0.22583509317480915 -0.34147411553018103 0.080141298505033515 -0.57317086980749388 -0.033355122612963112 -0.45125834476357746 -0.2555539652469549 0.051907512117098681 -0.092890425944960303 -2.6850862676424039 -0.21735404232765856 -0.026401725011045422 -0.083592031993555291 -0.97294086406632008 -0.78020779559808129 0.025254554286827078 -0.35384405769579785 -2.6874232698672538 -0.52491899550627408 -1.2234381235740583 -1.4734425165860436 -1.9349462488222398 -1.6577266885106572 -0.30708048341011518 -0.72588930637317273 -0.53017355170927793 -0.78338357347578447 -0.2145821148617999 -0.22488488063712953 -0.37564284978778423 -0.23752199475735 -0.076244518325999086 -0.55959642034035262 -2.7076146838807498 -0.26935234568308181 -0.91070257581772263 -1.7788319746921275 -2.2655170171018435 -1.7838761939381071 -2.6816436730174065 -0.024195469758595305 -2.0405316079914164 -0.39048089879159864 -2.6430055096507852 -0.30905870737606511 -2.693496121773951 -0.021063118118105465
leaf_weight=99895.005535244942 1531.4062115550041 57113.538073122501 76.451241195201874 45649.474877297878 2707.0494599342346 6374.9726883769035 41.730560660362244 59.478249251842499 119.28941142559052 6209.0321228504181 945.36247622966766 3626.4532229304314 436.98297941684723 2047.1091692447662 44733.747683405876 73.288709998130798 220.95876240730286 2124.9704942703247 1770.1827077865601 293.73737001419067 118.98948109149933 1158.3763185143471 16.990974903106689 239.62779104709625 37.733205556869507 2606.8215625286102 2306.5406470894814 64.965537309646606 123.47344881296158 655.36032235622406 1035.6867901682854 308.61615079641342 491.45710504055023 1860.6004506349564 342.14323794841766 221.59804135560989 35.026553630828857 31.682025671005249 143.6181788444519 4478.5538792610168 151.71088564395905 745.85644221305847 1368.4481654167175 395.35300248861313 97.644978284835815 248.48151683807373
leaf_count=106734 1147 68692 72 32123 1063 5585 33 64 17 4680 299 4070 158 1317 52431 74 30 1777 256 111 74 710 9 121 5 1180 1942 80 50 519 397 247 308 1738 276 108 11 6 19 5153 49 576 162 350 23 222
internal_value=0.000216776 0.000983854 -0.0125421 -0.000314596 -0.0024804 -0.00189887 0.000946489 -0.0090665 -0.0216449 -0.00112359 -0.00619997 0.00114027 -0.0121943 -0.00666991 0.00136545 -0.0152506 -0.0223858 -0.0166659 -0.00462048 -0.0182473 -0.0202382 -0.0226202 -0.00886983 -0.00666185 -0.0269619 -0.00846991 -0.0055448 -0.00803489 -0.0128291 -0.0101009 -0.00418867 -0.00799548 -0.0145171 -0.00907554 -0.00940563 -0.0180726 -0.0164342 -0.0196058 -0.0214914 -0.00168709 -0.0212452 -0.00883681 -0.0283779 -0.00745952 -0.0287582 -0.00159902
internal_weight=295336 278589 16746.9 178694 65763.2 60280.6 112931 12122.2 4624.64 51858.5 2978.23 109952 5264.12 8422.08 101847 3030.6 262.689 2561.95 2715.55 2826.23 2062.56 1452.11 5482.57 6858.12 1798.42 5313.87 5182.25 2233.53 763.666 1675.87 3342.23 1840.02 610.447 1920.08 465.617 298.049 274.654 294.59 262.908 8105.01 168.702 1401.22 1503.83 468.642 1466.09 313.447
internal_count=295068 283704 11364 176970 46006 43705 130964 9423 1941 36803 618 130346 4463 6902 121123 2359 63 1935 555 1709 1203 821 2301 4960 232 2243 3733 2104 506 1227 2339 1394 382 1802 326 180 132 42 36 9223 58 1095 190 424 185 302
is_linear=0
shrinkage=0.0330689


Tree=5
num_leaves=58
num_cat=0
split_feature=2 0 1 22 38 11 14 1 1 3 22 38 1 22 1 22 4 0 26 34 23 34 0 0 23 3 34 21 3 9 7 28 0 19 34 0 34 26 9 22 2 3 0 23 3 29 5 19 7 38 4 36 13 29 7 5 5
split_gain=2540.65 663.911 567.23 360.485 161.707 173.312 92.1675 82.985 74.5336 62.4568 60.5091 79.0168 54.9415 53.8574 49.4151 38.6054 26.6522 26.2642 25.6885 22.6903 21.3419 21.0412 19.6255 18.6806 21.9508 18.415 17.7148 15.0167 14.2464 13.421 12.9006 13.3631 12.7764 11.1523 10.4576 10.375 8.90543 8.88984 7.36528 7.362 7.31132 6.74678 5.71686 5.44407 5.36188 4.43318 3.91765 3.83375 3.64383 3.48937 2.93931 2.52244 6.37584 0.894466 0.344202 0.249076 0.122881
threshold=11.542535781860353 0.03024999983608723 23.2382345199585 0.34831854701042181 1.0000000180025095e-35 0.089563962072134032 56.945711135864265 5.0233771800994882 11.384126186370851 45.185478210449226 0.20997694134712222 1.0000000180025095e-35 8.0890612602233904 0.56537055969238292 11.384126186370851 2.5542645454406743 13.102928638458254 0.03024999983608723 -0.0010448449756950138 1.0767267346382143 75.11261367797853 0.43232773244380956 0.048250000923872001 0.37025000154972082 13.643257617950441 45.185478210449226 1.5094250440597536 0.86915129423141491 -29.697243690490719 0.12949556112289431 0.016235616058111194 850.50000000000011 0.039250001311302192 47.141702651977546 -0.81331527233123768 0.052749998867511756 -0.35341800749301905 -0.09379506483674048 0.10055712237954141 0.16247605532407763 10.001285552978517 14.132607936859133 0.074250001460313811 68.423618316650405 -8.5699882507324201 45.500000000000007 -13.633811950683592 -115.40492630004881 0.093938302248716368 1.0000000180025095e-35 17.424992561340336 8.4959387779235858 -1.2250049114227293 9.5000000000000018 0.093938302248716368 -3.1576639413833614 9.5963106155395526
decision_type=2 2 2 2 2 2 2 2 2 2 2 2 2 2 2 2 2 2 2 2 2 2 2 2 2 2 2 2 2 2 2 2 2 2 2 2 2 2 2 2 2 2 2 2 2 2 2 2 2 2 2 2 2 2 2 2 2
left_child=1 14 8 7 5 12 16 10 13 -7 39 -12 -5 22 51 26 20 45 34 28 38 37 43 29 -25 -20 27 -8 -19 -6 -17 -32 -23 -24 -15 40 -37 -18 -4 -3 -9 48 -28 -2 -21 47 -43 -10 50 -47 -16 56 -53 -48 -22 -54 -1
right_child=2 3 6 4 23 9 15 35 17 -11 11 -13 -14 18 41 30 21 19 25 44 54 32 33 24 -26 -27 42 -29 -30 -31 31 -33 -34 -35 -36 36 -38 -39 -40 -41 -42 46 -44 -45 -46 49 53 -49 -50 -51 -52 52 55 -55 -56 -57 -58
leaf_value=0.21836698434167462 -0.28417148932316005 0.079353290334881893 -0.84059613750863427 -0.010712800346312969 -0.53214029868028911 -0.19257094649057499 -0.80159788861606107 -0.11821039758926823 -0.22944658958937142 -0.73671608063805538 0.026075766777005432 -1.1442560164305082 -0.24336541812656923 -0.18015778267996255 -0.083206945975147467 -0.11482149403345375 -1.0354001214342066 -0.81733789030935455 -0.59545979970225893 -0.67541194992485132 -1.3128060305490084 -0.6025655208713504 -0.11207647779021628 -0.71377081598092884 -0.79990997821812293 -1.3255104557205899 -1.480182014394005 -1.7164419094929566 -0.50682953577508372 -0.24510938937695587 -2.5546494704742861 -2.4569664641718529 -0.46099669263711623 -0.24127938803593699 -0.1828865530010797 -0.073641924545547049 -0.021094702126141413 -0.71298984155574663 -0.69905159222177649 0.054240471348742991 -0.26197645585166496 0.18802593111800861 -1.0233673796288876 -0.46807349319907826 -0.24252853908437902 -0.16739275512961321 -0.97294485307443701 -0.22009648523315575 -1.0234823712279331 0.13139681219542704 -0.89451338264488844 -0.0085445798188323648 -0.0024740073061472532 -0.5251872588349068 -2.5088986778136921 0.0022369030462308435 0.00083142757293263724
leaf_weight=97333.2223072052 693.03840744495392 48341.951384603977 436.78660446405411 38674.334434688091 2055.6346980929375 14413.596500456333 105.52571874856949 1133.9124569296837 36.042732298374176 1077.5555782318115 33671.431628584862 3013.1202843785286 2514.1944372653961 223.85615837574005 182.60979527235031 23.88094699382782 21.392995357513428 89.48076319694519 2801.2754980325699 31.301459193229675 31.393091201782227 137.08015286922455 4087.0260061621666 1429.0337179303169 1257.2781481742859 1147.4144760370255 125.41777968406677 781.48958319425583 2544.444591999054 991.22098690271378 1486.1028977632523 39.30316686630249 292.17719316482544 688.24776268005371 991.22734475135803 3101.9009326100349 4995.9416788220406 1034.8168702721596 188.55543237924576 21302.920721232891 76.177156567573547 9.1979435682296735 160.4522585272789 92.932970702648163 600.43852955102921 93.859160840511322 29.60059654712677 206.63008248806 9.9926805496215803 13.332433462142943 32.557690262794495 15.96467077732086 23.934385299682617 53.109459161758423 55.987509369850159 118.5528838634491 38.621688961982727
leaf_count=105727 716 57497 256 23182 835 13982 52 1231 24 673 39599 717 1444 85 115 4 3 29 1609 15 8 98 4533 357 728 725 69 427 2106 306 172 12 244 759 366 3301 5715 706 64 25287 75 5 120 97 559 103 19 157 2 6 18 8 14 38 8 81 47
internal_value=0.000257547 0.00106826 -0.0113539 -0.000134207 -0.00215963 -0.00162385 -0.0210434 0.000958841 -0.00802689 -0.00460557 0.00122104 0.00013361 -0.000501923 -0.00663815 0.0032565 -0.0251252 -0.0159721 -0.0121389 -0.00907308 -0.0111987 -0.0106347 -0.018513 -0.00437305 -0.0074525 -0.00947304 -0.0103709 -0.0205083 -0.0228491 -0.012554 -0.00566311 -0.0285942 -0.0289735 -0.0121977 -0.003569 -0.004837 -0.00203447 -0.00160424 -0.02105 -0.00842897 0.00179359 -0.00489616 -0.00974481 -0.0131329 -0.00922643 -0.00551106 -0.0208103 -0.0173731 -0.0234477 -0.00649486 -0.014525 -0.0054193 0.00329904 -0.00078202 -0.0196454 -0.0259594 0.00138208 0.00330585
internal_weight=295158 275898 19260.9 178050 62412.8 56679.7 4920.36 115637 14340.5 15491.2 106329 36684.6 41188.5 10725 97847.4 2722.17 2198.19 3615.53 5163.77 3265.67 712.723 1485.47 5561.25 5733.17 2686.31 3948.69 1172.89 887.015 2633.93 3046.86 1549.29 1525.41 429.257 4775.27 1215.08 9307.93 8097.84 1056.21 625.342 69644.9 1210.09 317.068 285.87 785.971 631.74 349.864 91.908 242.673 225.16 107.192 215.167 97530.3 158.452 82.7101 87.3806 142.487 97371.8
internal_count=295135 281003 14132 174929 41507 39281 2243 133422 11889 14655 123100 40316 24626 8890 106074 856 1387 2999 2785 2709 336 1051 6105 2226 1085 2334 668 479 2135 1141 188 184 342 5292 451 10322 9016 709 320 82784 1306 197 189 813 574 290 62 181 135 109 133 105877 103 57 16 95 105774
is_linear=0
shrinkage=0.0330689


Tree=6
num_leaves=45
num_cat=0
split_feature=1 15 22 18 38 21 37 2 1 31 18 22 0 2 22 22 34 34 1 31 5 21 21 22 22 7 21 11 22 2 5 28 14 0 34 33 1 29 28 20 25 23 23 23
split_gain=2407.7 789.918 431.264 390.998 193.204 190.232 113.439 83.3436 78.815 74.6109 74.0559 69.256 42.0014 41.6236 38.8498 37.5304 30.2185 28.4157 23.0055 35.5544 19.168 18.4023 18.0295 16.3595 15.9247 15.2296 14.0658 13.527 12.2556 11.9254 10.4503 10.2616 13.1289 9.17552 8.99929 8.9216 6.86319 6.82722 6.46642 5.21939 4.98276 5.49166 4.95651 1.21011
threshold=11.384126186370851 -3.498293280601501 0.34831854701042181 0.37284190952777868 1.0000000180025095e-35 0.47986330091953283 1.0000000180025095e-35 11.542535781860353 3.7750099897384648 14.672316551208498 0.37284190952777868 2.5542645454406743 0.03024999983608723 7.9550316333770761 0.21600311249494555 0.18751537799835208 0.96622970700263988 0.080556370317935957 -18.503632545471188 676.52499389648449 13.463790416717531 1.2083246707916262 0.74693122506141674 0.13998270779848102 2.5542645454406743 0.016235616058111194 0.60837551951408397 1.4010179042816164 0.43810600042343145 8.8615331649780291 -44.392822265624993 850.50000000000011 31.312847137451175 0.039250001311302192 2.3840564489364628 -0.27187605202198023 23.2382345199585 74.500000000000014 69.500000000000014 -983.73168945312489 0.2714728862047196 48.627841949462898 45.679540634155281 78.777839660644545
decision_type=2 2 2 2 2 2 2 2 2 2 2 2 2 2 2 2 2 2 2 2 2 2 2 2 2 2 2 2 2 2 2 2 2 2 2 2 2 2 2 2 2 2 2 2
left_child=1 -1 6 7 5 13 8 20 15 23 -7 16 40 -4 -11 -3 21 27 19 -6 26 42 -20 -8 35 -13 30 -14 -28 -10 -2 32 -27 43 -19 -22 -23 -33 -26 -35 41 -9 -5 -18
right_child=3 2 4 11 18 10 9 12 29 14 -12 25 17 -15 -16 -17 33 34 22 -21 24 36 -24 -25 38 31 28 -29 -30 -31 -32 37 -34 39 -36 -37 -38 -39 -40 -41 -42 -43 -44 -45
leaf_value=0.21114583734586787 -1.8165225908154536 0.077257176997812399 -0.012940662761376258 -0.87961258352256133 -0.68003866431791327 -0.18762150328165317 0.0049536294086173242 -0.26623729132196949 -0.01996389373911945 0.0084349724648697787 -0.76516028143817838 -0.47260914611489668 -0.58511325104504741 -0.17111910238331202 -1.1883232589141972 0.0268127332826366 -1.42979271009959 -0.38207683895097511 -0.51111022792777772 -1.5623338145400762 -0.51004276191850895 -1.0808856689376023 -1.7588456734451956 -2.3594186004661202 -0.83998162482720995 -2.4259322614174734 -0.16949312444237358 -0.60386303794325424 -0.7434864089298544 -0.096086518687671568 -0.17892512244857084 0.3954669666502641 -2.4705794345765018 -2.1937208060869602 -0.1498169831287037 -0.32401784067363326 -1.6674296035222438 -2.3757173868214427 -0.22828807947693069 -0.70675069602044638 0.26836773039746692 -0.46976735903731831 -1.1092715968005009 -1.4797254307882639
leaf_weight=99797.607442677021 99.336704850196838 56776.378158926964 35517.729959785938 24.413424611091614 1150.5403467416763 18354.615821421146 20.459436297416687 97.805359661579132 11760.342393815517 1095.7468122243881 1991.1589788198471 50.093567371368408 1775.9447880983353 3474.0638272166252 1684.1759650111198 42072.972091019154 63.4938645362854 1333.4257718324661 4078.8692490458488 261.99972033500671 459.76245439052582 73.770710289478302 197.83887016773224 182.82529717683792 70.128998279571533 50.016565799713135 682.11079150438309 991.71633440256119 405.29845917224884 3204.5706060528755 2057.4551985263824 18.129025220870972 1533.5629124641418 74.925124287605286 327.38812518119812 947.91107732057571 681.62019145488739 43.09727942943573 46.102594614028931 360.97619539499283 9.6431846618652326 582.18861079216003 654.80711364746094 21.460020482540131
leaf_count=106847 57 68245 21637 10 275 17121 17 48 13708 367 1324 7 959 1717 244 49232 35 1080 1928 45 362 81 102 26 9 10 666 998 197 3677 1193 5 184 46 318 782 414 12 6 285 1 473 373 12
internal_value=0.000287829 0.000942711 -0.00035472 -0.0133345 -0.00251318 -0.00195459 0.000846869 -0.00991469 0.00101386 -0.00551681 -0.0045467 -0.0225866 -0.0128492 -0.000601537 -0.00409062 0.00135253 -0.0183013 -0.0116532 -0.00833485 -0.012013 -0.00675927 -0.0207957 -0.00711363 -0.0248235 -0.00983199 -0.0275073 -0.00530824 -0.0137158 -0.00838667 -0.00122203 -0.00374533 -0.0280603 -0.0285886 -0.0113725 -0.00819997 -0.00882844 -0.0244163 -0.0138902 -0.021666 -0.00932787 -0.0204771 -0.0208139 -0.0167147 -0.0214406
internal_weight=295158 281622 181824 13536.6 65026.8 59337.6 116797 9886.22 113814 2983.21 20345.8 3650.37 5118.11 38991.8 2779.92 98849.4 1955.47 4428.48 5689.25 1412.54 4768.11 1434.61 4276.71 203.285 1523.91 1694.9 3244.2 2767.66 1087.41 14964.9 2156.79 1644.81 1583.58 520.855 1660.81 1407.67 755.391 61.2263 116.232 435.901 689.637 679.994 679.221 84.9539
internal_count=295135 286512 179665 8623 44149 41799 135516 7149 134862 654 18445 1474 3877 23354 611 117477 1256 3355 2350 320 3272 878 2030 43 1159 218 2113 1957 863 17385 1250 211 194 378 1398 1144 495 17 15 331 522 521 383 47
is_linear=0
shrinkage=0.0330689


Tree=7
num_leaves=49
num_cat=0
split_feature=2 15 1 1 38 5 14 10 1 3 1 3 33 1 2 15 3 1 15 21 30 30 5 7 38 38 29 2 28 12 26 11 21 33 32 21 20 6 2 33 23 32 37 30 5 5 15 19
split_gain=2305.95 697.553 566.444 229.107 229.263 148.014 102.002 80.8679 64.2349 54.4072 47.0299 43.0913 42.1162 41.077 40.2612 28.2838 28.0644 26.0289 23.3562 18.8919 17.9559 16.8352 16.5222 16.3967 16.2339 15.0091 14.5575 13.82 12.391 11.943 19.4868 11.7059 10.0159 9.91638 8.7103 8.35142 7.8747 7.38778 6.66246 6.09814 5.69967 4.71701 4.66439 4.2883 4.77742 3.92514 3.8219 2.9813
threshold=11.542535781860353 -3.498293280601501 23.2382345199585 6.9770436286926278 1.0000000180025095e-35 28.433695793151859 56.945711135864265 0.0094839665107429045 11.384126186370851 -13.634693145751951 1.0000000180025095e-35 45.185478210449226 0.68388766050338756 14.759599208831789 34.055976867675788 -3.263633012771606 6.0607674121856698 -18.503632545471188 -3.0737084150314327 0.76586198806762706 165.42481994628909 41.25586128234864 10.429037570953371 0.025132742710411552 1.0000000180025095e-35 1.0000000180025095e-35 27.500000000000004 -24.041337966918942 86.500000000000014 0.73783251643180858 -0.09379506483674048 1.4010179042816164 0.72924181818962108 -0.14307051151990888 0.81140482425689708 0.65964558720588695 279.70249938964849 -9.3853173255920392 34.055976867675788 -1.0000000180025095e-35 54.001356124877937 0.26342661678791052 1.0000000180025095e-35 165.42481994628909 17.430043220520023 -5.5889925956726065 1.0000000180025095e-35 73.982013702392592
decision_type=2 2 2 2 2 2 2 2 2 2 2 2 2 2 2 2 2 2 2 2 2 2 2 2 2 2 2 2 2 2 2 2 2 2 2 2 2 2 2 2 2 2 2 2 2 2 2 2
left_child=1 -1 8 4 5 9 19 20 14 -3 -9 -7 23 22 18 43 35 31 37 29 -6 34 36 41 33 -20 -24 -18 47 30 -4 -16 -19 -17 -21 -15 -5 -2 -25 -31 -23 -8 -30 45 -45 -10 -26 -14
right_child=2 3 6 13 7 11 12 10 15 -11 -12 -13 28 16 17 24 27 32 25 21 -22 40 26 38 46 -27 -28 -29 42 39 -32 -33 -34 -35 -36 -37 -38 -39 -40 -41 -42 -43 -44 44 -46 -47 -48 -49
leaf_value=0.20416348544123417 -0.23420889735571701 -0.069216288984123076 0.076126599305512133 -0.074525798450927369 0.033169356179113159 -0.12598518419699972 -1.2728732569540169 -0.80748368106564583 -0.20663357945605013 0.041740705397729665 -0.21972238610403286 -0.45314262907645975 -2.2232159227797892 -0.33030395593710493 -2.6416629687858797 -0.47653201537477075 -1.5709803028910752 -0.6502133114803953 -0.17179848945486456 -0.97658216835078215 -0.19383342794456815 -2.374344137697332 -0.24000558591200002 -1.5967965386927772 -1.6055107009829548 -0.8522257131032116 -0.14532822958256819 -0.47706891530437434 -1.0771605681002383 -0.82438205419796651 -0.71328308585367728 -2.3003368107163236 -1.1319865351680389 -0.33055477706938918 -0.53957124096440989 -0.79234643641008717 -0.4838846272885714 -0.35371081669303117 -2.3807156074548503 -0.57041182831741122 -0.71478387082195471 -1.017569645414137 -2.3158406437524595 -0.13024919618941841 -0.34563247031159122 -0.20663357945605013 -1.2603665235077706 -2.4135939246820981
leaf_weight=99797.607442677021 224.67893636226654 12167.878085851669 40.284335851669312 5760.0531175732613 2385.4284174442291 11464.588316977024 285.06957930326462 6185.3530972599983 42.510853171348572 129165.95377802849 1729.9326325654984 745.6552757024765 204.03043460845947 1401.027537882328 197.53295397758484 1039.8359990119934 131.52402037382126 493.25747209787369 7453.9171019792557 795.28757309913635 262.97199648618698 48.436406791210175 895.45847415924072 25.687277853488922 205.07532155513763 537.43172585964203 2202.4309350848198 1054.9707029461861 222.79792469739914 258.06149458885193 178.38691890239716 96.405617356300354 825.78315728902817 1852.9088663458824 138.50857990980148 396.83440089225769 149.90061503648758 896.01165926456451 1722.2054775357246 309.66307693719864 429.5614629983902 75.810418903827667 36.124064445495605 63.975269317626953 30.004443466663361 329.54882729053497 51.670172870159149 150.44717442989349
leaf_count=106847 175 10739 5 4965 1050 9892 142 2103 34 139295 906 459 76 711 35 886 30 198 6878 588 101 51 689 13 86 253 2067 823 133 117 24 34 600 1619 119 218 108 717 364 170 313 46 15 48 15 292 19 67
internal_value=0.000325548 0.00109791 -0.0107365 -0.000153745 0.000168606 0.000492914 -0.0204192 -0.00454328 -0.00741201 0.000794794 -0.00621686 -0.00299979 -0.0247105 -0.00456599 -0.00612256 -0.0112297 -0.00793244 -0.0109475 -0.00526553 -0.0150886 0.00045279 -0.0174018 -0.00344808 -0.0269483 -0.0100872 -0.00463353 -0.00540844 -0.0118906 -0.0169588 -0.0108982 -0.0175311 -0.0198869 -0.00892938 -0.00936178 -0.0200217 -0.00530587 -0.00241695 -0.0097493 -0.028312 -0.00828795 -0.0122179 -0.0202378 -0.011248 -0.0188772 -0.0119052 -0.0205574 -0.0181282 -0.0210403
internal_weight=295158 275898 19260.9 176100 164108 153544 4920.36 10563.7 14340.5 141334 7915.29 12210.2 2722.17 11992.2 10725 3615.53 2984.36 1612.98 9112.04 2198.19 2648.4 1411.79 9007.84 2108.77 3149.49 7991.35 3097.89 1186.49 613.4 786.396 218.671 293.939 1319.04 2892.74 933.796 1797.86 5909.95 1120.69 1747.89 567.725 477.998 360.88 258.922 466.039 93.9797 372.06 256.745 354.478
internal_count=295135 281003 14132 174156 164545 160385 2243 4160 11889 150034 3009 10351 856 9611 8890 2999 1782 867 8023 1387 1151 1071 7829 565 2610 7131 2756 853 291 316 29 69 798 2505 707 929 5073 892 377 287 364 188 148 389 63 326 105 143
is_linear=0
shrinkage=0.0330689


Tree=8
num_leaves=48
num_cat=0
split_feature=2 15 1 22 38 3 14 37 1 21 1 1 22 22 22 15 22 33 15 1 21 1 28 15 28 26 30 8 7 28 21 19 38 25 2 4 33 8 19 25 10 33 4 30 28 21 19
split_gain=2178.69 689.364 545.401 326.545 125.132 131.681 108.517 94.8622 68.9227 66.1021 65.9418 58.3069 54.6703 39.1684 36.8646 31.4398 30.2705 26.3235 23.8813 23.2421 21.8386 19.9875 22.1891 17.2933 16.9696 16.5791 14.1627 13.3171 12.7211 13.122 12.2542 12.2114 11.9721 11.9531 11.4233 10.5044 9.4152 9.14611 8.05108 7.5774 6.20841 6.15388 6.14225 6.42973 4.6526 4.30226 2.54878
threshold=11.542535781860353 -3.498293280601501 23.2382345199585 0.34831854701042181 1.0000000180025095e-35 16.162512779235843 56.945711135864265 1.0000000180025095e-35 4.5539472103118905 0.46506662666797643 6.9770436286926278 11.384126186370851 2.5542645454406743 0.67172405123710643 1.0516322255134585 -3.263633012771606 0.18237386643886569 0.3716017901897431 -1.3384574651718137 -18.503632545471188 0.76586198806762706 -18.503632545471188 252.50000000000003 -3.0737084150314327 6.5000000000000009 -0.0028884741477668281 41.25586128234864 0.89794218540191661 0.016235616058111194 850.50000000000011 0.76586198806762706 73.982013702392592 1.0000000180025095e-35 0.0019344707834534349 34.055976867675788 13.102928638458254 -0.14307051151990888 0.89794218540191661 33.628753662109382 0.0029276142595335846 0.3931527733802796 -1.0000000180025095e-35 11.981972694396974 64.233142852783217 30.500000000000004 0.59141781926155101 -115.40492630004881
decision_type=2 2 2 2 2 2 2 2 2 2 2 2 2 2 2 2 2 2 2 2 2 2 2 2 2 2 2 2 2 2 2 2 2 2 2 2 2 2 2 2 2 2 2 2 2 2 2
left_child=1 -1 11 7 5 10 20 8 16 18 -5 13 17 23 -7 42 -3 30 -9 34 35 22 -6 45 -23 -21 39 -11 -14 -30 -8 -25 36 -19 -15 41 -17 -37 -10 -22 -34 -4 43 -13 -28 -2 -44
right_child=2 3 6 4 21 14 12 9 38 27 -12 15 28 19 -16 32 -18 33 -20 25 26 24 -24 31 -26 -27 44 -29 29 -31 -32 -33 40 -35 -36 37 -38 -39 -40 -41 -42 -43 46 -45 -46 -47 -48
leaf_value=0.19741203194659504 -0.14549877133166209 0.073322052814280156 -0.79878687249306535 -0.030762739349998913 -0.63139227026547584 -0.22720261804374506 -1.057743667009666 -1.0521354659519777 -0.038211253200815316 0.012282420638932822 -0.21325139129556284 -0.19668352523571464 -0.060127848679521013 -0.57247267453838846 -0.47486543568526407 -0.46077364539222326 0.029640151178380258 -1.5461001254664939 -1.724354873315874 -0.12783303747924232 -0.95556253308315553 -2.0845635633854358 -1.014474939530345 -0.12810972198720735 -0.4269244047282601 -0.6479265799091104 -0.60128056898600701 -0.45682254587055499 -2.3080156053099721 -2.2184275752186395 -1.5358743516392941 -0.31930072482497585 -1.5592958235342578 -0.87551755967463407 -2.2842956728663379 -0.61158069970726403 -0.31962370778444027 -0.15946265669035944 -0.17385013831787888 -0.55190078134372977 -1.2125933342234256 -0.42189672650443072 -0.22990643814162728 -0.12455295105682578 -1.1515164900842174 -0.32146334536594506 -0.21531281796056481
leaf_weight=99797.607442677021 191.48040878772736 56102.009473860264 206.38020884990692 44979.310412049294 907.0389050245285 4109.2286008000374 54.267108500003815 688.18271636962891 10495.900585174561 1270.338479578495 4663.5007027387619 99.46258533000946 23.88094699382782 245.8503355383873 1906.0612545609474 1039.8359990119934 44796.57106500864 303.10850471258163 969.71200942993164 799.73778825998306 739.1982027888298 104.9627890586853 420.06062591075897 5248.5312754511833 4202.7766461968422 2916.3858935236931 102.05541098117828 31.281032562255859 1486.1028977632523 39.30316686630249 605.32430124282837 447.84720063209534 197.90850973129272 210.18542569875717 293.93857133388519 299.88305807113647 1852.9088663458824 63.145289540290833 453.02610594034195 194.59795022010803 58.836984694004059 216.98726981878281 44.729133069515228 44.1429722905159 375.94245880842209 581.24715065956116 277.70470255613327
leaf_count=106847 165 67466 87 30933 216 4004 28 88 12052 400 3095 72 4 89 788 886 52499 177 124 239 533 30 83 5621 1868 1637 71 4 172 12 325 462 88 138 69 96 1619 9 506 174 17 124 34 37 293 608 246
internal_value=0.000360167 0.00111091 -0.0103923 -0.00013337 -0.00208233 -0.00160646 -0.0198934 0.000907004 0.00106177 -0.00493468 -0.00104608 -0.00713014 -0.0243179 -0.00590143 -0.00622739 -0.0107678 0.00133227 -0.0188569 -0.00931232 -0.00836946 -0.0143981 -0.00677876 -0.0103433 -0.00427416 -0.00567464 -0.00742538 -0.0168785 0.000631373 -0.0284267 -0.0288033 -0.0232679 -0.00363831 -0.00956512 -0.0131224 -0.0148126 -0.00990828 -0.00893915 -0.0140716 -0.00142939 -0.0192877 -0.0164917 -0.00627462 -0.0188219 -0.0126839 -0.0121071 -0.00892935 -0.0214568
internal_weight=295158 275898 19260.9 176100 61292.9 55658.1 4920.36 114807 111848 2959.51 49642.8 14340.5 2722.17 10725 6015.29 3615.53 100899 1172.89 1657.89 4255.91 2198.19 5634.84 1327.1 6469.11 4307.74 3716.12 1411.79 1301.62 1549.29 1525.41 659.591 5696.38 3149.49 513.294 539.789 786.396 2892.74 363.028 10948.9 933.796 256.745 423.367 466.039 143.606 477.998 772.728 322.434
internal_count=295135 281003 14132 174156 41017 38820 2243 133139 132523 616 34028 11889 856 8890 4792 2999 119965 668 212 2034 1387 2197 299 6856 1898 1876 1071 404 188 184 353 6083 2610 315 158 316 2505 105 12558 707 105 211 389 109 364 773 280
is_linear=0
shrinkage=0.0330689


Tree=9
num_leaves=60
num_cat=0
split_feature=2 7 1 22 38 1 5 6 1 33 1 1 3 7 34 3 32 33 22 34 7 2 16 2 11 28 2 11 28 22 9 28 26 29 14 29 6 26 22 16 22 3 34 19 3 19 28 6 28 4 3 11 7 12 3 10 4 4 3
split_gain=2060.79 589.865 532.233 246.262 161.796 154.381 117.184 107.415 56.3065 48.1564 34.1841 30.9603 30.149 25.7597 24.2186 22.9123 20.8412 19.8543 19.3178 17.2967 17.1812 16.108 15.5432 14.3054 13.6127 12.3037 11.6825 14.4874 11.4988 10.3741 9.84381 9.4753 8.3595 8.29663 8.175 7.96476 7.01321 6.83382 6.75072 7.17178 6.6061 6.36395 6.14474 5.51926 4.9744 4.24701 3.95178 3.3175 3.01779 2.94782 2.72108 2.52621 2.40955 1.14191 1.39688 1.12783 0.861171 0.240908 0.117286
threshold=11.542535781860353 0.0011417136993259194 23.2382345199585 0.21600311249494555 1.0000000180025095e-35 8.0890612602233904 88.926731109619155 65.644931793212905 11.384126186370851 0.68388766050338756 -18.503632545471188 3.7750099897384648 16.162512779235843 0.0026106464210897688 -0.21519058942794797 29.463113784790043 1.9832742214202883 0.75999823212623607 2.5542645454406743 0.26788304746150976 0.20926556736230853 34.055976867675788 1.0000000180025095e-35 16.675724029541019 1.4010179042816164 21.500000000000004 34.055976867675788 1.4010179042816164 850.50000000000011 1.397558391094208 1.2613387107849123 126.50000000000001 0.0021500027505680923 196.50000000000003 56.945711135864265 12.500000000000002 9.3955268859863299 0.0092701893299818056 0.16247605532407763 3.5000000000000004 0.86368936300277721 -8.5699882507324201 -1.0066784620285032 -38.907890319824212 10.157131671905519 5.6470916271209726 91.500000000000014 140.10134887695315 2233.5000000000005 10.933687686920168 12.622056484222414 0.58956122398376476 1.0000000180025095e-35 0.81001481413841259 7.8128068447113046 0.0074478033930063256 22.390940666198734 9.2074346542358416 1.0000000180025095e-35
decision_type=2 2 2 2 2 2 2 2 2 2 2 2 2 2 2 2 2 2 2 2 2 2 2 2 2 2 2 2 2 2 2 2 2 2 2 2 2 2 2 2 2 2 2 2 2 2 2 2 2 2 2 2 2 2 2 2 2 2 2
left_child=1 36 8 11 5 7 15 -5 10 21 26 38 -7 33 23 24 22 31 35 29 -18 47 -6 -12 30 -16 37 -28 -20 -15 -4 -17 -19 49 -23 -11 52 -2 39 -3 -26 -21 45 -38 55 -13 -44 -8 -40 -10 -35 -46 56 57 -55 -45 58 -54 -1
right_child=2 3 6 4 16 12 9 -9 13 18 14 42 -14 19 25 17 20 32 28 41 -22 34 -24 -25 40 -27 27 -29 -30 -31 -32 -33 -34 50 -36 -37 43 -39 48 -41 -42 -43 46 44 51 -47 -48 -49 -50 -51 -52 -53 53 54 -56 -57 -58 -59 -60
leaf_value=0.19088384131500791 -0.58274546160032048 0.07599609219613937 -0.58519184830097148 0.0023963949416325814 -0.41706747583609671 -0.18530871762334897 -1.6070860957618291 -0.2259838253236752 -0.18417283022734585 -1.5483990352080499 -0.13507311192412927 -0.046906397358515095 -0.45429766399617938 -0.39893464074543178 -0.46296310884665015 -1.0613663065738395 -1.5709524903828533 -0.80740952916512843 -2.2540369861621308 -0.6660056298667747 -1.7148797743748645 -1.5883020361921112 -0.88232234360308248 -0.51902319612665304 -0.38606390984557148 -0.14296727010907895 -2.4787671374683673 -2.1487282459623214 -0.2526126556632709 -0.86310256772044447 -0.2271648954703134 -1.0501468436639831 -0.33832255279620232 -0.051245509684987492 -2.2324652219757959 -1.1328240818327013 -0.040674886128842243 -0.035497777407319984 0.053566454018931148 -0.45916104581370037 -2.2159054221799281 -0.25225003700940102 -0.024972637297628948 0.0020224423459134408 -0.016115347381902859 -0.10256584983958913 0.022307437586519856 0.098589912149524672 -0.11664099352384288 -0.1906114233706101 -0.12856973922819565 -0.10056413085294272 0.13970070147521249 0.089076844874104957 -0.013556000548660831 0.054238963680918469 -0.53254584325829402 -0.034446838216040346 -0.31490595673113608
leaf_weight=88220.892068505287 234.8051922917366 44420.470650374889 739.73343592882156 83567.234246611595 6783.0348583459854 5417.536204457283 35.08111160993576 5937.982041478157 64.983731746673584 76.707047343254089 2519.6089718341827 828.76318019628525 1444.7260882258415 1742.5277798771858 850.41189390420914 875.30749017000198 137.48380881547928 212.05161201953888 168.6646968126297 59.455852210521698 125.12413024902344 102.53164172172546 2282.623420894146 2705.0944538116455 322.8849766254425 4043.4675202965736 197.53295397758484 96.405617356300354 27.172367095947266 408.7446066737175 92.055650234222412 157.36243879795074 111.00291609764099 30.849427163600922 1665.0173633098602 228.78334039449692 12.863266885280607 77.69202071428299 21908.686569035053 164.13362562656403 88.507268607616425 1073.8493121862411 3311.4830211400986 490.20551544427872 10.425210475921633 269.75739288330078 4013.4366459846497 17.498844087123871 220.51566016674042 201.09349405765533 34.025549113750458 13.779737412929533 2064.0519879460335 3918.2164843678474 88.955428957939148 229.46297508478165 3.9101290702819815 7.9043692350387564 3.9101290702819815
leaf_count=99813 108 53154 355 72486 2193 4278 21 4519 60 31 2293 952 1083 1534 656 532 27 140 23 37 16 49 837 2012 324 3720 35 34 10 112 17 134 99 27 328 143 5 32 25948 154 28 985 3790 619 2 235 4646 9 253 202 42 17 1383 4304 107 163 5 9 5
internal_value=0.000396383 0.00112654 -0.0100611 1.77954e-05 -0.00101102 -0.000608259 -0.0194467 -0.000241549 -0.00683857 -0.0248594 -0.00563115 0.00146525 -0.00538815 -0.0104131 -0.00517039 -0.0145979 -0.00516954 -0.0175991 -0.0156538 -0.00951159 -0.0143728 -0.0273759 -0.00489957 -0.00673971 -0.0113001 -0.00349058 -0.0132707 -0.018058 -0.0238181 -0.0112638 -0.00880405 -0.0198585 -0.0102869 -0.0192551 -0.0279178 -0.0103054 0.0032354 -0.00867168 0.00170382 0.00193884 -0.0162732 -0.00616394 -0.000422247 4.23221e-05 0.000448776 -0.00272783 -7.38955e-05 -0.00866894 0.0012295 -0.0218797 -0.0080706 -0.0139502 0.00326084 0.00260974 0.00226878 0.000974694 0.00330549 0.00325977 0.00330637
internal_weight=295158 275898 19260.9 180833 105696 96367.5 4920.36 89505.2 14340.5 2321.46 10725 75137.2 6862.26 3615.53 10118.6 2598.91 9328.27 1355.72 501.327 3284.58 262.608 1820.13 9065.66 5224.7 1243.18 4893.88 606.436 293.939 195.837 2151.27 831.789 1032.67 323.055 330.952 1767.55 305.49 95064.6 312.497 66713.8 44584.6 411.392 1133.31 8423.44 756.737 743.873 1098.52 7324.92 52.58 22129.2 266.077 64.875 24.2049 94307.8 6079.13 4007.17 719.668 88228.7 2071.96 88224.8
internal_count=295135 281003 14132 174571 85439 82366 2243 77005 11889 614 8890 89132 5361 2999 8681 1629 3073 905 207 2668 43 407 3030 4305 724 4376 209 69 33 1646 372 666 239 331 377 174 106432 140 79509 53308 352 1022 9623 806 801 1187 8436 30 26201 262 69 19 105626 5803 4411 782 99823 1392 99818
is_linear=0
shrinkage=0.0330689


Tree=10
num_leaves=47
num_cat=0
split_feature=17 15 4 22 38 18 22 6 11 35 31 17 17 29 20 34 15 18 15 31 34 34 7 34 25 21 13 18 7 22 33 13 30 25 38 24 26 30 30 29 31 19 22 22 30 31
split_gain=1929.19 720.948 399.034 322.337 228.351 138.829 88.6122 61.7712 47.1564 37.8781 32.5728 32.3782 30.3886 23.8527 22.7973 21.7775 18.8848 18.8748 16.7681 12.2346 11.9345 11.8436 11.8314 11.7846 11.0141 10.5503 9.91809 9.65029 10.2746 8.59781 6.95455 10.1154 6.80472 6.37001 6.2858 6.10797 5.83008 5.71399 5.18422 13.7422 5.07708 4.87071 4.82907 3.85063 1.81193 1.39432
threshold=0.10781463980674745 -3.498293280601501 59.953170776367195 0.21600311249494555 1.0000000180025095e-35 0.17241166532039645 2.5542645454406743 65.644931793212905 1.1438003182411196 53.821811676025398 24.305171966552738 0.037055004388093955 0.20894917100667956 24.500000000000004 -983.73168945312489 0.37497001886367803 -3.1641684770584102 0.10697439685463907 -3.263633012771606 19.158332824707035 1.5094250440597536 -0.27087041735649103 0.0097318203188478964 1.0767267346382143 0.0012084779446013274 0.92021200060844432 -1.2250049114227293 0.37284190952777868 0.20926556736230853 0.15304718911647799 1.5225663781166079 1.0003823637962344 57.46551704406739 0.0042991244699805984 1.0000000180025095e-35 -0.0023636895930394526 0.00043626970727927988 1.0000000180025095e-35 558.48370361328136 372.50000000000006 179.89166259765628 5.6470916271209726 0.61395353078842174 0.61395353078842174 123.43832778930665 19.158332824707035
decision_type=2 2 2 2 2 2 2 2 2 2 2 2 2 2 2 2 2 2 2 2 2 2 2 2 2 2 2 2 2 2 2 2 2 2 2 2 2 2 2 2 2 2 2 2 2 2
left_child=1 -1 8 11 5 7 15 -5 14 10 -6 29 16 -7 19 22 40 21 -19 35 25 -16 36 -18 43 -14 -21 28 -8 37 45 -32 -26 -24 -31 -2 -4 -3 41 -40 -10 -13 -22 -17 -11 -29
right_child=2 3 6 4 9 13 27 -9 12 44 -12 38 20 -15 17 24 23 18 -20 26 42 -23 33 -25 32 -27 -28 30 -30 34 31 -33 -34 -35 -36 -37 -38 -39 39 -41 -42 -43 -44 -45 -46 -47
leaf_value=0.18457153049835454 -0.20938883017523938 -0.30047205010045119 -0.56729080183205405 -0.014660864773054194 -1.6922246163055752 -0.51177288806251275 -2.0827258091786347 -0.202868433697143 -0.29200580963092393 -2.7991189204201912 -0.56905971632896346 0.0013392422738441585 -0.75456263292146597 -0.19691165493066143 -0.39781133211632225 -0.55017361512283425 -0.32775020967882662 -0.17414419130051464 -0.35817292040788823 0.13939960673733082 -0.21604260390361171 -0.23363073321769703 -1.3688553548834128 -0.13909467147364307 -1.2420275352593744 -1.0182991261625347 -0.88674923221036828 -1.6927767415593395 0.12503884846277968 0.051397194013174927 -2.0323741230834247 0.038168443596205165 -0.45169434627896327 -1.239586866710404 -0.1538937915947704 -0.66182198889798616 -0.74042195144682232 0.075251610235485933 -1.1778110078489732 0.00011611303643435048 -0.2034867780027432 -0.036476568010956993 -2.5376996294690315 -1.4038602753914009 -1.9284855368167408 -2.1508225587802747
leaf_weight=99591.314142644405 64.221961975097656 7.820258140563964 33.554361701011658 82085.014709830284 628.65292745828629 2222.5352237224579 51.285998106002808 5593.8715624213219 249.84332627058029 22.687307417392731 7624.8014003634453 6744.7062731981277 383.70015037059784 6267.2125680446625 1891.9649254083633 14.250082790851591 1488.2279251813889 307.29708456993103 1649.6505035161972 24.767250299453735 136.9846448302269 2286.6830612421036 403.85732394456863 413.63487190008163 194.03333389759064 793.05239617824554 343.93608647584915 21.321695566177368 22.488866090774536 26290.2822458148 51.968370079994202 19.049650430679321 211.94609606266022 356.04113292694092 622.4925479888916 144.8514888882637 134.07191282510757 41458.810050368309 26.065726757049561 60.548235058784485 82.174740552902222 2094.112568795681 64.280852496623993 190.51920050382614 80.754424333572388 1353.3601117134094
leaf_count=106699 22 1 15 73132 198 1572 9 4235 297 11 2822 7802 221 5694 1105 15 1592 157 979 10 154 1410 199 480 133 696 126 5 5 31805 13 5 163 232 391 63 98 49351 4 72 103 2384 35 92 17 157
internal_value=0.000461665 0.0010451 -0.0118048 -0.00019353 -0.00139099 -0.000935119 -0.0223 -0.00054391 -0.0086933 -0.00663427 -0.0063803 0.00142536 -0.0117479 -0.00497289 -0.00704594 -0.0166587 -0.00933922 -0.00644736 -0.00913945 -0.0133517 -0.0156308 -0.00518076 -0.0198838 -0.00804413 -0.0117093 -0.0169186 -0.017004 -0.0279856 -0.0154701 0.00166992 -0.0286017 -0.0174528 -0.00844303 -0.0216709 0.00120796 -0.00678188 -0.0116037 0.0019693 -0.000446362 -0.00845947 -0.0166617 -0.000365021 -0.00797369 -0.0180324 -0.0264843 -0.0291525
internal_weight=294805 281422 13383 181830 104526 96168.6 3057.75 87678.9 10325.3 8356.9 8253.45 77304.8 3611.9 8489.75 6713.37 1538.27 2233.88 6135.6 1956.95 577.777 1378.02 4178.65 927.525 1901.86 610.749 1176.75 368.703 1519.47 73.7749 68379.4 1445.7 71.018 405.979 759.898 26912.8 209.073 167.626 41466.6 8925.43 86.614 332.018 8838.82 201.265 204.769 103.442 1374.68
internal_count=294781 286190 8591 179491 87681 84633 1141 77367 7450 3048 3020 91810 3578 7266 3872 947 2472 3651 1136 221 1106 2515 544 2072 403 917 136 194 14 81548 180 18 296 431 32196 85 113 49352 10262 76 400 10186 189 107 28 162
is_linear=0
shrinkage=0.0330689


Tree=11
num_leaves=46
num_cat=0
split_feature=1 15 4 22 38 2 22 6 0 2 35 1 31 14 28 12 2 3 30 4 12 21 3 30 30 22 26 0 15 25 0 32 38 30 3 30 0 28 15 3 1 30 20 23 12
split_gain=1818.42 708.803 398.671 301.695 196.256 129.196 87.9774 73.8298 72.3463 43.4638 37.8239 30.9947 29.8179 23.0477 21.0752 19.0329 18.8496 21.0111 14.0449 11.7373 11.2541 13.5971 10.1858 9.38526 8.61406 8.47251 8.16473 8.03653 7.85689 7.41683 6.67831 6.50732 6.0338 5.70013 5.69931 4.83071 7.90258 4.22064 5.35674 3.30825 3.21639 2.88696 0.566576 1.05233 0.534875
threshold=11.384126186370851 -3.498293280601501 59.953170776367195 0.21600311249494555 1.0000000180025095e-35 11.542535781860353 2.5542645454406743 47.541807174682624 0.03024999983608723 21.965879440307621 53.821811676025398 3.7750099897384648 24.305171966552738 31.312847137451175 30.500000000000004 0.76651698350906383 34.055976867675788 12.622056484222414 57.46551704406739 15.807462692260744 0.73783251643180858 0.69445210695266735 -29.697243690490719 64.233142852783217 30.796401977539066 0.15304718911647799 0.026773284189403061 0.039250001311302192 -1.3384574651718137 0.0042991244699805984 0.03024999983608723 0.81140482425689708 1.0000000180025095e-35 1.0000000180025095e-35 -29.697243690490719 558.48370361328136 0.062249999493360526 1006.5000000000001 -2.6700387001037593 12.622056484222414 23.2382345199585 123.43832778930665 193.12809753417972 66.671508789062514 1.0000014305114748
decision_type=2 2 2 2 2 2 2 2 2 2 2 2 2 2 2 2 2 2 2 2 2 2 2 2 2 2 2 2 2 2 2 2 2 2 2 2 2 2 2 2 2 2 2 2 2
left_child=1 -1 8 11 5 7 15 -5 16 19 12 25 -6 22 -7 23 17 34 31 28 29 -22 -8 40 -21 33 -19 -20 -10 -11 -25 -17 -27 -3 -2 39 -37 38 -15 -13 -4 -12 44 -44 -18
right_child=2 3 6 4 10 14 13 -9 9 20 41 35 -14 37 -16 18 42 26 27 24 21 -23 -24 30 -26 32 -28 -29 -30 -31 -32 -33 -34 -35 -36 36 -38 -39 -40 -41 -42 -43 43 -45 -46
leaf_value=0.17846796059749348 -0.28246650864240713 -0.29053578226926752 -1.1974037675880149 -0.0086538149411908068 -1.6362646792248616 -0.41191134373054406 -2.0138524432465976 -0.17099192578681449 -0.34731018464049829 -0.65880763456007296 -2.7065552517683802 -0.0046983978876988094 -0.55024156085829101 -0.98356720370248263 -0.16897184954550196 -1.1141387845285198 -2.5265306347852943 -0.17672069238659469 -1.234349466077735 -0.3956859365057232 -0.43600946498801518 -0.64839301257737492 0.031408683215157863 -1.5112713470774481 -0.23494967360854926 0.049697547455981053 0.014838075507471194 -0.70524309060463286 -0.15015720325626808 -0.53089181839356636 -0.96721234091958797 -0.7325244545734092 -0.14880469951339115 0.072763125353854985 -0.11482129813650696 -1.1388621418077181 0.036082784818858328 -1.8239481109769156 -2.079571871342734 -0.080059781803959409 -1.3232158852212224 -1.8647127206896863 -0.52105331352140716 -0.52557880557325287 -0.46399317631297415
leaf_weight=99591.314142644405 38.752674162387848 7.820258140563964 17.024491608142853 77784.82553845644 628.65292745828629 2765.7491283416748 44.981774806976318 9643.5686904788017 3302.5789461731911 221.74644905328751 22.687307417392731 8206.7655927538872 7624.8014003634453 15.169165611267088 5974.4907067418098 618.43733376264572 165.66201335191727 548.23870939016342 37.292582750320435 1056.8875963687897 665.66996318101883 1746.6942372322083 36.013091802597046 49.537391364574432 748.03008472919464 26290.2822458148 19.286369323730469 315.40177154541016 1440.1118034720421 52.038332641124725 152.8255267739296 119.54940050840378 622.4925479888916 41458.810050368309 272.84952640533447 41.733658611774445 44.880303204059601 30.086061239242554 1393.2245985269547 632.05324923992157 228.2049463391304 80.754424333572388 11.787443935871126 5.4303133487701407 29.506807386875153
leaf_count=106699 18 1 15 69437 198 2096 7 7835 2158 59 11 9396 2822 2 5265 393 84 465 20 889 334 1428 9 16 679 31805 2 231 1113 10 99 78 391 49351 176 24 52 9 167 790 95 17 7 5 23
internal_value=0.000497793 0.00106423 -0.0114113 -0.000163919 -0.00132241 -0.00089977 -0.0219015 -0.000516298 -0.00830133 -0.00734487 -0.00618331 0.00140228 -0.00592964 -0.0275661 -0.00473324 -0.0162812 -0.0163634 -0.014154 -0.0138584 -0.00588458 -0.0108947 -0.0101486 -0.00992779 -0.0221039 -0.00817016 0.00164155 -0.0179603 -0.008298 -0.00500973 -0.0173477 -0.0164578 -0.0164786 0.00118298 0.00193874 -0.00713329 -0.00042898 -0.0081643 -0.0285402 -0.0288213 -0.000350394 -0.0266101 -0.0260143 -0.0253219 -0.0148811 -0.0260782
internal_weight=294805 281422 13383 181830 104526 96168.6 3057.75 87428.4 10325.3 9233.76 8356.9 77304.8 8253.45 1519.47 8740.24 1538.27 1091.51 879.127 1090.68 6547.61 2686.15 2412.36 80.9949 447.592 1804.92 68379.4 567.525 352.694 4742.69 273.785 202.363 737.987 26912.8 41466.6 311.602 8925.43 86.614 1438.48 1408.39 8838.82 245.229 103.442 212.387 17.2178 195.169
internal_count=294781 286190 8591 179491 87681 84633 1141 77272 7450 6670 3048 91810 3020 194 7361 947 780 661 722 4839 1831 1762 16 225 1568 81548 467 251 3271 69 115 471 32196 49352 194 10262 76 178 169 10186 110 28 119 12 107
is_linear=0
shrinkage=0.0330689


Tree=12
num_leaves=47
num_cat=0
split_feature=1 15 4 22 2 22 37 0 4 31 2 1 14 2 33 2 12 33 11 29 21 23 11 4 29 20 29 22 19 7 0 25 13 24 26 30 30 21 19 0 30 33 8 21 1 29
split_gain=1715 700.612 403.776 283.033 144.244 91.0524 77.0482 71.3754 67.8029 62.4512 43.2501 28.7781 23.4423 20.8862 20.6494 22.4228 17.4628 12.3282 15.5576 10.5191 10.2508 10.0418 12.9032 10.0028 9.8848 9.62469 8.92467 8.215 7.17395 7.14691 7.03976 6.80679 6.47391 6.04493 5.85578 5.73377 5.45488 4.98071 4.91903 10.9321 4.83295 3.86935 3.54753 3.29354 3.03563 2.22212
threshold=11.384126186370851 -3.498293280601501 59.953170776367195 0.21600311249494555 13.48544216156006 2.5542645454406743 1.0000000180025095e-35 0.03024999983608723 31.172650337219242 45.175001144409187 21.965879440307621 3.7750099897384648 39.808166503906257 34.055976867675788 0.68388766050338756 34.055976867675788 0.81001481413841259 0.11488801240921022 -0.20251636952161786 30.500000000000004 0.84614554047584545 61.907436370849616 -0.050738016143441193 15.807462692260744 113.50000000000001 5.6302342414855966 18.500000000000004 0.13058397173881534 9.354225158691408 0.0022160127991810445 0.05725000053644181 -0.0033104913309216495 -2.080540537834167 0.014953779987990858 0.026773284189403061 1.0000000180025095e-35 237.54492187500003 0.89297619462013256 5.6470916271209726 0.034250000491738326 904.69653320312511 1.2042430043220522 0.040453413501381881 0.64226335287094127 6.9770436286926278 12.500000000000002
decision_type=2 2 2 2 2 2 2 2 2 2 2 2 2 2 2 2 2 2 2 2 2 2 2 2 2 2 2 2 2 2 2 2 2 2 2 2 2 2 2 2 2 2 2 2 2 2
left_child=1 -1 7 11 6 14 8 16 -5 -8 23 27 21 19 15 43 32 18 -12 -6 29 22 -7 31 -25 -15 41 35 -17 -18 37 -9 -2 -19 -34 -3 -32 -16 44 -40 -29 -14 -28 -4 -13 -22
right_child=2 3 5 4 13 12 9 10 -10 -11 17 38 26 25 30 28 20 33 -20 -21 45 -23 -24 24 -26 -27 42 40 -30 -31 36 -33 34 -35 -36 -37 -38 -39 39 -41 -42 -43 -44 -45 -46 -47
leaf_value=0.17256622878853156 -0.23876590346151236 -0.28092809547708569 -0.7936067235256925 -0.02654620512312857 -0.32976717945535855 0.038228243890104534 -1.917980526344649 -0.12968389158299831 -0.25940879365803604 -0.862250764415875 -0.23161379094126169 0.017337671954129406 -2.0346093489476358 -1.3094633583639284 -0.0041290147728483351 -1.2875544389278331 -0.10801219544609164 -0.47726244749643126 -0.78315547162159926 -0.19187186287565366 -0.50382267501195654 0.029879253582300484 -1.9472566409352277 -0.35194397700786079 -0.13142248282508212 -0.51686978299137787 -1.4420248950195256 0.051791598505829282 -1.1580973732404292 -0.22170957619728712 -1.0005613134790632 -0.33702507159083112 -0.31349308963445888 -0.2071271059344324 16.921845363141195 0.073776111098019431 -0.0012371693677336445 -1.1798070921878545 -0.13055598235883728 -0.027439698307261996 -0.098175298639644359 -1.1275649952963518 -2.0108401719399907 -0.77472184970948232 -0.035541336320826247 -0.32061476744541917
leaf_weight=99591.314142644405 14.963990211486815 7.820258140563964 24.647333979606628 89491.912748813629 1953.0879628062248 21.4093337059021 496.56213784217834 1258.5130198001862 5428.2880656719208 1505.8065897226334 124.82015389204025 5124.9157719016075 48.467257261276245 1064.0536192059517 20.559133768081665 342.06956106424332 59.073903739452362 970.09560114145279 1436.9987114667892 4070.9410255551338 79.135595142841339 32.498300552368164 56.016786336898804 1373.1389986872673 431.77868241071701 514.87797397375107 47.955686569213867 37887.439383506775 372.78418928384781 370.49163234233856 285.11329638957977 3484.177729845047 376.28037464618683 154.23451560735703 9.6431846618652326 30235.376815915108 64.201954245567322 167.92914617061615 50.61947500705719 2077.6753760576248 248.76864475011826 28.210496306419373 1284.9168312549591 260.96882975101471 1672.2221808433533 181.92517656087875
leaf_count=106699 4 1 9 77168 1542 3 75 979 4279 214 72 5921 6 518 9 166 52 687 911 3548 71 8 8 1150 418 337 7 45538 249 206 181 2292 272 161 1 35740 52 84 52 2360 269 9 153 197 1929 174
internal_value=0.000527131 0.00107723 -0.0110384 -0.000143806 -0.00126589 -0.0215952 -0.000921596 -0.00790865 -0.00078594 -0.00734039 -0.00695874 0.00137317 -0.0273564 -0.00565212 -0.0158796 -0.018715 -0.0159157 -0.0104993 -0.0124215 -0.00475752 -0.0126362 -0.0122258 -0.0186622 -0.00550233 -0.00761369 -0.00904961 -0.0285151 0.00160373 -0.0218704 -0.00937584 -0.0105495 -0.0046939 -0.0214788 -0.00780573 -0.0223042 0.00201174 -0.00764035 -0.0157849 -0.000391318 -0.00177846 0.0012797 -0.0166479 -0.0291724 -0.0107109 4.07847e-05 -0.0178816
internal_weight=294805 281422 13383 181830 104526 3057.75 96922.6 10325.3 94920.2 2002.37 9233.76 77304.8 1519.47 7602.96 1538.27 1000.47 1091.51 2686.15 1561.82 6024.03 690.626 109.924 77.4261 6547.61 1804.92 1578.93 1409.55 68379.4 714.854 429.566 537.804 4742.69 400.888 1124.33 385.924 30243.2 349.315 188.488 8925.43 2128.29 38136.2 76.6778 1332.87 285.616 6797.14 261.061
internal_count=294781 286190 8591 179491 87681 1141 81736 7450 81447 289 6670 91810 194 5945 947 621 780 1831 983 5090 503 19 11 4839 1568 855 175 81548 415 258 326 3271 277 848 273 35741 233 93 10262 2412 45807 15 160 206 7850 245
is_linear=0
shrinkage=0.0330689


end of trees

feature_importances:
return_1d=51
bb_width=51
volume_zscore_30d=41
return_3d=39
return_7d=34
price_lag_1d=29
price_log=29
return_14d=23
bb_pct_b=23
volume_lag_1d=22
volume_std_30d=22
macd_missing=21
volume_mean_60d=19
volume_log_change_7d=18
price_std_7d=17
price_zscore_30d=15
autocorr_1d=15
vol_regime_60_30=14
volume_lag_7d=14
price_std_30d=12
return_30d=11
rsi_14=10
macd_histogram=10
log_return_1d=9
price_accel_7d=8
autocorr_7d=8
macd_signal=8
return_60d=7
price_std_14d=7
log_return_7d=6
macd_line=6
rsi_missing=6
trend_divergence_30_60=5
volume_log_change_1d=5
price_std_60d=4
volume_price_conf_7d=3
price_tier=2
volume_price_conf_1d=1

parameters:
[boosting: gbdt]
[objective: quantile]
[metric: quantile]
[tree_learner: serial]
[device_type: cpu]
[data_sample_strategy: bagging]
[data: ]
[valid: ]
[num_iterations: 1000]
[learning_rate: 0.0330689]
[num_leaves: 63]
[num_threads: -1]
[seed: 57]
[deterministic: 0]
[force_col_wise: 0]
[force_row_wise: 0]
[histogram_pool_size: -1]
[max_depth: 6]
[min_data_in_leaf: 5]
[min_sum_hessian_in_leaf: 0.001]
[bagging_fraction: 0.7]
[pos_bagging_fraction: 1]
[neg_bagging_fraction: 1]
[bagging_freq: 5]
[bagging_seed: 30554]
[bagging_by_query: 0]
[feature_fraction: 0.8]
[feature_fraction_bynode: 1]
[feature_fraction_seed: 30558]
[extra_trees: 0]
[extra_seed: 6244]
[early_stopping_round: 0]
[early_stopping_min_delta: 0]
[first_metric_only: 0]
[max_delta_step: 0]
[lambda_l1: 0.5]
[lambda_l2: 1]
[linear_lambda: 0]
[min_gain_to_split: 0.1]
[drop_rate: 0.1]
[max_drop: 50]
[skip_drop: 0.5]
[xgboost_dart_mode: 0]
[uniform_drop: 0]
[drop_seed: 23688]
[top_rate: 0.2]
[other_rate: 0.1]
[min_data_per_group: 100]
[max_cat_threshold: 32]
[cat_l2: 10]
[cat_smooth: 10]
[max_cat_to_onehot: 4]
[top_k: 20]
[monotone_constraints: ]
[monotone_constraints_method: basic]
[monotone_penalty: 0]
[feature_contri: ]
[forcedsplits_filename: ]
[refit_decay_rate: 0.9]
[cegb_tradeoff: 1]
[cegb_penalty_split: 0]
[cegb_penalty_feature_lazy: ]
[cegb_penalty_feature_coupled: ]
[path_smooth: 0]
[interaction_constraints: ]
[verbosity: -1]
[saved_feature_importance_type: 0]
[use_quantized_grad: 0]
[num_grad_quant_bins: 4]
[quant_train_renew_leaf: 0]
[stochastic_rounding: 1]
[linear_tree: 0]
[max_bin: 63]
[max_bin_by_feature: ]
[min_data_in_bin: 3]
[bin_construct_sample_cnt: 200000]
[data_random_seed: 224]
[is_enable_sparse: 1]
[enable_bundle: 1]
[use_missing: 1]
[zero_as_missing: 0]
[feature_pre_filter: 0]
[pre_partition: 0]
[two_round: 0]
[header: 0]
[label_column: ]
[weight_column: ]
[group_column: ]
[ignore_column: ]
[categorical_feature: ]
[forcedbins_filename: ]
[precise_float_parser: 0]
[parser_config_file: ]
[objective_seed: 6962]
[num_class: 1]
[is_unbalance: 0]
[scale_pos_weight: 1]
[sigmoid: 1]
[boost_from_average: 1]
[reg_sqrt: 0]
[alpha: 0.1]
[fair_c: 1]
[poisson_max_delta_step: 0.7]
[tweedie_variance_power: 1.5]
[lambdarank_truncation_level: 30]
[lambdarank_norm: 1]
[label_gain: ]
[lambdarank_position_bias_regularization: 0]
[eval_at: ]
[multi_error_top_k: 1]
[auc_mu_weights: ]
[num_machines: 1]
[local_listen_port: 12400]
[time_out: 120]
[machine_list_filename: ]
[machines: ]
[gpu_platform_id: -1]
[gpu_device_id: -1]
[gpu_use_dp: 0]
[num_gpu: 1]

end of parameters

pandas_categorical:[]
