tree
version=v4
num_class=1
num_tree_per_iteration=1
label_index=0
max_feature_idx=121
objective=quantile
feature_names=price_lag_1d price_lag_7d price_lag_14d price_lag_30d price_lag_60d return_1d return_3d return_7d return_14d return_30d return_60d price_std_7d price_std_14d price_std_20d price_min_20d price_max_20d price_std_30d price_mean_60d price_std_60d price_min_60d price_max_60d price_zscore_30d vol_regime_60_30 trend_divergence_30_60 price_accel_7d price_tier autocorr_1d autocorr_7d bb_pct_b macd_line macd_signal macd_histogram distance_to_support distance_to_resistance high_low_range_30d volume_missing volume_lag_1d volume_lag_7d volume_mean_7d volume_mean_30d volume_std_30d volume_mean_60d volume_std_60d volume_log_change_1d volume_log_change_7d volume_zscore_30d volume_price_conf_7d volume_price_conf_1d rsi_missing macd_missing is_weekend dow_sin dow_cos month_sin month_cos doy_cos item_age_days is_stattrak is_souvenir is_knife is_glove is_sticker is_case is_capsule is_agent is_music_kit is_graffiti is_charm is_patch quality_rank event_decay_major events_next_30d_major event_density_30d_major event_density_90d_major event_decay_operation events_next_30d_operation event_density_30d_operation event_density_90d_operation event_decay_case_drop events_next_30d_case_drop event_density_30d_case_drop event_density_90d_case_drop event_decay_update events_next_30d_update event_density_30d_update event_density_90d_update event_decay_game_update events_next_30d_game_update event_density_30d_game_update event_density_90d_game_update event_decay_major_weighted event_decay_operation_weighted event_decay_case_drop_weighted event_decay_update_weighted event_decay_game_update_weighted social_mentions_1d social_mentions_7d social_mention_velocity social_sentiment_7d social_score_7d market_return_1d item_return_vs_market_1d market_return_7d item_return_vs_market_7d market_return_14d item_return_vs_market_14d market_return_30d item_return_vs_market_30d market_volatility_30d market_volume_mean_30d market_regime_crash market_regime_bear market_regime_range market_regime_bull market_regime_mania market_regime_duration_days market_return_30d_percentile supply_listings_log supply_listings_zscore supply_change_7d supply_skinport_qty_log supply_to_volume_ratio
feature_infos=[39.790000915527344:66.569999694824219] [39.790000915527344:66.569999694824219] [39.790000915527344:66.569999694824219] [39.790000915527344:66.569999694824219] [39.849998474121094:66.569999694824219] [-6.0415120124816895:6.2258315086364746] [-10.281366348266602:11.818019866943359] [-17.372880935668945:15.222199440002441] [-24.630624771118164:24.511468887329102] [-24.868003845214844:39.543319702148438] [-35.815872192382812:34.754096984863281] [0.042426407337188721:3.2751080989837646] [0.042426407337188721:4.7465720176696777] [0.042426407337188721:5.344205379486084] [39.790000915527344:61.619998931884766] [43.290000915527344:66.569999694824219] [0.042426407337188721:5.4625492095947266] [42.844001770019531:62.902332305908203] [0.042426407337188721:6.2239170074462891] [39.790000915527344:58.759998321533203] [46.650001525878906:66.569999694824219] [-3.4853887557983398:3.0036964416503906] [0.76277375221252441:4.9742584228515625] [-106.84011840820312:164.20773315429688] [-22.191015243530273:26.589687347412109] [3:3] [-16.605304718017578:24.913341522216797] [-165.46697998046875:159.38456726074219] [-0.22173035144805908:1.266255259513855] [-3.1355800628662109:3.1830518245697021] [-2.6216168403625488:2.7723205089569092] [-1.2678171396255493:0.94621419906616211] [0.018351990729570389:39.335178375244141] [0.054525628685951233:35.731788635253906] [0.12307692319154739:39.335178375244141] none [161:245] [161:245] [176:219] [176:219] [4.0414519309997559:20.361700057983398] [176:219] [4.0414519309997559:19.928762435913086] [-0.31321537494659424:0.36533302068710327] [-0.29612094163894653:0.40341803431510925] [-2.8260855674743652:2.671764612197876] [-17.372880935668945:15.222199440002441] [-6.0415120124816895:6.2258315086364746] [0:1] [0:1] [0:1] [-0.97492790222167969:0.97492790222167969] [-0.90096884965896606:1] [-0.86602538824081421:1] [-1:0.86602538824081421] [-1:0.99985265731811523] [0:228] none none none none none none none none none none none none none [0:0.98347145318984985] [0:1] [0:1] [0:1] none none none none none none none none none none none none none none none none none none none none none none none none none none [-2.4910855293273926:2.5970833301544189] [-5.0148625373840332:6.6300463676452637] [-4.9728598594665527:6.6842527389526367] [-15.224418640136719:14.81980037689209] [-7.8436169624328613:8.0323085784912109] [-21.144741058349609:25.597810745239258] [-8.3750972747802734:10.840641021728516] [-26.866291046142578:40.982707977294922] [0.43699198961257935:3.9606008529663086] [195.10000610351562:203.39999389648438] none [0:1] [0:1] [0:1] [0:1] [1:30] [0.0086206896230578423:1] none none none none none
tree_sizes=2065 2108 2315 1689

Tree=0
num_leaves=19
num_cat=0
split_feature=20 19 11 19 19 36 19 104 54 39 15 4 22 108 116 102 103 34
split_gain=15.0244 7.59369 4.47874 8.10587 6.78313 5.66585 4.82185 4.32037 5.46959 3.59611 3.13174 2.28605 2.21352 2.18671 2.06419 1.02487 0.956026 0.293034
threshold=59.074998855590827 45.194999694824226 0.84207826852798473 49.800001144409187 44.994998931884773 190.50000000000003 48.70000076293946 1.0272353887557986 -0.68301269412040699 202.1166687011719 46.899999618530281 58.710000991821296 1.1670032739639284 2.235803604125977 0.23356989771127704 -0.16875418275594709 -5.7432203292846671 15.77773427963257
decision_type=2 2 2 2 2 2 2 2 2 2 2 2 2 2 2 2 2 2
left_child=2 11 5 4 10 6 17 8 9 -3 -4 -2 -7 -6 -10 -14 -9 -1
right_child=1 7 3 -5 13 12 -8 16 14 -11 -12 -13 15 -15 -16 -17 -18 -19
leaf_value=0.49809392362833022 0.54239684969186786 0.083753885328769678 0.37591505438089368 0.072469313442707073 0.42461497217416766 0.43267679125070568 0.15128025929900063 0.21497928053140641 0.20499812275171281 0.34741518169641494 0.16393716484308243 0.28409090638160706 0.39777580171823501 0.35360996872186662 0.32953693538904189 0.27493792707100512 0.057213748991489427 0.34873891264200207
leaf_weight=14.205989658832552 25.069393515586853 76.879473447799683 23.398100614547729 56.823957920074463 96.099341452121735 89.414169490337372 19.219868123531342 15.04163610935211 21.726807713508606 16.712929010391235 69.358655393123627 21.726807713508606 20.055514812469482 66.851715803146362 38.439736723899841 19.219868361949921 71.02994829416275 12.534696757793425
leaf_count=17 30 92 28 14 88 53 5 18 26 20 83 26 24 62 46 23 85 15
internal_value=0.284091 0.279297 0.287941 0.285725 0.288044 0.291806 0.283065 0.277112 0.280288 0.275724 0.281698 0.290134 0.295036 0.291745 0.28715 0.288441 0.271667 0.290903
internal_weight=0 286.627 487.182 312.532 255.708 174.65 45.9606 239.831 153.759 93.5924 92.7568 46.7962 128.69 162.951 60.1665 39.2754 86.0716 26.7407
internal_count=755 343 412 275 261 137 37 287 184 112 111 56 100 150 72 47 103 32
is_linear=0
shrinkage=1


Tree=1
num_leaves=19
num_cat=0
split_feature=15 33 28 104 41 53 15 15 55 107 45 22 115 9 108 108 16 38
split_gain=11.4483 8.92014 7.25447 6.1595 4.37922 3.6427 3.97473 4.74952 3.531 4.14994 3.38795 2.85361 2.82935 1.96652 1.91209 1.70469 0.788975 0.509785
threshold=59.57500076293946 7.1865906715393075 0.50386455655097973 1.0272353887557986 201.63484954833987 0.68301269412040722 52.924999237060554 56.844999313354499 -0.74541041254997242 17.912321090698246 -0.25277422368526453 1.1670032739639284 5.5000000000000009 -6.3020551204681388 1.8204192519187929 2.2909774780273442 1.7650454640388491 204.92857360839847
decision_type=2 2 2 2 2 2 2 2 2 2 2 2 2 2 2 2 2 2
left_child=1 2 16 8 12 6 10 -8 -2 13 -3 15 -4 -10 -13 -7 -1 -6
right_child=3 5 4 -5 17 11 7 -9 9 -11 -12 14 -14 -15 -16 -17 -18 -19
leaf_value=0.14355210037529467 -0.19818930570781232 0.067568831661343573 -0.043143465301394464 -0.22007084266841409 0.13824600694477557 0.19650212090313432 -0.1605287594050169 0.066237654983997349 0.11962632711231708 -0.24420974676311016 -0.031080125257372852 0.089069423559308053 0.1245200280457735 0.0076691591531038283 -0.083829696294665329 0.01282678294479847 0.17571680755913258 0.11118533122837544
leaf_weight=98.606280326843262 22.562454164028168 58.495251297950745 55.152665615081787 67.687362492084503 27.576332867145538 29.247625768184662 67.687362253665924 19.219868361949921 19.219868361949921 13.370343208312987 113.64791643619537 12.534696757793425 57.659605085849762 49.303140580654144 20.891161262989044 12.534696757793425 15.877282559871672 12.534696757793425
leaf_count=55 27 52 57 81 33 35 63 23 23 16 73 15 69 59 25 15 19 15
internal_value=0 0.00259791 0.00668141 -0.00615712 0.00227153 -0.000629183 -0.0023569 -0.0075723 -0.00140965 0.00133927 0.000203534 0.00509998 -0.000641968 0.00450433 -0.00103575 0.0103175 0.012406 0.0107421
internal_weight=0 601.665 267.407 172.143 152.923 334.259 259.05 86.9072 104.456 81.8934 172.143 75.2082 112.812 68.523 33.4259 41.7823 114.484 40.111
internal_count=755 549 248 206 174 301 211 86 125 98 125 90 126 82 40 50 74 48
is_linear=0
shrinkage=0.03


Tree=2
num_leaves=21
num_cat=0
split_feature=17 28 13 17 17 22 41 42 115 12 30 104 3 23 102 7 106 19 42 31
split_gain=15.7854 8.21441 7.1221 5.26572 7.06021 5.09757 4.43758 4.36139 4.35327 3.65428 4.85078 3.54136 2.96377 2.54487 2.51836 1.59184 0.74395 0.571111 0.322181 0.176277
threshold=54.249917984008796 0.50386455655097973 1.379258990287781 51.908805847167976 49.793001174926765 0.87939935922622692 201.30833435058597 15.501922130584719 6.5000000000000009 0.95780822634696972 1.7566977739334109 1.1727845668792727 52.135000228881843 0.51560288667678844 -1.6497808694839475 -6.7534704208374015 1.4988120794296267 46.82500076293946 14.195716381073 0.018600658513605598
decision_type=2 2 2 2 2 2 2 2 2 2 2 2 2 2 2 2 2 2 2 2
left_child=1 2 16 4 6 -2 -3 15 -6 -5 -11 14 13 -4 -9 -7 19 -17 -14 -1
right_child=5 3 12 9 8 7 -8 11 -10 10 -12 -13 18 -15 -16 17 -18 -19 -20 -21
leaf_value=0.13525424133494496 0.1380591742618382 -0.046598973602503535 -0.071400688924044373 -0.0018517571465671064 -0.12837038639232518 -0.085681543769091373 0.06836589422777295 -0.18647952483531832 0.046288227183133364 0.14498624948528407 -0.050782305053919549 -0.091341568283289667 0.2968341786291897 0.19118258359077572 0.084846375910073518 -0.032350099584460258 0.086397340852528814 -0.25387792867586018 0.13880644392371178 0.22428740218106658
leaf_weight=97.7706338763237 12.534696757793425 103.6201593875885 52.645726382732391 14.205989539623259 54.317018687725067 20.891161262989044 61.837837219238281 14.205989658832548 25.069393515586853 60.166544318199158 13.370343208312987 24.233747065067291 15.041636109352114 25.069393515586853 25.069393515586853 13.370343208312987 15.877282559871672 96.099341809749603 13.370343208312987 15.04163610935211
leaf_count=54 15 88 63 8 20 25 65 17 30 63 16 29 18 30 30 16 19 115 16 18
internal_value=0 0.00326229 0.00755349 0.000180758 -0.00203356 -0.00640978 0.0014202 -0.00766149 -0.00938353 0.00650626 0.00927839 -0.000940619 0.00162267 -0.00125055 0.00434994 -0.010805 0.0123032 -0.0122878 0.00988631 0.0132527
internal_weight=0 567.404 234.817 332.587 244.844 206.405 165.458 193.87 79.3864 87.7429 73.5369 63.5091 106.127 77.7151 39.2754 130.361 128.69 109.47 28.412 112.812
internal_count=755 508 218 290 203 247 153 232 50 87 79 76 127 93 47 156 91 131 34 72
is_linear=0
shrinkage=0.03


Tree=3
num_leaves=15
num_cat=0
split_feature=17 9 33 19 39 55 21 28 15 29 115 40 102 16
split_gain=15.2512 7.57795 7.16438 7.44597 8.92606 4.73262 5.72687 4.60467 4.78061 3.07473 2.54633 1.90453 1.55738 0.728547
threshold=54.249917984008796 18.38748931884766 7.1865906715393075 50.11000061035157 193.88333129882815 -0.72209000587463368 -0.69044601917266835 0.50386455655097973 50.614999771118171 -1.2856376171112058 5.5000000000000009 15.95064163208008 1.5363049507141116 1.7650454640388491
decision_type=2 2 2 2 2 2 2 2 2 2 2 2 2 2
left_child=1 2 7 4 -4 -2 9 13 -9 -7 -11 -8 -13 -1
right_child=5 -3 3 -5 -6 6 11 8 -10 10 -12 12 -14 -15
leaf_value=0.13518791012398751 -0.25583919039348807 -0.17514202328099457 -0.29147409210158193 -0.12527568419721047 0.066314917400939755 0.11189576207109242 -0.1896237353768751 -0.019756337374337629 0.14934935162697582 0.12670544840077669 -0.11599300442381591 0.02969859634390622 -0.16227391387471407 0.16638767609231023
leaf_weight=98.606280326843262 67.687362492084503 28.4119793176651 25.905039727687836 52.645725667476654 202.22644066810608 21.726807713508606 48.467494130134583 72.701241075992584 71.02994829416275 14.205989658832548 22.562454164028168 18.384221911430362 13.370343208312987 15.877282559871672
leaf_count=55 81 34 13 9 215 26 58 78 85 17 27 22 16 19
internal_value=0 0.00321815 0.00403819 0.000659688 0.00305941 -0.00628861 -0.00295351 0.00764555 0.00389372 0.00399513 -0.000942856 -0.00819941 -0.00186666 0.012188
internal_weight=0 567.404 538.992 280.777 228.131 206.405 138.717 258.215 143.731 58.4953 36.7684 80.2221 31.7546 114.484
internal_count=755 508 474 237 228 247 166 237 163 70 44 96 38 74
is_linear=0
shrinkage=0.03


end of trees

feature_importances:
price_min_60d=6
price_max_20d=5
price_mean_60d=4
vol_regime_60_30=3
bb_pct_b=3
market_return_7d=3
market_return_14d=3
market_volatility_30d=3
market_regime_duration_days=3
return_30d=2
price_std_30d=2
distance_to_resistance=2
volume_mean_30d=2
volume_mean_60d=2
volume_std_60d=2
doy_cos=2
price_lag_30d=1
price_lag_60d=1
return_7d=1
price_std_7d=1
price_std_14d=1
price_std_20d=1
price_max_60d=1
price_zscore_30d=1
trend_divergence_30_60=1
macd_line=1
macd_signal=1
macd_histogram=1
high_low_range_30d=1
volume_lag_1d=1
volume_mean_7d=1
volume_std_30d=1
volume_zscore_30d=1
month_sin=1
month_cos=1
item_return_vs_market_7d=1
market_return_30d=1
item_return_vs_market_30d=1
market_return_30d_percentile=1

parameters:
[boosting: gbdt]
[objective: quantile]
[metric: quantile]
[tree_learner: serial]
[device_type: cpu]
[data_sample_strategy: bagging]
[data: ]
[valid: ]
[num_iterations: 1000]
[learning_rate: 0.03]
[num_leaves: 31]
[num_threads: -1]
[seed: 73]
[deterministic: 0]
[force_col_wise: 0]
[force_row_wise: 0]
[histogram_pool_size: -1]
[max_depth: 5]
[min_data_in_leaf: 15]
[min_sum_hessian_in_leaf: 0.001]
[bagging_fraction: 0.7]
[pos_bagging_fraction: 1]
[neg_bagging_fraction: 1]
[bagging_freq: 5]
[bagging_seed: 5921]
[feature_fraction: 0.7]
[feature_fraction_bynode: 1]
[feature_fraction_seed: 22355]
[extra_trees: 0]
[extra_seed: 3536]
[early_stopping_round: 0]
[early_stopping_min_delta: 0]
[first_metric_only: 0]
[max_delta_step: 0]
[lambda_l1: 0.5]
[lambda_l2: 0.5]
[linear_lambda: 0]
[min_gain_to_split: 0.1]
[drop_rate: 0.1]
[max_drop: 50]
[skip_drop: 0.5]
[xgboost_dart_mode: 0]
[uniform_drop: 0]
[drop_seed: 14602]
[top_rate: 0.2]
[other_rate: 0.1]
[min_data_per_group: 100]
[max_cat_threshold: 32]
[cat_l2: 10]
[cat_smooth: 10]
[max_cat_to_onehot: 4]
[top_k: 20]
[monotone_constraints: ]
[monotone_constraints_method: basic]
[monotone_penalty: 0]
[feature_contri: ]
[forcedsplits_filename: ]
[refit_decay_rate: 0.9]
[cegb_tradeoff: 1]
[cegb_penalty_split: 0]
[cegb_penalty_feature_lazy: ]
[cegb_penalty_feature_coupled: ]
[path_smooth: 0]
[interaction_constraints: ]
[verbosity: -1]
[saved_feature_importance_type: 0]
[use_quantized_grad: 0]
[num_grad_quant_bins: 4]
[quant_train_renew_leaf: 0]
[stochastic_rounding: 1]
[linear_tree: 0]
[max_bin: 63]
[max_bin_by_feature: ]
[min_data_in_bin: 3]
[bin_construct_sample_cnt: 200000]
[data_random_seed: 277]
[is_enable_sparse: 1]
[enable_bundle: 1]
[use_missing: 1]
[zero_as_missing: 0]
[feature_pre_filter: 0]
[pre_partition: 0]
[two_round: 0]
[header: 0]
[label_column: ]
[weight_column: ]
[group_column: ]
[ignore_column: ]
[categorical_feature: ]
[forcedbins_filename: ]
[precise_float_parser: 0]
[parser_config_file: ]
[objective_seed: 8155]
[num_class: 1]
[is_unbalance: 0]
[scale_pos_weight: 1]
[sigmoid: 1]
[boost_from_average: 1]
[reg_sqrt: 0]
[alpha: 0.5]
[fair_c: 1]
[poisson_max_delta_step: 0.7]
[tweedie_variance_power: 1.5]
[lambdarank_truncation_level: 30]
[lambdarank_norm: 1]
[label_gain: ]
[lambdarank_position_bias_regularization: 0]
[eval_at: ]
[multi_error_top_k: 1]
[auc_mu_weights: ]
[num_machines: 1]
[local_listen_port: 12400]
[time_out: 120]
[machine_list_filename: ]
[machines: ]
[gpu_platform_id: -1]
[gpu_device_id: -1]
[gpu_use_dp: 0]
[num_gpu: 1]

end of parameters

pandas_categorical:[]
