tree
version=v4
num_class=1
num_tree_per_iteration=1
label_index=0
max_feature_idx=85
objective=quantile
feature_names=price_lag_1d price_lag_3d price_lag_7d price_lag_14d price_lag_30d price_lag_60d return_1d return_3d return_7d return_14d return_30d return_60d price_std_7d price_min_7d price_max_7d price_std_14d price_std_30d price_max_30d price_std_60d price_zscore_30d vol_regime_60_30 trend_divergence_30_60 price_accel_7d price_log price_tier log_return_1d log_return_7d autocorr_1d autocorr_7d bb_lower bb_width rsi_14 macd_line macd_signal macd_histogram distance_to_support distance_to_resistance high_low_range_30d volume_missing volume_lag_1d volume_lag_7d volume_mean_7d volume_mean_30d volume_std_30d volume_mean_60d volume_std_60d volume_log_change_1d volume_log_change_7d volume_zscore_30d volume_price_conf_7d volume_price_conf_1d rsi_missing macd_missing dow_sin dow_cos event_decay_major events_next_30d_major event_density_30d_major event_density_90d_major event_decay_operation events_next_30d_operation event_density_30d_operation event_density_90d_operation event_decay_case_drop events_next_30d_case_drop event_density_30d_case_drop event_density_90d_case_drop event_decay_update events_next_30d_update event_density_30d_update event_density_90d_update event_decay_game_update events_next_30d_game_update event_density_30d_game_update event_density_90d_game_update event_decay_major_weighted event_decay_operation_weighted event_decay_case_drop_weighted event_decay_update_weighted event_decay_game_update_weighted item_type_skin item_type_sticker item_type_unknown item_return_vs_market_14d item_return_vs_market_30d item_volume_vs_market_30d
feature_infos=[1:436437] [1:436437] [1:418610] [1:410056] [1:436437] [1:338027] [-99.902435302734375:500] [-99.91656494140625:500] [-99.959068298339844:500] [-99.903755187988281:500] [-99.931877136230469:500] [-99.925209045410156:500] [0:160176.53125] [1:185188] [1:436437] [0:127786.5234375] [0:98381.328125] [1:436437] [0:92454.28125] [-4.6609296798706055:5.2937369346618652] [0.70411521196365356:74.60723876953125] [-2865:2205] [-599.95904541015625:599.92919921875] [0:12.98639965057373] [1:4] [-6.9324479103088379:8.7018451690673828] [-7.8009819984436035:7.0968871116638184] [-49934.89453125:250000] [-49979.53515625:250000] [-161779.65625:155128.4375] [0.0118468152359128:16.390186309814453] [0:99.554420471191406] [-23922.45703125:34811.7734375] [-21461.58203125:23775.416015625] [-12807.0234375:31588.400390625] [0.040413837879896164:601300] [0.035669699311256409:284185.71875] [0.41972717642784119:886671.4375] none none none none none none none none [0:0] [0:0] [0:0] none none [0:1] [0:1] [-0.97492790222167969:0.97492790222167969] [-0.90096884965896606:1] [0.012693481519818306:0.98347145318984985] [0:2] [0:2] [0:3] [2.2671056143508395e-09:0.95349693298339844] [0:1] [0:1] [0:1] [0:0.93106275796890259] [0:1] [0:1] [0:3] none none none none [0:0.86687791347503662] [0:2] [0:2] [0:3] [0:0.98347145318984985] [0:0.95349693298339844] [0:0.93106275796890259] none [0:0.26006338000297546] [0:1] [0:1] none [-339.70217895507812:559.31884765625] [-344.65676879882812:561.69342041015625] [0:0]
tree_sizes=5659 5842 5837 5858 5909 5951 5881 5924 5880 5868 5871 5860 5967 5895 5841 5945 5875 5871 5941 5933 5909 5899 5896 5897 5880 5947 5937 5976 5841 5911 5952 5891 5891 5838 5932 5826 5911 5884 5923 5885 5889 5963 5908 6026 5927 5941 5901 5916 5903 5938 5980 5966 5947 5953 5888 5898 5953 5899 5978 5933 5957 5959 6020 5950 5848 5974 5950 5991 6001 5994 6039 5980 6036 5988 5450 6003 5678 6018 5747 5478 6070 5570 6085 5596 5617 5762 6031 6002 6039 6007 6020 5778 5946 6013 5960 6006 6042 6047 6093 5946 5787 5977 6057 5892 6040 6077 5568 6039 5894 6091 6035 6092 6064 5987 5858 6087 6059 5723 6070 5834 5858 6058 6058 5757 6000 5493 6104 6067 6056 5967 5958 6024 5992 5447 6046 6025 6048 6022 6026 6008 6059 5997 5122 5501 6033 6058 6060 3978 6007 5599 6023 6005 6021 5851 5986 6047 6043 6083 6025 6008 6056 6014 5097 6026 6064 5091 5758 4889 6003 5391 5984 5840 5692 6053 6028 6058 6068 5494 5948 6065 6111 6030 6077 5659 6054 5861 5653 6038 5510 5913 5848 6032 5984 5777 5542 5912 5842 6000 6129 5947 6040 5872 6070 5818 5975 6061 5684 6021 5999 5936 5609 6044 5825 5851 5822 6019 6063 5701 6027 6021 4978 5739 5400 5289 5463 6010 5602 6058 5896 5451 5272 6046 5352 6077 5655 5883 6001 5418 6019 5831 5555 6067 5474 6069 5203 6111 5829 5986 5635 5900 5519 5562 5867 5446 5786 5984 6000 5783 5545 6005 5841 5875 5948 5137 5386 6074 5862 5128 5846 5230 5835 6031 5922 5344 5752 5947 5857 6054 5900 5982 5404 5673 5853 5894 5911 4588 5670 5995 4506 5955 5085 5856 5736 5728 5763 5156 5953 5341 5951 5594 5620 6073 5902 6068 5728 5502 5537 5633 5988 5971 6066 6045

Tree=0
num_leaves=63
num_cat=0
split_feature=35 6 7 7 35 32 83 8 29 25 11 8 84 8 84 83 25 35 35 11 83 7 31 7 35 11 35 7 84 84 8 35 13 76 77 29 53 34 7 83 6 53 31 53 53 51 55 37 53 84 31 53 13 29 5 34 59 35 7 74 83 25
split_gain=3771.47 1515.3 474.892 342.1 199.713 147.336 121.38 102.256 75.7665 51.613 45.4508 38.3964 36.8234 35.9369 31.0174 30.8705 24.4942 21.3462 20.2955 17.7178 17.3639 16.3385 16.0652 15.774 15.2819 14.6973 14.3497 14.014 13.0007 12.4157 10.2001 9.61507 9.08414 8.84227 12.5835 8.58696 8.0126 7.86057 7.6639 7.13134 6.79859 6.62173 6.38714 12.4647 6.13374 5.72761 5.69916 16.9424 8.19951 4.84321 4.49181 4.05348 3.47234 2.98708 2.65275 1.99463 0.992897 0.940546 0.918009 1.82502 0.783606 0.720907
threshold=200.06587982177737 73.356086730957045 150.22935485839847 62.795349121093757 99.958812713623061 1.8683922290802004 68.708572387695327 88.388946533203139 4.6801986694335946 0.34171086549758917 61.120735168457038 59.106824874877937 86.316268920898452 88.388946533203139 86.316268920898452 39.857378005981452 1.3873993158340456 140.03424835205081 264.61926269531256 20.01517486572266 6.8526206016540536 62.795349121093757 58.89599800109864 200.15151214599612 500.27310180664068 23.534778594970707 150.04409027099612 62.795349121093757 70.11100006103517 57.64234924316407 88.388946533203139 321.97038269042974 1.5000000000000002 1.0807211310748245e-05 4.6585721946712517e-08 4.6801986694335946 -0.87837970256805409 0.93115898966789257 44.451210021972663 68.708572387695327 121.45048141479494 -0.87837970256805409 1.0000000180025095e-35 -1.0000000180025095e-35 -1.0000000180025095e-35 1.0000000180025095e-35 0.078737799078226103 708.16665649414074 -0.87837970256805409 70.11100006103517 66.104709625244155 -0.87837970256805409 2.5000000000000004 17.127824783325199 7.5000000000000009 1.0000000180025095e-35 3.0296496333903636e-05 63.643978118896491 16.982050895690922 1.0000000180025095e-35 -109.12321853637694 0.19329354166984561
decision_type=2 2 2 2 2 2 2 2 2 2 2 2 2 2 2 2 2 2 2 2 2 2 2 2 2 2 2 2 2 2 2 2 2 2 2 2 2 2 2 2 2 2 2 2 2 2 2 2 2 2 2 2 2 2 2 2 2 2 2 2 2 2
left_child=4 3 6 8 33 14 13 15 11 26 30 25 39 21 22 35 31 44 -12 -13 53 -3 -4 -14 -16 -2 32 36 -15 -17 -8 -7 55 34 42 -5 -19 -22 51 -9 -29 -34 43 -1 49 -44 47 -36 -48 -11 -18 -28 -46 -10 -40 -6 58 -58 60 -60 -35 -59
right_child=1 2 5 7 9 16 10 12 20 17 18 19 23 28 24 29 50 27 -20 -21 37 -23 -24 -25 -26 -27 38 40 -30 -31 -32 -33 41 56 46 -37 -38 -39 54 -41 -42 -43 45 -45 52 -47 48 -49 -50 -51 -52 -53 -54 -55 -56 -57 57 61 59 -61 -62 -63
leaf_value=-50.520541964448526 -50.128714083856522 -50.723009529121562 -51.219752983110361 -50.672962815095566 -50 -50.652631469613041 -50.73536001530961 -50.792413559726612 -49.832152144366518 -50.034019176469108 -50.537323089147378 -50.503221787961145 -50.866089131882568 -50.851773608395561 -50.826721472751117 -50.661377178200894 -51.450906074062715 -50.35944408019467 -51.102295381099943 -50.694196357218871 -49.822845380675091 -50.651390917749843 -51.326298014070382 -51.287365790123658 -51.377869037153403 -50.45093899660494 -50.066137717820091 -50.247734840064417 -50.984410001832131 -50.813890535380487 -51.027815769122434 -51.181030707099033 -49.922756100823875 -50.930492976052534 -51.395888931244649 -50.22108176279967 -50.095076067721244 -50.249560774857521 -50.551147564402285 -50.903028607896921 -50.441445496630664 -49.64055591980533 -49.236872476987614 -49.254001346065657 -50 -50.379793305006999 -50.885305063986415 -48.897704681973899 -49.255757287158097 -50.196647337586519 -51.559443844460695 -49.791290106293054 -49.86195307845751 -49.448852309450025 -50.072836438549665 -50 -49.065445277960947 -49.270837039897444 -49.602602558895114 -51.487605487512553 -49.123483173503381 -49.61095460847875
leaf_weight=73 10088 4972 2721 3823 339 304 1429 1814 2630 2498 397 3440 1181 1851 532 1736 1073 823 2887 2876 1217 1877 490 1113 1532 4858 1493 1952 1090 1313 1281 2091 4267 6.9999999999999991 165 1641 4413 2338 203 1255 601 22401 68437 162 162 354 616 453 4115 181 1115 7602 4008 6502 3419 202 50753 18422 46 24 191 5361
leaf_count=73 10088 4972 2721 3823 339 304 1429 1814 2630 2498 397 3440 1181 1851 532 1736 1073 823 2887 2876 1217 1877 490 1113 1532 4858 1493 1952 1090 1313 1281 2091 4267 7 165 1641 4413 2338 203 1255 601 22401 68437 162 162 354 616 453 4115 181 1115 7602 4008 6502 3419 202 50753 18422 46 24 191 5361
internal_value=-50.0001 -50.0065 -50.013 -50.003 -49.9978 -50.0187 -50.0094 -50.0074 -50.0012 -49.9995 -50.0131 -50.0024 -50.011 -50.0071 -50.0149 -50.0051 -50.023 -50.0011 -50.0158 -50.0046 -49.9992 -50.0058 -50.0128 -50.0142 -50.0181 -50.0015 -49.9988 -50.0023 -50.0102 -50.0078 -50.0099 -50.0206 -49.9984 -49.9971 -49.9974 -50.0036 -50.0013 -50.0012 -49.9998 -50.0086 -50.0043 -49.9983 -49.9973 -50.0027 -49.9998 -49.9972 -49.9989 -50.0019 -49.9985 -50.001 -50.0256 -49.9993 -49.999 -49.9984 -50.0011 -50.0026 -49.9969 -49.9969 -49.999 -50.0021 -49.9978 -49.997
internal_weight=277210 73467 25642 47825 203743 9858 15784 13876 33949 54564 5994 21262 5363 9790 5275 8513 4583 14638 3284 6316 12687 6849 3211 2294 2064 14946 39926 7789 2941 3049 2710 2395 27209 149179 74375 5464 5236 3555 12717 3069 2553 26668 69026 235 6849 68791 5349 618 4731 2679 2188 9095 4170 9132 3622 541 74804 74536 268 70 198 23783
internal_count=277210 73467 25642 47825 203743 9858 15784 13876 33949 54564 5994 21262 5363 9790 5275 8513 4583 14638 3284 6316 12687 6849 3211 2294 2064 14946 39926 7789 2941 3049 2710 2395 27209 149179 74375 5464 5236 3555 12717 3069 2553 26668 69026 235 6849 68791 5349 618 4731 2679 2188 9095 4170 9132 3622 541 74804 74536 268 70 198 23783
is_linear=0
shrinkage=1


Tree=1
num_leaves=63
num_cat=0
split_feature=6 35 7 7 84 26 26 35 26 35 35 84 9 29 11 26 19 19 84 11 7 9 19 7 35 19 11 35 29 55 35 19 53 19 19 84 77 76 77 30 53 55 0 71 29 35 3 51 0 35 53 0 26 55 25 84 35 35 11 6 25 53
split_gain=3410.92 1155.13 624.312 391.862 181.295 133.492 132.952 88.1618 74.7529 59.7659 57.2475 46.2734 37.7701 35.3321 33.3932 32.1422 31.9543 31.4229 26.1264 21.499 20.7268 16.1415 14.6881 14.399 13.8761 12.4103 12.0935 11.91 11.6504 10.9907 10.9861 10.971 10.9679 10.1466 9.90006 9.78375 9.28562 9.15784 12.4885 8.94674 7.7511 7.71303 6.54993 6.47813 5.38297 5.32077 5.25675 5.13533 4.97255 4.67052 4.55505 8.04408 3.99358 3.90793 3.75576 3.43019 2.60823 2.43769 2.19705 2.00084 1.05125 0.787267
threshold=100.09708786010744 172.50498199462893 103.85544204711915 62.795349121093757 86.316268920898452 0.72307085990905773 0.72307085990905773 99.958812713623061 0.47393083572387701 200.06587982177737 500.27310180664068 86.316268920898452 77.467571258544936 4.6801986694335946 117.26266479492189 0.72307085990905773 -0.14922037720680234 3.0720199346542363 27.596756935119632 68.572860717773452 200.15151214599612 89.140686035156264 1.3238880038261416 56.25738716125489 321.97038269042974 1.1824456453323366 117.26266479492189 321.97038269042974 -2.8878381252288814 0.43825021386146551 321.97038269042974 0.70018258690834057 -0.87837970256805409 1.6922353506088259 1.0640999078750613 201.84351348876956 3.8890499154398133e-10 1.0807211310748245e-05 4.6585721946712517e-08 1.5614721179008486 -0.87837970256805409 0.035973768681287772 6.5000000000000009 4.0649986848828596e-11 -52.489953994750969 240.97792053222659 48.500000000000007 1.0000000180025095e-35 64.500000000000014 264.61926269531256 0.6078576147556306 60.500000000000007 0.24990928918123248 0.15855845808982852 0.19329354166984561 86.316268920898452 140.03424835205081 132.93645477294925 87.512928009033217 200.16286468505862 0.40935629606246954 -0.60785761475563038
decision_type=2 2 2 2 2 2 2 2 2 2 2 2 2 2 2 2 2 2 2 2 2 2 2 2 2 2 2 2 2 2 2 2 2 2 2 2 2 2 2 2 2 2 2 2 2 2 2 2 2 2 2 2 2 2 2 2 2 2 2 2 2 2
left_child=1 7 5 8 15 9 12 37 13 50 22 27 26 16 31 30 -3 36 41 40 -13 -20 48 32 -14 44 -5 -8 -27 -21 46 55 52 -32 -15 49 -12 38 47 -33 -10 -11 -34 -40 -17 -24 -4 -1 -6 -16 51 -2 -9 -37 58 -7 -52 -56 -25 -19 -39 -62
right_child=2 3 4 6 10 14 11 23 19 18 17 20 24 34 35 25 -18 59 21 29 -22 -23 45 54 -26 28 -28 -29 -30 -31 33 39 42 -35 -36 53 -38 60 43 -41 -42 -43 -44 -45 -46 -47 -48 -49 -50 -51 56 -53 -54 -55 57 -57 -58 -59 -60 -61 61 -63
leaf_value=0.73342250671917919 -0.09958823594996391 -0.0069017980281253864 -0.40345056477606428 -0.41386452392130851 -0.7027193296647124 -0.89482141418612438 -0.40927340711960847 0.11135446299781293 -0.57440840434834783 -0.21567329149489056 -1.3071540535708803 -0.82701084248417756 -0.42532666474859471 0.35431604282239981 -0.54800350733309033 -1.2761814960031115 -0.44460591544118744 -1.301241815183209 -0.76622020565774929 -0.5113596865970923 -1.2434393500245737 -0.96748985017100708 -0.44568069756243256 0.11793635289186115 -0.84549003084068786 -1.3474097104571798 -0.62265952250338452 -0.99787621863188181 -0.77126769285071595 -0.62538054257835607 -1.2290366341639241 -0.33445794320042094 0 -1.0103664884842678 -0.10044754221015055 -1.3533450717944324 -1.3426052621673989 0.813926098495793 -1.1228096133735366 -0.98606209835436809 -0.33256736869778758 -0.83939292991234316 0.31760408290592002 0.57485764925630634 -1.1406948720973487 -0.87453925454377379 -0.48921244497336475 -0.36723397378874179 -0.79283288662893159 -1.0464530326351831 0.19930749768944275 -0.36128125815529161 -0.10752909071204209 -1.2705165646549552 0 -1.003458052081408 -0.11177255321777455 -0.13566683064652116 -0.090942482024895466 -1.4891392622903024 0.15249163485659972 0.40827235742703455
leaf_weight=68672 1172 11565 296 6939 414 1015 1190 3924 836 525 2314 1369 1689 11477 138 478 7733 317 1666 2052 1273 1053 134 3525 2431 653 1426 2267 479 1389 1417 217 895 264 1888 164 539 72640 512 833 6306 3401 26966 4837 770 881 588 354 155 709 645 476 1641 310 1844 289 880 1877 656 1681 452 1712
leaf_count=68672 1172 11565 296 6939 414 1015 1190 3924 836 525 2314 1369 1689 11477 138 478 7733 317 1666 2052 1273 1053 134 3525 2431 653 1426 2267 479 1389 1417 217 895 264 1888 164 539 72640 512 833 6306 3401 26966 4837 770 881 588 354 155 709 645 476 1641 310 1844 289 880 1877 656 1681 452 1712
internal_value=5.82739e-05 0.00121001 -0.011625 -0.00271719 -0.0173306 -0.0068108 -0.00673316 0.00248469 -0.000990911 -0.0047948 -0.0209943 -0.0107371 -0.0047752 -0.000207743 -0.0121894 -0.0125563 -0.00111326 -0.022787 -0.00657795 -0.00340624 -0.0140421 -0.00907692 -0.0154829 0.00113243 -0.00737048 -0.01534 -0.00349425 -0.00820314 -0.0179004 -0.00555695 -0.0099619 -0.0098027 0.00143258 -0.0115485 0.0010985 -0.0164194 -0.020511 0.0028592 0.0025979 -0.0123497 -0.00236709 -0.00484117 0.00170032 0.00105326 -0.0129919 -0.0179014 -0.00691644 0.00271734 -0.0111158 -0.0141869 -0.00105437 -0.00226007 8.91185e-05 -0.0203356 -0.000135154 -0.00773127 0.000238373 -0.000900909 0.00054245 -0.0260167 0.00311874 0.00236599
internal_weight=277210 252337 24873 61830 11380 13493 18584 190507 43246 9818 6435 6099 12485 32663 3675 4945 19298 4851 6645 10583 2642 2719 1584 41328 4120 2380 8365 3457 1132 3441 2565 2354 33426 1681 13365 1321 2853 149179 74375 1050 7142 3926 27861 5349 1248 1015 884 69026 569 847 3173 1648 5565 474 7902 1304 1525 3721 4181 1998 74804 2164
internal_count=277210 252337 24873 61830 11380 13493 18584 190507 43246 9818 6435 6099 12485 32663 3675 4945 19298 4851 6645 10583 2642 2719 1584 41328 4120 2380 8365 3457 1132 3441 2565 2354 33426 1681 13365 1321 2853 149179 74375 1050 7142 3926 27861 5349 1248 1015 884 69026 569 847 3173 1648 5565 474 7902 1304 1525 3721 4181 1998 74804 2164
is_linear=0
shrinkage=0.0330689


Tree=2
num_leaves=63
num_cat=0
split_feature=6 7 7 9 26 26 31 29 9 26 9 26 84 84 84 11 84 29 29 30 27 25 27 27 11 11 11 11 84 11 6 53 84 11 31 27 26 31 37 53 76 11 3 25 26 6 31 76 11 30 30 11 6 30 71 7 33 27 11 84 31 30
split_gain=3265.3 859.166 610.105 248.751 204.761 177.229 132.658 118.544 71.4986 66.9194 51.9258 47.5506 44.5703 42.6187 41.6571 27.857 25.6352 24.5686 23.3905 22.9854 19.9288 18.5271 17.949 17.7975 17.2211 15.7316 15.3875 15.084 14.058 13.3686 13.1391 12.1147 11.846 11.5351 11.2323 10.6611 10.5985 10.3893 8.83434 8.177 7.96221 7.92618 7.21688 6.82692 6.78654 6.50208 6.42239 6.33501 6.32853 5.90592 5.56834 5.2664 5.07092 5.00802 4.41189 4.27377 3.80765 3.08279 2.77358 2.41485 2.25589 1.73649
threshold=100.09708786010744 79.596912384033217 150.22935485839847 68.186542510986342 0.82683745026588451 0.72307085990905773 58.89599800109864 14.811514854431154 89.140686035156264 0.39532336592674261 77.467571258544936 0.72307085990905773 70.11100006103517 86.316268920898452 108.76740646362306 34.738552093505866 70.11100006103517 -1.4150351285934446 4.6801986694335946 1.5124836564064028 -251.62296295166013 0.28737701475620275 2556.8254394531255 4059.7978515625005 117.26266479492189 68.572860717773452 137.7177658081055 117.26266479492189 40.002159118652351 61.120735168457038 200.16286468505862 -0.87837970256805409 57.64234924316407 166.71052551269534 56.386470794677741 1794.8796997070315 0.2992620468139649 66.104709625244155 292.58007812500006 -0.87837970256805409 5.0955300423538581e-08 61.120735168457038 42.500000000000007 1.3873993158340456 0.72307085990905773 -1.0000000180025095e-35 50.711162567138679 2.4354844363472242e-08 87.512928009033217 2.0438328981399541 1.4647650122642519 23.534778594970707 200.16286468505862 2.444068551063538 1.6125025581459343e-07 36.185491561889656 -0.62545472383499134 1035.5850830078127 23.534778594970707 430.81207275390631 56.386470794677741 1.9734963178634646
decision_type=2 2 2 2 2 2 2 2 2 2 2 2 2 2 2 2 2 2 2 2 2 2 2 2 2 2 2 2 2 2 2 2 2 2 2 2 2 2 2 2 2 2 2 2 2 2 2 2 2 2 2 2 2 2 2 2 2 2 2 2 2 2
left_child=1 3 5 7 8 10 12 9 19 15 20 18 36 25 35 -1 48 37 27 45 30 38 32 33 -21 55 44 -5 -11 54 -2 -23 -10 -16 49 46 42 47 -9 -20 -31 -18 -4 -22 -14 -3 -6 -8 -12 -15 -19 -38 -36 -28 -13 -7 -24 -27 -39 -52 -37 -25
right_child=2 4 6 11 14 13 17 21 22 28 16 29 26 34 23 -17 41 50 39 24 43 31 56 61 -26 57 53 -29 -30 40 -32 -33 -34 -35 52 60 51 58 -40 -41 -42 -43 -44 -45 -46 -47 -48 -49 -50 -51 59 -53 -54 -55 -56 -57 -58 -59 -60 -61 -62 -63
leaf_value=0.47848607248016184 -0.2617452229934174 0.22164138266297506 -0.81640737207250869 -0.25482223453211056 -0.81174892340516913 -0.88083467437548679 -1.3212915670274337 0.73828188404005912 -0.52142967221599379 -0.11989118226140845 -0.60343710878174206 -0.28807110296208033 -0.95129998242548686 -0.64205756940165482 -0.91664991154093067 -0.022076859243037254 -0.75957690366265307 -0.51816011527386785 -0.28239802876513026 -0.35711758750656808 -0.59533250156368578 -0.064757142966876013 -0.73163413129027743 -0.60692733378348063 -0.69577852194173373 -0.88663311304531145 -0.8755564354511588 -0.65931998754043952 -0.45710227313884499 -0.76018673128567571 -0.85679755241675348 0.28896228605026852 -0.69669113046990538 -1.1962248907033737 -0.89670207369384625 -1.0003839613890797 -1.1440841426504016 -1.2962020278484394 0.57948436481144372 0.12735288215049395 -0.51941683658130899 -0.98026043484111958 -1.3592310227970186 -1.4110170070436632 -1.1423002953710304 -0.069157731988565549 -0.76751863266248277 -1.3283549793438703 -0.70890393802484419 -1.0975435767374311 -0.89811465567524917 -1.141769445539909 -1.2428905498063743 -1.2951120381747583 -0.52352790698122831 -0.80527412407998544 -0.92803944840752284 -1.0029426549197618 -1.4395371179098644 -0.56945098282889639 -0.96361018324976966 -1.2060061612923274
leaf_weight=57302 4448 1099 425 6930 603 793 1257 96037 1955 8217 1287 875 565 188 795 9670 523 111 940 7287 1031 2100 305 64 1199 866 195 1461 2346 1031 2467 11759 1329 638 560 368 699 159 24236 6247 626 733 469 198 674 3172 1538 302 513 816 504 967 539 989 1181 828 306 193 1556 18 318 403
leaf_count=57302 4448 1099 425 6930 603 793 1257 96037 1955 8217 1287 875 565 188 795 9670 523 111 940 7287 1031 2100 305 64 1199 866 195 1461 2346 1031 2467 11759 1329 638 560 368 699 159 24236 6247 626 733 469 198 674 3172 1538 302 513 816 504 967 539 989 1181 828 306 193 1556 18 318 403
internal_value=8.66652e-05 0.00121355 -0.0113445 0.00180068 -0.0051283 -0.00747939 -0.01829 0.00212835 -0.0034022 0.00109866 -0.0052005 -0.00179366 -0.0146979 -0.01281 -0.0112034 0.0014846 -0.00888002 -0.0228622 -0.000990643 -0.00220269 -0.00381682 0.00272343 -0.00732506 -0.0150036 -0.00319857 -0.0100218 -0.0179287 -0.00217674 -0.00134667 -0.0051571 -0.00312232 0.00157566 -0.00634298 -0.0131261 -0.016349 -0.00863906 -0.0116277 -0.0240327 0.00285553 0.000391968 -0.00737567 -0.0125199 -0.00864963 -0.00770531 -0.0152703 -0.00021984 -0.00746288 -0.0219526 -0.0063255 -0.0137244 -0.0167535 -0.0132097 -0.018717 -0.0206813 -0.00335833 -0.00793897 -0.0125575 -0.0131839 -0.0259001 -0.018229 -0.0122697 -0.0206892
internal_weight=277210 252337 24873 230958 21379 15983 8890 211667 16652 77535 11200 19291 4983 4783 4727 66972 3056 3907 15578 12757 8144 134132 3895 1900 8486 2680 2423 8391 10563 3713 6915 13859 3284 1433 2103 2827 2560 3274 120273 7187 1657 1256 894 1229 1239 4271 2141 1559 1800 1004 633 1666 1099 1184 2056 1621 611 1059 1715 522 686 467
internal_count=277210 252337 24873 230958 21379 15983 8890 211667 16652 77535 11200 19291 4983 4783 4727 66972 3056 3907 15578 12757 8144 134132 3895 1900 8486 2680 2423 8391 10563 3713 6915 13859 3284 1433 2103 2827 2560 3274 120273 7187 1657 1256 894 1229 1239 4271 2141 1559 1800 1004 633 1666 1099 1184 2056 1621 611 1059 1715 522 686 467
is_linear=0
shrinkage=0.0330689


Tree=3
num_leaves=63
num_cat=0
split_feature=6 84 84 30 19 22 19 22 27 28 19 11 19 28 19 37 30 19 6 30 27 27 30 37 6 22 11 30 19 30 19 11 11 19 11 28 27 19 30 6 19 30 11 19 27 34 19 34 19 27 30 30 34 19 1 20 19 19 37 6 11 2
split_gain=3100.28 569.423 552.617 239.121 257.462 153.802 146.14 120.109 76.3435 73.7393 47.9795 46.5159 46.0787 39.1077 36.234 33.7946 33.0134 33.659 32.7675 32.3226 27.0838 22.4428 22.2789 19.5004 19.3764 19.3269 16.4666 14.2588 14.328 14.09 19.4249 12.5874 12.5473 11.4648 11.401 11.3952 11.2684 11.1461 9.30142 9.23533 8.63098 8.51881 7.91884 7.67318 7.48887 7.39931 6.35922 5.62695 5.55723 5.24521 5.19702 4.80134 4.48915 3.72417 3.16737 3.14914 3.12055 2.79126 2.47463 1.89181 1.26678 0.720879
threshold=100.09708786010744 57.64234924316407 108.76740646362306 1.5124836564064028 -0.24114783853292462 129.12473297119143 2.3534607887268071 129.12473297119143 1794.8796997070315 2020.3765869140627 1.4906325936317446 117.26266479492189 1.1824456453323366 2875.4084472656255 0.62564745545387279 1376.8299560546877 1.2553738355636599 0.77630919218063366 45.012437820434577 2.6488636732101445 -520.16690063476551 1794.8796997070315 2.1169857978820805 373.70651245117193 200.16286468505862 182.6926193237305 166.71052551269534 3.0443091392517094 -0.078287541866302476 0.98139959573745739 0.86291739344596874 117.26266479492189 61.120735168457038 -0.40602037310600275 77.281051635742202 2875.4084472656255 2556.8254394531255 0.95699253678321849 1.7260973453521731 200.16286468505862 0.040805388242006309 2.1169857978820805 117.26266479492189 1.1824456453323366 -680.23971557617176 4.4951913356781015 1.4906325936317446 0.93115898966789257 -0.40602037310600275 4059.7978515625005 1.6701810956001284 1.0437883734703066 1.6840350627899172 1.6922353506088259 166.50000000000003 0.80140098929405224 2.3534607887268071 0.49078176915645605 211.55236816406253 499.23077392578131 -54.116178512573235 3.5000000000000004
decision_type=2 2 2 2 2 2 2 2 2 2 2 2 2 2 2 2 2 2 2 2 2 2 2 2 2 2 2 2 2 2 2 2 2 2 2 2 2 2 2 2 2 2 2 2 2 2 2 2 2 2 2 2 2 2 2 2 2 2 2 2 2 2
left_child=1 3 7 18 15 9 11 13 14 16 32 25 31 20 -6 48 43 -18 29 38 24 42 50 54 -2 35 40 46 -29 57 -31 44 49 -17 47 -4 -25 -10 58 -22 -15 -34 -11 -3 -9 -23 -13 -20 -5 -7 -14 -36 -27 -28 -12 -33 -24 -1 -8 60 -21 -40
right_child=2 5 6 4 8 10 19 12 37 21 23 27 22 26 -16 33 17 -19 34 59 39 45 56 36 -26 52 53 28 -30 30 -32 55 41 -35 51 -37 -38 -39 61 -41 -42 -43 -44 -45 -46 -47 -48 -49 -50 -51 -52 -53 -54 -55 -56 -57 -58 -59 -60 -61 -62 -63
leaf_value=0.86304768223169892 -0.31301997641641111 0.33425237014808823 -0.74961623242901099 0.74495188902360854 -0.17374578875966071 -0.5376574262655317 -0.20922275336027177 -0.85784249184412864 -0.70136525817008755 -0.50090755117860963 -0.41788751749515712 -0.8500408394852037 -0.52243889684647249 -0.65856226883641211 -0.50623203637583858 0.45930137352697153 -0.21385410179127998 -0.50535252235140293 0.29144547060151499 -1.1883358610150954 -0.58573065220264842 -0.85295723492668907 -1.2055643357914556 -1.0377820406831741 -0.93363860761611939 -1.157329294283157 -1.0225058438482808 -1.1141065136511723 -1.2780297097221662 0.596902610434207 0.016060486267008192 -1.102061211955814 -0.2925658347111349 -0.065312190206283927 0.039577239138904416 -1.016741847734405 -1.1169161648192882 -0.93766103019752101 -0.81229872206063569 -1.3066884957030653 -0.81354280263478052 -0.89810519488476237 -0.85477677012036168 -0.056770237008892291 -1.0935127268268896 -1.019770266490992 -0.85737804749861379 0.013457812338337198 0.27646683139481926 -0.79500735403222056 -0.76656124162050665 -0.24334440025410289 -1.1018360667990519 -1.1735944500740547 -0.17582201236274611 -0.99322974237607109 -1.2229877916979668 0.43628634124063154 -0.64006183011434281 -1.4230863059935366 -1.2675364321724794 -0.92728674150413193
leaf_weight=60560 5002 2732 1488 29162 22046 1759 41 1886 2035 1216 302 500 420 285 4560 19624 8884 2550 4812 5.9999999999999991 1282 316 523 824 3077 467 195 131 1351 44879 4317 221 354 7469 638 399 460 684 5.9999999999999991 455 827 1267 802 1679 529 217 485 3113 6246 151 441 927 413 162 178 495 344 17574 346 1200 908 988
leaf_count=60560 5002 2732 1488 29162 22046 1759 41 1886 2035 1216 302 500 420 285 4560 19624 8884 2550 4812 6 1282 316 523 824 3077 467 195 131 1351 44879 4317 221 354 7469 638 399 460 684 6 455 827 1267 802 1679 529 217 485 3113 6246 151 441 927 413 162 178 495 344 17574 346 1200 908 988
internal_value=0.000113148 0.00121119 -0.0110254 0.0017169 0.000411295 -0.00366867 -0.0177299 -0.00739845 -0.00214475 -0.00223772 -0.00863562 -0.0142199 -0.0117483 -0.0055232 -0.00160441 0.00161085 -0.00139613 -0.00233405 0.00259302 -0.022976 -0.00476613 -0.00745604 -0.0160984 -0.0130983 -0.00395598 -0.0112515 -0.010564 -0.0175367 -0.0196295 0.00273278 0.00229285 -0.00933783 -0.00639843 0.000730849 0.00071601 -0.00933214 -0.0152374 -0.00742347 -0.0189608 -0.00852027 -0.0085361 -0.0085506 -0.00584233 0.00103134 -0.0081714 -0.0135124 -0.0143544 0.00122663 0.00228369 -0.00455973 -0.0122531 -0.00185828 -0.0153333 -0.0167931 -0.0073219 -0.0132322 -0.0198794 0.00300953 -0.0143867 -0.0255811 -0.0240734 -0.0207087
internal_weight=277210 252337 24873 228646 91826 23691 8729 16144 29325 18396 5295 5234 4859 11285 26606 62501 15845 11434 136820 3495 9816 2551 1728 1764 8079 2767 1469 2467 1482 127330 49196 3131 3531 27093 9490 1887 1284 2719 1381 1737 1112 1621 2018 4411 2415 533 985 7925 35408 1910 861 1565 880 357 480 716 867 78134 387 2114 914 994
internal_count=277210 252337 24873 228646 91826 23691 8729 16144 29325 18396 5295 5234 4859 11285 26606 62501 15845 11434 136820 3495 9816 2551 1728 1764 8079 2767 1469 2467 1482 127330 49196 3131 3531 27093 9490 1887 1284 2719 1381 1737 1112 1621 2018 4411 2415 533 985 7925 35408 1910 861 1565 880 357 480 716 867 78134 387 2114 914 994
is_linear=0
shrinkage=0.0330689


Tree=4
num_leaves=63
num_cat=0
split_feature=35 6 19 7 35 29 7 8 30 19 84 84 8 25 84 30 30 19 35 27 35 27 27 27 26 27 84 27 7 53 76 77 53 30 7 19 19 53 53 55 19 84 13 25 8 53 8 30 5 26 6 8 30 2 5 25 35 6 53 56 14 37
split_gain=3046.03 1248.02 437.66 326.723 169.267 130.899 114.697 104.595 63.8495 41.5464 39.3699 37.6711 33.7073 32.2632 28.2502 23.836 22.6205 21.137 20.1584 19.3582 18.6711 17.3395 14.6035 13.034 12.9823 12.9654 11.8133 11.0364 10.8996 10.5605 10.145 11.7176 9.31018 9.30593 7.94645 7.137 6.89998 6.81841 6.81052 5.71295 5.00132 4.93768 4.91754 4.48604 4.32403 3.89341 3.78426 3.77042 3.33418 3.30572 3.15593 2.9361 2.79137 2.28263 1.76657 1.7413 1.72852 1.64998 1.19418 0.864803 0.785791 0.318426
threshold=200.06587982177737 100.09708786010744 1.6922353506088259 62.795349121093757 118.84651947021486 -1.4150351285934446 103.85544204711915 100.05452728271486 1.7820976972579958 -0.14922037720680234 86.316268920898452 144.02893066406253 88.388946533203139 0.34171086549758917 57.64234924316407 1.5614721179008486 3.0443091392517094 0.77630919218063366 99.958812713623061 1035.5850830078127 600.40985107421886 4059.7978515625005 -1309.5087890624998 1794.8796997070315 0.72307085990905773 2556.8254394531255 144.02893066406253 1035.5850830078127 79.596912384033217 -0.87837970256805409 1.0807211310748245e-05 4.6585721946712517e-08 -0.87837970256805409 1.1808770895004275 44.451210021972663 2.3534607887268071 -0.43375101685523981 -0.87837970256805409 0.87837970256805431 0.078737799078226103 3.0720199346542363 70.11100006103517 8.5000000000000018 0.25912977755069738 76.682846069335952 -0.87837970256805409 31.097409248352054 1.2940766811370852 3.5000000000000004 0.13104745745658877 150.0825119018555 47.400720596313484 1.7260973453521731 76.500000000000014 116.50000000000001 0.50041767954826366 63.643978118896491 18.969938278198246 -0.87837970256805409 1.0000000180025095e-35 48.500000000000007 5303.8461914062509
decision_type=2 2 2 2 2 2 2 2 2 2 2 2 2 2 2 2 2 2 2 2 2 2 2 2 2 2 2 2 2 2 2 2 2 2 2 2 2 2 2 2 2 2 2 2 2 2 2 2 2 2 2 2 2 2 2 2 2 2 2 2 2 2
left_child=4 3 6 8 18 16 12 14 17 36 24 23 22 32 25 38 35 43 30 -11 -12 -13 -3 -9 -8 -5 -14 -16 29 46 31 37 49 -19 47 -4 -10 -1 -7 -33 -18 -17 59 -2 50 55 -15 -34 -31 52 -30 -36 -6 -46 -51 -44 61 -47 -58 60 -20 -32
right_child=1 2 5 7 13 15 10 11 9 19 20 21 26 28 27 41 40 33 42 -21 -22 -23 -24 -25 -26 -27 -28 -29 44 48 56 39 34 -35 51 -37 -38 -39 -40 -41 -42 -43 45 -45 53 57 -48 -49 -50 54 -52 -53 -54 -55 -56 -57 58 -59 -60 -61 -62 -63
leaf_value=0.30883641908743564 0.49807224225787528 -0.67385726449804728 -0.9111998804612611 -0.47072276847808225 0.15644141905366499 -0.48870439657940873 -0.98851698810019062 -0.70281087540114118 0.016414685972507219 -0.47244476905994748 -0.72088636448431076 -1.049350593504172 -0.84024332837812543 -0.21257774925685022 -0.61661342759721216 -0.69825843293255652 -1.3071314832598258 0.11719414141466408 -0.014723161957845015 -0.73231907059893619 -1.2039875259792785 -1.1024111666131582 -0.93427528495991197 -0.89125299510886813 -1.1128478881323214 -0.8439726211660582 -1.065971801045126 -0.71145958001857212 -0.15823322258192871 -0.52530048725502887 0.83013384273313007 -1.0157766647088555 0.36723242913318943 -0.29525158219173642 0.08318051797984094 -0.95433304476999536 -0.31553747549723243 0.76528218452383434 -0.26872668388458187 0.52394324027493333 -1.3629171460440772 -0.77551274188545372 0.09867647253247501 -0.036177838252918593 -0.29154683162225808 0.43793205011111619 -0.34165195103040802 0.21391190911830985 -0.024036137167261464 -0.17779318589866716 -0.45885214519290801 -0.082102614508941546 -0.13380387270399782 -0.29947579685677916 -0.020877728444308605 -0.15876586761052641 0.3143099258031461 0.20548711117543131 0.60639432000915894 0.026017488382638444 0.58459387789571648 0.29384796352173465
leaf_weight=9106 8433 4614 708 6283 1071 609 1843 3022 5139 9757 825 1438 2144 762 2447 437 926 1123 1136 1911 1478 472 1048 966 1466 731 668 991 1558 113 50886 618 5009 2365 3806 1330 6142 59920 287 4731 1529 957 2180 1378 310 7941 602 11136 7154 1232 179 1966 1160 388 661 202 3414 4792 20459 792 414 45
leaf_count=9106 8433 4614 708 6283 1071 609 1843 3022 5139 9757 825 1438 2144 762 2447 437 926 1123 1136 1911 1478 472 1048 966 1466 731 668 991 1558 113 50886 618 5009 2365 3806 1330 6142 59920 287 4731 1529 957 2180 1378 310 7941 602 11136 7154 1232 179 1966 1160 388 661 202 3414 4792 20459 792 414 45
internal_value=0.000131399 -0.00564117 -0.0124838 -0.00292577 0.00221301 -0.019387 -0.00915726 -0.00680651 -0.00117473 -0.00223139 -0.0128275 -0.0103299 -0.00672342 0.000192667 -0.00481591 -0.0129259 -0.0226728 0.000647454 0.0026628 -0.00361521 -0.0161641 -0.0141637 -0.00524559 -0.00848649 -0.0104961 -0.0036067 -0.00969025 -0.0072763 -0.0013025 -0.00074857 0.00278738 0.00251253 0.00082869 -0.00156103 0.00110018 -0.0200246 -0.000798436 0.00262823 -0.00865984 0.00101617 -0.0248555 -0.0156479 0.00159719 0.00143438 -0.00325802 0.00181577 -0.00341833 0.00147669 -0.000244786 -0.00061007 -0.00235554 4.41072e-05 0.000245942 -0.00547363 -0.00162725 0.00057867 0.00306039 0.00204583 0.00282126 0.000179247 -0.000266512 0.0031721
internal_weight=277210 73467 20869 52598 203743 6783 14086 16350 36248 22949 5612 5898 8474 37107 10452 2290 4493 13299 166636 11668 2303 1910 5662 3988 3309 7014 2812 3438 11066 8631 149179 74375 26041 3488 21917 2038 11281 69026 896 5349 2455 1394 17457 9811 2435 15115 1364 16145 7267 4124 1737 5772 2231 698 1893 2382 74804 12733 23873 2342 1550 50931
internal_count=277210 73467 20869 52598 203743 6783 14086 16350 36248 22949 5612 5898 8474 37107 10452 2290 4493 13299 166636 11668 2303 1910 5662 3988 3309 7014 2812 3438 11066 8631 149179 74375 26041 3488 21917 2038 11281 69026 896 5349 2455 1394 17457 9811 2435 15115 1364 16145 7267 4124 1737 5772 2231 698 1893 2382 74804 12733 23873 2342 1550 50931
is_linear=0
shrinkage=0.0330689


Tree=5
num_leaves=63
num_cat=0
split_feature=35 6 8 83 35 84 8 84 29 11 83 26 35 83 11 83 35 25 25 26 34 6 6 25 83 34 29 11 11 35 35 6 11 83 6 53 53 53 79 29 53 30 24 34 8 53 35 11 13 25 54 59 63 84 53 53 35 25 35 25 76 25
split_gain=2933.64 1192.09 392.454 234.892 165.791 134.643 89.0727 82.0651 72.626 46.9264 39.8907 35.0584 34.1413 25.8594 22.1126 21.946 20.302 19.7257 18.1781 13.82 13.3048 13.1464 13.0405 12.6663 12.5726 11.4257 9.98308 9.87335 9.73622 9.05415 8.76658 8.44906 8.2079 7.49957 6.83965 6.70698 6.66149 6.3977 5.72023 5.11758 4.45832 4.34428 3.74977 3.74087 3.63957 3.60234 3.61168 3.25477 3.56032 3.06079 2.85545 2.35645 12.6704 2.56336 2.34475 2.1527 2.03278 1.74298 1.65211 1.30218 1.00063 0.95578
threshold=200.06587982177737 100.09708786010744 150.09157562255862 39.857378005981452 99.958812713623061 86.316268920898452 100.05452728271486 108.76740646362306 6.4205710887908944 68.572860717773452 139.99756622314456 0.3285683691501618 150.04409027099612 106.07987594604494 300.19602966308599 47.488534927368171 366.76029968261724 0.37475632131099706 0.45207080245018011 0.27415762841701513 1.4638508558273318 -6.9737966060638419 36.326890945434577 1.3873993158340456 68.708572387695327 0.52056634426116954 24.444165229797367 87.512928009033217 117.26266479492189 366.76029968261724 750.64102172851574 32.760824203491218 54.772256851196296 33.511005401611335 29.367855072021488 -1.0000000180025095e-35 -0.87837970256805409 -0.87837970256805409 1.0000000180025095e-35 6.4205710887908944 -0.87837970256805409 1.3347230553627016 3.5000000000000004 2.5379949808120732 59.106824874877937 -0.87837970256805409 70.376266479492202 -5.78096580505371 445.50000000000006 0.15551683306694034 1.0000000180025095e-35 3.0296496333903636e-05 0.00011915603681700306 -26.159095764160153 -0.87837970256805409 -0.87837970256805409 140.03424835205081 0.37475632131099706 63.643978118896491 0.075239952653646483 1.0807211310748245e-05 0.19329354166984561
decision_type=2 2 2 2 2 2 2 2 2 2 2 2 2 2 2 2 2 2 2 2 2 2 2 2 2 2 2 2 2 2 2 2 2 2 2 2 2 2 2 2 2 2 2 2 2 2 2 2 2 2 2 2 2 2 2 2 2 2 2 2 2 2
left_child=4 3 7 8 26 14 18 15 11 38 27 22 31 25 24 29 -11 36 28 41 -17 -13 -2 -12 -4 -9 37 -7 -5 -3 -15 39 -20 40 -21 50 49 51 -8 55 -19 -10 -16 -35 -38 46 60 59 -49 -14 -33 52 -1 -53 -41 -6 -37 -48 -47 -39 -28 -60
right_child=1 2 5 6 12 10 9 13 19 16 23 21 17 30 42 20 -18 33 32 34 -22 -23 -24 -25 -26 -27 45 -29 -30 -31 -32 35 -34 43 -36 56 44 47 -40 54 -42 -43 -44 -45 -46 58 57 48 -50 -51 -52 53 -54 -55 -56 -57 -58 -59 61 -61 -62 -63
leaf_value=0.20413193458210568 -0.20772774396482982 -0.38781756017238983 -0.99997135508720125 -0.47087004432928858 -0.013475478222115537 -0.9355798562747788 -0.67481797591594128 -0.89737854851909027 0.49197922240289571 -0.43438321000668484 -1.0292638182579739 -0.48164848421844308 -0.075834237442748906 -0.77049708838563513 -1.1038572796574995 -0.71795442116061048 -0.99302605717636816 -0.34403564192866787 -0.47726552968218705 0.023859428243317885 -0.7742353800966203 -0.61279158128421796 -0.49392665105337746 -1.2933595135354925 -0.97509555348406007 -0.77719457355706123 0.38873734375692165 -1.0838214893572822 -0.6459391116157035 -1.0271972986566018 -1.1931002145532352 -0.089791747488204066 -0.6266173807336114 -0.26902405442171479 -0.23928215995516205 0.18393362574844505 0.14547376711154111 1.0529706092235511 -0.77961103227208428 0.12385121943869093 -0.09822203525971003 0.13376876228470372 -1.1740507628442818 -0.27000731381093723 -0.056658054990877095 0.86467105858799609 0.26186844761867117 0.51680993204738446 -0.12695813376638068 -0.27292847642032786 0.057722091972179861 0.48297924047493923 -1.4934009507506507 0.081138086940449355 0.3365007703617397 0.25769905406571209 -0.023368941853411387 -0.067528930196488007 0.67768219959761178 0.50442625597813129 0.50851297501356441 0.33233793676167644
leaf_weight=1693 11744 2149 1364 6863 1554 619 2090 998 5169 888 1413 3363 1464 788 274 1844 2538 568 1104 2046 1456 4665 2727 2202 1416 887 3898 1080 2079 3472 725 2873 1093 1236 1308 4917 8559 24877 972 2473 3296 3838 272 811 2443 60450 3152 11651 602 599 1254 3057 44 1423 12298 8976 1014 332 20332 5128 6636 5827
leaf_count=1693 11744 2149 1364 6863 1554 619 2090 998 5169 888 1413 3363 1464 788 274 1844 2538 568 1104 2046 1456 4665 2727 2202 1416 887 3898 1080 2079 3472 725 2873 1093 1236 1308 4917 8559 24877 972 2473 3296 3838 272 811 2443 60450 3152 11651 602 599 1254 3057 44 1423 12298 8976 1014 332 20332 5128 6636 5827
internal_value=0.0001464 -0.00551856 -0.0121856 -0.00285579 0.0021917 -0.0175907 -0.00596695 -0.0083923 -0.00128202 -0.00904922 -0.0208623 -0.00240095 0.000627466 -0.0127713 -0.0123539 -0.00672126 -0.0117135 -0.00050343 -0.00416953 0.000753292 -0.00887079 -0.00415451 -0.00142677 -0.0228446 -0.0111359 -0.0101521 0.0027616 -0.0166239 -0.00350287 -0.00545501 -0.0160146 0.00123485 -0.00687255 -0.00208862 -0.00105564 0.000421785 0.000212596 0.00236986 -0.00605992 0.00155738 -0.00122436 0.00142877 -0.0184932 -0.00371056 0.000537072 0.00295013 0.00245156 0.00251606 0.00205581 -0.00150925 -0.000599213 0.00137317 0.000327264 0.00177484 0.00195566 0.000996996 0.001135 0.00151728 0.00303061 0.00270339 0.00275882 0.00280428
internal_weight=276883 73446 20959 52487 203437 8640 17627 12319 34860 6488 5314 22499 54335 3398 3326 8921 3426 18976 11139 12361 3300 8028 14471 3615 2780 1885 149102 1699 8942 5621 1513 35359 2197 5911 3354 10058 13065 48475 3062 25301 3864 9007 546 2047 11002 100627 14018 42258 12253 2063 4127 6217 1737 4480 14771 10530 5931 3484 86609 30005 10534 26159
internal_count=276883 73446 20959 52487 203437 8640 17627 12319 34860 6488 5314 22499 54335 3398 3326 8921 3426 18976 11139 12361 3300 8028 14471 3615 2780 1885 149102 1699 8942 5621 1513 35359 2197 5911 3354 10058 13065 48475 3062 25301 3864 9007 546 2047 11002 100627 14018 42258 12253 2063 4127 6217 1737 4480 14771 10530 5931 3484 86609 30005 10534 26159
is_linear=0
shrinkage=0.0330689


Tree=6
num_leaves=63
num_cat=0
split_feature=7 35 6 25 83 31 8 35 83 29 35 11 35 11 29 32 8 8 8 11 35 32 25 83 29 7 35 23 11 7 7 35 35 25 29 31 35 8 34 8 83 55 51 7 35 7 8 63 5 6 35 59 11 23 8 6 12 33 7 83 36 59
split_gain=2864.92 902.005 597.68 264.302 166.755 164.92 83.909 80.7818 62.5309 49.7617 44.6283 43.5133 38.9055 34.1179 33.2002 30.0772 23.2984 21.4268 20.6212 19.646 18.3312 14.8177 12.4435 12.2874 10.8954 10.8445 10.6281 9.66922 9.37568 9.2133 9.00565 8.39678 8.04123 7.77054 7.39831 6.77029 6.64493 6.52595 6.04595 5.74292 5.64732 5.19557 5.03241 4.93559 4.58325 4.54136 4.39146 4.3758 3.83488 3.59692 3.40195 3.29636 2.8616 2.81845 2.77099 2.32623 2.16938 2.13171 1.78448 1.6631 1.26709 1.23833
threshold=103.85544204711915 172.50498199462893 121.45048141479494 0.50041767954826366 84.36041641235353 58.89599800109864 88.388946533203139 95.388095855712905 15.660723209381105 -1.4150351285934446 321.97038269042974 68.572860717773452 200.06587982177737 117.26266479492189 4.6801986694335946 0.19744038581848147 88.388946533203139 66.683586120605483 200.17421722412112 68.572860717773452 321.97038269042974 -0.34960991144180292 0.40935629606246954 23.248445510864261 24.444165229797367 26.672555923461918 366.76029968261724 4.0689902305603036 61.120735168457038 32.958974838256843 200.15151214599612 321.97038269042974 321.97038269042974 1.9813394546508791 21.858716011047367 1.0000000180025095e-35 321.97038269042974 52.586210250854499 2.2123594284057622 38.238786697387702 9.4299635887146014 0.46071977913379675 1.0000000180025095e-35 150.22935485839847 125.01976776123048 36.185491561889656 150.09157562255862 0.18675945699214938 208.50000000000003 32.760824203491218 57.580013275146491 0.00020352604042273017 137.7177658081055 4.0689902305603036 20.0028829574585 84.639961242675795 49.224462509155281 -17.404165267944332 26.672555923461918 47.488534927368171 1069.7947387695315 3.0296496333903636e-05
decision_type=2 2 2 2 2 2 2 2 2 2 2 2 2 2 2 2 2 2 2 2 2 2 2 2 2 2 2 2 2 2 2 2 2 2 2 2 2 2 2 2 2 2 2 2 2 2 2 2 2 2 2 2 2 2 2 2 2 2 2 2 2 2
left_child=1 7 4 8 12 10 19 24 14 21 37 39 49 26 25 27 29 28 38 32 -15 46 34 -21 35 -3 -8 -12 -14 -10 -17 -18 -5 -23 51 47 -19 52 -13 55 -11 -20 -37 -42 60 -16 -7 -1 -41 59 61 -9 -4 -39 -46 -6 -51 -36 -52 -2 -24 -26
right_child=2 3 5 6 11 9 13 22 16 40 15 18 17 20 45 30 31 36 41 23 -22 33 44 -25 50 -27 -28 -29 -30 -31 -32 -33 -34 -35 57 42 -38 53 -40 48 43 -43 -44 -45 54 -47 -48 -49 -50 56 58 -53 -54 -55 -56 -57 -58 -59 -60 -61 -62 -63
leaf_value=-0.19517305922677408 0.023242263897817708 -0.1129809962333278 -0.33383563348237821 -0.23648862533616613 -0.61506955296259858 -0.94853311779737637 -0.41490763363389205 0.076982619885144044 -0.23895290203257594 -0.092992794393093131 -1.0184513842466234 -0.71834553845045335 -0.46931127709436093 -0.40484222253950686 0.40979430718037518 -0.85945380775133084 -0.28406344008744339 -0.3862068162045697 -1.0715864943205726 -0.50207324506042927 -0.97997578641841221 -1.0942299506362259 0.089430908095415457 -0.6792981751381969 0.74941600027913402 -0.39962213834742982 -0.88639544410860815 -1.1875948093977986 -0.65192572485002509 -0.35589007726927785 -1.1015954812268585 -0.68591779723848023 -0.73472861123974031 -1.2860604637518618 0.046305628489333124 0.66219176158561954 -0.81635227392514953 -0.41129017610948826 -0.75295925484244042 -0.70898629039607297 -0.58858569250924409 -1.0292490274747657 -0.53311380458087065 -0.7285492549809971 0.015434832942695821 -0.0062426550289976816 -1.156079813505644 -0.56760876330343113 -1.014088111473767 -0.15436144307111507 0.60390984827324479 0.22636916156233067 -0.42963730934431182 -0.47207899872965031 -0.14273987581779518 -0.62311798443986188 -0.25869192234698551 0.27504578166861221 0.27932350102655057 -0.32376087394988429 -0.017385829610430458 0.79958793662661032
leaf_weight=94 1905 13015 458 3374 618 141 1575 7025 7590 36 1537 597 3195 454 9719 673 1694 1005 603 1567 1501 1938 3411 1654 18450 3922 2113 1501 1270 3488 1168 2735 3985 1048 1038 47281 2150 112 1045 1092 303 481 315 514 2182 2041 352 37 330 798 27041 12475 97 400 2501 96 469 14917 7547 201 307 45702
leaf_count=94 1905 13015 458 3374 618 141 1575 7025 7590 36 1537 597 3195 454 9719 673 1694 1005 603 1567 1501 1938 3411 1654 18450 3922 2113 1501 1270 3488 1168 2735 3985 1048 1038 47281 2150 112 1045 1092 303 481 315 514 2182 2041 352 37 330 798 27041 12475 97 400 2501 96 469 14917 7547 201 307 45702
internal_value=0.000167181 0.00125318 -0.0102522 -0.00226657 -0.00622335 -0.0164643 -0.00587673 0.00237079 -0.000941159 -0.0213791 -0.0128778 -0.0113242 -0.00396501 -0.00913554 -2.62724e-05 -0.014221 -0.00263306 -0.00527427 -0.0141019 -0.00413634 -0.0126798 -0.0231444 0.00112507 -0.0062956 0.00274367 -0.000964069 -0.00724933 -0.0121731 -0.00379115 -0.00181985 -0.0175829 -0.00466248 -0.00318827 -0.0240449 0.00139621 0.00233162 -0.0073661 -0.00671285 -0.01172 -0.00776662 -0.0141414 -0.0176804 0.00235255 -0.0147072 -1.73175e-05 0.00132292 -0.0176189 -0.00511064 -0.0090004 -0.00100167 0.00294264 0.000962339 -0.00416335 -0.00943075 -0.000707408 -0.00527714 -0.0023941 0.00192536 0.00267436 -0.000155378 0.000847395 0.00308699
internal_weight=276883 250750 26133 60427 15855 10278 16223 190323 44204 4332 5946 4862 10993 5643 28697 4879 15507 7620 2726 10580 1955 3479 43856 3221 146467 16937 3688 3038 4465 11078 1841 4429 7359 2986 35455 47727 3155 1067 1642 2136 853 1084 47596 817 8401 11760 493 131 1422 3373 98740 19500 555 512 4683 714 1267 15955 34588 2106 3718 64152
internal_count=276883 250750 26133 60427 15855 10278 16223 190323 44204 4332 5946 4862 10993 5643 28697 4879 15507 7620 2726 10580 1955 3479 43856 3221 146467 16937 3688 3038 4465 11078 1841 4429 7359 2986 35455 47727 3155 1067 1642 2136 853 1084 47596 817 8401 11760 493 131 1422 3373 98740 19500 555 512 4683 714 1267 15955 34588 2106 3718 64152
is_linear=0
shrinkage=0.0330689


Tree=7
num_leaves=63
num_cat=0
split_feature=7 35 6 6 84 83 35 26 26 19 31 84 35 84 29 27 19 22 35 35 35 84 83 19 29 53 27 29 29 71 84 19 6 19 19 6 29 26 53 31 34 29 19 1 32 5 19 26 6 53 83 29 35 26 6 19 53 26 7 35 13 14
split_gain=2734.94 856.202 581.469 243.499 170.316 157.138 81.0531 79.6885 59.0922 46.1054 39.6977 36.0184 35.595 33.6128 31.5976 22.5669 21.3808 20.9165 19.0267 18.5001 18.1094 17.4981 16.7782 15.4153 14.506 14.4494 12.2322 11.6004 10.7395 10.1561 10.062 9.48711 9.23917 9.06142 8.07694 8.03989 7.70095 7.67155 7.21606 7.58311 7.08492 6.6435 5.89235 5.81847 5.60818 5.49984 5.49052 5.39653 5.35685 4.28998 4.27147 3.9196 3.45689 3.30609 3.25061 3.17791 2.78501 2.71859 2.25782 2.18162 2.11036 1.8936
threshold=103.85544204711915 172.50498199462893 121.45048141479494 64.199932098388686 144.02893066406253 84.36041641235353 95.388095855712905 0.64937818050384533 0.47393083572387701 3.0720199346542363 58.89599800109864 86.316268920898452 200.06587982177737 201.84351348876956 4.6801986694335946 2556.8254394531255 -0.14922037720680234 111.86814880371095 321.97038269042974 750.64102172851574 321.97038269042974 22.672782897949222 47.488534927368171 1.0640999078750613 -1.4150351285934446 -0.87837970256805409 4059.7978515625005 24.444165229797367 -1.4150351285934446 1.6125025581459343e-07 47.755205154418952 0.49078176915645605 150.0825119018555 0.95699253678321849 0.55702263116836559 50.002206802368171 1.0000000180025095e-35 0.96146884560585033 -0.87837970256805409 1.0000000180025095e-35 1.2679211497306826 1.0000000180025095e-35 1.3238880038261416 6.5000000000000009 1.8683922290802004 10.500000000000002 -0.11501928791403769 0.43081203103065496 32.760824203491218 -0.87837970256805409 9.4299635887146014 35.368993759155281 57.580013275146491 0.2992620468139649 32.760824203491218 -0.43375101685523981 0.87837970256805431 0.27415762841701513 32.958974838256843 1200.5681762695315 8.5000000000000018 165.50000000000003
decision_type=2 2 2 2 2 2 2 2 2 2 2 2 2 2 2 2 2 2 2 2 2 2 2 2 2 2 2 2 2 2 2 2 2 2 2 2 2 2 2 2 2 2 2 2 2 2 2 2 2 2 2 2 2 2 2 2 2 2 2 2 2 2
left_child=1 6 5 8 10 12 27 18 14 19 20 34 54 23 16 44 -3 30 46 40 47 -20 41 -9 42 48 -19 38 59 -24 -14 -22 -15 -16 57 45 -36 -17 39 -1 -6 -10 -12 -21 -13 -27 -5 -4 51 52 -26 -8 -29 -50 -2 -40 -37 -7 -51 -11 -30 -56
right_child=2 3 4 7 9 11 25 13 22 28 24 15 17 32 33 37 -18 26 21 43 31 -23 29 -25 50 35 -28 49 60 -31 -32 -33 -34 -35 36 56 -38 -39 55 -41 -42 -43 -44 -45 -46 -47 -48 -49 53 58 -52 -53 -54 -55 61 -57 -58 -59 -60 -61 -62 -63
leaf_value=-0.61329620350846881 -0.016359886449775166 -0.026209067971187942 -0.36418660495353439 -0.10302848053398746 -0.75214640683028955 -0.63033212590385546 -0.028687804056415134 -0.65805150056912431 -0.43489541232017642 -0.92336853505644112 -1.0284321272422576 -0.68642141565821302 -0.46407062185705766 -0.76211239431863698 0.33404050776154537 -0.79679026387067486 -0.41346613608999627 -0.64392690282230192 -0.66938184979094684 -1.1578838509044185 -1.0827756885818931 -0.79449671174965419 -0.32778923067138926 -0.68794246897324285 -0.090934952712556721 -0.014783277693389843 -0.91016688310395599 0.48449314311933855 0.15407144931887753 -0.57139141890952072 -0.56148199674734911 -0.98584203466444786 -1.0855780157745567 -0.067329955308268935 -0.90756042585291885 -0.0097780740600846884 -0.35008372514009167 -1.0305213987835891 0.93032294787242831 0.27607122842505682 -0.80041471640416029 -0.083107993478549719 -1.0569410574607316 -1.1194434366795949 -0.95570071960594716 0.27522913771833724 -0.27011601969478988 -0.45774345129786026 -0.069547317482338653 0.8018323448397765 -0.62754561591093461 0.17786473256384866 0.22098516107014229 -0.24724790984051703 -0.14511893965808681 0.39321021243233389 0.13987496829634707 -0.81263268831916913 0.34044649665991994 -1.2454880037705365 -0.71750834121775431 -0.2309141573805194
leaf_weight=22 2106 11562 484 1411 378 459 3262 2815 4048 608 202 400 3438 358 11158 313 7769 2377 3506 437 1506 2431 1683 1706 35 1433 394 8668 5.9999999999999991 2727 1411 1616 629 2517 835 4764 555 472 31419 6105 629 2628 672 1306 1210 28222 3479 433 1241 77473 545 1805 5040 716 686 10181 2413 618 7559 1251 170 581
leaf_count=22 2106 11562 484 1411 378 459 3262 2815 4048 608 202 400 3438 358 11158 313 7769 2377 3506 437 1506 2431 1683 1706 35 1433 394 8668 6 2727 1411 1616 629 2517 835 4764 555 472 31419 6105 629 2628 672 1306 1210 28222 3479 433 1241 77473 545 1805 5040 716 686 10181 2413 618 7559 1251 170 581
internal_value=0.000187485 0.00124857 -0.00999278 -0.00218066 -0.0161201 -0.00601897 0.00233743 -0.00562956 -0.000902451 -0.020687 -0.0121357 -0.0109706 -0.00382665 -0.00887019 -0.000200275 -0.0138707 -0.00106124 -0.00507901 -0.00397877 -0.0178567 -0.0104331 -0.00523934 -0.00299132 -0.0076522 -0.0168435 0.00108963 -0.00737727 0.00271093 -0.024493 -0.00457686 -0.00376099 -0.0116403 -0.0144191 0.00101557 -0.00814394 0.00135183 -0.00983032 -0.0185118 0.00228589 0.00122066 -0.0141986 -0.00194094 -0.0195805 -0.0199513 -0.0115874 0.00159234 -0.00244416 -0.00629677 -0.000282909 0.00291619 -0.0126641 0.000281881 0.00236709 -0.00175309 -0.00099187 0.00244235 0.000355659 -0.00594503 0.00300448 -0.0252568 -0.0162355 -0.00231586
internal_weight=276883 250750 26133 60427 10278 15855 190323 16335 44092 4785 5493 4862 10993 5508 33006 2395 19331 7620 10827 2750 4039 5937 11086 4521 1454 43856 2771 146467 2035 4410 4849 3122 987 13675 2467 36832 1390 785 47727 6127 1007 6676 874 1743 1610 29655 4890 917 7024 98740 580 5067 13708 1957 3373 41600 7177 1077 85032 1859 176 1267
internal_count=276883 250750 26133 60427 10278 15855 190323 16335 44092 4785 5493 4862 10993 5508 33006 2395 19331 7620 10827 2750 4039 5937 11086 4521 1454 43856 2771 146467 2035 4410 4849 3122 987 13675 2467 36832 1390 785 47727 6127 1007 6676 874 1743 1610 29655 4890 917 7024 98740 580 5067 13708 1957 3373 41600 7177 1077 85032 1859 176 1267
is_linear=0
shrinkage=0.0330689


Tree=8
num_leaves=63
num_cat=0
split_feature=7 35 26 8 19 84 30 11 35 19 35 35 11 35 29 11 30 27 27 19 27 9 19 19 29 27 35 84 55 19 19 19 35 11 29 14 30 30 7 35 35 84 35 35 55 75 80 30 3 19 8 35 80 35 21 8 7 55 9 35 30 18
split_gain=2629.54 818.363 529.903 182.877 161.41 128.227 56.8992 56.4049 53.0678 51.7003 49.3336 43.786 41.2823 38.2486 36.5075 32.4692 26.4075 23.541 20.1852 20.009 16.7673 16.0598 14.3967 14.2617 12.3648 12.2825 11.7806 11.0661 10.0254 9.35279 9.26878 8.04025 6.78596 5.95826 5.95308 5.85408 5.65857 5.48341 5.26538 5.12581 4.59464 4.30169 4.18567 4.18118 3.94958 3.75575 3.7123 3.68753 3.26138 4.03931 3.10423 2.61603 2.40985 2.38235 2.36268 2.30275 2.13482 2.09018 1.91011 1.87215 1.83365 1.53184
threshold=103.85544204711915 150.04409027099612 0.96146884560585033 76.682846069335952 2.3534607887268071 70.11100006103517 1.5124836564064028 117.26266479492189 95.388095855712905 -0.040259025990962975 321.97038269042974 200.06587982177737 166.71052551269534 415.49372863769537 -1.4150351285934446 87.512928009033217 2.444068551063538 4059.7978515625005 2556.8254394531255 1.9579517841339114 -4367.3483886718741 200.16419982910159 0.86291739344596874 0.21757045388221743 24.444165229797367 8753.2270507812518 500.27310180664068 86.316268920898452 0.46071977913379675 0.77630919218063366 3.0720199346542363 1.6922353506088259 264.61926269531256 -7.1387472152709952 6.4205710887908944 2098.5000000000005 2.7660990953445439 1.2553738355636599 50.035970687866218 500.27310180664068 240.97792053222659 47.755205154418952 220.0591735839844 51.931427001953132 0.43825021386146551 0.027024872601032261 1.0000000180025095e-35 1.2180598974227907 9.5000000000000018 -0.24114783853292462 59.106824874877937 366.76029968261724 1.0000000180025095e-35 150.04409027099612 5.1953248977661142 31.097409248352054 29.618301391601566 0.35287833213806158 102.71189880371095 125.01976776123048 4.1179454326629648 53.754997253417976
decision_type=2 2 2 2 2 2 2 2 2 2 2 2 2 2 2 2 2 2 2 2 2 2 2 2 2 2 2 2 2 2 2 2 2 2 2 2 2 2 2 2 2 2 2 2 2 2 2 2 2 2 2 2 2 2 2 2 2 2 2 2 2 2
left_child=1 8 5 6 12 11 22 18 24 25 29 50 27 40 30 31 -11 23 20 -15 -5 -17 47 -13 33 -8 51 32 -28 61 58 -12 -4 57 48 -29 -32 -24 55 -19 -9 -20 -31 -26 46 -35 -16 -3 60 -50 53 -14 -52 -2 -46 -36 -45 -1 -6 -40 -10 -7
right_child=2 3 4 7 14 10 9 13 34 16 15 17 26 19 44 21 -18 39 41 -21 -22 -23 37 -25 43 -27 28 35 -30 42 36 -33 -34 45 38 -37 -38 -39 59 -41 -42 -43 -44 56 54 -47 -48 -49 49 -51 52 -53 -54 -55 -56 -57 -58 -59 -60 -61 -62 -63
leaf_value=0.73853454872836943 0.053823043457282733 0.4922014474745911 -0.35594034281710407 -0.61553927678230769 -0.99613875453833156 -0.2414631804154497 -0.092083355944607245 -0.22041137157849242 0.002709552568893844 -0.27989956929780785 -0.75386921971179 -0.63420061580940956 -0.43716675453607529 -0.87233464322501075 -0.63908597466136829 -0.80919871894725726 -0.67472131073916874 -0.53229147450739678 -0.69900077512307512 -0.96225961206201205 -0.29951651898885018 -1.0264728523688158 0.01651806604264535 -0.55507997052944591 0.76570147116446952 -1.0112489511874931 -1.0715920094969296 -0.90887738526909945 -1.0299333686221808 -0.24305820580492266 -0.78764251622011194 -0.76345482841028056 -1.0027986730690803 0.43736728207269243 0.33026366405061031 -0.41344025504740622 -1.1790772181938349 -0.18647000118857346 0.11409287502483149 -1.1177284159521879 -0.39103110784021428 -0.75919058925755489 -0.42170898630903647 0.55755037102675542 -0.65806078847144733 0.18006850381633852 -0.53315392556609176 0.17568796388009794 0.28988189196838748 0.0066827408857114533 -0.29245067617049569 -0.67688791396015102 -0.1421651675061481 -0.20423289226934496 -0.33047493883535151 0.15120218373182609 0.26497541224511162 0.79699278366975823 -1.0358349907290749 -0.02652772047905641 -0.035358483362659676 -0.39047702899185005
leaf_weight=10869 1281 5314 210 3139 133 370 20411 738 1199 9603 1368 3467 118 1939 128 1251 5417 331 659 564 8125 877 3524 3755 58176 265 875 1281 725 431 542 365 2006 10544 12489 48 1723 1830 2594 532 1129 532 650 32815 273 4043 141 4853 8150 3947 345 208 516 1175 22 5646 7749 22271 682 1681 535 304
leaf_count=10869 1281 5314 210 3139 133 370 20411 738 1199 9603 1368 3467 118 1939 128 1251 5417 331 659 564 8125 877 3524 3755 58176 265 875 1281 725 431 542 365 2006 10544 12489 48 1723 1830 2594 532 1129 532 650 32815 273 4043 141 4853 8150 3947 345 208 516 1175 22 5646 7749 22271 682 1681 535 304
internal_value=0.000205758 0.00124619 -0.00977641 -0.00184937 -0.0162116 -0.00632795 -0.000866332 -0.00484064 0.0023991 -0.00159327 -0.0104199 -0.00431029 -0.0126087 -0.00807619 -0.0216113 -0.0125134 -0.00307 -0.00562326 -0.00370352 -0.0107527 -0.00326755 -0.0152639 0.000804458 -0.00500085 0.00267955 -0.000519615 -0.0165241 -0.0104727 -0.0177118 -0.00580023 -0.0230387 -0.00911968 -0.0090078 0.00224085 0.0012652 -0.0128944 -0.0241814 -0.000581098 0.00159877 -0.010801 -0.00447527 -0.00780669 -0.00771403 0.0028914 -0.0137602 0.00168019 -0.0106065 0.00153571 0.000723441 0.000916241 -0.00110429 -0.0106083 -0.00281584 -0.000496638 -0.0165344 0.00184526 0.00263059 0.00248707 -0.019817 0.000549085 -0.000611821 -0.0026994
internal_weight=276883 250750 26133 68042 9115 17018 51217 16825 182708 35696 5616 11402 5471 4370 3644 3861 15020 8085 12455 2503 11264 2128 15521 7222 146467 20676 1926 3545 1600 1755 3080 1733 2216 47727 36241 1329 2265 5354 22410 863 1867 1191 1081 98740 564 14587 269 10167 13831 12097 3317 326 861 2456 295 18135 40564 33140 815 4275 1734 674
internal_count=276883 250750 26133 68042 9115 17018 51217 16825 182708 35696 5616 11402 5471 4370 3644 3861 15020 8085 12455 2503 11264 2128 15521 7222 146467 20676 1926 3545 1600 1755 3080 1733 2216 47727 36241 1329 2265 5354 22410 863 1867 1191 1081 98740 564 14587 269 10167 13831 12097 3317 326 861 2456 295 18135 40564 33140 815 4275 1734 674
is_linear=0
shrinkage=0.0330689


Tree=9
num_leaves=63
num_cat=0
split_feature=7 35 83 8 19 8 83 30 35 19 35 11 84 30 11 27 84 35 27 7 27 19 19 84 27 30 11 11 30 30 33 19 71 53 31 30 53 7 11 83 30 19 53 3 75 30 35 30 53 19 19 7 35 35 19 19 26 7 30 7 32 32
split_gain=2497.86 779.122 545.994 169.284 140.384 128.339 58.7517 53.744 53.0935 47.7771 46.4031 42.4711 40.2325 34.179 30.3152 25.9889 24.2813 19.1564 18.1975 16.1311 15.2976 13.8556 13.2537 12.5073 12.5056 12.45 11.0524 10.7963 10.1225 9.2212 9.03815 9.00676 8.85581 8.30868 7.85238 7.75606 7.43875 7.39118 7.10062 6.63453 6.3331 5.63994 5.58041 5.42727 5.31106 5.10978 5.04984 4.56485 4.42787 4.33542 4.30689 4.14154 3.84335 3.84024 3.78265 3.69463 3.07031 2.8265 2.73551 2.22226 1.91714 1.91429
threshold=103.85544204711915 150.04409027099612 139.99756622314456 76.682846069335952 2.3534607887268071 100.05452728271486 84.36041641235353 1.5124836564064028 95.388095855712905 -0.11501928791403769 240.97792053222659 137.7177658081055 108.76740646362306 2.6488636732101445 137.7177658081055 2556.8254394531255 47.755205154418952 415.49372863769537 1794.8796997070315 288.34841918945318 4059.7978515625005 0.95699253678321849 0.62564745545387279 70.11100006103517 -4367.3483886718741 1.3347230553627016 100.03371429443361 34.738552093505866 3.20324718952179 1.9734963178634646 -5.719085454940795 2.3534607887268071 1.6125025581459343e-07 -0.87837970256805409 1.0000000180025095e-35 2.544116854667664 -1.0000000180025095e-35 200.15151214599612 117.26266479492189 68.708572387695327 2.444068551063538 -0.63563886284828175 -0.87837970256805409 9.5000000000000018 1.0000000180025095e-35 5.7617058753967294 500.27310180664068 1.2180598974227907 -0.87837970256805409 3.0720199346542363 -0.43375101685523981 50.035970687866218 150.04409027099612 57.580013275146491 0.49078176915645605 1.1824456453323366 0.2992620468139649 29.618301391601566 1.5124836564064028 56.25738716125489 3.1885430812835698 -0.34960991144180292
decision_type=2 2 2 2 2 2 2 2 2 2 2 2 2 2 2 2 2 2 2 2 2 2 2 2 2 2 2 2 2 2 2 2 2 2 2 2 2 2 2 2 2 2 2 2 2 2 2 2 2 2 2 2 2 2 2 2 2 2 2 2 2 2
left_child=1 8 5 7 11 10 18 21 25 28 39 22 20 29 32 -11 30 -16 24 38 37 47 44 54 -5 42 -18 45 -9 58 -12 -21 -8 56 36 -24 -27 -7 -14 52 -25 -36 53 -35 -4 -15 -22 -3 -23 -29 -20 -45 -2 -1 -13 -41 59 -44 -6 -10 -58 -31
right_child=2 3 4 6 13 12 14 9 33 15 16 23 19 27 17 -17 26 -19 50 31 46 48 35 40 -26 34 -28 49 -30 61 -32 -33 -34 43 41 -37 -38 -39 -40 55 -42 -43 57 51 -46 -47 -48 -49 -50 -51 -52 -53 -54 -55 -56 -57 60 -59 -60 -61 -62 -63
leaf_value=0.43746515480010095 0.020150389658919556 0.46926406108270496 -0.91540310949990855 -0.56271333130486156 -0.32387507202762561 -0.42360345151813716 -0.48636534492246541 0.070074536015777678 0.10917499557009194 -0.33562927803503351 -1.0521771234444601 -0.99697766590991665 -0.58134222946241765 -1.0110823820731507 -0.37821583164512484 -0.79114370709476167 -0.60949441492706435 -0.93695636198279075 0.26108494334606969 -0.97450183302642079 -0.59179200531914966 -0.20608231425314219 -0.59961271136826499 -0.65907758127062332 -0.24616966597066331 -0.53521747862972047 -0.77275994184261954 -1.0943700060101671 -0.26321855970575153 -0.591834036025917 -0.47366107694504211 -1.0760006046468995 -0.63207338321342932 -0.010408237685205605 0.91754020512335643 -1.0344974248488286 0.30133243400858145 -0.86689110530798585 -0.74783411889098084 -0.33766479132400606 -1.0399760863037073 0.38136326694862227 0.77076214750986893 0.28693460459658998 -0.78656664598815951 -0.51263667125617829 -1.0919863655310009 0.1436914784031656 -0.016718034122232103 -1.1383882801556742 -0.67846437000516879 0.068196615521583279 -0.19183638952279863 0.19671420112610741 -0.88724095595889185 -0.32458870116440214 -0.16991840195857483 0.34003594021013844 -0.59830284907918796 -0.16871714172509827 0.018993431518175306 -0.75138044001391979
leaf_weight=8418 1570 5593 641 2746 92 1838 1463 10489 3930 15499 1386 227 627 167 540 1401 1576 1304 71 548 195 907 634 210 7149 64 1004 445 8307 22 3197 271 2331 1520 26272 1006 75 1510 707 284 1251 22314 75358 23946 581 45 367 5112 3909 1657 1221 5052 2420 4973 375 196 877 8993 332 395 521 752
leaf_count=8418 1570 5593 641 2746 92 1838 1463 10489 3930 15499 1386 227 627 167 540 1401 1576 1304 71 548 195 907 634 210 7149 64 1004 445 8307 22 3197 271 2331 1520 26272 1006 75 1510 707 284 1251 22314 75358 23946 581 45 367 5112 3909 1657 1221 5052 2420 4973 375 196 877 8993 332 395 521 752
internal_value=0.00022845 0.0012425 -0.00950056 -0.00177793 -0.0164239 -0.006198 -0.0046559 -0.000832113 0.00236743 -0.00153862 -0.00416189 -0.0128086 -0.0101006 -0.0214839 -0.00741073 -0.0028146 -0.00581244 -0.0108993 -0.00326551 -0.0137434 -0.00808754 0.000791676 -0.0101794 -0.0164415 -0.00278024 0.00264794 -0.00838573 -0.0238567 -0.00039038 -0.0168709 -0.00435868 -0.0174458 -0.00570841 0.00123326 0.0022145 -0.0121414 -0.00557446 -0.00722499 -0.0114465 -0.00151254 -0.0181268 0.00223724 0.00286382 0.00145011 -0.00752499 -0.0163481 -0.0131747 0.00145483 -0.000678952 -0.024598 -0.00696415 0.00155121 -0.00106473 0.00223126 -0.0123007 -0.00519064 7.39487e-05 0.00296401 -0.0127685 0.000512162 -0.00126933 -0.0190775
internal_weight=276883 250750 26133 68042 8437 17696 16825 51217 182708 35696 11633 4925 6063 3512 5638 16900 7163 1844 11187 2153 3910 15521 2862 2063 9895 146467 2580 2314 18796 1198 4583 819 3794 36241 48725 1640 139 3348 1334 4470 1461 48586 97742 30518 1222 212 562 10705 4816 2102 1292 28998 3990 13391 602 480 5723 84351 424 4325 1398 774
internal_count=276883 250750 26133 68042 8437 17696 16825 51217 182708 35696 11633 4925 6063 3512 5638 16900 7163 1844 11187 2153 3910 15521 2862 2063 9895 146467 2580 2314 18796 1198 4583 819 3794 36241 48725 1640 139 3348 1334 4470 1461 48586 97742 30518 1222 212 562 10705 4816 2102 1292 28998 3990 13391 602 480 5723 84351 424 4325 1398 774
is_linear=0
shrinkage=0.0330689


Tree=10
num_leaves=63
num_cat=0
split_feature=7 35 6 6 19 9 35 8 8 30 11 26 19 11 30 30 9 19 27 35 25 35 27 27 27 30 27 23 35 7 11 35 19 19 27 7 11 26 76 35 30 30 6 19 17 30 8 35 1 9 11 7 35 76 77 30 9 8 11 11 19 75
split_gain=2371.37 812.415 446.791 242.271 130.755 114.327 81.5082 71.4117 63.1497 52.9012 44.4735 31.9761 29.9901 29.3648 28.6673 23.0896 22.832 20.1563 19.9428 14.5191 13.6688 13.5975 13.3096 12.8395 12.6091 11.1301 11.0215 10.6653 10.5329 10.4502 10.436 10.433 9.22752 8.489 8.46761 8.28707 8.01113 7.51907 7.14866 6.84211 6.42169 6.37746 5.70902 5.57627 5.3696 5.27665 4.63768 4.39251 3.78475 3.75665 3.73378 3.69743 3.59487 3.24872 4.97693 3.18904 3.16512 3.12228 3.01411 2.15037 1.71004 1.25359
threshold=123.54718399047853 172.50498199462893 150.0825119018555 84.639961242675795 1.6922353506088259 102.71189880371095 95.388095855712905 100.05452728271486 59.106824874877937 2.6488636732101445 137.7177658081055 0.52223375439643871 1.6922353506088259 117.26266479492189 1.5124836564064028 1.6701810956001284 200.16419982910159 -0.2697154432535171 1794.8796997070315 366.76029968261724 0.40935629606246954 49.784997940063484 654.53118896484386 4059.7978515625005 1342.6043090820315 1.7260973453521731 4059.7978515625005 3.7726949453353886 264.61926269531256 70.289394378662124 100.03371429443361 366.76029968261724 0.86291739344596874 0.49078176915645605 1794.8796997070315 200.15151214599612 34.738552093505866 0.96146884560585033 1.0807211310748245e-05 321.97038269042974 1.2940766811370852 1.4209201931953432 36.326890945434577 -0.11501928791403769 109.50000000000001 4.4894709587097177 150.09157562255862 125.01976776123048 6.5000000000000009 200.16419982910159 300.19602966308599 50.035970687866218 500.27310180664068 1.0807211310748245e-05 2.0106075693249185e-09 7.1890821456909189 89.140686035156264 52.586210250854499 117.26266479492189 30.772003173828129 -1.1416103839874265 0.01387503230944276
decision_type=2 2 2 2 2 2 2 2 2 2 2 2 2 2 2 2 2 2 2 2 2 2 2 2 2 2 2 2 2 2 2 2 2 2 2 2 2 2 2 2 2 2 2 2 2 2 2 2 2 2 2 2 2 2 2 2 2 2 2 2 2 2
left_child=1 6 5 8 13 11 21 16 14 25 22 28 31 26 32 -14 24 -16 29 49 40 53 46 39 -5 56 37 50 59 -10 55 -9 -3 -24 -21 -29 -18 -4 42 -13 51 -30 -23 -20 -27 -32 -7 61 -42 -12 -15 -8 -28 54 -1 -11 -6 -49 -25 -2 -40 -22
right_child=2 3 4 7 9 10 20 12 18 30 19 23 15 27 17 -17 36 -19 43 34 47 38 33 58 -26 44 52 35 41 -31 45 -33 -34 -35 -36 -37 -38 -39 60 -41 48 -43 -44 -45 -46 -47 -48 57 -50 -51 -52 -53 -54 -55 -56 -57 -58 -59 -60 -61 -62 -63
leaf_value=0.70524237740173912 -0.024295714652912661 0.4109815646702274 -0.83519123535773199 -0.409362734418031 -0.22050347657165553 -0.51257275704786209 0.29153240734578162 -0.37188458230776472 -0.28089446951671715 -1.0019640513957557 -0.31291615537387518 -0.31658438271854339 -0.3752609492031298 -0.79479199960322144 0.046239681808435837 -0.86965504152283502 -0.68551900722743186 -0.27896194485274767 -0.31185958412783149 -0.88431344482820295 0.08031949757652844 0.48449548727111047 -0.65498291068268522 -0.69521302388099715 -0.64657241481023731 -0.69568537904137506 -0.51965446725795517 -0.77377318075066648 0.085257523995744558 -0.3804672723582731 -0.95513295090065364 -0.82521146488263963 -0.039197599153817 -0.76054221421476087 -0.89814311377410538 -1.0266659630594011 -0.96106280154175705 -0.95822548156859733 1.5494456150544103 -0.70523036037639597 -0.024338455972029018 -0.65777963742161216 0.13573754446606687 -0.56715155827855512 -0.70689353606387118 -1.1419731491025051 -0.85161807106164011 -0.027069640349945353 0.16818060924927761 -0.59353277914836866 -0.97768889643591694 0.063559001981021462 -1.1158631567284816 0.76593884759945396 0.58506189947799725 -1.0365799840776968 -0.5062170020514789 -0.149973569368446 -0.8616291549818369 -0.25677712743599074 0.42168318463159554 -0.020639953997982595
leaf_weight=30893 1495 7999 1361 7487 126 1244 12308 1095 9439 433 279 1169 445 248 10451 942 491 14299 259 1041 2964 35292 293 261 1076 328 53 275 303 2097 1234 2336 2665 844 779 771 553 742 4490 1563 1024 2957 4166 1344 926 902 634 3332 20294 86 216 2804 335 39873 2568 36 192 1513 189 786 29051 915
leaf_count=30893 1495 7999 1361 7487 126 1244 12308 1095 9439 433 279 1169 445 248 10451 942 491 14299 259 1041 2964 35292 293 261 1076 328 53 275 303 2097 1234 2336 2665 844 779 771 553 742 4490 1563 1024 2957 4166 1344 926 902 634 3332 20294 86 216 2804 335 39873 2568 36 192 1513 189 786 29051 915
internal_value=0.000261629 0.00116413 -0.0101283 -0.00209385 -0.0162643 -0.0065221 0.00223573 -0.00585685 -0.000975434 -0.0203637 -0.0104052 -0.00420449 -0.00914523 -0.0119765 -0.000248472 -0.0132657 -0.0042052 -0.000866436 -0.00293341 -0.0140081 0.0010069 0.00261479 -0.00778478 -0.00684961 -0.00363819 -0.0155211 -0.00974549 -0.0156371 -0.00268155 -0.00245043 -0.0232726 -0.00747133 0.00118415 -0.0106297 -0.0152269 -0.0175262 -0.00883207 -0.00877331 0.00229416 -0.00598095 0.0012885 -0.00388896 0.00199063 -0.00639524 -0.0169455 -0.0242933 -0.00604884 -0.000167144 0.000917192 -0.00786063 -0.0113145 0.0018111 -0.0149362 0.0029337 0.00268962 -0.0185467 -0.00981699 -0.000832522 -0.0120617 -0.000947723 0.00265067 0.000659673
internal_weight=276566 254465 22101 62978 8178 13923 191487 14425 48553 4177 5200 8723 4818 4001 35414 1387 9607 24750 13139 2185 45154 146333 3015 3182 8563 1572 2491 1510 5541 11536 2605 3431 10664 1137 1820 1046 1044 2103 72999 2732 36430 3260 39458 1603 1254 2136 1878 8724 21318 365 464 15112 388 73334 33461 469 318 4845 450 2281 33541 3879
internal_count=276566 254465 22101 62978 8178 13923 191487 14425 48553 4177 5200 8723 4818 4001 35414 1387 9607 24750 13139 2185 45154 146333 3015 3182 8563 1572 2491 1510 5541 11536 2605 3431 10664 1137 1820 1046 1044 2103 72999 2732 36430 3260 39458 1603 1254 2136 1878 8724 21318 365 464 15112 388 73334 33461 469 318 4845 450 2281 33541 3879
is_linear=0
shrinkage=0.0330689


Tree=11
num_leaves=63
num_cat=0
split_feature=7 25 6 29 83 31 83 26 26 11 31 7 11 29 26 11 27 84 6 53 83 11 6 84 30 11 27 27 34 6 7 11 32 84 7 84 6 34 84 27 32 83 29 30 84 30 27 53 23 26 25 27 30 31 26 0 84 55 83 15 30 3
split_gain=2245.18 584.48 444.456 177.717 138.522 137.83 122.538 100.296 56.2756 42.2327 41.5712 36.3889 35.0865 34.7058 26.7484 26.4475 23.3255 19.6347 18.9788 18.922 17.162 16.3512 15.4835 14.6241 14.2262 12.8955 11.7807 11.2835 11.0787 10.2993 9.95779 8.72377 8.66856 8.33148 8.15006 7.63829 7.47009 7.39775 7.32534 6.92624 6.72943 6.45143 6.31204 6.29206 5.9748 5.88666 5.8441 5.28367 5.11728 5.06574 4.55054 4.14928 3.83981 3.81857 3.79402 3.75425 3.61919 3.59079 3.41932 3.55042 3.0961 2.01394
threshold=123.54718399047853 0.50041767954826366 150.0825119018555 12.539316654205324 139.99756622314456 58.89599800109864 84.36041641235353 0.47393083572387701 0.72307085990905773 137.7177658081055 51.863477706909187 40.008514404296882 166.71052551269534 -1.4150351285934446 0.82683745026588451 166.71052551269534 2556.8254394531255 57.64234924316407 200.16286468505862 -0.87837970256805409 39.857378005981452 300.19602966308599 200.16286468505862 86.316268920898452 0.98139959573745739 54.772256851196296 813.15936279296886 654.53118896484386 -0.17984917014837262 150.0825119018555 200.15151214599612 23.534778594970707 0.65033721923828136 -12.686741352081297 40.008514404296882 144.02893066406253 289.56443786621099 0.64567425847053539 305.70480346679693 4059.7978515625005 -0.34960991144180292 33.511005401611335 3.09704601764679 1.6701810956001284 201.84351348876956 4.4894709587097177 125.43884658813478 -0.87837970256805409 3.8393944501876835 1.4666997790336611 0.21390075981616977 813.15936279296886 1.0122969746589663 57.885833740234382 0.3285683691501618 68.500000000000014 201.84351348876956 0.46071977913379675 28.000788688659672 47.951929092407234 2.2716128826141362 65.500000000000014
decision_type=2 2 2 2 2 2 2 2 2 2 2 2 2 2 2 2 2 2 2 2 2 2 2 2 2 2 2 2 2 2 2 2 2 2 2 2 2 2 2 2 2 2 2 2 2 2 2 2 2 2 2 2 2 2 2 2 2 2 2 2 2 2
left_child=1 3 6 7 8 12 14 10 16 27 19 24 26 21 25 29 18 41 -3 -1 52 40 37 57 47 50 38 54 -26 46 56 -12 -29 -31 -19 53 -18 -10 -4 55 -7 -9 -27 -25 -24 -23 -6 -5 -32 -37 -2 -22 -13 -17 -8 -16 -14 -11 -15 -60 -28 -41
right_child=2 4 5 11 15 13 9 17 22 23 31 20 30 58 39 35 36 34 -20 -21 51 45 44 43 28 42 60 32 -30 33 48 -33 -34 -35 -36 49 -38 -39 -40 61 -42 -43 -44 -45 -46 -47 -48 -49 -50 -51 -52 -53 -54 -55 -56 -57 -58 -59 59 -61 -62 -63
leaf_value=-0.013563152135867017 -0.22552254591745724 -0.10664730418971015 -0.82916801433884746 0.30344534451326688 -0.39970714967558135 -0.95536317573087348 -0.57352849389638816 -0.11966396360533982 -0.3339774270163679 -0.62938781488009177 -0.035892855767837212 0.22039712276654549 -0.64315986954470739 -0.041107513501008247 -0.56487734220067543 -0.76234306216863212 -0.49594354021260645 -0.40363478873729364 -0.70621386399891117 0.39513897908169326 -0.072264286492258106 -0.91986558067502322 -0.77520035065023762 -0.38009723206308998 0.64944171670689244 -0.59993608536875409 -0.50883742033939694 -0.69845880035382868 0.28797464541416268 -0.66298568998749852 -0.87176222126448255 -0.31855825291439333 -0.71646014651219703 -0.82586474154261535 -0.55567067704379625 -0.81536805404500856 -1.1855440632174228 -0.40044221811722674 -0.90945908322126234 -0.72480489570565365 -0.91073087114572515 -0.35925879219714035 -0.24405359418008615 -0.89135442296021639 -0.91031543178120067 -1.1013812071640454 -0.60595729293198008 0.67644508760101985 -0.97372962861698831 -1.0582296957405584 -0.36999957162117686 -0.23517745136171048 0.095783285519224617 -0.84827146342548609 -0.66788586804816119 -0.688105162125355 -0.76517545815368859 -0.71667653127533237 -0.61966284900240354 -0.59066649818307193 -1.0228833444842953 -0.80243860912823162
leaf_weight=8829 2907 14177 2152 10698 758 347 583 6344 1107 342 6363 6265 264 31 876 294 1153 2198 2915 53841 2017 912 939 105 27969 1338 111 546 23929 360 281 4158 538 896 1186 352 110 1819 245 163 1144 2879 942 1308 221 803 368 64960 783 212 1927 518 6405 225 1163 734 111 273 299 213 482 178
leaf_count=8829 2907 14177 2152 10698 758 347 583 6344 1107 342 6363 6265 264 31 876 294 1153 2198 2915 53841 2017 912 939 105 27969 1338 111 546 23929 360 281 4158 538 896 1186 352 110 1819 245 163 1144 2879 942 1308 221 803 368 64960 783 212 1927 518 6405 225 1163 734 111 273 299 213 482 178
internal_value=0.000280641 0.0011588 -0.00982909 0.00169242 -0.00354839 -0.015949 -0.00623235 0.000502707 -0.00259694 -0.0104719 0.000972114 0.0024073 -0.0119854 -0.0206226 -0.00395761 -0.00970312 -0.00181414 -0.00222103 -0.00149219 0.00129514 0.000876414 -0.0219418 -0.00610807 -0.0141256 0.00258965 -0.00301222 -0.00992287 -0.00784378 0.00216659 -0.00773364 -0.0162497 -0.000950392 -0.010518 -0.00981016 -0.00437759 -0.0140085 -0.00615332 -0.00481176 -0.00886433 -0.00739306 -0.0193138 -0.00142758 -0.00506689 -0.0160012 -0.00935669 -0.0242042 -0.00539606 0.0028796 -0.0179193 -0.0167451 -0.00203885 -0.00160389 0.00137406 -0.0109763 -0.00616894 -0.00645571 -0.0114334 -0.00977034 -0.0127777 -0.0134274 -0.0141517 -0.0117385
internal_weight=276566 254465 22101 228559 25906 8178 13923 85798 22441 4858 73191 142761 4429 3749 9065 3465 18355 12607 17092 62670 15205 3206 4086 2028 127556 7114 2990 2830 51898 2382 1439 10521 1084 1256 3384 1083 1263 2926 2397 1951 1491 9223 2280 1413 1160 1715 1126 75658 1064 564 4834 2535 12670 519 1746 1610 375 615 543 512 593 341
internal_count=276566 254465 22101 228559 25906 8178 13923 85798 22441 4858 73191 142761 4429 3749 9065 3465 18355 12607 17092 62670 15205 3206 4086 2028 127556 7114 2990 2830 51898 2382 1439 10521 1084 1256 3384 1083 1263 2926 2397 1951 1491 9223 2280 1413 1160 1715 1126 75658 1064 564 4834 2535 12670 519 1746 1610 375 615 543 512 593 341
is_linear=0
shrinkage=0.0330689


Tree=12
num_leaves=63
num_cat=0
split_feature=35 19 25 29 35 29 84 25 19 30 35 25 30 27 30 19 30 11 53 19 30 53 23 76 11 31 83 30 25 76 30 19 27 19 34 34 76 77 53 31 25 19 35 76 23 53 33 76 29 2 83 25 25 30 30 84 79 27 35 15 59 53
split_gain=2106.84 936.171 295.797 231.786 191.889 103.637 70.7933 69.3461 54.7684 31.9192 30.8685 28.1635 26.8527 25.7077 24.8092 22.5185 20.7625 18.4956 17.6922 16.19 15.748 14.5386 11.658 10.9652 10.7499 9.76074 9.19968 8.62319 8.57867 8.32302 7.38987 8.17307 6.88187 6.83722 6.6154 6.16483 6.00764 6.05223 5.6368 5.54672 5.17481 5.03091 4.83653 4.73425 4.66821 3.99761 3.88327 3.85492 3.78115 3.75671 3.59203 3.11264 2.8005 2.75213 2.69222 2.51412 2.26626 1.66723 1.19332 1.03798 0.792538 0.774455
threshold=240.97792053222659 1.6922353506088259 0.62112426757812511 -1.4150351285934446 125.01976776123048 6.4205710887908944 144.02893066406253 1.0991548895835879 0.040805388242006309 1.6701810956001284 63.643978118896491 0.28737701475620275 3.0443091392517094 2556.8254394531255 2.7660990953445439 0.081086281687021269 2.444068551063538 68.572860717773452 -0.87837970256805409 2.3534607887268071 3.8308832645416264 -0.87837970256805409 4.0163424015045175 3.5647648388703608e-08 117.26266479492189 1.0000000180025095e-35 -3.9360835552215572 1.2940766811370852 0.28737701475620275 1.0000000180025095e-35 1.1096921563148501 -0.35171642899513239 1035.5850830078127 -0.7388143241405486 0.93115898966789257 1.2679211497306826 1.0807211310748245e-05 1.0000000180025095e-35 -0.87837970256805409 58.89599800109864 0.37475632131099706 2.3534607887268071 750.64102172851574 5.0955300423538581e-08 4.7916412353515634 -0.87837970256805409 23.461034774780277 0.0001168821290775668 4.6801986694335946 112.50000000000001 84.36041641235353 0.62112426757812511 0.10539089143276216 1.5124836564064028 3.5901956558227544 47.755205154418952 3.0467840588244148e-06 352.28884887695318 41.527740478515632 3.8520010709762578 5.4725228793017785e-09 -0.87837970256805409
decision_type=2 2 2 2 2 2 2 2 2 2 2 2 2 2 2 2 2 2 2 2 2 2 2 2 2 2 2 2 2 2 2 2 2 2 2 2 2 2 2 2 2 2 2 2 2 2 2 2 2 2 2 2 2 2 2 2 2 2 2 2 2 2
left_child=4 2 5 7 10 8 13 19 20 29 36 30 35 17 39 -14 -10 -4 25 23 -2 44 -15 -3 -16 47 53 52 49 46 57 54 -21 -29 48 -8 37 45 -33 -9 -27 -30 -28 -36 55 -1 -5 -12 -23 -11 -31 -46 -20 -7 -32 -13 -39 60 -38 -59 -6 -60
right_child=1 3 6 9 11 26 12 14 16 28 18 21 15 22 24 -17 -18 -19 27 32 -22 34 -24 -25 -26 40 42 33 41 50 31 38 -34 -35 43 -37 58 56 -40 -41 -42 -43 -44 -45 51 -47 -48 -49 -50 -51 -52 -53 -54 -55 -56 -57 -58 59 61 -61 -62 -63
leaf_value=0.30168221237805348 -0.19012572064376113 -0.77895346142206945 -0.62575633430566746 -0.43944673918862615 -0.10844829379004184 0.48028685855464687 -0.56063256915125115 -0.7279333761658896 -0.34327363911662939 -0.47682556751876215 -0.61396523873143682 -0.21446875660946121 -0.85234066499893291 -0.78582814005806223 -0.96636882411635627 -0.9299267769076528 -0.69822864931859929 -0.68229796095897943 0.57005016539596343 -0.82671559732299638 -0.49647882785430925 -0.1179469108944961 -0.95861126546522946 -0.76776993563934459 -1.0304778649310813 0.14194148265934936 -0.15388067093764363 1.1807439679593681 -0.57662698178232052 -0.20254914656782519 0.3851728777395913 -0.18371313681033885 -0.83241059175966248 0.25311571822759421 -0.20224473003788448 -0.55589331531923936 0.78543317276479629 0.35630822500265225 0.015011711954719831 -0.69269744371604258 -0.11570609433427931 -0.57339101633531808 0.19782383446366908 -0.061529744115571723 -0.24422888428602293 0.67414655989002481 0.11351457694056334 0.37005172595646152 0.062348090245825452 -0.012426934607702507 -0.32616174772958562 -0.39426586251213441 0.25506517086900243 0.1478542734072732 0.039996242526721799 -0.34729854417560979 0.6247983826167588 -0.34695832800942644 0.28865113099904666 0.017725233600034366 0.28197190487752749 0.5464046661627413
leaf_weight=5155 10199 862 6612 697 46 5857 770 313 5714 172 29 1075 553 844 494 1504 7145 3031 20647 508 5790 4484 945 310 2014 9507 1947 9684 676 983 4697 2281 862 22261 2561 526 32711 2601 12412 697 1199 837 1547 2908 620 33991 50 8.9999999999999982 3155 88 528 346 12365 2120 1677 291 2144 10.999999999999998 2782 635 3607 15480
leaf_count=5155 10199 862 6612 697 46 5857 770 313 5714 172 29 1075 553 844 494 1504 7145 3031 20647 508 5790 4484 945 310 2014 9507 1947 9684 676 983 4697 2281 862 22261 2561 526 32711 2601 12412 697 1199 837 1547 2908 620 33991 50 9 3155 88 528 346 12365 2120 1677 291 2144 11 2782 635 3607 15480
internal_value=0.000293554 -0.00490332 -0.00320703 -0.0141634 0.00189656 -0.00173923 -0.00720823 -0.0182531 -0.00279656 -0.00800804 0.00238391 -0.000140113 -0.011439 -0.00596501 -0.0212725 -0.0137996 -0.00440387 -0.00528471 0.00188518 -0.0140611 -0.00150268 -0.00125392 -0.00961768 -0.0111442 -0.0230612 0.000639834 0.000918387 0.0020909 -0.0113374 -0.00538266 0.000537221 0.000281277 -0.0165344 0.00170178 -0.000824136 -0.00767187 0.0027817 0.00249576 -0.000146733 -0.0167961 0.000701405 -0.0123014 -0.000492958 -0.00170241 -0.00366125 0.00263144 -0.00825837 -0.0158561 -0.000193046 -0.00563818 -0.00394552 -0.00543396 0.00246687 0.00153863 0.00127036 -0.00239247 0.00137264 0.00178726 0.00302754 0.000209555 0.0020616 0.00280423
internal_weight=276566 65195 55104 10091 211371 40319 14785 6060 28848 4031 170565 40806 3353 11432 3518 2057 12859 9643 75701 2542 15989 15440 1789 1172 2508 10744 11471 64957 1773 2258 25366 21067 1370 31945 13108 1296 94864 43891 14693 1010 10706 1513 3494 5469 2332 39146 747 38 7639 260 1511 966 33012 7977 6374 1366 4745 4299 50973 646 3653 18262
internal_count=276566 65195 55104 10091 211371 40319 14785 6060 28848 4031 170565 40806 3353 11432 3518 2057 12859 9643 75701 2542 15989 15440 1789 1172 2508 10744 11471 64957 1773 2258 25366 21067 1370 31945 13108 1296 94864 43891 14693 1010 10706 1513 3494 5469 2332 39146 747 38 7639 260 1511 966 33012 7977 6374 1366 4745 4299 50973 646 3653 18262
is_linear=0
shrinkage=0.0330689


Tree=13
num_leaves=63
num_cat=0
split_feature=7 35 83 6 19 6 83 35 8 11 30 29 35 35 26 19 6 19 19 84 35 84 35 53 25 6 13 35 19 84 27 30 53 23 84 23 52 75 19 23 11 7 19 30 30 27 1 35 7 16 1 30 76 63 35 6 83 52 53 0 13 7
split_gain=2046.9 710.405 422.261 202.117 143.335 94.935 73.7569 56.3008 51.9727 47.4119 44.7245 28.6723 27.1378 25.3839 24.0534 22.1162 19.0902 18.5684 18.0408 15.5851 15.1886 15.0611 14.1794 13.1626 13.0186 12.0132 11.4869 10.7349 9.89561 9.57536 9.20369 9.13671 9.07843 8.56004 7.85391 7.81998 7.19097 7.15757 7.07278 6.43531 6.39219 6.29881 5.97699 6.08166 5.85833 5.23945 4.81287 4.76203 4.60163 4.42018 4.33954 3.88603 3.65757 4.09374 3.08128 3.0788 2.72961 2.48537 2.4704 1.94584 1.72406 1.27757
threshold=123.54718399047853 150.04409027099612 106.07987594604494 84.639961242675795 2.3534607887268071 121.45048141479494 139.99756622314456 95.388095855712905 59.106824874877937 137.7177658081055 2.544116854667664 12.539316654205324 366.76029968261724 500.27310180664068 0.82683745026588451 1.6922353506088259 150.0825119018555 1.6922353506088259 -0.2697154432535171 86.316268920898452 49.784997940063484 108.76740646362306 415.49372863769537 -0.87837970256805409 1.3873993158340456 200.16286468505862 53.500000000000007 297.52061462402349 1.1824456453323366 430.81207275390631 1342.6043090820315 1.5614721179008486 -0.87837970256805409 4.0689902305603036 27.596756935119632 3.5408543348312382 1.0000000180025095e-35 0.022126094438135627 0.55702263116836559 3.7726949453353886 34.738552093505866 40.008514404296882 1.6922353506088259 1.7260973453521731 1.3767575025558474 4059.7978515625005 6.5000000000000009 321.97038269042974 200.15151214599612 541.59796142578136 3.5000000000000004 7.1890821456909189 1.0807211310748245e-05 1.0000000180025095e-35 161.46484375000003 64.199932098388686 39.857378005981452 1.0000000180025095e-35 1.0000000180025095e-35 6796.5000000000009 56.500000000000007 200.15151214599612
decision_type=2 2 2 2 2 2 2 2 2 2 2 2 2 2 2 2 2 2 2 2 2 2 2 2 2 2 2 2 2 2 2 2 2 2 2 2 2 2 2 2 2 2 2 2 2 2 2 2 2 2 2 2 2 2 2 2 2 2 2 2 2 2
left_child=1 7 5 8 9 14 12 20 11 16 31 18 33 42 27 29 38 -14 -3 37 52 45 -17 36 51 39 -21 54 -13 -8 -29 61 55 -5 -18 -23 -22 -10 -4 -11 -26 46 49 -44 -25 -15 -34 58 -27 -7 -49 -12 53 -1 -2 57 -43 -9 -16 -33 -57 -6
right_child=2 3 4 6 10 13 15 32 19 25 24 28 17 21 47 22 34 -19 -20 26 23 35 -24 44 40 48 -28 30 -30 -31 -32 59 41 -35 -36 -37 -38 -39 -40 -41 -42 56 43 -45 -46 -47 -48 50 -50 -51 -52 -53 -54 -55 -56 60 -58 -59 -60 -61 -62 -63
leaf_value=0.66463447672240616 0.023624996326387097 0.051288828242415915 -0.64189423689117298 -0.15795482875858241 -0.2981700972695791 -0.37754177155640495 -0.6517592046597348 0.025266127062646915 -0.17260082410502159 -0.75815380634759932 -0.86656796836975458 0.28409596946982973 -0.6883076759043778 -0.9943002824170073 -0.35087510502093433 -0.39641683682864615 -0.92315453118437318 -0.69875318580861667 -0.2427348323395398 -0.57006975982732677 0.17994454046772149 -0.77056635450607036 -0.84040586069932965 0.47653914699230571 -0.84870887354316182 -0.79121034996574946 -0.17488078549033173 -0.51856359799058405 -0.05042886979229623 -0.982752020198287 -0.64094903223689714 -0.62513837035360187 -0.03156341892483621 -0.25923515127271057 -0.80453639697035073 -0.9212225484513743 -0.43332055387632612 -0.37103089748928136 -0.69194285520075938 -0.80492889845268245 -0.99886906424086008 0.08706803967339366 -0.30788900612149828 -0.57223236631714258 0.49218087674476113 -0.9836794491750066 0.27421988121022045 -0.72265780459137285 -0.91704340919348803 -0.64328661432370682 -0.71035824771779787 -1.0367096611361515 0.69965008389748617 0.59048507981224729 -0.21506343639355771 -0.06956528827905982 -0.056736535519123277 -0.53815107442130894 -0.12291033495370035 0.083521008093041957 -0.20992772596074996 -0.4294178984782232
leaf_weight=20411 875 11592 896 2693 138 1057 1975 4968 7761 331 844 11282 5286 1120 306 247 422 614 15374 2150 10056 181 642 37694 132 176 1414 3020 2480 134 776 1068 712 3850 730 719 277 3320 1127 997 1490 6568 274 226 24972 299 22854 274 703 49 1169 51 39873 13050 2399 385 1480 79 200 5.9999999999999991 272 46
leaf_count=20411 875 11592 896 2693 138 1057 1975 4968 7761 331 844 11282 5286 1120 306 247 422 614 15374 2150 10056 181 642 37694 132 176 1414 3020 2480 134 776 1068 712 3850 730 719 277 3320 1127 997 1490 6568 274 226 24972 299 22854 274 703 49 1169 51 39873 13050 2399 385 1480 79 200 6 272 46
internal_value=0.000313163 0.00115165 -0.00933984 -0.00166201 -0.0147752 -0.00549257 -0.00500766 0.00223667 -0.000728692 -0.0112992 -0.0197222 -0.000120733 -0.00388301 -0.00978757 -0.00362071 -0.00966704 -0.00869411 -0.00551148 -0.000747903 -0.00241819 0.00252915 -0.0120103 -0.0140673 0.00219043 -0.0222841 -0.0150337 -0.00432353 -0.00271949 0.00110694 -0.00779861 -0.00391827 -0.0145697 0.0010893 -0.00241144 -0.0121119 -0.0153967 0.00109376 -0.00180354 -0.00673468 -0.0129812 -0.0241099 0.00130842 -0.00656233 -0.00960383 0.00237097 -0.00984148 0.00158153 -0.00687832 -0.0180977 -0.00516496 -0.00785958 -0.0189334 0.00286606 0.0026076 -0.00132376 -0.000122305 0.000506571 0.000151981 -0.0040374 -0.0157531 -0.0022515 -0.0075254
internal_weight=276566 254465 22101 70814 9157 12944 15441 183651 55373 5382 3775 40728 12443 3925 9019 2998 3175 5900 26966 14645 146333 2319 889 72999 2517 2207 3564 7070 13762 2109 3796 1258 37318 6543 1152 900 10333 11081 2023 1328 1622 31614 1606 500 62666 1419 23566 1949 879 1106 1443 895 73334 33461 3274 5704 8048 5047 506 1074 657 184
internal_count=276566 254465 22101 70814 9157 12944 15441 183651 55373 5382 3775 40728 12443 3925 9019 2998 3175 5900 26966 14645 146333 2319 889 72999 2517 2207 3564 7070 13762 2109 3796 1258 37318 6543 1152 900 10333 11081 2023 1328 1622 31614 1606 500 62666 1419 23566 1949 879 1106 1443 895 73334 33461 3274 5704 8048 5047 506 1074 657 184
is_linear=0
shrinkage=0.0330689


Tree=14
num_leaves=63
num_cat=0
split_feature=7 25 6 29 31 9 8 9 8 7 11 8 30 11 11 11 8 7 84 84 30 6 84 11 84 27 9 7 30 30 8 6 84 25 32 11 31 11 84 30 27 27 12 6 29 79 30 32 6 22 29 32 6 75 8 9 30 7 5 30 2 36
split_gain=1944.18 502.899 407.834 162.533 138.099 115.245 95.9985 86.7495 43.0319 38.3694 37.6721 37.366 36.2104 33.5034 26.0656 25.0809 20.1587 19.2142 19.0645 15.3148 14.6643 13.3962 12.8756 12.7208 12.7162 11.9361 11.8073 10.7874 9.94757 9.75502 9.69279 9.11964 8.01646 7.70351 7.47499 7.28506 7.09891 6.99129 6.91707 5.89996 5.87589 5.70511 5.52546 5.52496 4.99724 4.85135 4.7857 4.61295 4.47905 4.34874 4.34299 4.27296 3.85851 3.61239 3.18182 3.10717 2.95384 2.64786 2.57038 2.50094 2.3296 2.07338
threshold=123.54718399047853 0.50041767954826366 150.0825119018555 12.539316654205324 60.228359222412116 151.65838623046878 150.09157562255862 53.850187301635749 121.48840713500978 36.185491561889656 166.71052551269534 47.400720596313484 2.8944754600524907 137.7177658081055 166.71052551269534 68.572860717773452 100.05452728271486 -1.0000000180025095e-35 70.11100006103517 108.76740646362306 0.98139959573745739 200.16286468505862 201.84351348876956 68.572860717773452 47.755205154418952 813.15936279296886 200.16419982910159 200.15151214599612 1.1442063450813296 1.9734963178634646 88.388946533203139 16.677096366882328 144.02893066406253 1.3873993158340456 0.41256922483444219 -3.2583416700363155 54.446985244750984 23.534778594970707 86.316268920898452 1.4209201931953432 1342.6043090820315 4059.7978515625005 20.460763931274418 150.0825119018555 -26.835170745849606 1.0000000180025095e-35 4.4894709587097177 0.41256922483444219 499.23077392578131 344.30059814453131 -4.5665073394775382 61.037893295288093 26.391165733337406 0.12315261363983156 20.0028829574585 102.71189880371095 1.9734963178634646 288.34841918945318 208.50000000000003 1.8422911763191225 76.500000000000014 145.86115264892581
decision_type=2 2 2 2 2 2 2 2 2 2 2 2 2 2 2 2 2 2 2 2 2 2 2 2 2 2 2 2 2 2 2 2 2 2 2 2 2 2 2 2 2 2 2 2 2 2 2 2 2 2 2 2 2 2 2 2 2 2 2 2 2 2
left_child=1 3 6 7 10 8 13 11 18 20 25 17 29 24 30 40 37 -1 21 53 54 -3 33 51 39 34 50 55 52 60 44 -22 61 -10 -4 -18 -30 -9 -13 -2 58 -26 -21 -32 -7 -20 -25 -28 -29 -34 -15 -14 -11 -17 -5 -12 -24 -42 -8 -27 -6 -16
right_child=2 5 4 9 12 14 15 16 22 28 27 38 23 26 32 19 35 -19 45 42 31 -23 56 46 41 59 47 48 36 -31 43 -33 49 -35 -36 -37 -38 -39 -40 -41 57 -43 -44 -45 -46 -47 -48 -49 -50 -51 -52 -53 -54 -55 -56 -57 -58 -59 -60 -61 -62 -63
leaf_value=0.47906690955275383 0.054817822665590793 -0.075975541061035226 -0.80127607921225719 0.5939261254625573 -0.46538258947696981 -0.77255777324474073 -0.60055762316049754 -0.08092541855628807 -0.34201840984714427 0.22149549915718209 -0.50900344631793271 -0.079993137746173448 -0.93065190414608812 -0.61772608524766814 -0.74252864306497735 -0.5902902390864011 -0.29738203963496529 0.0719081408038139 -0.34715555502129336 -0.80465352461833883 0.5132503732423449 -0.70192847626321275 -0.44015306327128279 -0.85687595765821822 -0.37630688050850142 -0.40015726310119565 -0.57569457416540282 -0.78434058958335962 0.068570421638732906 -0.63449277704538198 -0.45313368558933914 0.16117592823477553 -0.77248626308118684 -0.88313243743663383 -0.70639080807527677 -0.51771904514880862 -0.13318201683686753 -0.31858563784414945 -0.38562809982605173 -0.36930761529565687 -0.62527962112596891 -0.60743134902442331 -0.78808420878781005 -0.73435770810680034 -0.36313734755368693 -0.23671305846013577 -0.99937940030969707 -0.75367494791418088 -0.95676299326585335 -0.9462689214464084 -0.34646102987808219 -0.51982353471802623 0.050211302238036132 -0.70326505992909039 0.34899601909769851 -0.72507150716101421 -0.76330350774437628 -0.88935634070595282 -0.93709972780980488 -0.89078161994202731 -0.51253145548126144 -0.77783778716254748
leaf_weight=42380 861 12865 1922 62968 142 425 911 6937 2364 7142 213 8301 250 762 377 641 1180 18811 2222 224 40952 2453 92 885 2154 45 116 743 4842 910 604 9926 392 474 632 2370 2030 4677 1142 4708 258 340 1075 765 907 1204 881 338 469 208 764 33 3602 254 11299 228 344 225 292 610 215 210
leaf_count=42380 861 12865 1922 62968 142 425 911 6937 2364 7142 213 8301 250 762 377 641 1180 18811 2222 224 40952 2453 92 885 2154 45 116 743 4842 910 604 9926 392 474 632 2370 2030 4677 1142 4708 258 340 1075 765 907 1204 881 338 469 208 764 33 3602 254 11299 228 344 225 292 610 215 210
internal_value=0.000323686 0.00114087 -0.00908399 0.00163585 -0.0149463 -0.00322545 -0.00563862 0.000498082 -0.00229735 0.00231951 -0.0113854 0.000985441 -0.0201573 -0.00392849 -0.00847512 -0.0100587 -0.00177087 0.00128434 -0.00168493 -0.0124004 0.00252298 -0.00118447 -0.00579689 -0.0228998 -0.002978 -0.00927782 -0.00778729 -0.0154588 0.000873039 -0.0156947 -0.00666273 0.00208914 -0.0125762 -0.00497023 -0.00823292 -0.00395318 -0.000107294 -0.00110211 -0.000949627 -0.00209337 -0.00699601 -0.00494509 -0.0147182 -0.0086317 -0.0046217 -0.00391673 -0.0239716 -0.012508 -0.0171015 -0.0153239 -0.00636473 -0.016092 0.00150156 -0.00900536 0.00281995 -0.0108783 -0.0111163 -0.0101256 -0.00571839 -0.0133082 -0.0108813 -0.00971819
internal_weight=276566 254465 22101 228559 8178 25906 13923 85798 22018 142761 4862 70634 3316 10043 3888 3880 15164 61191 18744 2194 125145 15318 3274 2049 8063 3209 1980 1653 17616 1267 2701 50878 1187 2838 2554 3550 6872 11614 9443 5569 1686 2494 1299 1369 1332 3426 1766 454 1212 600 1526 283 10744 895 74267 441 436 483 1203 655 357 587
internal_count=276566 254465 22101 228559 8178 25906 13923 85798 22018 142761 4862 70634 3316 10043 3888 3880 15164 61191 18744 2194 125145 15318 3274 2049 8063 3209 1980 1653 17616 1267 2701 50878 1187 2838 2554 3550 6872 11614 9443 5569 1686 2494 1299 1369 1332 3426 1766 454 1212 600 1526 283 10744 895 74267 441 436 483 1203 655 357 587
is_linear=0
shrinkage=0.0330689


Tree=15
num_leaves=63
num_cat=0
split_feature=35 19 25 30 35 29 26 6 19 30 6 11 11 35 30 30 35 30 53 53 19 35 19 29 35 19 76 53 35 26 11 35 51 14 31 25 19 6 26 30 76 52 63 53 11 55 33 30 29 53 53 19 63 26 51 23 36 55 30 8 54 18
split_gain=1829.45 804.84 243.873 231.214 177.22 87.8088 73.5276 64.6155 41.9414 36.8612 35.6452 28.9231 25.9672 19.6318 17.3609 16.2094 15.093 14.4224 13.7556 13.551 12.8122 12.3096 11.3933 11.1173 10.5596 10.5315 10.9987 9.28452 9.04855 8.7854 8.12714 7.36852 7.11056 10.308 6.94899 6.15759 5.90193 5.79733 5.63364 5.00407 4.76426 4.64038 8.23785 4.62902 4.47065 3.95776 3.94413 3.80444 3.68661 3.65161 3.44959 3.3584 3.33917 3.33366 3.30889 3.19647 2.79301 2.43634 2.22405 2.00418 1.5432 1.35864
threshold=240.97792053222659 1.6922353506088259 0.50041767954826366 2.2716128826141362 99.958812713623061 1.5280497670173647 0.96146884560585033 200.16286468505862 0.040805388242006309 1.5614721179008486 40.165647506713874 300.19602966308599 166.71052551269534 49.784997940063484 3.20324718952179 3.20324718952179 140.03424835205081 2.444068551063538 -0.87837970256805409 -0.87837970256805409 2.3534607887268071 600.40985107421886 -0.32445764541625971 -26.835170745849606 415.49372863769537 2.3534607887268071 2.8972183940823021e-07 -0.87837970256805409 500.27310180664068 0.27415762841701513 100.03371429443361 161.46484375000003 1.0000000180025095e-35 1267.5000000000002 1.0000000180025095e-35 0.15551683306694034 3.0720199346542363 26.391165733337406 0.64937818050384533 1.7820976972579958 1.0000000180025095e-35 1.0000000180025095e-35 3.9972398724330567e-08 -1.0000000180025095e-35 -5.779620647430419 0.48434139788150793 0.71696946024894725 0.83961817622184765 35.368993759155281 -0.87837970256805409 -0.87837970256805409 -0.11501928791403769 3.9972398724330567e-08 0.3285683691501618 1.0000000180025095e-35 5.1733169555664071 209.19892883300784 0.11746299266815187 1.7260973453521731 20.0028829574585 1.0000000180025095e-35 180.02690124511722
decision_type=2 2 2 2 2 2 2 2 2 2 2 2 2 2 2 2 2 2 2 2 2 2 2 2 2 2 2 2 2 2 2 2 2 2 2 2 2 2 2 2 2 2 2 2 2 2 2 2 2 2 2 2 2 2 2 2 2 2 2 2 2 2
left_child=4 2 5 9 13 8 12 25 22 40 19 24 28 41 36 -10 43 -14 34 48 46 29 -2 -13 -8 26 -5 55 -4 -7 -16 47 37 -34 58 -36 -9 -20 -29 -22 50 56 49 60 -27 -42 -11 -21 51 -43 -3 -6 -23 -33 -44 -18 -1 -58 -15 -50 -12 -45
right_child=1 3 6 7 10 21 11 14 15 20 16 23 17 18 30 -17 27 -19 32 31 39 52 -24 -25 -26 44 -28 38 -30 -31 -32 53 33 -35 35 -37 -38 -39 -40 -41 45 42 54 61 -46 -47 -48 -49 59 -51 -52 -53 -54 -55 -56 -57 57 -59 -60 -61 -62 -63
leaf_value=0.6345659227602416 -0.16814928097031531 -0.5683624200826275 -0.32039349061945593 -0.74632811078597372 -0.03157526881701464 0.065134816894974287 -0.42215859595984917 -0.74114430990765578 -0.46191913578515409 -0.51029304144140353 -0.098913887260105651 -0.89712800744743959 -0.3754109858656795 -0.067643904833401589 -0.92590059261569713 -0.72943495622983578 -0.28560951923894018 -0.76598881947857356 0.51465778329615064 0.37848968839668146 -0.41139941282500758 0.44825678520212969 -0.45697141683121689 -0.76555789799794094 -0.7957468331232056 -0.61732063701870732 -0.60542815652265503 -0.084239496163290711 -0.76443177301515597 -0.21551698283090295 -0.94015814534466935 0.13589835640545112 -0.13769863235495938 -1.1956600427177206 0.22033786196482311 -0.035446532062640465 -0.67746041041819482 0.201934114719441 -0.18078551780667598 -0.54581123555158595 -0.060601415528864354 -0.10293800305157071 -0.26967431301142081 0.13144106172759651 -0.80040571723807752 -0.26648456203931392 -0.40599598169665047 0.19937161124083305 0.15460939642265506 0.67017498968320077 -0.30557462785716372 -0.1844513628074663 0.2105055916221206 -0.035169452610800768 -0.66273946397740824 -0.29953196787486952 0.50212186745620135 0.75928519313879128 -0.55773915670825569 -0.038260833140293736 0.046688545294895072 -0.022794510178157066
leaf_weight=53512 7211 84 5157 723 2734 3160 813 673 6764 782 1927 565 680 14.999999999999998 315 3307 1176 1497 54373 2507 563 5443 6972 330 2956 106 224 7682 5368 1868 1687 8028 288 30 7984 2734 542 10371 2005 1063 646 211 340 3493 990 546 614 22775 1077 1432 419 2198 3204 4083 18 514 3818 13862 21 968 802 603
leaf_count=53512 7211 84 5157 723 2734 3160 813 673 6764 782 1927 565 680 15 315 3307 1176 1497 54373 2507 563 5443 6972 330 2956 106 224 7682 5368 1868 1687 8028 288 30 7984 2734 542 10371 2005 1063 646 211 340 3493 990 546 614 22775 1077 1432 419 2198 3204 4083 18 514 3818 13862 21 968 802 603
internal_value=0.000317939 -0.00452177 -0.00296146 -0.0131666 0.00181106 -0.0014748 -0.00620724 -0.0179361 -0.00266964 -0.00784176 0.000333844 -0.00976187 -0.00490006 0.00243126 -0.0208689 -0.00430237 -0.00089798 -0.00819585 0.00205744 0.000839559 -0.0100344 0.000643194 -0.00150889 -0.015132 -0.00847861 -0.013302 -0.0106671 -0.00163571 -0.00421608 -0.00065559 -0.0228048 0.00108933 0.00223873 -0.00266417 0.000959012 0.00100974 -0.0176494 0.00226311 -0.00123838 -0.0120507 -0.00391913 0.00281822 0.00123224 0.000329429 -0.0155517 -0.0027525 -0.00766715 0.00141088 -0.000496649 0.00222873 -0.00664002 -0.00098744 0.0014003 0.000416637 -0.00328846 -0.00390138 0.00286255 0.00249592 -0.0133169 0.000678833 -0.000721943 0.00103396
internal_weight=276853 65272 55295 9977 211581 37929 17366 5260 24254 4717 62572 4664 12702 149009 3217 10071 18202 2177 75816 44370 3022 13675 14183 895 3769 2043 947 11377 10525 5028 2002 37393 65062 318 10754 10718 1215 64744 9687 1626 1695 73193 2001 6825 1096 1192 1396 25282 6977 1643 503 4932 8647 12111 358 1690 71192 17680 36 2045 2729 4096
internal_count=276853 65272 55295 9977 211581 37929 17366 5260 24254 4717 62572 4664 12702 149009 3217 10071 18202 2177 75816 44370 3022 13675 14183 895 3769 2043 947 11377 10525 5028 2002 37393 65062 318 10754 10718 1215 64744 9687 1626 1695 73193 2001 6825 1096 1192 1396 25282 6977 1643 503 4932 8647 12111 358 1690 71192 17680 36 2045 2729 4096
is_linear=0
shrinkage=0.0330689


Tree=16
num_leaves=63
num_cat=0
split_feature=7 6 6 30 31 19 26 83 83 30 11 10 26 6 19 26 6 19 37 30 13 11 27 30 22 27 27 6 7 11 27 11 10 23 31 7 83 27 19 71 11 19 23 22 27 37 30 27 19 71 11 15 19 19 30 30 12 19 19 31 76 33
split_gain=1761.53 447.585 377.198 151.958 148.493 122.369 112.926 90.8933 45.7237 35.8666 34.186 33.3924 30.2607 29.65 26.0487 23.1139 20.5559 18.448 17.8068 17.4684 17.3534 17.2275 13.0155 11.7667 11.699 11.5357 11.4459 11.0533 10.4666 8.99979 8.85904 8.71685 8.32367 8.15248 7.98267 7.65451 7.41217 7.38649 6.32488 6.24119 5.8654 5.66729 5.64551 5.49127 5.32065 5.27523 5.25224 4.96522 4.36135 4.32996 4.25169 4.23741 4.19622 4.19176 4.137 4.02383 3.7527 3.68404 3.4425 3.03827 2.75359 1.86196
