tree
version=v4
num_class=1
num_tree_per_iteration=1
label_index=0
max_feature_idx=121
objective=quantile
feature_names=price_lag_1d price_lag_7d price_lag_14d price_lag_30d price_lag_60d return_1d return_3d return_7d return_14d return_30d return_60d price_std_7d price_std_14d price_std_20d price_min_20d price_max_20d price_std_30d price_mean_60d price_std_60d price_min_60d price_max_60d price_zscore_30d vol_regime_60_30 trend_divergence_30_60 price_accel_7d price_tier autocorr_1d autocorr_7d bb_pct_b macd_line macd_signal macd_histogram distance_to_support distance_to_resistance high_low_range_30d volume_missing volume_lag_1d volume_lag_7d volume_mean_7d volume_mean_30d volume_std_30d volume_mean_60d volume_std_60d volume_log_change_1d volume_log_change_7d volume_zscore_30d volume_price_conf_7d volume_price_conf_1d rsi_missing macd_missing is_weekend dow_sin dow_cos month_sin month_cos doy_cos item_age_days is_stattrak is_souvenir is_knife is_glove is_sticker is_case is_capsule is_agent is_music_kit is_graffiti is_charm is_patch quality_rank event_decay_major events_next_30d_major event_density_30d_major event_density_90d_major event_decay_operation events_next_30d_operation event_density_30d_operation event_density_90d_operation event_decay_case_drop events_next_30d_case_drop event_density_30d_case_drop event_density_90d_case_drop event_decay_update events_next_30d_update event_density_30d_update event_density_90d_update event_decay_game_update events_next_30d_game_update event_density_30d_game_update event_density_90d_game_update event_decay_major_weighted event_decay_operation_weighted event_decay_case_drop_weighted event_decay_update_weighted event_decay_game_update_weighted social_mentions_1d social_mentions_7d social_mention_velocity social_sentiment_7d social_score_7d market_return_1d item_return_vs_market_1d market_return_7d item_return_vs_market_7d market_return_14d item_return_vs_market_14d market_return_30d item_return_vs_market_30d market_volatility_30d market_volume_mean_30d market_regime_crash market_regime_bear market_regime_range market_regime_bull market_regime_mania market_regime_duration_days market_return_30d_percentile supply_listings_log supply_listings_zscore supply_change_7d supply_skinport_qty_log supply_to_volume_ratio
feature_infos=[39.849998474121094:66.220001220703125] [39.849998474121094:66.220001220703125] [39.790000915527344:66.220001220703125] [40.729999542236328:66.569999694824219] [39.849998474121094:66.569999694824219] [-6.0415120124816895:5.3940391540527344] [-10.281366348266602:9.4368009567260742] [-17.372880935668945:14.35562801361084] [-21.531669616699219:24.511468887329102] [-24.868003845214844:39.543319702148438] [-29.951061248779297:26.519706726074219] [0.042426407337188721:3.2751080989837646] [0.042426407337188721:4.732576847076416] [0.042426407337188721:5.307133674621582] [39.790000915527344:61.619998931884766] [43.779998779296875:66.220001220703125] [0.042426407337188721:5.4625492095947266] [43.426834106445312:62.902332305908203] [0.042426407337188721:6.0651006698608398] [39.790000915527344:58.759998321533203] [47.880001068115234:66.569999694824219] [-3.4853887557983398:3.0036964416503906] [0.76277375221252441:3.9533336162567139] [-39.368843078613281:101.21376037597656] [-18.979106903076172:18.705087661743164] [3:3] [-16.605304718017578:24.183246612548828] [-78.099403381347656:134.03640747070312] [-0.21316516399383545:1.1863726377487183] [-3.1019792556762695:3.1830518245697021] [-2.2672655582427979:2.7412140369415283] [-1.2678171396255493:0.94621419906616211] [0.018351990729570389:39.335178375244141] [0.054525628685951233:31.854576110839844] [0.12307692319154739:39.335178375244141] none [163:245] [161:245] [176:219] [176:219] [4.0414519309997559:20.036775588989258] [176:219] [4.0414519309997559:19.928762435913086] [-0.28488487005233765:0.30276116728782654] [-0.26826399564743042:0.40341803431510925] [-2.4042847156524658:2.6703879833221436] [-17.372880935668945:14.35562801361084] [-6.0415120124816895:5.3940391540527344] [0:1] [0:1] [0:1] [-0.97492790222167969:0.97492790222167969] [-0.90096884965896606:1] [-0.86602538824081421:1] [-1:0.86602538824081421] [-1:0.99985265731811523] [0:215] none none none none none none none none none none none none none [0:0.96721607446670532] [0:1] [0:1] [0:1] none none none none none none none none none none none none none none none none none none none none none none none none none none [-1.9730401039123535:1.6730349063873291] [-4.7729063034057617:4.9617133140563965] [-4.9728598594665527:5.599886417388916] [-15.224418640136719:14.81980037689209] [-7.3588790893554688:5.6792440414428711] [-21.058666229248047:25.597810745239258] [-2.9261324405670166:2.6404297351837158] [-23.844234466552734:40.982707977294922] [0.43699198961257935:3.9010679721832275] [195.10000610351562:203.39999389648438] none none [0:1] none none [1:30] [0.040816325694322586:0.75268816947937012] none none none none none
tree_sizes=1346 1373 1273 1268 1486 1376 966 1276 1282 1278 1166 1392 1393 1382 1591 1384 1381 1284 1398 1378 1592 1392 1593 1256 1601 1715 1814 1485 1707 1686 1577 1277 1176 1374 1486 1493 1398 1295 1296

Tree=0
num_leaves=12
num_cat=0
split_feature=10 13 38 101 101 33 30 16 2 10 14
split_gain=3.83575 1.49158 1.07956 1.48389 2.66862 1.00504 0.872112 0.586096 0.252942 0.138284 0.129218
threshold=16.146735191345218 1.9084662795066836 199.78571319580081 1.6622275710105898 1.9157964587211611 7.4495768547058114 0.34331184625625616 1.8687947392463686 59.539999008178718 -0.23681592941284177 57.810001373291023
decision_type=2 2 2 2 2 2 2 2 2 2 2
left_child=2 6 3 5 -5 9 -2 -7 -4 -1 -10
right_child=1 -3 8 4 -6 7 -8 -9 10 -11 -12
leaf_value=-10.608503401556085 -10.617477994325339 -10.531856775164517 -10.50734555332552 -10.613809053106037 -10.601155819759125 -10.641047537656219 -10.816170580573342 -10.627234072394549 -10.64570907388849 -10.434834467782919 -10.544820531521065
leaf_weight=10.15853691101074 3.6280488967895534 7.2560977935791007 200.99390888214111 9.4329271316528303 23.945122718811035 14.512195587158201 11.609756469726561 26.121952056884766 3.6280488967895499 93.60366153717041 8.7073173522949201
leaf_count=14 5 10 178 4 33 20 16 36 5 66 12
internal_value=-10.5863 -10.5944 -10.5856 -10.5867 -10.5907 -10.5859 -10.5979 -10.5885 -10.5845 -10.5846 -10.5863
internal_weight=0 22.4939 391.104 177.774 33.378 144.396 15.2378 40.6341 213.329 103.762 12.3354
internal_count=399 31 368 173 37 136 21 56 195 80 17
is_linear=0
shrinkage=1


Tree=1
num_leaves=12
num_cat=0
split_feature=10 29 55 20 109 6 19 115 22 22 10
split_gain=3.83575 1.69653 1.21707 1.20094 1.73715 1.20712 2.42512 0.629059 0.258124 0.913232 0.159452
threshold=16.146735191345218 0.27575343847274786 -0.89058369398117054 61.954999923706062 199.42444610595706 5.1530103683471689 50.164999008178718 1.5000000000000002 1.3989776372909548 1.5898318290710451 11.220575332641603
decision_type=2 2 2 2 2 2 2 2 2 2 2
left_child=3 -2 -3 5 7 10 -7 -5 -6 -10 -1
right_child=1 2 -4 4 8 6 -8 -9 9 -11 -12
leaf_value=0.11171771165268843 0.060963760636820616 -0.065324455679964782 -0.22497649639445169 -0.01909630503487169 0.040538944671740657 0.05461745335433317 -0.026966175747859158 -0.11421024062810163 -0.079693843604603409 0.05118338268756286 -0.014585014053756278
leaf_weight=291.69513130187988 5.8048782348632839 4.3536586761474654 12.335366249084469 4.35365867614746 29.024391174316406 18.140244483947754 8.7073173522949237 8.7073173522949201 5.8048782348632839 16.689024925231934 7.9817075729370108
leaf_count=240 8 6 17 6 40 25 3 12 8 23 11
internal_value=0 -0.0081424 -0.0114272 0.000696323 -0.00182323 0.00126624 -0.00270893 -0.00838115 0 -0.00163985 0.00170548
internal_weight=0 22.4939 16.689 391.104 64.5793 326.524 26.8476 13.061 51.5183 22.4939 299.677
internal_count=399 31 23 368 89 279 28 18 71 31 251
is_linear=0
shrinkage=0.0215021


Tree=2
num_leaves=11
num_cat=0
split_feature=10 17 17 72 6 34 38 21 42 31
split_gain=3.83575 1.31036 1.09741 1.99945 1.26233 3.05103 1.12096 0.696585 0.513922 0.335346
threshold=16.146735191345218 55.249990463256843 54.56524848937989 1.0000000180025095e-35 5.1530103683471689 5.7647643089294442 200.07142639160159 -1.3063838481903074 11.786652088165285 0.20902822166681292
decision_type=2 2 2 2 2 2 2 2 2 2
left_child=2 9 4 8 -1 -6 7 -5 -4 -2
right_child=1 -3 3 6 5 -7 -8 -9 -10 -11
leaf_value=0.11307882841004965 0.13398055829173755 -0.22013901924223073 -0.056466689124195682 -0.0088276236089146684 -0.02638634513820149 0.053443060975802918 0.12865375962594883 -0.1117544755217795 0.039667270422352109 -0.063919839789427266
leaf_weight=290.24391174316406 7.9817075729370135 10.15853691101074 4.35365867614746 3.6280488967895517 7.2560977935791042 18.865854263305664 4.35365867614746 9.432927131652832 52.969513893127441 4.3536586761474609
leaf_count=238 11 14 6 5 1 26 6 13 73 6
internal_value=0 -0.0081424 0.000696323 -0.00149843 0.00128708 -0.00283657 -0.00760685 -0.0105242 0.000138414 -0.00103957
internal_weight=0 22.4939 391.104 74.7378 316.366 26.122 17.4146 13.061 57.3232 12.3354
internal_count=399 31 368 103 265 27 24 18 79 17
is_linear=0
shrinkage=0.0215021


Tree=3
num_leaves=11
num_cat=0
split_feature=10 29 70 17 54 6 19 6 42 4
split_gain=3.79802 1.69653 1.21707 1.1458 2.19906 1.29754 2.65727 0.891641 0.527524 0.17039
threshold=16.146735191345218 0.27575343847274786 0.38999086618423467 54.175455093383796 -0.93301269412040699 5.1530103683471689 50.164999008178718 -2.0740251541137691 11.786652088165285 58.159999847412116
decision_type=2 2 2 2 2 2 2 2 2 2
left_child=3 -2 -3 5 7 -1 -7 -5 -6 -9
right_child=1 2 -4 4 8 6 -8 9 -10 -11
leaf_value=0.11807972450733367 0.064386370060662279 -0.21540555822313168 -0.062545426152845252 -0.035243802334383761 -0.055252534210782252 0.094847214028268081 -0.025818982130143678 -0.068798865849956495 0.034302268504465397 -0.10935151463182419
leaf_weight=287.34147262573242 5.8048782348632839 12.335366249084474 4.35365867614746 5.8048782348632839 4.35365867614746 17.414634704589847 7.9817075729370108 4.35365867614746 55.146343231201172 8.7073173522949201
leaf_count=234 8 17 6 8 6 24 2 6 76 12
internal_value=0 -0.0081424 -0.0114272 0.000656582 -0.00152803 0.00127711 -0.00297111 -0.00767768 0.000210207 -0.0105242
internal_weight=0 22.4939 16.689 391.104 78.3659 312.738 25.3963 18.8659 59.5 13.061
internal_count=399 31 23 368 108 260 26 26 82 18
is_linear=0
shrinkage=0.0215021


Tree=4
num_leaves=13
num_cat=0
split_feature=10 13 17 54 6 34 4 43 10 19 0 45
split_gain=3.87364 1.49158 0.954852 1.60811 1.26233 3.05103 0.738383 0.715035 0.276953 0.365711 0.247234 0.176294
threshold=16.146735191345218 1.9084662795066836 54.56524848937989 -0.93301269412040699 5.1530103683471689 5.7647643089294442 52.36000061035157 0.061877049505710609 5.6446959972381601 49.215000152587898 57.880001068115241 -1.2319110631942747
decision_type=2 2 2 2 2 2 2 2 2 2 2 2
left_child=2 10 4 6 11 -6 -4 -8 -5 -10 -2 -1
right_child=1 -3 3 8 5 -7 7 -9 9 -11 -12 -13
leaf_value=-0.019241809598263077 -0.049018245149246652 0.06406752470954348 0.12736675104625117 0.052485033085340048 -0.025263818643513569 0.050254502043091002 -0.073226002089968351 -0.14684492009476169 -0.054064486231857674 0.024434585688564003 -0.21077387676722162 0.1184496662322703
leaf_weight=19.591464042663574 5.8048782348632839 7.2560977935791007 3.6280488967895534 44.26219654083252 7.2560977935791042 18.865854263305664 9.4329271316528303 4.35365867614746 6.5304880142211896 6.5304880142211914 9.4329271316528303 270.65244770050049
leaf_count=27 8 10 5 61 1 26 13 6 9 9 13 211
internal_value=0 -0.0081424 0.000736063 -0.00129377 0.00128708 -0.00283657 -0.00678198 -0.00890191 0.000138414 -0.00195212 -0.0116723 0.00174458
internal_weight=0 22.4939 391.104 74.7378 316.366 26.122 17.4146 13.7866 57.3232 13.061 15.2378 290.244
internal_count=399 31 368 103 265 27 24 19 79 18 21 238
is_linear=0
shrinkage=0.0215021


Tree=5
num_leaves=12
num_cat=0
split_feature=17 109 17 6 16 22 15 9 2 45 36
split_gain=4.44798 3.35572 2.98009 1.41306 2.75503 0.940285 0.861958 0.694713 0.178333 0.189922 0.160299
threshold=55.249990463256843 199.67000579833987 57.406333923339851 4.8894948959350595 1.2386378645896914 1.5359382033348086 63.154998779296882 -3.1369233131408687 58.885000228881843 2.1590040922164921 219.50000000000003
decision_type=2 2 2 2 2 2 2 2 2 2 2
left_child=3 2 -2 8 -5 -3 7 -7 9 10 -1
right_child=1 5 -4 4 -6 6 -8 -9 -10 -11 -12
leaf_value=0.083661174595793864 -0.14368743939227693 0.05206982294413777 0.065839539566291405 -0.024720592362437656 0.068445574315359636 -0.0012954838128901426 0.2067866903740577 -0.21167149950591471 -0.052341629926694416 -0.063538471327032872 0.0213474042600321
leaf_weight=285.8902530670166 16.689024925231937 26.121952056884766 5.8048782348632804 9.4329271316528338 18.140244483947754 4.35365867614746 5.8048782348632804 5.8048782348632804 5.0792684555053702 5.0792684555053702 22.493903160095215
leaf_count=250 23 36 8 4 25 6 8 8 7 7 31
internal_value=0 -0.0048927 -0.0113937 0.00118141 -0.0031243 -0.000652164 -0.00484399 -0.00832646 0.0016342 0.00172495 0.00181868
internal_weight=0 64.5793 22.4939 346.116 27.5732 42.0854 15.9634 10.1585 318.543 313.463 308.384
internal_count=413 89 31 324 29 58 22 14 295 288 281
is_linear=0
shrinkage=0.0215021


Tree=6
num_leaves=8
num_cat=0
split_feature=17 56 13 56 101 5 116
split_gain=4.44798 3.32325 2.11983 2.50049 0.762423 3.10716 0.27277
threshold=55.249990463256843 168.50000000000003 1.7729397416114809 104.50000000000001 1.6622275710105898 0.7058263123035432 0.22157622873783114
decision_type=2 2 2 2 2 2 2
left_child=4 2 3 -2 6 -6 -1
right_child=1 -3 -4 -5 5 -7 -8
leaf_value=-0.031067289125685318 0.13970538883819264 -0.13997996974826782 0.040243263034063739 -0.20712010832040659 -0.024189046611396203 0.013056299552406794 0.1141038497119183
leaf_weight=20.317073822021484 8.7073173522949237 10.884146690368651 31.926830291748047 13.060976028442381 10.15853691101074 43.536586761474609 272.10366725921631
leaf_count=28 12 15 44 18 5 51 240
internal_value=0 -0.0048927 -0.00204142 -0.0071223 0.00118141 -0.000910729 0.00164142
internal_weight=0 64.5793 53.6951 21.7683 346.116 53.6951 292.421
internal_count=413 89 74 30 324 56 268
is_linear=0
shrinkage=0.0215021


Tree=7
num_leaves=11
num_cat=0
split_feature=10 17 30 55 6 100 20 10 103 14
split_gain=4.34478 1.96738 1.45003 1.70799 1.26331 2.61775 0.412568 0.377982 0.129199 0.123915
threshold=16.146735191345218 55.249990463256843 -1.5611713528633115 -0.95207393169403065 5.1530103683471689 -1.1911315917968748 62.909999847412116 -20.124901771545407 5.7684202194213876 57.545000076293952
decision_type=2 2 2 2 2 2 2 2 2 2
left_child=2 8 3 7 6 -6 -4 -1 -2 -8
right_child=1 -3 4 -5 5 -7 9 -9 -10 -11
leaf_value=-0.058149355083124507 0.12651686916768592 -0.20266658180620223 0.09167058568902528 0.15818486264713047 -0.023668930233943727 0.045568500591681604 -0.030399275783245111 -0.13758798174874978 -0.047755249385399962 0.074341108967308098
leaf_weight=5.0792684555053711 7.9817075729370135 11.609756469726561 298.22561931610107 11.609756469726561 7.9817075729370144 16.689024925231934 24.670732498168945 6.5304880142211932 3.6280488967895508 16.689024925231934
leaf_count=7 11 16 267 16 2 23 34 9 5 23
internal_value=0 -0.00847144 0.000803095 -0.00405327 0.0011868 -0.0031131 0.00157455 -0.00954695 -2.60026e-05 0
internal_weight=0 23.2195 387.476 23.2195 364.256 24.6707 339.585 11.6098 11.6098 41.3598
internal_count=413 32 381 32 349 25 324 16 16 57
is_linear=0
shrinkage=0.0215021


Tree=8
num_leaves=11
num_cat=0
split_feature=10 17 15 15 32 18 109 17 70 21
split_gain=4.38572 1.96738 1.14794 2.58663 2.28232 1.04848 1.63602 0.383657 0.196601 0.129199
threshold=16.146735191345218 55.249990463256843 52.659999847412116 53.049999237060554 7.2342710494995126 3.6703995466232304 199.51333618164065 54.56524848937989 0.88252755999565136 1.2658129930496218
decision_type=2 2 2 2 2 2 2 2 2 2
left_child=2 9 7 4 -4 8 -7 -1 -5 -2
right_child=1 -3 3 5 -6 6 -8 -9 -10 -11
leaf_value=0.1186694827440343 0.12950676293347083 -0.19830881566299016 -0.066596849590801699 0.080285541542978164 0.024079108850911347 -0.13364014839087199 0.044005179087618543 -0.10551181026094009 -0.022550037055105179 -0.046728409108736373
leaf_weight=222.03659248352051 7.9817075729370135 11.609756469726561 11.609756469726564 101.58536911010742 7.2560977935791007 8.7073173522949201 26.121952056884766 5.8048782348632804 4.35365867614746 3.6280488967895508
leaf_count=171 11 16 7 131 10 12 36 8 6 5
internal_value=0 -0.00847144 0.000843206 -0.000447521 -0.00767768 0.000441065 -0.00250028 0.0018383 0.00162962 -2.60026e-05
internal_weight=0 23.2195 387.476 159.634 18.8659 140.768 34.8293 227.841 105.939 11.6098
internal_count=413 32 381 202 17 185 48 179 137 16
is_linear=0
shrinkage=0.0215021


Tree=9
num_leaves=11
num_cat=0
split_feature=10 104 30 55 6 34 21 12 18 0
split_gain=4.42681 1.79316 1.16549 1.35608 1.28958 2.97363 1.16151 0.855009 0.371135 0.457553
threshold=16.146735191345218 1.6323167681694033 -1.5611713528633115 -0.95207393169403065 5.1530103683471689 5.7647643089294442 -1.3063838481903074 1.186174273490906 4.1759355068206796 56.449998855590827
decision_type=2 2 2 2 2 2 2 2 2 2
left_child=2 -2 3 6 8 -6 -1 -3 -4 -10
right_child=1 7 4 -5 5 -7 -8 -9 9 -11
leaf_value=0.031702849291991533 0.063590655486377143 -0.14087811788681825 0.072287728441986582 0.15383734313743219 -0.021728022385667796 0.042037031728728157 -0.1307665985986893 -0.19404475083742836 0.016536913061759934 -0.050840715390070741
leaf_weight=3.6280488967895508 5.8048782348632839 3.6280488967895534 317.09147357940674 11.609756469726561 7.2560977935791042 17.414634704589844 7.9817075729370135 13.786585807800291 18.865854263305668 3.6280488967895499
leaf_count=5 8 5 293 16 1 24 11 19 26 5
internal_value=0 -0.00847144 0.000883316 -0.0034221 0.00122946 -0.0031131 -0.00835683 -0.0117312 0.00162029 -0.000339335
internal_weight=0 23.2195 387.476 23.2195 364.256 24.6707 11.6098 17.4146 339.585 22.4939
internal_count=413 32 381 32 349 25 16 24 324 31
is_linear=0
shrinkage=0.0215021


Tree=10
num_leaves=10
num_cat=0
split_feature=10 6 34 13 17 55 32 6 36
split_gain=3.81798 2.69478 7.05994 1.80074 1.77546 2.05275 0.855009 0.557325 0.458879
threshold=14.739511966705324 4.2711572647094735 5.7647643089294442 1.838013827800751 53.83161926269532 -0.97322851419448841 5.2375357151031503 -2.7860598564147945 206.50000000000003
decision_type=2 2 2 2 2 2 2 2 2
left_child=1 4 -3 6 -1 7 -2 -6 -7
right_child=3 2 -4 -5 5 8 -8 -9 -10
leaf_value=0.077119831730022861 -0.028517752424245743 -0.044219687486095532 0.041133145394849212 -0.025945942666146141 -0.01914110283099037 0.034126179876903709 -0.18444265943994065 -0.12795483628959145 -0.049747530977282885
leaf_weight=272.82927703857422 3.628048896789557 14.512195587158201 26.121952056884766 10.884146690368651 3.6280488967895508 46.43902587890625 13.786585807800291 7.9817075729370099 24.670732498168945
leaf_count=223 5 2 36 15 5 64 19 11 34
internal_value=0 0.0002441 -0.00482196 -0.00770813 0.000901125 -0.0017084 -0.0117312 -0.00954695 0
internal_weight=0 396.183 40.6341 28.2988 355.549 82.7195 17.4146 11.6098 71.1098
internal_count=414 375 38 39 337 114 24 16 98
is_linear=0
shrinkage=0.0215021


Tree=11
num_leaves=12
num_cat=0
split_feature=10 6 34 20 29 23 109 55 29 45 55
split_gain=3.33178 2.69478 7.05994 1.97451 1.73519 1.73343 1.61016 1.05069 0.696527 0.126723 0.113991
threshold=14.739511966705324 4.2711572647094735 5.7647643089294442 61.655000686645515 0.27575343847274786 0.82606813311576854 199.42444610595706 -0.97322851419448841 -0.18667974323034284 -1.3448289036750791 -0.89058369398117054
decision_type=2 2 2 2 2 2 2 2 2 2 2
left_child=1 3 -3 9 -2 10 7 -5 -8 -1 -6
right_child=4 2 -4 6 5 -7 8 -9 -10 -11 -12
leaf_value=-0.04003339605984952 0.063610347183821969 -0.043268869372556772 0.040248694555603821 -0.12520353290018402 -0.065608367453728569 0.0084297825917569163 0.02719775435638366 -0.063187282289199648 -0.052359697095338012 0.10412760849927301 -0.18047674671023392
leaf_weight=12.335366249084471 7.2560977935791042 14.512195587158201 26.121952056884766 9.4329271316528303 3.628048896789557 4.35365867614746 41.359757423400879 5.8048782348632804 20.317073822021484 266.29878902435303 13.060976028442381
leaf_count=17 10 2 36 13 5 6 57 8 28 214 18
internal_value=0 0.0002441 -0.00482196 0.000901125 -0.00718454 -0.0101892 -0.00199405 -0.00794365 -3.00918e-05 0.00178347 -0.0131428
internal_weight=0 396.183 40.6341 355.549 28.2988 21.0427 76.9146 15.2378 61.6768 278.634 16.689
internal_count=414 375 38 337 39 29 106 21 85 231 23
is_linear=0
shrinkage=0.0215021


Tree=12
num_leaves=12
num_cat=0
split_feature=10 6 34 20 104 30 55 55 70 36 45
split_gain=3.33178 2.69478 7.05994 1.97451 1.73519 1.38772 1.4939 1.38625 1.2814 0.503446 0.126723
threshold=14.739511966705324 4.2711572647094735 5.7647643089294442 61.655000686645515 -0.73446306586265553 0.21762118488550189 -0.89825865626335133 -0.97322851419448841 0.62190663814544689 206.50000000000003 -1.3448289036750791
decision_type=2 2 2 2 2 2 2 2 2 2 2
left_child=1 3 -3 10 -2 -6 -7 8 -5 -9 -1
right_child=4 2 -4 7 5 6 -8 9 -10 -11 -12
leaf_value=-0.039172592189805309 0.062599955024650614 -0.042338495887563068 0.039383261306176365 0.013938282148122972 0.00036373317800450988 -0.064197646851184079 -0.17659610960942676 0.023948005760495373 -0.12251138843403471 -0.047552006596763181 0.10188864160671605
leaf_weight=12.335366249084471 7.2560977935791042 14.512195587158201 26.121952056884766 4.35365867614746 3.6280488967895534 4.3536586761474672 13.060976028442377 40.634147644042969 9.4329271316528303 22.493903160095215 266.29878902435303
leaf_count=17 10 2 36 6 5 6 18 56 13 31 214
internal_value=0 0.0002441 -0.00482196 0.000901125 -0.00718454 -0.0101892 -0.0125561 -0.00199405 -0.00788126 -0.000222548 0.00178347
internal_weight=0 396.183 40.6341 355.549 28.2988 21.0427 17.4146 76.9146 13.7866 63.1281 278.634
internal_count=414 375 38 337 39 29 24 106 19 87 231
is_linear=0
shrinkage=0.0215021


Tree=13
num_leaves=12
num_cat=0
split_feature=10 6 55 20 12 29 23 70 4 45 55
split_gain=3.36347 2.73927 7.05994 1.78435 2.49768 1.73519 1.73343 1.31152 0.342141 0.126723 0.113991
threshold=14.739511966705324 4.2711572647094735 0.99550911784172069 61.655000686645515 0.99226340651512157 0.27575343847274786 0.82606813311576854 0.76603472232818615 61.835000991821296 -1.3448289036750791 -0.89058369398117054
decision_type=2 2 2 2 2 2 2 2 2 2 2
left_child=1 3 -3 9 7 -2 10 -5 -6 -1 -7
right_child=5 2 -4 4 8 6 -8 -9 -10 -11 -12
leaf_value=-0.038330297449028446 0.062234767258610241 0.038536436727601098 -0.041428127427755652 -0.11987713084742256 0.023433072278268262 -0.062817259766995259 0.009628911271893097 0.0030679125417000953 -0.043136001699535603 0.099697817303989134 -0.17279891452861751
leaf_weight=12.335366249084471 7.2560977935791042 26.121952056884766 14.512195587158201 10.884146690368651 52.969513893127441 3.628048896789557 4.35365867614746 3.6280488967895499 9.4329271316528303 266.29878902435303 13.060976028442381
leaf_count=17 10 36 2 15 73 5 6 5 13 214 18
internal_value=0 0.000283332 -0.00482196 0.000944822 -0.00179508 -0.00718454 -0.0101892 -0.00937546 0 0.00178347 -0.0131428
internal_weight=0 396.183 40.6341 355.549 76.9146 28.2988 21.0427 14.5122 62.4024 278.634 16.689
internal_count=414 375 38 337 106 39 29 20 86 231 23
is_linear=0
shrinkage=0.0215021


Tree=14
num_leaves=14
num_cat=0
split_feature=101 55 14 15 109 55 19 41 105 31 31 4 4
split_gain=4.95945 9.78572 2.80718 3.07785 1.5507 1.01562 1.2893 0.641504 0.472161 0.680288 0.253194 0.336046 0.178043
threshold=1.6622275710105898 0.99550911784172069 54.495000839233406 63.154998779296882 200.52579498291018 -0.97322851419448841 47.829999923706062 199.00833129882815 5.3105385303497323 0.031968327239155776 0.15709482878446582 50.109998703002937 59.370000839233406
decision_type=2 2 2 2 2 2 2 2 2 2 2 2 2
left_child=2 7 5 4 12 6 -1 8 9 -2 -7 -12 -4
right_child=1 -3 3 -5 -6 10 -8 -9 -10 -11 11 -13 -14
leaf_value=0.0022814474842757218 0.071773453831009179 -0.040537333842190659 -0.16088997273152347 0.082624596204680517 0.0016640574214589314 0.10633174333198936 -0.11729951544829456 0.022929210970224274 0.0094218690295920348 -0.11828891213035708 -0.077590175670884762 0.058040227304851609 -0.074311306886745573
leaf_weight=18.140244483947757 3.6280488967895526 21.768293380737305 11.609756469726564 15.963415145874022 3.6280488967895499 256.8658618927002 5.8048782348632804 37.006098747253418 5.0792684555053702 7.9817075729370117 9.4329271316528303 23.945122718811035 3.6280488967895499
leaf_count=25 5 3 16 22 5 210 8 51 7 11 13 33 5
internal_value=0 -0.00551846 0.000477248 -0.00507708 -0.0107421 0.00118228 -0.00265002 -6.27106e-05 -0.00370719 -0.0059766 0.00158415 0 -0.0135366
internal_weight=0 75.4634 349.018 34.8293 18.8659 314.189 23.9451 53.6951 16.689 11.6098 290.244 33.378 15.2378
internal_count=414 77 337 48 26 289 33 74 23 16 256 46 21
is_linear=0
shrinkage=0.0215021


Tree=15
num_leaves=12
num_cat=0
split_feature=17 104 47 13 39 20 4 28 2 30 102
split_gain=2.91056 4.10388 2.30665 2.20352 1.93691 0.362366 0.265242 0.259595 0.191622 0.152445 0.106801
threshold=55.249990463256843 1.0000000180025095e-35 3.0324178934097294 2.0272080898284917 203.20000457763675 62.909999847412116 45.335000991821296 0.91257628798484813 61.114999771118171 1.6782583594322207 0.49770861864089971
decision_type=2 2 2 2 2 2 2 2 2 2 2
left_child=2 10 5 8 -4 6 7 -1 -3 -7 -2
right_child=1 3 4 -5 -6 9 -8 -9 -10 -11 -12
leaf_value=0.058610225776810618 0.054155647292762711 -0.16584339382115756 0.075249840084249855 -0.0042421146101856875 -0.00066165287424885895 -0.090399873025564417 0.10997902514659146 -0.06151560997911986 -0.11903016461867524 0.045733146130484348 -0.038429127796932923
leaf_weight=15.963415145874025 30.475610733032227 15.237805366516119 6.5304880142211896 9.4329271316528303 7.2560977935791016 6.5304880142211896 291.69513130187988 5.8048782348632804 3.6280488967895499 5.0792684555053711 3.6280488967895499
leaf_count=22 42 21 9 13 1 9 258 8 5 7 5
internal_value=0 -0.00391183 0.00106908 -0.00980246 -0.00686062 0.00150119 0.00167541 0 -0.0138064 -0.00121612 0.000579258
internal_weight=0 62.4024 338.86 28.2988 13.7866 325.073 313.463 21.7683 18.8659 11.6098 34.1037
internal_count=400 86 314 39 10 304 288 30 26 16 47
is_linear=0
shrinkage=0.0215021


Tree=16
num_leaves=12
num_cat=0
split_feature=10 47 39 40 55 3 27 40 0 12 27
split_gain=3.68142 2.19122 1.93691 1.73284 0.996206 1.27346 1.36906 0.780232 0.252676 0.222303 0.181836
threshold=14.739511966705324 3.0324178934097294 203.20000457763675 12.783598423004152 -0.97322851419448841 51.980001449584968 5.1199946403503427 15.201954364776613 56.449998855590827 1.3173460364341738 -13.691260814666746
decision_type=2 2 2 2 2 2 2 2 2 2 2
left_child=1 4 -3 -2 5 -1 -7 -5 -6 -9 -10
right_child=3 2 -4 7 8 6 -8 9 10 -11 -12
leaf_value=0.060932420548678631 -0.16840362647375468 0.022527398322539784 -0.00064742591848604783 0.0035479675926262579 0.11077367861722648 -0.11121133567682702 0.0041761826102876664 -0.0077593313042494056 -0.029472322418910086 -0.10179113070396897 0.083377262724822071
leaf_weight=14.512195587158205 8.7073173522949201 6.5304880142211896 7.2560977935791016 15.237805366516115 281.53659439086914 6.5304880142211896 4.3536586761474609 3.628048896789549 13.786585807800291 5.0792684555053711 34.103659629821777
leaf_count=20 12 9 1 21 244 9 6 5 19 7 47
internal_value=0 0.000903049 -0.00686062 -0.00645141 0.00129266 -0.00239102 -0.00771261 -0.00203686 0.00165117 -0.00675892 0
internal_weight=0 368.61 13.7866 32.6524 354.823 25.3963 10.8841 23.9451 329.427 8.70732 47.8902
internal_count=400 355 10 45 345 35 15 33 310 12 66
is_linear=0
shrinkage=0.0215021


Tree=17
num_leaves=11
num_cat=0
split_feature=14 42 101 40 55 18 6 55 47 105
split_gain=2.21556 3.87187 2.19962 2.18207 1.17278 1.175 1.08043 0.289183 0.173499 0.114251
threshold=54.299999237060554 13.661284923553469 2.8124434947967534 16.494391441345218 -0.97322851419448841 3.6195675134658818 -1.1493595242500303 -0.57231965661048878 -3.4663786888122554 1.0000000180025095e-35
decision_type=2 2 2 2 2 2 2 2 2 2
left_child=2 9 4 -4 5 -1 -7 -3 -6 -2
right_child=1 7 3 -5 8 6 -8 -9 -10 -11
leaf_value=0.10056226453869568 -0.15865636606586872 -0.099602403094770905 0.010465707266983556 -0.00063350487278295941 -0.002057580568137611 -0.0096209699813156364 -0.086064799667414635 0.084750471935424371 0.091625622702226392 -0.16478258734978499
leaf_weight=14.512195587158205 10.15853691101074 5.8048782348632804 11.609756469726564 8.7073173522949201 7.2560977935791007 6.5304880142211914 7.2560977935790998 29.750000953674316 296.04878997802734 3.6280488967895499
leaf_count=20 14 8 16 3 10 9 10 41 264 5
internal_value=0 -0.00393475 0.000844156 -0.00559368 0.00132656 -0.00247228 -0.00686062 0 0.00176196 -0.0129845
internal_weight=0 49.3415 351.921 20.3171 331.604 28.2988 13.7866 35.5549 303.305 13.7866
internal_count=400 68 332 19 313 39 19 49 274 19
is_linear=0
shrinkage=0.0215021


Tree=18
num_leaves=12
num_cat=0
split_feature=10 17 47 39 20 31 11 2 27 5 108
split_gain=4.05073 2.84527 2.13885 1.93691 0.81992 0.856747 0.753918 0.570347 0.30355 0.142386 0.140298
threshold=14.739511966705324 55.114845275878913 3.0324178934097294 203.20000457763675 61.655000686645515 0.12233281880617143 0.68867185711860668 46.555000305175788 -13.691260814666746 -2.9671461582183833 2.5273349285125737
decision_type=2 2 2 2 2 2 2 2 2 2 2
left_child=2 7 4 -4 9 8 -7 -2 -6 -1 -11
right_child=1 -3 3 -5 5 6 -8 -9 -10 10 -12
leaf_value=-0.0020133381732797464 -0.058418603586093132 -0.16123940833258302 0.020220694046187575 -0.00061988315941725674 -0.030918177920080708 -0.10696947569278223 -0.0077660069068268443 0.015657594960223679 0.027747604183381777 0.10875215947622671 -0.00071190851689240087
leaf_weight=10.15853691101074 5.8048782348632839 12.335366249084471 6.5304880142211896 7.2560977935791016 12.335366249084471 5.8048782348632795 6.5304880142211914 14.512195587158201 44.98780632019043 263.39634990692139 11.609756469726561
leaf_count=14 8 17 9 1 17 8 9 20 62 219 16
internal_value=0 -0.00690825 0.000818738 -0.00686062 0.00120509 -0.000662568 -0.00555038 -0.000587733 0.000138414 0.0017374 0.00183508
internal_weight=0 32.6524 368.61 13.7866 354.823 69.6585 12.3354 20.3171 57.3232 285.165 275.006
internal_count=400 45 355 10 345 96 17 28 79 249 235
is_linear=0
shrinkage=0.0215021


Tree=19
num_leaves=12
num_cat=0
split_feature=10 17 47 39 55 17 27 10 101 4 2
split_gain=3.3367 2.5492 2.12129 1.93691 0.929922 1.43205 1.21415 0.350641 0.230481 0.175536 0.13316
threshold=16.146735191345218 55.114845275878913 3.0324178934097294 203.20000457763675 -0.97322851419448841 53.83161926269532 5.1199946403503427 8.1949529647827166 -0.75744396448135365 61.835000991821296 46.555000305175788
decision_type=2 2 2 2 2 2 2 2 2 2 2
left_child=2 10 4 -4 5 -1 -7 9 -9 -6 -2
right_child=1 -3 3 -5 7 6 -8 8 -10 -11 -12
leaf_value=0.053079661089191391 -0.057162478325715291 -0.15777241526287614 0.019785905759330355 -0.0006065543421017209 0.096983058178615869 -0.10466940256095775 0.0044602430188459292 -0.030253370788341685 0.015320923089638526 -0.01360964137230935 0.0099040002456282691
leaf_weight=15.237805366516115 3.6280488967895534 12.335366249084471 6.5304880142211896 7.2560977935791016 305.48171710968018 6.5304880142211896 3.6280488967895508 5.8048782348632839 15.963415145874022 6.5304880142211905 12.335366249084471
leaf_count=21 5 17 9 1 277 9 5 8 22 9 17
internal_value=0 -0.00666096 0.000792553 -0.00686062 0.00117324 -0.00239102 -0.00832646 0.00151805 -0.00041697 0.00172298 0
internal_weight=0 28.2988 372.963 13.7866 359.177 25.3963 10.1585 333.78 21.7683 312.012 15.9634
internal_count=400 39 361 10 351 35 14 316 30 286 22
is_linear=0
shrinkage=0.0215021


Tree=20
num_leaves=14
num_cat=0
split_feature=101 56 14 42 56 30 115 17 33 8 47 109 101
split_gain=5.03685 9.70033 2.8757 3.59527 0.573861 0.462233 0.433709 1.06472 0.293327 0.265802 0.15325 0.120162 0.105966
threshold=1.6622275710105898 4.5000000000000009 54.299999237060554 13.661284923553469 126.00000000000001 -1.5611713528633115 3.5000000000000004 54.56524848937989 23.651972770690922 13.896568298339846 -3.4663786888122554 197.96999359130862 0.65360626578331005
decision_type=2 2 2 2 2 2 2 2 2 2 2 2 2
left_child=2 -2 5 -4 -5 8 7 -3 -1 10 -7 -8 -11
right_child=1 6 3 4 -6 9 11 -9 -10 12 -12 -13 -14
leaf_value=-0.068061449427101475 -0.050806246562819332 0.026074241150468653 -0.13984084815096418 0.078319859992806495 -0.090601299469892135 -0.0040553908234069918 -0.078169785056864463 -0.22260768173713497 0.0067638559111206607 -0.057373814633299831 0.070686816995826462 0.058115093380885503 0.14851620436002558
leaf_weight=7.2560977935790998 21.768293380737305 10.884146690368651 13.786585807800291 25.396342277526859 6.5304880142211905 7.2560977935791007 3.6280488967895499 4.35365867614746 5.8048782348632812 3.6280488967895499 289.51830196380615 34.103659629821777 3.6280488967895508
leaf_count=10 3 15 19 35 9 10 5 6 8 5 255 47 5
internal_value=0 -0.00559145 0.000454904 -0.00440234 0 0.00124007 -9.21899e-05 -0.0032829 -0.00195212 0.00145649 0.00159654 0.000724536 -0.00110805
internal_weight=0 74.7378 362.805 45.7134 31.9268 317.091 52.9695 15.2378 13.061 304.03 296.774 37.7317 7.2561
internal_count=432 76 356 63 44 293 73 21 18 275 265 52 10
is_linear=0
shrinkage=0.0215021


Tree=21
num_leaves=12
num_cat=0
split_feature=15 15 28 10 13 15 30 14 10 20 10
split_gain=3.22288 8.47817 2.65047 2.34994 2.39566 1.48555 0.693154 0.633901 0.329971 0.368506 0.181159
threshold=52.659999847412116 53.049999237060554 0.18278616666793826 8.1949529647827166 1.8090696334838869 60.590000152587898 -1.5611713528633115 48.70000076293946 12.418642044067385 65.079998016357436 4.5387213230133066
decision_type=2 2 2 2 2 2 2 2 2 2 2
left_child=8 2 -2 6 5 -5 7 -3 9 -1 -8
right_child=1 3 -4 4 -6 -7 10 -9 -10 -11 -12
leaf_value=0.091384912321028799 -0.00062187436992856718 -0.10622752322656109 -0.076488967036907385 0.08287288859933889 0.008441443860377559 -0.13683397001605263 0.057646936472927908 0.0066184185034121063 -0.0015660067631928292 -0.074876989586245377 -0.0025198420700915025
leaf_weight=215.50610446929932 5.8048782348632839 3.628048896789549 19.591464042663574 3.6280488967895534 18.140244483947754 14.512195587158201 124.80488204956055 7.9817075729370117 5.8048782348632804 5.8048782348632804 12.335366249084471
leaf_count=171 8 5 9 5 25 20 145 11 8 8 17
internal_value=0 -0.00210716 -0.0134126 -0.000344768 -0.00521243 -0.010424 0.000739543 -0.00359636 0.00156433 0.00175914 0.00129664
internal_weight=0 210.427 25.3963 185.03 36.2805 18.1402 148.75 11.6098 227.116 221.311 137.14
internal_count=432 245 17 228 50 25 178 16 187 179 162
is_linear=0
shrinkage=0.0215021


Tree=22
num_leaves=14
num_cat=0
split_feature=101 56 17 30 15 56 115 17 115 103 39 13 101
split_gain=4.96965 9.70033 2.152 2.7575 2.62148 0.61544 0.433709 1.06472 0.378737 0.263411 0.38252 0.160317 0.150657
threshold=1.6622275710105898 4.5000000000000009 54.884582519531257 0.31333285570144659 63.154998779296882 168.50000000000003 3.5000000000000004 54.56524848937989 5.5000000000000009 5.7684202194213876 201.51667022705081 2.6045123338699345 -0.13803664594888684
decision_type=2 2 2 2 2 2 2 2 2 2 2 2 2
left_child=2 -2 8 5 -5 -4 7 -3 11 12 -11 -1 -10
right_child=1 6 3 4 -6 -7 -8 -9 9 10 -12 -13 -14
leaf_value=0.09370156238250614 -0.048069126475856566 0.023548617450465156 0.022832585184427608 -0.10613268357129456 0.10687198813028487 -0.09867119924573052 0.01129823413512086 -0.21487891537363016 -0.00060850273731675379 -0.054881211541370246 0.0022996796106230879 -0.0020366118431190722 0.13027434044380426
leaf_weight=177.77439594268799 21.768293380737305 10.884146690368651 40.634147644042969 15.237805366516115 7.2560977935791007 6.5304880142211905 37.731708526611328 4.35365867614746 53.695123672485352 5.8048782348632795 5.0792684555053711 10.15853691101074 40.634147644042969
leaf_count=101 3 15 56 21 10 9 52 6 74 8 7 14 56
internal_value=0 -0.00559145 0.000412077 -0.00285516 -0.00879266 0 -9.21899e-05 -0.0032829 0.00127201 1.78151e-05 -0.00267321 0.00185496 0.000589681
internal_weight=0 74.7378 362.805 69.6585 22.4939 47.1646 52.9695 15.2378 293.146 105.213 10.8841 187.933 94.3293
internal_count=432 76 356 96 31 65 73 21 260 145 15 115 130
is_linear=0
shrinkage=0.0215021


Tree=23
num_leaves=11
num_cat=0
split_feature=101 56 17 30 42 56 13 13 30 56
split_gain=4.76723 10.0698 2.26944 2.7575 3.01792 0.61544 0.345708 0.517777 0.252848 0.11016
threshold=1.6622275710105898 4.5000000000000009 54.884582519531257 0.31333285570144659 15.548402309417726 168.50000000000003 1.7301921844482424 1.8090696334838869 -1.3272117376327512 180.50000000000003
decision_type=2 2 2 2 2 2 2 2 2 2
left_child=2 -2 6 5 -5 -4 -1 -8 -3 -9
right_child=1 8 3 4 -6 -7 7 9 -10 -11
leaf_value=0.086067428626420972 -0.047035537168614097 -0.099323046158716746 0.022341635636692836 -0.1038506032646484 0.10457401119012379 -0.096549556853822271 -0.082236832324023054 0.01451435427518831 0.0025279095277712868 -0.0019928203208182007
leaf_weight=215.50610446929932 21.768293380737305 5.8048782348632804 40.634147644042969 14.512195587158205 7.9817075729370108 6.5304880142211905 3.6280488967895499 55.146343231201172 47.16463565826416 18.865854263305664
leaf_count=153 3 8 56 20 11 9 5 76 65 26
internal_value=0 -0.0053868 0.000497732 -0.00285516 -0.00879266 0 0.00137791 0 0 0.000583044
internal_weight=0 74.7378 362.805 69.6585 22.4939 47.1646 293.146 77.6402 52.9695 74.0122
internal_count=432 76 356 96 31 65 260 107 73 102
is_linear=0
shrinkage=0.0215021


Tree=24
num_leaves=14
num_cat=0
split_feature=41 39 109 30 23 2 18 39 2 12 32 47 2
split_gain=2.64431 5.60817 4.14499 1.6404 1.36906 1.22856 1.98532 0.616554 0.823804 0.309188 0.471818 0.206287 0.191958
threshold=198.79167175292972 198.34523773193362 199.20999908447268 0.31333285570144659 0.82606813311576854 60.064998626708991 4.1759355068206796 197.35833740234378 50.545000076293952 1.743377208709717 7.2342710494995126 -2.019814014434814 50.129999160766609
decision_type=2 2 2 2 2 2 2 2 2 2 2 2 2
left_child=1 3 -3 9 -5 7 -7 8 -2 12 -11 -9 -1
right_child=5 2 -4 4 -6 6 -8 11 -10 10 -12 -13 -14
leaf_value=-0.045415031244482547 -0.097187387660242486 -0.080887292199729871 0.053655616872590309 -0.21031291334455862 0.0079626429740395147 0.0023956790758265039 -0.092114638277233082 -0.0033698844393442741 0.001214575355917817 -0.076500004192223886 0.065188928849714667 0.048852009589085095 0.069464536919952372
leaf_weight=12.335366249084471 3.6280488967895499 19.591464042663578 7.9817075729370108 6.5304880142211896 4.3536586761474609 19.591464042663578 7.2560977935791007 13.786585807800291 12.335366249084471 5.8048782348632795 7.9817075729370117 251.06098365783691 65.304880142211914
leaf_count=17 5 9 11 9 6 27 10 19 17 8 11 247 36
internal_value=0 -0.00281702 -0.0111741 -0.000228725 -0.00771261 0.000808568 -0.00325932 0.0012889 -0.00216373 0.00054094 -0.0017574 0.00158875 0.00124633
internal_weight=0 129.884 27.5732 102.311 10.8841 307.659 26.8476 280.811 15.9634 91.4268 13.7866 264.848 77.6402
internal_count=432 107 20 87 15 325 37 288 22 72 19 266 53
is_linear=0
shrinkage=0.0215021


Tree=25
num_leaves=15
num_cat=0
split_feature=21 55 17 22 55 10 26 105 12 38 12 55 6 108
split_gain=3.42592 11.0148 1.35989 2.48618 2.21236 1.14549 0.861204 0.65059 0.578002 1.06069 0.319483 0.29913 0.163295 0.139013
threshold=1.0416004657745364 0.99550911784172069 53.83161926269532 1.4266375899314883 -0.13690101355314252 12.418642044067385 0.5381876826286317 -5.2687897682189933 1.6975539326667788 198.07142639160159 1.8562604784965517 -0.97322851419448841 -4.5047760009765616 2.4508432149887089
decision_type=2 2 2 2 2 2 2 2 2 2 2 2 2 2
left_child=2 5 8 11 7 13 -7 -5 12 10 -10 -4 -1 -2
right_child=1 -3 3 4 -6 6 -8 -9 9 -11 -12 -13 -14 -15
leaf_value=-0.0032974246969169124 0.047666421288330714 -0.044284921996654805 -0.095097650399572561 -0.011666977471284196 0.1257278088992296 -0.041848324197840132 0.0014231310784928791 -0.13317959799715506 -0.20047871334765602 0.057186763524488822 -0.00030505625976982658 0.057673238159735372 0.14715555988413404 -0.0070910094681553475
leaf_weight=7.9817075729370108 54.420733451843262 21.768293380737305 4.35365867614746 5.8048782348632804 10.15853691101074 7.2560977935790998 7.2560977935791016 16.689024925231937 4.3536586761474636 16.689024925231934 3.6280488967895508 45.71341609954834 189.38415241241455 11.609756469726561
leaf_count=11 75 3 6 8 14 10 10 23 6 23 5 63 144 16
internal_value=0 -0.00413637 0.000337349 -0.00189366 -0.00645141 -9.92406e-05 -0.00547789 -0.0100932 0.00127183 -0.0013246 -0.00744071 0.000763012 0.00171205 0.000859892
internal_weight=0 102.311 304.756 82.7195 32.6524 80.5427 14.5122 22.4939 222.037 24.6707 7.98171 50.0671 197.366 66.0305
internal_count=417 114 303 114 45 111 20 31 189 34 11 69 155 91
is_linear=0
shrinkage=0.0215021


Tree=26
num_leaves=16
num_cat=0
split_feature=41 14 34 15 14 14 17 41 3 41 4 41 101 8 0
split_gain=2.98548 6.76948 1.50984 1.31577 1.37426 1.43286 0.614136 1.1745 1.9457 0.536757 0.265859 0.255641 0.463895 0.146076 0.114096
threshold=198.79167175292972 50.264999389648445 12.877408504486086 50.940000534057624 48.640001296997077 46.219999313354499 54.175455093383796 201.24500274658206 58.444999694824226 199.63957977294925 61.835000991821296 199.19166564941409 0.09397508949041368 13.20410203933716 58.764999389648445
decision_type=2 2 2 2 2 2 2 2 2 2 2 2 2 2 2
left_child=1 3 -3 -1 5 -5 9 10 -9 11 -8 -2 -13 -11 -4
right_child=6 2 14 4 -6 -7 7 8 -10 13 -12 12 -14 -15 -16
leaf_value=0.094244331476110388 0.0093810545561046725 -0.13031595102612378 0.062547128771458932 -0.0077189319414308977 0.27175742993121155 -0.074418591534986506 0.047607716357930048 -0.090102702649582617 2.4988712277087723e-05 0.089484641450569793 -0.093052846971612452 -0.022804494046631891 0.00087790748484288083 -0.00090171496453611609 -0.040948495480573388
leaf_weight=55.871953010559082 8.7073173522949237 19.591464042663578 4.35365867614746 10.884146690368654 14.512195587158201 12.335366249084471 51.518294334411621 7.9817075729370144 11.609756469726561 177.77439594268799 4.35365867614746 7.2560977935790998 5.0792684555053711 11.609756469726561 3.6280488967895508
leaf_count=32 12 9 6 15 20 17 71 11 16 164 6 10 7 16 5
internal_value=0 -0.00316959 -0.0122474 -0.000118422 -0.00334931 -0.00657794 0.000815523 -0.000653139 -0.00512036 0.00144457 0.000631421 -0.00119172 -0.00329497 0.0018572 -0.000858703
internal_weight=0 121.177 27.5732 93.6037 37.7317 23.2195 285.89 75.4634 19.5915 210.427 55.872 21.0427 12.3354 189.384 7.98171
internal_count=417 104 20 84 52 32 313 104 27 209 77 29 17 180 11
is_linear=0
shrinkage=0.0215021


Tree=27
num_leaves=13
num_cat=0
split_feature=21 55 17 22 55 27 10 12 13 55 5 108
split_gain=3.191 11.5511 1.1337 1.90761 1.74689 1.618 0.616315 0.420527 1.06135 0.29913 0.190849 0.103966
threshold=1.0416004657745364 0.99550911784172069 53.83161926269532 1.4266375899314883 -0.13690101355314252 4.1989345550537118 16.828255653381351 1.6975539326667788 1.8568199276924136 -0.97322851419448841 -1.7373809218406675 2.4508432149887089
decision_type=2 2 2 2 2 2 2 2 2 2 2 2
left_child=2 6 7 9 5 -5 11 10 -9 -4 -1 -2
right_child=1 -3 3 4 -6 -7 -8 8 -10 -11 -12 -13
leaf_value=-0.002736177466318821 0.033360768449947037 -0.040530628781399881 -0.091052011202594804 -0.12751387860628516 0.12200072337457298 0.0015713638741784981 -0.04807031690820468 -0.19456783175385015 0.023219165616611318 0.055409471854341981 0.13738883689445641 -0.0069191487518281101
leaf_weight=18.140244483947754 58.048782348632812 21.768293380737305 4.35365867614746 17.414634704589847 10.15853691101074 5.0792684555053702 9.4329271316528303 5.8048782348632839 18.865854263305664 45.71341609954834 179.22561550140381 13.060976028442381
leaf_count=25 80 3 6 24 14 7 13 8 26 63 130 18
internal_value=0 -0.00383578 0.000490184 -0.00152315 -0.00553773 -0.00879266 0 0.00134163 -0.000728428 0.000763012 0.00171205 0.000735277
internal_weight=0 102.311 304.756 82.7195 32.6524 22.4939 80.5427 222.037 24.6707 50.0671 197.366 71.1098
internal_count=417 114 303 114 45 31 111 189 34 69 155 98
is_linear=0
shrinkage=0.0215021


Tree=28
num_leaves=15
num_cat=0
split_feature=101 55 10 115 45 101 102 45 8 19 41 38 56 19
split_gain=4.06836 10.5323 2.7635 1.07013 0.759072 0.395866 0.427339 0.400183 0.439417 0.334614 0.41319 0.267507 0.242795 0.217371
threshold=1.6622275710105898 0.99550911784172069 11.220575332641603 2.5000000000000004 -0.59347787499427784 -2.2369035482406612 0.31117774546146398 0.38538184762001043 -4.1337966918945304 47.565000534057624 199.09526062011722 200.07142639160159 176.50000000000003 48.640001296997077
decision_type=2 2 2 2 2 2 2 2 2 2 2 2 2 2
left_child=2 9 5 -4 -5 7 12 -1 -9 -2 13 -8 -7 -11
right_child=1 -3 3 4 -6 6 11 8 -10 10 -12 -13 -14 -15
leaf_value=0.045661696017363321 0.016262973020811981 -0.039659133341487747 0.045866720291295078 -0.08719356013404149 -0.12477205675273714 0.089263721600647883 -0.01758614657428921 0.013362967413423122 -0.085423479456756449 -0.14005491713908519 0.014090472381669132 0.022719903760532557 -0.015336980308642046 -0.00083341185663684571
leaf_weight=16.689024925231937 31.926830291748047 21.768293380737305 7.9817075729370144 4.3536586761474618 11.609756469726559 212.60366535186768 23.945122718811035 3.6280488967895508 6.5304880142211896 4.3536586761474627 16.689024925231934 28.298781394958496 12.335366249084471 4.3536586761474609
leaf_count=23 44 3 11 6 16 176 33 5 9 6 23 39 17 6
internal_value=0 -0.00497964 0.0003704 -0.00632904 -0.00931109 0.000996899 0.00127769 -0.00105776 -0.00431167 0 -0.00181094 -0.000122465 0.0016965 -0.00523039
internal_weight=0 79.0915 327.976 23.9451 15.9634 304.03 277.183 26.8476 10.1585 57.3232 25.3963 52.2439 224.939 8.70732
internal_count=417 82 335 33 22 302 265 37 14 79 35 72 193 12
is_linear=0
shrinkage=0.0215021


Tree=29
num_leaves=15
num_cat=0
split_feature=6 55 20 104 13 3 13 55 10 6 11 21 100 11
split_gain=2.51916 6.56105 1.55666 1.478 1.22964 2.42036 0.58407 1.30767 0.505139 0.183623 0.179561 0.206892 0.129231 0.104477
threshold=4.2711572647094735 0.99550911784172069 60.590000152587898 -0.96996173262596119 1.838013827800751 51.980001449584968 1.7301921844482424 0.93262013792991649 19.007921218872074 0.6783931851387025 0.78125658631324779 -0.25916236639022822 0.79564046859741222 1.1119872331619265
decision_type=2 2 2 2 2 2 2 2 2 2 2 2 2 2
left_child=2 8 6 10 5 -5 13 9 -2 -8 11 -4 -6 -1
right_child=1 -3 3 4 12 -7 7 -9 -10 -11 -12 -13 -14 -15
leaf_value=0.087344360153182504 0.030630860646864606 -0.038806376922524061 0.13968836525473943 0.12565297658753072 0.017029249831558853 -0.12208918994909236 0.06393333435326741 -0.066798018566125356 -0.085318711597731758 -0.00035540975596096846 0.032457843763445252 -0.083586691451085188 -0.086082716616316349 0.0015429566980997033
leaf_weight=169.06707859039307 31.201220512390137 14.512195587158201 6.5304880142211914 7.9817075729370144 17.414634704589847 16.689024925231934 39.182928085327148 7.2560977935791007 4.35365867614746 21.768293380737305 33.378049850463867 5.8048782348632795 3.6280488967895499 28.298781394958496
leaf_count=107 43 2 9 11 24 23 54 10 6 30 46 8 5 39
internal_value=0 -0.00475681 0.000296892 -0.00201844 -0.0047328 -0.00788245 0.00118134 -0.000273479 0 0.000505118 0.000304635 -0.00103957 0 0.0017905
internal_weight=0 50.0671 357 91.4268 45.7134 24.6707 265.573 68.2073 35.5549 60.9512 45.7134 12.3354 21.0427 197.366
internal_count=417 51 366 126 63 34 240 94 49 84 63 17 29 146
is_linear=0
shrinkage=0.0215021


Tree=30
num_leaves=14
num_cat=0
split_feature=15 20 32 14 40 56 30 33 56 102 13 8 33
split_gain=2.3589 9.8628 2.11663 1.12307 2.82909 0.371328 0.297213 0.429917 0.241579 0.173762 0.129218 0.235438 0.119374
threshold=52.659999847412116 53.049999237060554 7.2342710494995126 54.299999237060554 12.783598423004152 168.50000000000003 -1.5611713528633115 21.285568237304691 156.50000000000003 3.7304369211196904 0.92106497287750255 13.20410203933716 0.247068926692009
decision_type=2 2 2 2 2 2 2 2 2 2 2 2 2
left_child=5 2 -2 6 -5 12 7 -3 -6 -8 -7 -12 -1
right_child=1 3 -4 4 8 10 9 -9 -10 -11 11 -13 -14
leaf_value=-0.018630843688868467 -0.065243643594049078 -0.091690374965286509 -0.010697699943943413 -0.11968351652596546 0.013421331615399885 -0.048146185396900895 0.062558630554622699 0.016663084439618558 -0.079368705926381178 -0.031468736011828952 0.032614456019119206 -0.054799733463833107 0.082667255494986241
leaf_weight=1.4512195587158192 19.591464042663578 3.6280488967895499 6.5304880142211905 10.884146690368651 28.2987813949585 3.6280488967895499 119.00000381469727 8.7073173522949201 3.6280488967895499 5.8048782348632804 27.573171615600589 3.6280488967895499 191.56098175048828
leaf_count=2 9 5 9 15 39 5 128 12 5 8 38 5 120
internal_value=0 -0.00159513 -0.0135687 0.000122258 -0.00271891 0.00156618 0.0011841 -0.00103957 1.01981e-05 0.00158386 0 0 0.00194288
internal_weight=0 206.073 26.122 179.951 42.811 227.841 137.14 12.3354 31.9268 124.805 34.8293 31.2012 193.012
internal_count=400 230 18 212 59 170 153 17 44 136 48 43 122
is_linear=0
shrinkage=0.0215021


Tree=31
num_leaves=11
num_cat=0
split_feature=101 55 10 14 30 33 13 13 45 39
split_gain=2.50395 7.09717 1.77839 1.78753 0.42058 0.74912 0.349984 0.785983 0.157965 0.138654
threshold=1.6622275710105898 0.99550911784172069 8.1949529647827166 54.495000839233406 -1.5611713528633115 21.285568237304691 1.7301921844482424 1.8090696334838869 0.64024943113327037 199.30625152587893
decision_type=2 2 2 2 2 2 2 2 2 2
left_child=2 9 4 -4 5 -1 -6 -8 -5 -2
right_child=1 -3 3 8 6 -7 7 -9 -10 -11
leaf_value=-0.089718835266332925 -0.029624682347597048 -0.036569078337988628 0.001355525708517679 -0.080910724049716859 0.086593247848355578 0.016304792388875371 -0.063958839655981772 0.017843378532212767 -0.11711006424996988 0.015485281906676567
leaf_weight=4.35365867614746 21.042683601379395 14.512195587158201 21.768293380737305 4.3536586761474592 232.19512939453125 10.884146690368651 8.7073173522949201 76.914636611938477 6.5304880142211914 32.652440071105957
leaf_count=6 29 2 30 6 140 15 12 106 9 45
internal_value=0 -0.00363084 0.000808214 -0.00371038 0.00133013 -0.00141859 0.0015353 7.55465e-05 -0.0102323 0
internal_weight=0 68.2073 365.707 32.6524 333.055 15.2378 317.817 85.622 10.8841 53.6951
internal_count=400 76 324 45 279 21 258 118 15 74
is_linear=0
shrinkage=0.0215021


Tree=32
num_leaves=10
num_cat=0
split_feature=15 20 32 10 40 31 30 33 102
split_gain=2.24778 10.0961 2.11663 1.1255 2.37837 0.389933 0.307241 0.429917 0.131829
threshold=52.659999847412116 53.049999237060554 7.2342710494995126 8.1949529647827166 12.783598423004152 0.12233281880617143 -1.5611713528633115 21.285568237304691 -0.66487649083137501
decision_type=2 2 2 2 2 2 2 2 2
left_child=5 2 -2 6 -5 -1 7 -3 -7
right_child=1 3 -4 4 -6 8 -8 -9 -10
leaf_value=0.081330336522377408 -0.062465513119315419 -0.087789687899028399 -0.012329616987842846 -0.11459194671687845 0.0097371131570331403 -0.018259387304016696 0.047041867033019741 0.015954204385608559 0.0018004290640327733
leaf_weight=192.28659152984619 19.591464042663578 3.6280488967895499 6.5304880142211905 10.15853691101074 24.670732498168945 7.9817075729370108 132.78658962249756 8.7073173522949201 27.573171615600586
leaf_count=121 9 5 9 14 34 11 147 12 38
internal_value=0 -0.0014448 -0.0135687 0.000294229 -0.00292975 0.00163421 0.00123669 -0.00103957 0
internal_weight=0 206.073 26.122 179.951 34.8293 227.841 145.122 12.3354 35.5549
internal_count=400 230 18 212 48 170 164 17 49
is_linear=0
shrinkage=0.0215021


Tree=33
num_leaves=12
num_cat=0
split_feature=6 55 14 40 30 33 13 55 56 19 29
split_gain=2.22777 7.22312 1.36633 2.2792 0.473741 0.936034 0.378142 1.46757 0.199913 0.174859 0.149933
threshold=3.9019120931625371 0.99550911784172069 54.299999237060554 12.783598423004152 -1.5611713528633115 21.285568237304691 1.7301921844482424 0.94445443153381359 156.50000000000003 48.924999237060554 0.73357686400413524
decision_type=2 2 2 2 2 2 2 2 2 2 2
left_child=2 9 4 -4 5 -1 10 -8 -5 -2 -6
right_child=1 -3 3 8 6 -7 7 -9 -10 -11 -12
leaf_value=-0.085902021337328688 0.040420204030560652 -0.034439622234208454 -0.11212797411104895 0.030076171170160208 0.082982530659088782 0.015611154776275482 0.020306486072270879 -0.06124044494437357 -0.07535335981833724 -0.076706997357425366 -0.0012485708057516413
leaf_weight=5.8048782348632839 33.378049850463867 14.512195587158201 10.15853691101074 23.219512939453129 230.01830005645752 12.335366249084471 76.914636611938477 7.2560977935791007 3.6280488967895499 6.5304880142211905 10.15853691101074
leaf_count=8 46 2 14 32 137 17 106 10 5 9 14
internal_value=0 -0.00394007 0.000652019 -0.00304775 0.00112584 -0.00168559 0.0013561 0 0 0.000422697 0.00178967
internal_weight=0 54.4207 379.494 37.0061 342.488 18.1402 324.348 84.1707 26.8476 39.9085 240.177
internal_count=400 57 343 51 292 25 267 116 37 55 151
is_linear=0
shrinkage=0.0215021


Tree=34
num_leaves=13
num_cat=0
split_feature=41 17 109 115 15 32 29 42 15 39 32 14
split_gain=2.10164 6.17034 4.00747 1.98521 0.707509 0.552706 0.540782 1.451 0.272677 0.176117 0.156249 0.141933
threshold=198.79167175292972 50.980834960937507 199.67000579833987 5.5000000000000009 52.659999847412116 4.4420847892761239 0.68790468573570263 12.286816596984865 49.890001296997077 196.81666564941409 12.727447032928469 54.495000839233406
decision_type=2 2 2 2 2 2 2 2 2 2 2 2
left_child=1 4 3 -3 -1 -6 9 -8 -9 -2 -11 -4
right_child=6 2 11 -5 5 -7 7 8 -10 10 -12 -13
leaf_value=0.081198228287373511 -0.084054943654954514 -0.079629656019444051 0.054723194735783152 -0.028869112390298816 -0.059923644043132579 0.0034383871080038708 -0.075057632410069172 -0.054049109590683132 0.055979396798305513 0.06549167711083434 -2.8472882616193891e-05 -0.10949747620980607
leaf_weight=84.170734405517578 6.5304880142211905 21.042683601379398 14.512195587158205 6.5304880142211905 7.2560977935791042 11.609756469726561 4.35365867614746 3.6280488967895499 44.26219654083252 216.23171424865723 10.15853691101074 3.6280488967895499
leaf_count=35 9 11 20 9 10 16 6 5 61 199 14 5
internal_value=0 -0.0018818 -0.00836787 -0.0133207 0.000868915 -0.00231502 0.00124756 -0.000412771 0.000385977 0.00171195 0.00183632 0
internal_weight=0 148.75 45.7134 27.5732 103.037 18.8659 285.165 52.2439 47.8902 232.921 226.39 18.1402
internal_count=400 106 45 20 61 26 294 72 66 222 213 25
is_linear=0
shrinkage=0.0215021


Tree=35
num_leaves=13
num_cat=0
split_feature=101 55 17 12 40 31 55 7 41 0 100 101
split_gain=3.97604 11.1152 1.42729 1.50719 1.2814 0.439446 0.782724 0.393632 0.485617 0.439417 0.1661 0.163729
threshold=1.6622275710105898 0.99550911784172069 54.56524848937989 0.99226340651512157 15.039067745208742 -0.15444489568471906 -0.33662487566471094 -4.7700445652008048 198.92280578613284 45.540000915527351 0.87392291426658641 -2.7260642051696773
decision_type=2 2 2 2 2 2 2 2 2 2 2 2
left_child=2 10 7 4 -4 -5 -7 8 9 -1 -2 -9
right_child=1 -3 3 5 -6 6 -8 11 -10 -11 -12 -13
leaf_value=0.047501417031942134 0.023304398755894365 -0.031986888121241883 -0.073443732346273632 0.006351116344303678 0.039753871032471674 -0.10714304564537018 0.051051858855138361 -0.0072084082829980706 0.069671074632891655 -0.058635157185251072 -0.051337946457740632 0.079986510957993723
leaf_weight=3.6280488967895526 46.43902587890625 21.768293380737305 9.4329271316528303 37.731708526611328 4.35365867614746 10.884146690368654 14.512195587158201 7.9817075729370108 17.414634704589844 6.5304880142211914 10.15853691101074 234.37195873260498
leaf_count=5 64 3 13 52 6 15 20 11 24 9 14 188
internal_value=0 -0.00465371 0.000645953 -0.00179508 -0.00788126 0 -0.00239102 0.00142681 -0.000441047 -0.00431167 0.000113288 0.0017289
internal_weight=0 78.3659 346.841 76.9146 13.7866 63.1281 25.3963 269.927 27.5732 10.1585 56.5976 242.354
internal_count=424 81 343 106 19 87 35 237 38 14 78 199
is_linear=0
shrinkage=0.0215021


Tree=36
num_leaves=12
num_cat=0
split_feature=101 55 10 15 55 104 9 11 101 7 28
split_gain=3.74831 11.4394 1.39219 0.804363 0.452631 0.584421 0.812176 0.44448 0.227843 0.258491 0.104289
threshold=1.6622275710105898 0.99550911784172069 12.418642044067385 60.590000152587898 -0.93867561221122731 -0.17668464034795758 -5.0577385425567618 1.3448190689086916 -2.3738565444946285 8.9196510314941424 0.18278616666793826
decision_type=2 2 2 2 2 2 2 2 2 2 2
left_child=2 -2 4 -4 5 -1 -7 -5 10 -10 -6
right_child=1 -3 3 7 8 6 -8 -9 9 -11 -12
leaf_value=0.015688561375955302 0.0018705424513130984 -0.031299101428245039 0.025679967181861264 -0.10483924038733071 0.014240003334339361 -0.080668384352665642 0.14914709407326235 -0.01340995341582028 0.071388929433553017 -0.0017477421775201347 -0.015102021425328254
leaf_weight=14.512195587158205 56.597562789916992 21.768293380737305 10.158536911010744 8.7073173522949201 10.158536911010744 6.5304880142211914 5.0792684555053693 4.35365867614746 269.92683792114258 8.7073173522949201 8.7073173522949201
leaf_count=20 78 3 14 12 14 9 7 6 237 12 12
internal_value=0 -0.00445835 0.000690743 -0.00405327 0.00111439 -0.00114203 -0.00478648 -0.00730965 0.00138916 0.00156069 -1.67382e-05
internal_weight=0 78.3659 346.841 23.2195 323.622 26.122 11.6098 13.061 297.5 278.634 18.8659
internal_count=424 81 343 32 311 36 16 18 275 249 26
is_linear=0
shrinkage=0.0215021


Tree=37
num_leaves=11
num_cat=0
split_feature=101 55 17 56 41 28 17 47 103 10
split_gain=3.68711 11.4394 1.53832 1.02221 0.899498 0.776277 0.590303 0.222348 0.230417 0.172721
threshold=1.6622275710105898 0.99550911784172069 53.83161926269532 168.50000000000003 201.82212829589847 0.18920985609292987 55.249990463256843 -2.182443261146545 -6.3230574131011954 16.146735191345218
decision_type=2 2 2 2 2 2 2 2 2 2
left_child=2 -2 7 4 9 -6 -5 -1 -9 -4
right_child=1 -3 3 6 5 -7 -8 8 -10 -11
leaf_value=-0.010892584454851979 0.0018303217770848947 -0.030626103624160152 0.012584845939992694 -0.00433640670629621 0.00054141018724493698 -0.069610266090684311 -0.078933841089406681 -0.0084198927797160192 0.08039246662081552 -0.10344670006162685
leaf_weight=10.884146690368651 56.597562789916992 21.768293380737305 58.774392127990723 7.2560977935790998 3.628048896789549 5.8048782348632812 6.5304880142211914 13.060976028442381 235.8231782913208 5.0792684555053702
leaf_count=15 78 3 81 10 5 8 9 18 190 7
internal_value=0 -0.00445835 0.000645953 -0.00169489 -0.000317492 -0.00616763 -0.00686062 0.00151812 0.00167758 0.000339444
internal_weight=0 78.3659 346.841 87.0732 73.2866 9.43293 13.7866 259.768 248.884 63.8537
internal_count=424 81 343 120 101 13 19 223 208 88
is_linear=0
shrinkage=0.0215021


Tree=38
num_leaves=11
num_cat=0
split_feature=101 55 10 14 11 10 17 21 101 102
split_gain=3.74831 11.4394 1.30903 1.0384 0.518275 0.465155 0.61129 0.857079 0.239163 0.312362
threshold=1.6622275710105898 0.99550911784172069 16.146735191345218 54.495000839233406 1.3448190689086916 -5.9788620471954337 53.83161926269532 -1.099224805831909 -2.3738565444946285 0.45573592185974127
decision_type=2 2 2 2 2 2 2 2 2 2
left_child=2 -2 5 -4 -5 6 -1 -8 -7 -10
right_child=1 -3 3 4 -6 8 7 -9 9 -11
leaf_value=0.033637456250655826 0.0017909659336089745 -0.029967576716159655 0.045140381796039325 -0.10122237416074079 -0.011424363795448542 -0.011369369739555879 -0.002166656753138276 -0.077236594226171851 0.074468785198007773 -0.00078337029661314477
leaf_weight=29.024391174316406 56.597562789916992 21.768293380737305 6.5304880142211905 5.8048782348632795 3.6280488967895508 18.140244483947754 13.060976028442385 6.5304880142211905 223.48781204223633 40.634147644042969
leaf_count=40 78 3 9 8 5 25 18 9 173 56
internal_value=0 -0.00445835 0.000690743 -0.00484399 -0.00902179 0.00104312 -0.000598314 -0.00364088 0.00140327 0.00158722
internal_weight=0 78.3659 346.841 15.9634 9.43293 330.878 48.6159 19.5915 282.262 264.122
internal_count=424 81 343 22 13 321 67 27 254 229
is_linear=0
shrinkage=0.0215021


end of trees

feature_importances:
doy_cos=34
return_60d=33
price_mean_60d=27
item_return_vs_market_1d=22
return_3d=18
price_std_20d=16
macd_signal=15
price_min_20d=14
price_max_20d=14
item_age_days=14
price_max_60d=11
volume_mean_60d=10
volume_mean_30d=9
price_lag_14d=8
price_lag_60d=8
price_std_14d=8
volume_zscore_30d=8
volume_price_conf_1d=8
market_volume_mean_30d=8
price_min_60d=7
price_zscore_30d=7
macd_line=7
distance_to_support=7
distance_to_resistance=7
high_low_range_30d=7
volume_std_30d=7
macd_histogram=6
volume_std_60d=6
market_regime_duration_days=6
price_lag_1d=5
price_std_7d=5
vol_regime_60_30=5
autocorr_7d=5
market_return_7d=5
market_return_14d=5
return_14d=4
price_std_60d=4
bb_pct_b=4
volume_mean_7d=4
event_decay_major=4
price_lag_30d=3
return_1d=3
trend_divergence_30_60=3
volume_lag_1d=3
market_return_1d=3
item_return_vs_market_7d=3
item_return_vs_market_14d=3
market_volatility_30d=3
return_7d=2
return_30d=2
price_std_30d=2
month_cos=2
autocorr_1d=1
volume_log_change_1d=1
event_density_30d_major=1
market_return_30d_percentile=1

parameters:
[boosting: gbdt]
[objective: quantile]
[metric: quantile]
[tree_learner: serial]
[device_type: cpu]
[data_sample_strategy: bagging]
[data: ]
[valid: ]
[num_iterations: 1000]
[learning_rate: 0.0215021]
[num_leaves: 63]
[num_threads: -1]
[seed: 73]
[deterministic: 0]
[force_col_wise: 0]
[force_row_wise: 0]
[histogram_pool_size: -1]
[max_depth: 5]
[min_data_in_leaf: 5]
[min_sum_hessian_in_leaf: 0.001]
[bagging_fraction: 0.7]
[pos_bagging_fraction: 1]
[neg_bagging_fraction: 1]
[bagging_freq: 5]
[bagging_seed: 5921]
[feature_fraction: 0.7]
[feature_fraction_bynode: 1]
[feature_fraction_seed: 22355]
[extra_trees: 0]
[extra_seed: 3536]
[early_stopping_round: 0]
[early_stopping_min_delta: 0]
[first_metric_only: 0]
[max_delta_step: 0]
[lambda_l1: 1]
[lambda_l2: 1.5]
[linear_lambda: 0]
[min_gain_to_split: 0.1]
[drop_rate: 0.1]
[max_drop: 50]
[skip_drop: 0.5]
[xgboost_dart_mode: 0]
[uniform_drop: 0]
[drop_seed: 14602]
[top_rate: 0.2]
[other_rate: 0.1]
[min_data_per_group: 100]
[max_cat_threshold: 32]
[cat_l2: 10]
[cat_smooth: 10]
[max_cat_to_onehot: 4]
[top_k: 20]
[monotone_constraints: ]
[monotone_constraints_method: basic]
[monotone_penalty: 0]
[feature_contri: ]
[forcedsplits_filename: ]
[refit_decay_rate: 0.9]
[cegb_tradeoff: 1]
[cegb_penalty_split: 0]
[cegb_penalty_feature_lazy: ]
[cegb_penalty_feature_coupled: ]
[path_smooth: 0]
[interaction_constraints: ]
[verbosity: -1]
[saved_feature_importance_type: 0]
[use_quantized_grad: 0]
[num_grad_quant_bins: 4]
[quant_train_renew_leaf: 0]
[stochastic_rounding: 1]
[linear_tree: 0]
[max_bin: 63]
[max_bin_by_feature: ]
[min_data_in_bin: 3]
[bin_construct_sample_cnt: 200000]
[data_random_seed: 277]
[is_enable_sparse: 1]
[enable_bundle: 1]
[use_missing: 1]
[zero_as_missing: 0]
[feature_pre_filter: 0]
[pre_partition: 0]
[two_round: 0]
[header: 0]
[label_column: ]
[weight_column: ]
[group_column: ]
[ignore_column: ]
[categorical_feature: ]
[forcedbins_filename: ]
[precise_float_parser: 0]
[parser_config_file: ]
[objective_seed: 8155]
[num_class: 1]
[is_unbalance: 0]
[scale_pos_weight: 1]
[sigmoid: 1]
[boost_from_average: 1]
[reg_sqrt: 0]
[alpha: 0.1]
[fair_c: 1]
[poisson_max_delta_step: 0.7]
[tweedie_variance_power: 1.5]
[lambdarank_truncation_level: 30]
[lambdarank_norm: 1]
[label_gain: ]
[lambdarank_position_bias_regularization: 0]
[eval_at: ]
[multi_error_top_k: 1]
[auc_mu_weights: ]
[num_machines: 1]
[local_listen_port: 12400]
[time_out: 120]
[machine_list_filename: ]
[machines: ]
[gpu_platform_id: -1]
[gpu_device_id: -1]
[gpu_use_dp: 0]
[num_gpu: 1]

end of parameters

pandas_categorical:[]
