tree
version=v4
num_class=1
num_tree_per_iteration=1
label_index=0
max_feature_idx=121
objective=quantile
feature_names=price_lag_1d price_lag_7d price_lag_14d price_lag_30d price_lag_60d return_1d return_3d return_7d return_14d return_30d return_60d price_std_7d price_std_14d price_std_20d price_min_20d price_max_20d price_std_30d price_mean_60d price_std_60d price_min_60d price_max_60d price_zscore_30d vol_regime_60_30 trend_divergence_30_60 price_accel_7d price_tier autocorr_1d autocorr_7d bb_pct_b macd_line macd_signal macd_histogram distance_to_support distance_to_resistance high_low_range_30d volume_missing volume_lag_1d volume_lag_7d volume_mean_7d volume_mean_30d volume_std_30d volume_mean_60d volume_std_60d volume_log_change_1d volume_log_change_7d volume_zscore_30d volume_price_conf_7d volume_price_conf_1d rsi_missing macd_missing is_weekend dow_sin dow_cos month_sin month_cos doy_cos item_age_days is_stattrak is_souvenir is_knife is_glove is_sticker is_case is_capsule is_agent is_music_kit is_graffiti is_charm is_patch quality_rank event_decay_major events_next_30d_major event_density_30d_major event_density_90d_major event_decay_operation events_next_30d_operation event_density_30d_operation event_density_90d_operation event_decay_case_drop events_next_30d_case_drop event_density_30d_case_drop event_density_90d_case_drop event_decay_update events_next_30d_update event_density_30d_update event_density_90d_update event_decay_game_update events_next_30d_game_update event_density_30d_game_update event_density_90d_game_update event_decay_major_weighted event_decay_operation_weighted event_decay_case_drop_weighted event_decay_update_weighted event_decay_game_update_weighted social_mentions_1d social_mentions_7d social_mention_velocity social_sentiment_7d social_score_7d market_return_1d item_return_vs_market_1d market_return_7d item_return_vs_market_7d market_return_14d item_return_vs_market_14d market_return_30d item_return_vs_market_30d market_volatility_30d market_volume_mean_30d market_regime_crash market_regime_bear market_regime_range market_regime_bull market_regime_mania market_regime_duration_days market_return_30d_percentile supply_listings_log supply_listings_zscore supply_change_7d supply_skinport_qty_log supply_to_volume_ratio
feature_infos=[39.849998474121094:66.220001220703125] [39.849998474121094:66.220001220703125] [39.790000915527344:66.220001220703125] [40.729999542236328:66.569999694824219] [39.849998474121094:66.569999694824219] [-6.0415120124816895:5.3940391540527344] [-10.281366348266602:9.4368009567260742] [-17.372880935668945:14.35562801361084] [-21.531669616699219:24.511468887329102] [-24.868003845214844:39.543319702148438] [-29.951061248779297:26.83879280090332] [0.042426407337188721:3.2751080989837646] [0.042426407337188721:4.732576847076416] [0.042426407337188721:5.307133674621582] [39.790000915527344:61.619998931884766] [43.779998779296875:66.220001220703125] [0.042426407337188721:5.4625492095947266] [43.426834106445312:62.902332305908203] [0.042426407337188721:6.0651006698608398] [39.790000915527344:58.759998321533203] [47.880001068115234:66.569999694824219] [-3.4853887557983398:3.0036964416503906] [0.75903922319412231:3.9533336162567139] [-39.368843078613281:101.21376037597656] [-22.131687164306641:18.705087661743164] [3:3] [-17.983921051025391:24.183246612548828] [-115.25129699707031:134.03640747070312] [-0.21316516399383545:1.1863726377487183] [-3.1019792556762695:3.1830518245697021] [-2.2672655582427979:2.7412140369415283] [-1.2678171396255493:0.94621419906616211] [0.018351990729570389:39.335178375244141] [0.054525628685951233:31.854576110839844] [0.12307692319154739:39.335178375244141] none [163:245] [161:245] [176:219] [176:219] [4.0414519309997559:20.036775588989258] [176:219] [4.0414519309997559:19.928762435913086] [-0.28488487005233765:0.30276116728782654] [-0.26826399564743042:0.40341803431510925] [-2.4042847156524658:2.6703879833221436] [-17.372880935668945:14.35562801361084] [-6.0415120124816895:5.3940391540527344] [0:1] [0:1] [0:1] [-0.97492790222167969:0.97492790222167969] [-0.90096884965896606:1] [-0.86602538824081421:1] [-1:0.86602538824081421] [-1:0.99985265731811523] [0:234] none none none none none none none none none none none none none [0:0.96721607446670532] [0:1] [0:1] [0:1] none none none none none none none none none none none none none none none none none none none none none none none none none none [-2.0933716297149658:1.6730349063873291] [-4.7729063034057617:4.9617133140563965] [-5.9873161315917969:5.599886417388916] [-15.224418640136719:14.81980037689209] [-7.3588790893554688:5.6792440414428711] [-21.058666229248047:25.597810745239258] [-2.9261324405670166:2.6404297351837158] [-23.844234466552734:40.982707977294922] [0.43699198961257935:3.9010679721832275] [195.10000610351562:203.39999389648438] none none [0:1] none none [1:30] [0.040816325694322586:0.75268816947937012] none none none none none
tree_sizes=845 982 878 873 878 778 681 777 983 778 784 978 785 972 779 779 781 785 781 780 779 783 780 782 784 786 674 663 679 679 785 779 686 779 784 889 884 875 774 789 885 683 681 682 880 888 785 775 874 683 683 874 781 683 785 474 780 785 782 682 784 679 680 682 680 865 875 780 781 678 877 785 879 778 786 787 676 677 671 672 776 881 790 784 793 673 681 680 687 676 783 678 785 997 681 989 882 977 779 783 791 886 894 798 793 980 680 892 880 862

Tree=0
num_leaves=7
num_cat=0
split_feature=10 101 34 33 13 30
split_gain=2.77863 2.29355 7.04999 1.69424 1.58648 1.5871
threshold=12.044538974761965 2.0596821308135991 6.3589754104614267 9.2064914703369158 1.8296924829483034 0.30731812119483953
decision_type=2 2 2 2 2 2
left_child=1 3 -3 -1 5 -2
right_child=4 2 -4 -5 -6 -7
leaf_value=-6.8818808798477811 -7.2050649843317398 -7.276083050132895 -7.008340247667423 -7.2546788976934078 -7.3992701272000092 -7.6979147804447585
leaf_weight=273.3265967965126 6.5950117707252529 14.655581474304197 32.975058853626251 91.597385704517365 10.991686284542082 16.121139883995056
leaf_count=211 9 2 45 125 15 22
internal_value=-7.09565 -7.0943 -7.10816 -7.09217 -7.11474 -7.12494
internal_weight=446.262 412.555 47.6306 364.924 33.7078 22.7162
internal_count=429 383 47 336 46 31
is_linear=0
shrinkage=1


Tree=1
num_leaves=8
num_cat=0
split_feature=20 16 40 40 39 13 40
split_gain=2.26976 1.40016 2.13374 1.15669 2.19552 0.257565 0.191236
threshold=61.655000686645515 1.838508725166321 15.546473979949953 15.315025329589846 199.30625152587893 2.7133133411407475 13.886957168579103
decision_type=2 2 2 2 2 2 2
left_child=3 2 -2 5 -5 -1 -3
right_child=1 6 -4 4 -6 -7 -8
leaf_value=0.2156292340700183 -0.60156679028630622 -0.29529434451751768 -0.11410653533074937 -0.19570091758645197 0.0053629544715909023 -0.31340224193275351 0.055655114056682956
leaf_weight=244.01543360948563 16.121139883995056 27.845605254173279 16.121139883995056 43.966744899749756 58.622326612472534 12.45724445581436 27.11282616853714
leaf_count=189 22 38 22 42 62 17 37
internal_value=0.000440508 -0.00930682 -0.0208479 0.0031177 -0.00244496 0.00575016 -0.000413949
internal_weight=446.262 87.2007 32.2423 359.062 102.589 256.473 54.9584
internal_count=429 119 44 310 104 206 75
is_linear=0
shrinkage=0.0697821


Tree=2
num_leaves=7
num_cat=0
split_feature=17 13 15 6 55 105
split_gain=2.38959 1.35427 3.20753 1.02885 2.83184 1.24141
threshold=55.295818328857429 2.1565792560577397 63.154998779296882 3.1951044797897343 0.99550911784172069 -6.2724153995513907
decision_type=2 2 2 2 2 2
left_child=3 2 -2 5 -5 -1
right_child=1 -3 -4 4 -6 -7
leaf_value=-0.13481429217489815 -0.55958819021708706 -0.0022504169762603827 -0.10614394050457221 0.011424207093109883 -0.15472481768951762 0.17612260272791086
leaf_weight=26.380047082901001 19.052256226539612 26.380047082901001 21.250593483448029 47.63064056634903 7.3277907371520987 298.24108558893204
leaf_count=36 26 36 29 65 1 236
internal_value=0.000554837 -0.0112215 -0.0191315 0.00292274 -0.00498295 0.00459383
internal_weight=446.262 66.6829 40.3028 379.58 54.9584 324.621
internal_count=429 91 55 338 66 272
is_linear=0
shrinkage=0.0697821


Tree=3
num_leaves=7
num_cat=0
split_feature=101 55 55 14 8 2
split_gain=2.38357 6.52614 2.1183 1.93534 0.360535 0.26445
threshold=1.6658914685249331 0.99550911784172069 -0.23802450299262998 52.829999923706062 -8.7504301071166974 54.854999542236335
decision_type=2 2 2 2 2 2
left_child=2 5 3 -1 -4 -2
right_child=1 -3 4 -5 -6 -7
leaf_value=-0.012460792000370109 0.066932404385480274 -0.14392779340651182 -0.3168066186732677 -0.28046159265347498 0.18747978494374634 -0.52053894544511226
leaf_weight=89.399048447608948 41.035628795623779 14.655581474304197 11.724465370178221 24.914488911628723 252.80878239870071 11.724465370178221
leaf_count=122 56 2 16 34 183 16
internal_value=-0.000349044 -0.0125214 0.00156872 -0.00592128 0.00520971 0
internal_weight=446.262 67.4157 378.847 114.314 264.533 52.7601
internal_count=429 74 355 156 199 72
is_linear=0
shrinkage=0.0697821


Tree=4
num_leaves=7
num_cat=0
split_feature=10 13 30 15 15 10
split_gain=2.01647 1.00861 1.44788 0.970096 3.09465 0.466506
threshold=12.044538974761965 1.8296924829483034 0.38259908556938177 52.659999847412116 53.049999237060554 -12.822553634643553
decision_type=2 2 2 2 2 2
left_child=3 2 -2 5 -5 -1
right_child=1 -3 -4 4 -6 -7
leaf_value=-0.1245371260171524 -0.10003215742295622 -0.2268387002796565 -0.46017761608740715 -0.26575248772314314 0.040932594599116093 0.15486534432406918
leaf_weight=25.647267997264862 8.0605699419975299 10.991686284542082 14.655581712722777 20.5178142786026 148.75415402650833 217.63538652658463
leaf_count=35 11 15 20 19 176 153
internal_value=0.000554837 -0.015253 -0.0234004 0.00213329 -0.00145742 0.00505587
internal_weight=446.262 33.7078 22.7162 412.555 169.272 243.283
internal_count=429 46 31 383 195 188
is_linear=0
shrinkage=0.0697821


Tree=5
num_leaves=6
num_cat=0
split_feature=43 13 116 17 10
split_gain=1.85911 1.87578 1.36694 1.98834 0.318876
threshold=0.15500080585479739 0.94348156452178966 0.31831896305084234 54.41725158691407 14.739511966705324
decision_type=2 2 2 2 2
left_child=2 -2 4 -4 -1
right_child=1 -3 3 -5 -6
leaf_value=0.15740400059355167 -0.074594066182986404 -0.22224969937477387 0.059558739192766066 -0.19997979192760271 -0.42806545095717113
leaf_weight=282.11994618177414 8.7933489084243792 20.51781439781189 62.286222279071808 27.845605254173279 13.922802627086638
leaf_count=250 3 28 85 38 19
internal_value=0.00106239 -0.0151037 0.00259561 -0.00429416 0.00505302
internal_weight=415.486 29.3112 386.175 90.1318 296.043
internal_count=423 31 392 123 269
is_linear=0
shrinkage=0.0697821


Tree=6
num_leaves=5
num_cat=0
split_feature=47 55 14 105
split_gain=1.80024 1.79606 2.29988 0.190883
threshold=3.0324178934097294 -0.23802450299262998 54.495000839233406 -12.510947227478026
decision_type=2 2 2 2
left_child=1 2 -1 -3
right_child=-2 3 -4 -5
leaf_value=-0.0054479391454386296 -0.0028594047207035019 -0.28713839821616666 -0.26470894208290546 0.18815603866483629
leaf_weight=134.09857267141342 12.45724433660507 5.8622326850891104 19.785035312175751 243.28265464305878
leaf_count=183 8 8 27 197
internal_value=0.000816836 0.00189249 -0.00361613 0.00571418
internal_weight=415.486 403.028 153.884 249.145
internal_count=423 415 210 205
is_linear=0
shrinkage=0.0697821


Tree=7
num_leaves=6
num_cat=0
split_feature=43 41 55 14 102
split_gain=1.76339 2.06891 1.31262 1.91266 0.152865
threshold=0.15500080585479739 201.24500274658206 -0.23802450299262998 54.495000839233406 3.9270339012146001
decision_type=2 2 2 2 2
left_child=2 -2 3 -1 -4
right_child=1 -3 4 -5 -6
leaf_value=0.018489729372476706 -0.070366307608897033 -0.18826869778013258 0.17486612806483218 -0.24623699350815828 -0.2671012748611758
leaf_weight=126.03800272941589 19.052256226539615 10.258907079696653 233.75652652978897 17.586698055267334 8.7933490276336652
leaf_count=172 26 5 184 24 12
internal_value=0.000694059 -0.0151037 0.00219939 -0.00259979 0.00547
internal_weight=415.486 29.3112 386.175 143.625 242.55
internal_count=423 31 392 196 196
is_linear=0
shrinkage=0.0697821


Tree=8
num_leaves=8
num_cat=0
split_feature=17 116 13 8 38 108 4
split_gain=1.65768 1.90943 2.32369 0.519854 0.441825 0.240061 0.164221
threshold=54.41725158691407 0.31831896305084234 1.8296924829483034 -8.7504301071166974 203.30952453613284 2.6939555406570439 50.895000457763679
decision_type=2 2 2 2 2 2 2
left_child=3 6 -3 4 -1 -5 -2
right_child=1 2 -4 5 -6 -7 -8
leaf_value=-0.24846238425679343 -0.53738243046760048 -0.43322236904667627 -0.17705913144504407 0.10793811694695983 0.23868454603652869 -0.14830097021576452 0.061111146446243284
leaf_weight=8.0605699419975299 13.190023541450499 19.052256226539612 13.922802627086638 280.65438789129257 11.724465370178221 13.922802627086638 54.958431422710419
leaf_count=11 18 26 19 239 16 19 75
internal_value=0.00216738 -0.00508377 -0.0187426 0.00484056 -0.0030826 0.00573547 0.000187091
internal_weight=415.486 101.124 32.9751 314.362 19.785 294.577 68.1485
internal_count=423 138 45 285 27 258 93
is_linear=0
shrinkage=0.0697821


Tree=9
num_leaves=6
num_cat=0
split_feature=55 19 16 39 105
split_gain=1.22843 1.39355 2.08593 0.214269 0.184899
threshold=-0.23802450299262998 47.829999923706062 1.8044276237487795 199.30625152587893 -12.510947227478026
decision_type=2 2 2 2 2
left_child=1 3 -3 -1 -2
right_child=4 2 -4 -5 -6
leaf_value=-0.020544936268685976 -0.23112415477109235 -0.49215889654557243 -0.11150872634112712 0.10434156435758656 0.11037638808433607
leaf_weight=46.897861480712891 5.8622326850891104 10.258907198905943 41.768407881259918 56.423989593982697 254.27434080839157
leaf_count=64 8 14 57 77 203
internal_value=0.00253571 -0.00188155 -0.01143 0.00198664 0.00557157
internal_weight=415.486 155.349 52.0273 103.322 260.137
internal_count=423 212 71 141 211
is_linear=0
shrinkage=0.0697821


Tree=10
num_leaves=6
num_cat=0
split_feature=101 55 17 55 8
split_gain=2.46784 7.04663 1.16882 1.17877 0.171479
threshold=1.603216886520386 0.99550911784172069 54.090084075927741 -0.99374407529830922 -8.7504301071166974
decision_type=2 2 2 2 2
left_child=2 -2 4 -4 -1
right_child=1 -3 3 -5 -6
leaf_value=-0.019111267261358811 -0.00074193412125393514 -0.16689032189860978 -0.45781501017717452 -0.021902618938640369 0.14242641962663308
leaf_weight=19.785035312175751 61.553443193435669 14.655581474304197 5.8622326850891104 79.872920334339142 270.39548045396805
leaf_count=27 84 2 8 109 207
internal_value=0.000750788 -0.0103006 0.00329032 -0.00309691 0.00554109
internal_weight=452.125 76.209 375.916 85.7352 290.181
internal_count=437 86 351 117 234
is_linear=0
shrinkage=0.0697821


Tree=11
num_leaves=8
num_cat=0
split_feature=41 36 13 7 14 56 6
split_gain=1.00953 2.65083 1.72068 1.21319 0.641768 0.395586 0.103578
threshold=199.341667175293 214.50000000000003 1.9007911086082461 -2.0805736780166622 52.215000152587898 108.50000000000001 -4.3550872802734366
decision_type=2 2 2 2 2 2 2
left_child=1 3 -3 -1 6 -6 -2
right_child=4 2 -4 -5 5 -7 -8
leaf_value=-0.27503814700292895 -0.0065342708376281483 -0.36859553783962834 0.23579439668888316 0.079224137480157414 0.031275763469932258 -0.10175893342427544 0.17181969694145852
leaf_weight=40.30284970998764 16.121139883995056 11.724465250968935 5.1294535994529715 111.3824200630188 28.578384339809418 21.250593483448029 217.63538712263107
leaf_count=55 22 7 7 80 39 29 198
internal_value=0.00176643 -0.0020971 -0.0276469 0.000218692 0.0044297 -0.00115994 0.00606696
internal_weight=452.125 168.539 16.8539 151.685 283.586 49.829 233.757
internal_count=437 149 14 135 288 68 220
is_linear=0
shrinkage=0.0697821


Tree=12
num_leaves=6
num_cat=0
split_feature=101 55 17 55 108
split_gain=2.55379 7.07455 1.25789 1.18659 0.124857
threshold=1.6658914685249331 0.99550911784172069 54.090084075927741 -0.99374407529830922 2.5846164226531987
decision_type=2 2 2 2 2
left_child=2 -2 4 -4 -1
right_child=1 -3 3 -5 -6
leaf_value=0.12683911068181089 -0.0033659983808641087 -0.12952298860885991 -0.43139614016734418 -0.0019382722612010224 -0.084639393096302445
leaf_weight=279.92160856723785 57.889547765254974 14.655581474304197 5.8622326850891104 80.605699419975281 13.190023541450499
leaf_count=220 79 2 8 110 18
internal_value=0.00108934 -0.0104661 0.00359455 -0.00301251 0.00590314
internal_weight=452.125 72.5451 379.58 86.4679 293.112
internal_count=437 81 356 118 238
is_linear=0
shrinkage=0.0697821


Tree=13
num_leaves=8
num_cat=0
split_feature=41 36 13 56 14 56 6
split_gain=0.960365 2.7495 1.72068 0.741292 0.434113 0.114923 0.103578
threshold=199.341667175293 214.50000000000003 1.9007911086082461 112.50000000000001 52.215000152587898 108.50000000000001 -4.3550872802734366
decision_type=2 2 2 2 2 2 2
left_child=1 3 -3 -1 6 -6 -2
right_child=4 2 -4 -5 5 -7 -8
leaf_value=0.066391749430391306 -0.00017198017110665843 -0.3426392769185409 0.21947542283659491 -0.24223965298002048 0.029228531424593789 -0.094522723586803553 0.15860577343268428
leaf_weight=101.12351286411285 16.121139883995056 11.724465250968935 5.1294535994529715 50.561756908893585 28.578384339809418 21.250593483448029 217.63538712263107
leaf_count=66 22 7 7 69 39 29 198
internal_value=0.00221783 -0.00149388 -0.0276469 0.0008885 0.00478906 0 0.00606696
internal_weight=452.125 168.539 16.8539 151.685 283.586 49.829 233.757
internal_count=437 149 14 135 288 68 220
is_linear=0
shrinkage=0.0697821


Tree=14
num_leaves=6
num_cat=0
split_feature=101 55 17 45 3
split_gain=2.46482 7.09189 1.11445 0.70529 0.178192
threshold=2.0596821308135991 0.99550911784172069 54.090084075927741 0.83403483033180248 42.959999084472663
decision_type=2 2 2 2 2
left_child=2 -2 4 -4 -1
right_child=1 -3 3 -5 -6
leaf_value=-0.078721076498374246 0.021473665940067773 -0.09657450935035912 -0.0064359719095945902 -0.25293528435543566 0.11793886164161985
leaf_weight=6.5950117707252494 41.768407881259918 14.655581474304197 72.545129477977753 18.319477140903473 298.24108570814133
leaf_count=9 57 2 99 25 245
internal_value=0.00131503 -0.0118015 0.00347425 -0.00253435 0.00560996
internal_weight=452.125 56.424 395.701 90.8646 304.836
internal_count=437 59 378 124 254
is_linear=0
shrinkage=0.0697821


Tree=15
num_leaves=6
num_cat=0
split_feature=101 56 17 107 102
split_gain=2.26137 6.893 1.026 0.836917 0.498388
threshold=2.0596821308135991 4.5000000000000009 56.808666229248054 -4.2257251739501944 3.2049120664596562
decision_type=2 2 2 2 2
left_child=2 -2 4 -4 -1
right_child=1 -3 3 -5 -6
leaf_value=0.055237350455160435 -0.089835336293664386 0.050581636773580289 0.13733467528652191 -0.27790019944190958 -0.070276370577002284
leaf_weight=296.77552825212479 14.655581474304197 38.837291538715363 10.991686284542086 16.853918969631195 16.121139883995056
leaf_count=297 2 53 15 23 22
internal_value=9.74222e-05 -0.0128117 0.00246186 -0.00913477 0.00385316
internal_weight=394.235 53.4929 340.742 27.8456 312.897
internal_count=412 55 357 38 319
is_linear=0
shrinkage=0.0697821


Tree=16
num_leaves=6
num_cat=0
split_feature=43 26 1 1 116
split_gain=1.04906 2.25664 0.863345 0.513654 0.409457
threshold=-0.15453663468360898 4.7843508720397958 58.774999618530281 59.654998779296882 0.42296703159809118
decision_type=2 2 2 2 2
left_child=1 -1 4 -4 -2
right_child=2 -3 3 -5 -6
leaf_value=0.037649824899670815 0.050700970867355914 -0.21851128564219424 -0.24062426942193446 -0.021994727045220614 -0.077082332539064269
leaf_weight=21.983372569084171 272.59381830692291 9.5261279940605146 14.655581712722777 27.845605254173279 47.63064056634903
leaf_count=30 255 4 20 38 65
internal_value=0.00100307 -0.0104646 0.00231307 -0.00605726 0.00376526
internal_weight=394.235 31.5095 362.726 42.5012 320.224
internal_count=412 34 378 58 320
is_linear=0
shrinkage=0.0697821


Tree=17
num_leaves=6
num_cat=0
split_feature=43 55 20 16 13
split_gain=1.07669 2.38608 0.804106 0.652811 0.342088
threshold=-0.15453663468360898 0.99550911784172069 61.655000686645515 1.8169214725494387 1.9656031131744387
decision_type=2 2 2 2 2
left_child=1 -1 4 -4 -2
right_child=2 -3 3 -5 -6
leaf_value=-0.024827672671034064 0.041756402759378398 -0.068318258333327483 -0.31837838837879789 0.0061634600697210995 -0.0057960085084332209
leaf_weight=24.181709825992588 213.9714914560318 7.3277907371520987 26.380047082901001 56.423989593982697 65.950117707252502
leaf_count=33 175 1 36 77 90
internal_value=0.00113245 -0.0104646 0.00245365 -0.00283913 0.00439646
internal_weight=394.235 31.5095 362.726 82.804 279.922
internal_count=412 34 378 113 265
is_linear=0
shrinkage=0.0697821


Tree=18
num_leaves=6
num_cat=0
split_feature=101 55 17 41 102
split_gain=2.3572 6.87949 0.818861 0.840307 0.411981
threshold=1.9429227113723757 0.99550911784172069 56.808666229248054 197.96159362792972 3.4996206760406499
decision_type=2 2 2 2 2
left_child=2 -2 4 -4 -1
right_child=1 -3 3 -5 -6
leaf_value=0.045372244324931248 0.012503825160228417 -0.063550866099731221 -0.37828982675514206 -0.034716817774101988 -0.21441306609495556
leaf_weight=296.77552825212479 42.501186966896057 14.655581474304197 6.5950117707252529 21.250593483448029 12.45724445581436
leaf_count=297 58 2 9 29 17
internal_value=0.000226801 -0.0124442 0.00271542 -0.00736206 0.00398108
internal_weight=394.235 57.1568 337.078 27.8456 309.233
internal_count=412 60 352 38 314
is_linear=0
shrinkage=0.0697821


Tree=19
num_leaves=6
num_cat=0
split_feature=43 55 23 17 4
split_gain=1.18956 2.38608 0.630641 0.602197 0.303385
threshold=-0.15453663468360898 0.99550911784172069 0.12235343456268312 56.808666229248054 58.174999237060554
decision_type=2 2 2 2 2
left_child=1 -1 3 -2 -4
right_child=2 -3 4 -5 -6
leaf_value=-0.026261316234771893 -0.008916342557946216 -0.059116152556479534 0.040941266962209927 -0.3518919643664114 -0.043196013782272683
leaf_weight=24.181709825992588 49.096198737621307 7.3277907371520987 270.3954810500145 9.5261281132698041 33.70783793926239
leaf_count=33 67 1 252 13 46
internal_value=0.00164996 -0.0104646 0.003016 -0.00253263 0.00443348
internal_weight=394.235 31.5095 362.726 58.6223 304.103
internal_count=412 34 378 80 298
is_linear=0
shrinkage=0.0697821


Tree=20
num_leaves=6
num_cat=0
split_feature=6 14 55 34 43
split_gain=1.40395 2.46393 0.680487 0.708852 0.161923
threshold=5.1530103683471689 50.264999389648445 -0.3687493354082107 16.829016685485843 0.18704921007156375
decision_type=2 2 2 2 2
left_child=2 -2 3 -1 -4
right_child=1 -3 4 -5 -6
leaf_value=-0.11308062905973716 0.07048640266825057 -0.15739351406718055 0.052283565696817309 0.054142577686193231 -0.029715568118388311
leaf_weight=64.484559535980225 15.388360798358919 12.45724433660507 253.54156196117401 63.019001364707947 5.8622326850891104
leaf_count=88 21 8 220 86 8
internal_value=0.00154394 -0.0126802 0.00286753 -0.000617977 0.00497851
internal_weight=414.753 27.8456 386.907 127.504 259.404
internal_count=431 29 402 174 228
is_linear=0
shrinkage=0.0697821


Tree=21
num_leaves=6
num_cat=0
split_feature=6 5 22 102 102
split_gain=1.37625 2.3433 0.596069 0.645466 0.108891
threshold=5.1530103683471689 0.54989778995513927 1.2413372397422793 -2.5464924573898311 3.9270339012146001
decision_type=2 2 2 2 2
left_child=2 -2 4 -4 -1
right_child=1 -3 3 -5 -6
leaf_value=0.048846879771006213 -0.025342131777901511 -0.057398196667293427 -0.31944519559898293 0.01214702472378716 -0.20595629543100188
leaf_weight=255.73989921808243 8.7933489084243792 19.052256226539612 13.190023541450499 107.71852558851242 10.258907198905943
leaf_count=223 3 26 18 147 14
internal_value=0.00142094 -0.0126802 0.00273571 -0.000609463 0.00464487
internal_weight=414.753 27.8456 386.907 120.909 265.999
internal_count=431 29 402 165 237
is_linear=0
shrinkage=0.0697821


Tree=22
num_leaves=6
num_cat=0
split_feature=6 14 22 102 36
split_gain=1.34873 2.46393 0.5566 0.645466 0.186623
threshold=5.1530103683471689 50.264999389648445 1.2413372397422793 -2.5464924573898311 213.50000000000003
decision_type=2 2 2 2 2
left_child=2 -2 4 -4 -1
right_child=1 -3 3 -5 -6
leaf_value=0.055803763993979877 0.069573080034405946 -0.14240489523266253 -0.29715363574791309 0.011299379705570493 -0.0066695651926707601
leaf_weight=230.8254103064537 15.388360798358919 12.45724433660507 13.190023541450499 107.71852558851242 35.173396110534668
leaf_count=189 21 8 18 147 48
internal_value=0.00129795 -0.0126802 0.00260389 -0.000609463 0.00445335
internal_weight=414.753 27.8456 386.907 120.909 265.999
internal_count=431 29 402 165 237
is_linear=0
shrinkage=0.0697821


Tree=23
num_leaves=6
num_cat=0
split_feature=6 16 37 10 16
split_gain=0.998787 2.07849 0.540967 0.375958 0.318466
threshold=5.1530103683471689 1.2386378645896914 195.50000000000003 5.8634345531463632 2.0288192033767705
decision_type=2 2 2 2 2
left_child=2 -2 4 -4 -1
right_child=1 -3 3 -5 -6
leaf_value=-0.035639822240251029 -0.013636390248643328 -0.043455515284450151 0.077387238230045508 -0.029278092646803505 0.023755543389967288
leaf_weight=57.889547765254974 8.0605698227882403 19.785035312175751 241.81709659099579 32.975058853626251 54.22565233707428
leaf_count=79 2 27 204 45 74
internal_value=0.00105196 -0.0109075 0.00220842 0.00397762 -0.00119931
internal_weight=414.753 27.8456 386.907 274.792 112.115
internal_count=431 29 402 249 153
is_linear=0
shrinkage=0.0697821


Tree=24
num_leaves=6
num_cat=0
split_feature=6 55 55 16 43
split_gain=1.09742 2.41241 0.582612 0.42235 0.157363
threshold=5.1530103683471689 0.99550911784172069 -0.23802450299262998 2.0288192033767705 0.18704921007156375
decision_type=2 2 2 2 2
left_child=2 -2 3 -1 -4
right_child=1 -3 4 -5 -6
leaf_value=-0.12034781351962774 -0.040423097726859272 -0.012684814161201485 0.06729147287995392 0.022097831442604299 -0.027235005558460798
leaf_weight=63.751780450344086 20.517814397811893 7.3277907371520987 237.42042207717896 79.872920334339142 5.8622326850891104
leaf_count=87 28 1 198 109 8
internal_value=0.00154394 -0.0109075 0.00273571 -0.000124809 0.00484654
internal_weight=414.753 27.8456 386.907 143.625 243.283
internal_count=431 29 402 196 206
is_linear=0
shrinkage=0.0697821


Tree=25
num_leaves=6
num_cat=0
split_feature=47 39 23 108 31
split_gain=1.73332 1.90169 0.418786 0.343376 0.312537
threshold=3.0324178934097294 203.20000457763675 0.12235343456268312 2.4631813764572148 0.073337521404027953
decision_type=2 2 2 2 2
left_child=2 -2 3 -1 -4
right_child=1 -3 4 -5 -6
leaf_value=0.014444434657076784 0.037310224333139838 -0.020043208319479023 0.079116771192171961 -0.11194968913091112 -9.2644245633545543e-05
leaf_weight=44.699524223804474 7.3277908563613874 7.3277907371520996 249.87766689062119 18.319477140903473 59.355105936527252
leaf_count=61 10 1 242 25 81
internal_value=0.00234024 -0.0194439 0.00352812 -0.000281955 0.00464039
internal_weight=386.907 14.6556 372.252 63.019 309.233
internal_count=420 11 409 86 323
is_linear=0
shrinkage=0.0697821


Tree=26
num_leaves=5
num_cat=0
split_feature=47 39 3 41
split_gain=1.65896 1.90169 0.462507 0.40109
threshold=3.0324178934097294 203.20000457763675 42.959999084472663 197.71546936035159
decision_type=2 2 2 2
left_child=2 -2 -1 -4
right_child=1 -3 3 -5
leaf_value=-0.32617883544483811 0.034706638146095967 -0.018644550947207822 -0.014762727151465016 0.036646658775323963
leaf_weight=8.7933490276336652 7.3277908563613874 7.3277907371520996 68.881233692169189 294.57719147205353
leaf_count=12 10 1 67 330
internal_value=0.00194478 -0.0194439 0.00311712 0.00372548
internal_weight=386.907 14.6556 372.252 363.458
internal_count=420 11 409 397
is_linear=0
shrinkage=0.0697821


Tree=27
num_leaves=5
num_cat=0
split_feature=47 39 41 7
split_gain=1.73332 1.90169 0.365824 0.694596
threshold=3.0324178934097294 203.20000457763675 197.71546936035159 -0.43266890943050379
decision_type=2 2 2 2
left_child=2 -2 3 -1
right_child=1 -3 -4 -5
leaf_value=-0.21006508169243529 0.032284735697344337 -0.017343494837859557 0.023520655274105799 0.10171127555627728
leaf_weight=27.11282616853714 7.3277908563613874 7.3277907371520996 303.37054049968719 41.76840752363205
leaf_count=37 10 1 342 30
internal_value=0.00234024 -0.0194439 0.00352812 0
internal_weight=386.907 14.6556 372.252 68.8812
internal_count=420 11 409 67
is_linear=0
shrinkage=0.0697821


Tree=28
num_leaves=5
num_cat=0
split_feature=43 41 24 102
split_gain=1.87163 1.99669 0.297673 0.198776
threshold=0.15500080585479739 203.29666137695315 -9.6427412033081037 3.9270339012146001
decision_type=2 2 2 2
left_child=2 -2 -1 -4
right_child=1 -3 3 -5
leaf_value=-0.037421281934124778 -0.0051074329667618028 -0.016133229169346539 0.032448056634208355 -0.19540629700673529
leaf_weight=30.043942511081696 21.983372569084171 7.3277907371520987 315.09500551223755 12.45724445581436
leaf_count=41 30 1 331 17
internal_value=0.00247207 -0.0134167 0.0041001 0.00477074
internal_weight=386.907 29.3112 357.596 327.552
internal_count=420 31 389 348
is_linear=0
shrinkage=0.0697821


Tree=29
num_leaves=5
num_cat=0
split_feature=47 39 23 20
split_gain=1.80865 1.90169 0.281689 0.153487
threshold=3.0324178934097294 203.20000457763675 0.12235343456268312 63.534999847412116
decision_type=2 2 2 2
left_child=2 -2 -1 -4
right_child=1 -3 3 -5
leaf_value=-0.0047510255164934876 0.027767544847502438 -0.015007418393118791 0.04850928774525963 -0.0050925652215657695
leaf_weight=63.019001364707947 7.3277908563613874 7.3277907371520996 279.92160940170288 29.311163425445557
leaf_count=86 10 1 283 40
internal_value=0.00273571 -0.0194439 0.00393911 0.00480521
internal_weight=386.907 14.6556 372.252 309.233
internal_count=420 11 409 323
is_linear=0
shrinkage=0.0697821


Tree=30
num_leaves=6
num_cat=0
split_feature=17 31 21 46 21
split_gain=0.482709 0.224052 0.145135 0.140349 0.10051
threshold=55.14216613769532 0.073337521404027953 -1.050844609737396 -6.1523935794830313 0.6089492440223695
decision_type=2 2 2 2 2
left_child=1 3 -2 -1 -4
right_child=2 -3 4 -5 -6
leaf_value=-0.18515551371429817 0.0089438320477690913 0.0069826031451921981 -0.09604220252804388 0.056630123635115423 -0.020985048039455341
leaf_weight=10.258907198905943 32.242279767990112 68.148454964160919 20.51781439781189 281.38716685771942 14.655581712722777
leaf_count=14 44 93 28 231 20
internal_value=0.00361267 0.00468455 -0.000562801 0.00554829 -0.00445709
internal_weight=427.21 359.795 67.4157 291.646 35.1734
internal_count=430 338 92 245 48
is_linear=0
shrinkage=0.0697821


Tree=31
num_leaves=6
num_cat=0
split_feature=55 14 17 46 4
split_gain=0.446866 0.5626 0.345688 0.321695 0.175807
threshold=-0.99374407529830922 46.219999313354499 56.808666229248054 4.9787738323211679 58.174999237060554
decision_type=2 2 2 2 2
left_child=1 -1 3 -2 -4
right_child=2 -3 4 -5 -6
leaf_value=0.063862813823549497 0.051470999383986506 -0.33779767042088094 -0.26185517362219535 -0.010038690756132602 -0.023612816694159138
leaf_weight=9.5261281132698077 364.19120353460312 6.5950117707252494 4.3966745138168362 21.983372569084167 20.51781439781189
leaf_count=13 344 9 6 30 28
internal_value=0.00349326 -0.00523559 0.00410145 0.00470876 -0.00109118
internal_weight=427.21 16.1211 411.089 386.175 24.9145
internal_count=430 22 408 374 34
is_linear=0
shrinkage=0.0697821


Tree=32
num_leaves=5
num_cat=0
split_feature=17 55 46 45
split_gain=0.521611 0.362594 0.225538 0.192415
threshold=54.090084075927741 -0.99374407529830922 4.9787738323211679 -1.0147979259490965
decision_type=2 2 2 2
left_child=2 -2 3 -1
right_child=1 -3 -4 -5
leaf_value=-0.012697868094842666 -0.31422543614883408 0.0047279576213967341 -0.0093381697312440639 0.048362896449463538
leaf_weight=28.578384339809418 5.8622326850891104 95.261281132698059 21.250593483448029 276.25771325826645
leaf_count=39 8 130 29 224
internal_value=0.00337384 -7.66079e-05 0.00476085 0.00527557
internal_weight=427.21 101.124 326.087 304.836
internal_count=430 138 292 263
is_linear=0
shrinkage=0.0697821


Tree=33
num_leaves=6
num_cat=0
split_feature=17 55 46 45 46
split_gain=0.492869 0.362594 0.303218 0.191689 0.139387
threshold=54.090084075927741 -0.99374407529830922 4.6401107311248788 -1.0147979259490965 6.5717623233795175
decision_type=2 2 2 2 2
left_child=2 -2 3 -1 -4
right_child=1 -3 4 -5 -6
leaf_value=-0.011811784063788699 -0.29229812212707773 0.0043980307615074888 -0.011055410776625234 0.045377717730068219 0.062546588694633948
leaf_weight=28.578384339809418 5.8622326850891104 95.261281132698059 9.5261281132698077 274.05937600135803 13.922802627086638
leaf_count=39 8 130 13 221 19
internal_value=0.00325443 -7.66079e-05 0.00460451 0.00526324 0
internal_weight=427.21 101.124 326.087 302.638 23.4489
internal_count=430 138 292 260 32
is_linear=0
shrinkage=0.0697821


Tree=34
num_leaves=6
num_cat=0
split_feature=102 104 31 105 46
split_gain=0.442461 0.259228 0.3473 0.221893 0.192368
threshold=-0.45632287859916681 -0.79770749807357777 0.096064943820238127 -12.510947227478026 5.6906936168670663
decision_type=2 2 2 2 2
left_child=1 -1 -3 -2 -5
right_child=3 2 -4 4 -6
leaf_value=0.037056835253037879 -0.18236814407104315 -0.0037579762625021603 -0.31761189983964316 0.042155495355544567 -0.0079150626483018658
leaf_weight=92.330164790153503 9.5261281132698041 32.975058853626251 10.991686284542082 265.9988060593605 15.388360798358915
leaf_count=126 13 45 15 210 21
internal_value=0.00313501 0 -0.00449523 0.00466884 0.00513418
internal_weight=427.21 136.297 43.9667 290.913 281.387
internal_count=430 186 60 244 231
is_linear=0
shrinkage=0.0697821


Tree=35
num_leaves=7
num_cat=0
split_feature=14 17 56 23 102 102
split_gain=3.25127 15.8953 0.441373 0.502578 0.364057 0.294646
threshold=50.264999389648445 51.889181137084968 168.50000000000003 0.49656225740909582 -1.7802363634109495 1.224575996398926
decision_type=2 2 2 2 2 2
left_child=2 -2 5 -4 -3 -1
right_child=1 4 3 -5 -6 -7
leaf_value=0.044123010246842412 -0.10407412150441087 -0.13680679207458885 -0.040948301887384471 0.034470931090712253 0.031905355045409201 -0.033083828705280323
leaf_weight=189.78978198766708 32.975058376789093 19.785035312175751 28.578384339809418 35.906175196170807 105.52018785476685 25.647267997264862
leaf_count=169 9 27 39 49 108 35
internal_value=-0.00129851 -0.0094234 0.00294026 -0.00090034 0.00123601 0.00457229
internal_weight=438.202 158.28 279.922 64.4846 125.305 215.437
internal_count=436 144 292 88 135 204
is_linear=0
shrinkage=0.0697821


Tree=36
num_leaves=7
num_cat=0
split_feature=19 41 102 102 24 56
split_gain=2.41532 12.0239 0.226037 0.240668 0.194768 0.107171
threshold=49.885000228881843 198.85604095458987 -0.17210232466459272 3.2049120664596562 1.0000000180025095e-35 174.50000000000003
decision_type=2 2 2 2 2 2
left_child=2 -2 5 -4 -3 -1
right_child=1 4 3 -5 -6 -7
leaf_value=0.029678932042769255 -0.11934351119304304 0.0017448858404718833 0.03485440134690701 -0.030775169323806632 -0.028846128878951119 -0.036961314367735205
leaf_weight=101.12351381778717 26.380046725273132 72.545128762722015 168.53918862342834 21.250593483448029 15.388360798358915 32.975058853626251
leaf_count=138 9 45 149 29 21 45
internal_value=0 -0.00858193 0.00317192 0.0047849 0.00284787 9.57607e-05
internal_weight=438.202 114.314 323.888 189.79 87.9335 134.099
internal_count=436 75 361 178 66 183
is_linear=0
shrinkage=0.0697821


Tree=37
num_leaves=7
num_cat=0
split_feature=19 14 12 26 22 17
split_gain=2.2887 8.68098 0.325698 0.309745 0.197825 0.138312
threshold=49.885000228881843 50.489999771118171 2.2182544469833378 -1.1223378777503965 1.3421995639801028 56.808666229248054
decision_type=2 2 2 2 2 2
left_child=3 -2 -3 4 -1 -5
right_child=1 2 -4 5 -6 -7
leaf_value=0.025983388606355504 -0.088483567632654733 0.0054307793109736827 -0.11893208337705012 0.033600529250012362 -0.035511604458054222 -0.13397316164612796
leaf_weight=36.638954281806946 30.776721119880676 77.674582481384277 5.8622326850891104 255.00712072849274 27.845605254173279 4.3966745138168326
leaf_count=50 6 61 8 267 38 6
internal_value=0 -0.00858193 0.00202817 0.00285714 -0.000119471 0.00399667
internal_weight=438.202 114.314 83.5368 323.888 64.4846 259.404
internal_count=436 75 69 361 88 273
is_linear=0
shrinkage=0.0697821


Tree=38
num_leaves=6
num_cat=0
split_feature=6 55 55 41 28
split_gain=2.69251 6.78571 0.408752 0.337222 0.182049
threshold=4.2711572647094735 0.99550911784172069 -0.30410362780094141 197.71546936035159 0.83741864562034618
decision_type=2 2 2 2 2
left_child=2 -2 3 -1 -4
right_child=1 -3 4 -5 -6
leaf_value=-0.12462423171255396 0.02618060918434514 -0.082308997562752673 0.026289631454276079 0.0060975734284844825 -0.021069072229582292
leaf_weight=24.914488911628723 37.371733367443085 14.655581474304197 235.9548636674881 109.91686284542084 15.388360798358915
leaf_count=34 51 2 178 150 21
internal_value=0.00101908 -0.0133586 0.00325597 0 0.00491463
internal_weight=438.202 52.0273 386.175 134.831 251.343
internal_count=436 53 383 184 199
is_linear=0
shrinkage=0.0697821


Tree=39
num_leaves=6
num_cat=0
split_feature=28 55 17 41 56
split_gain=1.91999 7.60644 0.439102 0.492623 0.266492
threshold=0.72365039587020885 0.99550911784172069 56.808666229248054 197.71546936035159 174.50000000000003
decision_type=2 2 2 2 2
left_child=2 -2 4 -4 -1
right_child=1 -3 3 -5 -6
leaf_value=0.025123402817338967 0.00046230866436640524 -0.076565302022078438 -0.11592768983811784 -0.00098389772330226711 -0.0017724070235361914
leaf_weight=266.73158526420593 84.269594848155975 14.655581474304197 4.3966745138168362 19.785035312175751 48.363419651985168
leaf_count=220 115 2 6 27 66
internal_value=0.00078623 -0.00739606 0.00349433 -0.00335664 0.0043602
internal_weight=438.202 98.9252 339.277 24.1817 315.095
internal_count=436 117 319 33 286
is_linear=0
shrinkage=0.0697821


Tree=40
num_leaves=7
num_cat=0
split_feature=36 108 56 17 26 17
split_gain=1.63904 4.06077 0.601623 0.292385 0.166061 0.10903
threshold=185.50000000000003 1.2578903436660769 116.50000000000001 45.841583251953132 -3.8562663793563838 56.102212905883796
decision_type=2 2 2 2 2 2
left_child=1 -1 4 -4 -2 -3
right_child=2 5 3 -5 -6 -7
leaf_value=-0.021809309563557994 -0.03402849877828739 0.054833315910064476 -0.29228251190911098 -0.002368964757348521 0.021371355444975339 -0.23033740693327115
leaf_weight=24.181709468364716 16.121139883995056 36.638954281806946 10.258907198905943 99.657955646514893 213.23871248960495 8.7933490276336652
leaf_count=6 22 50 14 136 183 12
internal_value=0.000343444 -0.00901779 0.00259268 -0.00090037 0.0047177 0.00126977
internal_weight=408.891 69.614 339.277 109.917 229.36 45.4323
internal_count=423 68 355 150 205 62
is_linear=0
shrinkage=0.0697821


Tree=41
num_leaves=5
num_cat=0
split_feature=101 34 24 24
split_gain=1.66015 7.73044 0.321962 0.221029
threshold=1.6658914685249331 6.3589754104614267 0.40686640143394476 -5.892737388610839
decision_type=2 2 2 2
left_child=2 -2 3 -1
right_child=1 -3 -4 -5
leaf_value=0.0018928107807146468 -0.012641248744131148 0.011213358231262918 -0.0032996746292323648 0.025739032560357394
leaf_weight=68.148454964160919 14.655581474304197 58.622326850891113 89.399048447608948 178.06531625986099
leaf_count=93 2 80 122 126
internal_value=0.000842454 -0.00822876 0.00315259 0.00445812
internal_weight=408.891 73.2779 335.613 246.214
internal_count=423 82 341 219
is_linear=0
shrinkage=0.0697821


Tree=42
num_leaves=5
num_cat=0
split_feature=108 6 55 10
split_gain=2.49773 0.878662 2.5579 0.398559
threshold=0.69135943055152904 5.1530103683471689 0.99550911784172069 -10.50123882293701
decision_type=2 2 2 2
left_child=-1 3 -3 -2
right_child=1 2 -4 -5
leaf_value=-0.011759115730849527 -0.033324859380246236 0.011777851287372331 -0.0089394540722497074 0.023648558720384665
leaf_weight=36.638953685760498 42.501186966896057 23.448930740356449 7.3277907371520987 298.97386586666107
leaf_count=5 58 32 1 327
internal_value=-0.000268591 0.00119915 -0.00925768 0.00247152
internal_weight=408.891 372.252 30.7767 341.475
internal_count=423 418 33 385
is_linear=0
shrinkage=0.0697821


Tree=43
num_leaves=5
num_cat=0
split_feature=109 6 55 116
split_gain=2.49773 0.878662 2.5579 0.317166
threshold=196.79167175292972 5.1530103683471689 0.99550911784172069 0.44149889051914221
decision_type=2 2 2 2
left_child=-1 3 -3 -2
right_child=1 2 -4 -5
leaf_value=-0.010938539820736445 0.021810031664116145 0.010955967970588771 -0.0083156401028024809 -0.030999380369643784
leaf_weight=36.638953685760498 293.11163318157196 23.448930740356449 7.3277907371520987 48.363419651985168
leaf_count=5 319 32 1 66
internal_value=-0.000268591 0.00119915 -0.00925768 0.00247152
internal_weight=408.891 372.252 30.7767 341.475
internal_count=423 418 33 385
is_linear=0
shrinkage=0.0697821


Tree=44
num_leaves=7
num_cat=0
split_feature=101 34 55 45 14 109
split_gain=1.51716 7.73044 0.330294 0.180846 0.120646 0.108683
threshold=1.6658914685249331 6.3589754104614267 -0.20454452931880948 -1.0147979259490965 52.829999923706062 200.7366638183594
decision_type=2 2 2 2 2 2
left_child=2 -2 4 -4 -1 -3
right_child=1 5 3 -5 -6 -7
leaf_value=0.013608800271694796 -0.010175225429233279 0.013904359238312363 -0.054630252253826693 0.018003169024149633 -0.03275205189085862 -0.14485365448400417
leaf_weight=104.05463016033173 14.655581474304197 49.096198737621307 13.190023541450499 191.25533980131149 27.11282616853714 9.5261281132698041
leaf_count=142 2 67 18 144 37 13
internal_value=0.000468196 -0.00822876 0.00269686 0.00444357 0 0.00167498
internal_weight=408.891 73.2779 335.613 204.445 131.167 58.6223
internal_count=423 82 341 162 179 80
is_linear=0
shrinkage=0.0697821


Tree=45
num_leaves=7
num_cat=0
split_feature=19 14 26 31 18 105
split_gain=4.9643 14.9938 0.478482 0.315659 0.293744 0.153893
threshold=50.164999008178718 51.364999771118171 -0.96227493882179249 0.073337521404027953 4.2603824138641366 0.81394445896148693
decision_type=2 2 2 2 2 2
left_child=2 -2 3 -1 -4 -3
right_child=1 5 4 -5 -6 -7
leaf_value=0.010749795385093016 -0.074293766607359826 0.095693412366273475 0.025727380901262434 -0.050818037969270681 -0.13474546079988337 -0.025505330507165171
leaf_weight=53.492873132228851 30.043942034244537 52.027314722537994 230.82541078329086 21.983372569084167 28.578384339809418 18.319477140903473
leaf_count=64 5 44 225 30 39 25
internal_value=-0.00158853 -0.0152576 0.00223079 -0.00177389 0.0038003 0.00111305
internal_weight=435.271 100.391 334.88 75.4762 259.404 70.3468
internal_count=432 74 358 94 264 69
is_linear=0
shrinkage=0.0697821


Tree=46
num_leaves=6
num_cat=0
split_feature=101 55 31 41 115
split_gain=3.89906 11.2058 0.455314 0.359674 0.2755
threshold=1.6658914685249331 0.99550911784172069 0.15746265649795535 199.70832824707034 9.5000000000000018
decision_type=2 2 2 2 2
left_child=2 -2 4 -4 -1
right_child=1 -3 3 -5 -6
leaf_value=0.018624357599445199 0.0044930836071818501 -0.069109390796717185 -0.22552152750878424 0.006965198766383531 -0.0013919453549958798
leaf_weight=246.21377098560333 52.760094165802002 21.983372211456299 20.51781439781189 20.51781439781189 73.277908563613892
leaf_count=201 72 3 28 28 100
internal_value=-6.48159e-05 -0.0146856 0.00270902 -0.00286234 0.00375791
internal_weight=435.271 74.7435 360.527 41.0356 319.492
internal_count=432 75 357 56 301
is_linear=0
shrinkage=0.0697821


Tree=47
num_leaves=6
num_cat=0
split_feature=36 55 46 0 37
split_gain=1.29023 2.52585 0.394888 0.257012 0.120919
threshold=213.50000000000003 0.99550911784172069 -1.0000000180025095e-35 60.319999694824226 193.50000000000003
decision_type=2 2 2 2 2
left_child=2 4 -1 -4 -2
right_child=1 -3 3 -5 -6
leaf_value=-0.01121976027127961 -0.048571495017060859 -0.064286791670355808 0.0032773303395644293 -0.12565617505717269 0.022097637971360495
leaf_weight=68.881234049797058 15.388360798358915 7.3277907371520987 290.18051588535309 18.319477140903473 35.173396110534668
leaf_count=94 21 1 243 25 48
internal_value=0.00203393 -0.00699256 0.00371003 0.00480007 0
internal_weight=435.271 57.8895 377.381 308.5 50.5618
internal_count=432 70 362 268 69
is_linear=0
shrinkage=0.0697821


Tree=48
num_leaves=7
num_cat=0
split_feature=36 5 28 108 101 14
split_gain=1.32562 2.52826 1.49921 0.36699 0.456083 0.316204
threshold=213.50000000000003 1.3662203550338747 0.87616494297981273 2.4661344289779668 -2.1926223039627071 51.364999771118171
decision_type=2 2 2 2 2 2
left_child=3 -2 -3 4 -1 -5
right_child=1 2 -4 5 -6 -7
leaf_value=-0.075299875480758394 0.02850725300972903 -0.22325605763775486 0.043722237838878589 0.0033389016191394069 0.0039508477246333971 -0.21619798951111094
leaf_weight=22.716151654720306 37.371733367443085 15.388360679149629 5.1294535994529715 41.768407881259918 302.63776034116745 10.258907198905943
leaf_count=31 51 12 7 57 260 14
internal_value=0.00215114 -0.00699256 -0.026504 0.00384517 0.00475587 0
internal_weight=435.271 57.8895 20.5178 377.381 325.354 52.0273
internal_count=432 70 19 362 291 71
is_linear=0
shrinkage=0.0697821


Tree=49
num_leaves=5
num_cat=0
split_feature=26 18 46 38
split_gain=1.22108 2.52794 0.332676 0.180882
threshold=4.7843508720397958 1.2615938782691958 -1.0000000180025095e-35 210.07142639160159
decision_type=2 2 2 2
left_child=2 -2 -1 -4
right_child=1 -3 3 -5
leaf_value=-0.010669817324125285 -0.044221444864685114 0.012460671690861957 0.0059747549798853878 -0.0080501420994224405
leaf_weight=74.743466734886169 9.5261279940605146 38.104512333869934 307.76721405982971 5.1294535994529715
leaf_count=102 4 43 276 7
internal_value=0.00285439 -0.00678529 0.0043226 0.00531929
internal_weight=435.271 47.6306 387.64 312.897
internal_count=432 47 385 283
is_linear=0
shrinkage=0.0697821


Tree=50
num_leaves=5
num_cat=0
split_feature=101 55 101 115
split_gain=3.02371 6.77768 0.240792 0.138632
threshold=1.9429227113723757 0.99550911784172069 -2.0388177633285518 18.500000000000004
decision_type=2 2 2 2
left_child=2 -2 -1 -4
right_child=1 -3 3 -5
leaf_value=-0.020640490867883343 0.002000148230992363 -0.041135579124699423 0.0094349973912891127 -0.013600462104564771
leaf_weight=38.104512453079224 41.035628795623779 14.655581474304197 282.11994642019272 19.785035312175751
leaf_count=52 56 2 268 27
internal_value=0.00154075 -0.0129463 0.00425157 0.00492146
internal_weight=395.701 55.6912 340.009 301.905
internal_count=405 58 347 295
is_linear=0
shrinkage=0.0697821


Tree=51
num_leaves=7
num_cat=0
split_feature=26 13 109 46 41 38
split_gain=1.28634 2.67269 0.820455 0.209511 0.378752 0.168164
threshold=4.7843508720397958 1.3507021665573122 199.71789550781253 -0.60780078172683705 197.96159362792972 210.78571319580081
decision_type=2 2 2 2 2 2
left_child=3 2 -2 4 -1 -5
right_child=1 -3 -4 5 -6 -7
leaf_value=-0.22727413633513774 -0.067914014451061586 0.03684807629511163 -0.046171928303838025 0.0027881147113125965 0.026604125078573494 -0.026646309248113554
leaf_weight=10.991686284542082 10.991686165332792 30.043942391872406 4.3966745138168326 279.18883007764816 54.22565233707428 5.8622326850891104
leaf_count=15 6 32 6 264 74 8
internal_value=0.00270085 -0.00743693 -0.0307433 0.00433121 0 0.0051578
internal_weight=395.701 45.4323 15.3884 350.268 65.2173 285.051
internal_count=405 44 12 361 89 272
is_linear=0
shrinkage=0.0697821


Tree=52
num_leaves=6
num_cat=0
split_feature=26 13 5 11 115
split_gain=1.28634 2.67269 0.820455 0.201211 0.179979
threshold=4.7843508720397958 1.3507021665573122 2.0607973337173466 2.161069512367249 16.500000000000004
decision_type=2 2 2 2 2
left_child=3 2 -2 4 -1
right_child=1 -3 -4 -5 -6
leaf_value=0.0031568188024244047 -0.064735302983910517 0.034276739773399095 -0.007912209916388295 -0.10255193616642433 -0.0046798815612392741
leaf_weight=315.09500527381897 10.991686165332792 30.043942391872406 4.3966745138168326 9.5261281132698041 25.647267997264862
leaf_count=313 6 32 6 13 35
internal_value=0.00270085 -0.00743693 -0.0307433 0.00433121 0.00470631
internal_weight=395.701 45.4323 15.3884 350.268 340.742
internal_count=405 44 12 361 348
is_linear=0
shrinkage=0.0697821


Tree=53
num_leaves=5
num_cat=0
split_feature=26 18 55 115
split_gain=1.32075 2.67216 0.178367 0.187693
threshold=4.7843508720397958 1.3627039790153506 -0.97702786326408375 16.500000000000004
decision_type=2 2 2 2
left_child=2 -2 -1 -4
right_child=1 -3 3 -5
leaf_value=-0.016185721983778798 -0.029008502317023642 0.0064883254062550674 0.0027037936525474916 -0.0043533095502792211
leaf_weight=24.181709825992584 10.991686165332792 34.44061690568924 299.70664447546005 26.380047082901001
leaf_count=33 6 38 292 36
internal_value=0.00282975 -0.00743693 0.00447678 0.00491718
internal_weight=395.701 45.4323 350.268 326.087
internal_count=405 44 361 328
is_linear=0
shrinkage=0.0697821


Tree=54
num_leaves=6
num_cat=0
split_feature=26 13 109 55 115
split_gain=1.32075 2.67269 0.820455 0.178367 0.187693
threshold=4.7843508720397958 1.3507021665573122 199.71789550781253 -0.97702786326408375 16.500000000000004
decision_type=2 2 2 2 2
left_child=3 2 -2 -1 -5
right_child=1 -3 -4 4 -6
leaf_value=-0.015056248148188178 -0.058986382018080999 0.031432067501583859 -0.038885356703736079 0.0025151172258519095 -0.00404952642338538
leaf_weight=24.181709825992584 10.991686165332792 30.043942391872406 4.3966745138168326 299.70664447546005 26.380047082901001
leaf_count=33 6 32 6 292 36
internal_value=0.00282975 -0.00743693 -0.0307433 0.00447678 0.00491718
internal_weight=395.701 45.4323 15.3884 350.268 326.087
internal_count=405 44 12 361 328
is_linear=0
shrinkage=0.0697821


Tree=55
num_leaves=3
num_cat=0
split_feature=28 115
split_gain=0.283563 0.32677
threshold=0.046705858781933791 14.500000000000002
decision_type=2 2
left_child=-1 -2
right_child=1 -3
leaf_value=-0.055222976357985738 0.021402023397592472 -0.0024275453881852441
leaf_weight=23.448930740356445 334.14726114273071 48.363419651985168
leaf_count=32 312 66
internal_value=0.00444214 0.00495374
internal_weight=405.96 382.511
internal_count=410 378
is_linear=0
shrinkage=0.0697821


Tree=56
num_leaves=6
num_cat=0
split_feature=41 14 38 105 28
split_gain=1.65571 5.61101 3.6596 0.463921 0.177382
threshold=198.55833435058597 50.264999389648445 196.92857360839847 -1.1418201923370359 0.96610850095748912
decision_type=2 2 2 2 2
left_child=1 3 -3 -1 -2
right_child=4 2 -4 -5 -6
leaf_value=-0.21094810473142758 0.076211240555700471 0.0039829775452993139 -0.062054499041751393 0.022537648548069097 -0.002872801324097409
leaf_weight=16.853918969631195 261.60213273763657 8.7933490276336688 19.785035073757172 82.071256756782532 16.853918969631195
leaf_count=23 294 12 9 49 23
internal_value=0.00192912 -0.00419931 -0.0312099 0.00279047 0.00511484
internal_weight=405.96 127.504 28.5784 98.9252 278.456
internal_count=410 93 21 72 317
is_linear=0
shrinkage=0.0697821


Tree=57
num_leaves=6
num_cat=0
split_feature=17 3 115 10 38
split_gain=0.449396 0.286103 0.199068 0.211079 0.133828
threshold=56.808666229248054 61.299999237060554 14.500000000000002 -13.493551254272459 198.73213958740237
decision_type=2 2 2 2 2
left_child=2 4 3 -1 -2
right_child=1 -3 -4 -5 -6
leaf_value=-0.027516512981564191 -0.0042393168342984696 0.0064224567763333977 -0.00084974111516766858 0.01915821093662138 -0.096612576569390124
leaf_weight=28.578384339809418 5.1294535994529742 17.586698055267334 49.096198737621307 300.43942320346832 5.1294535994529724
leaf_count=39 7 24 67 266 7
internal_value=0.00419084 -0.00204393 0.00493027 0.00555527 -0.011595
internal_weight=405.96 27.8456 378.114 329.018 10.2589
internal_count=410 38 372 305 14
is_linear=0
shrinkage=0.0697821


Tree=58
num_leaves=6
num_cat=0
split_feature=17 3 22 115 55
split_gain=0.418724 0.286103 0.348128 0.173658 0.210179
threshold=56.808666229248054 61.299999237060554 1.117263972759247 14.500000000000002 -0.97702786326408375
decision_type=2 2 2 2 2
left_child=3 2 -2 4 -1
right_child=1 -3 -4 -5 -6
leaf_value=-0.025596352639596559 0.15358890337891962 0.0059742841896332395 -0.089870747101820928 -0.00079044438700381372 0.01829105599309163
leaf_weight=26.380047082901001 3.6638954281806964 17.586698055267334 6.5950117707252502 49.096198737621307 302.63776046037674
leaf_count=36 5 24 9 67 269
internal_value=0.00393954 -0.00204393 -0.011595 0.00466051 0.00524538
internal_weight=405.96 27.8456 10.2589 378.114 329.018
internal_count=410 38 14 372 305
is_linear=0
shrinkage=0.0697821


Tree=59
num_leaves=5
num_cat=0
split_feature=17 4 115 33
split_gain=0.322956 0.242632 0.186152 0.190847
threshold=56.808666229248054 53.515001296997077 14.500000000000002 0.247068926692009
decision_type=2 2 2 2
left_child=2 -2 3 -1
right_child=1 -3 -4 -5
leaf_value=-0.0053045550963451036 -0.083599376721295485 0.0023278820208491643 -0.00073528550966085943 0.016653324875900495
leaf_weight=4.3966745138168326 3.6638954281806972 24.181709825992584 49.096198737621307 324.62113302946091
leaf_count=6 5 33 67 299
internal_value=0.00419084 -0.000271221 0.00479539 0.00540033
internal_weight=405.96 27.8456 378.114 329.018
internal_count=410 38 372 305
is_linear=0
shrinkage=0.0697821


Tree=60
num_leaves=6
num_cat=0
split_feature=14 20 55 14 19
split_gain=3.6491 16.9874 0.376859 0.261884 0.225148
threshold=50.264999389648445 53.340000152587898 -0.20454452931880948 48.109998703002937 47.344999313354499
decision_type=2 2 2 2 2
left_child=3 -2 -3 4 -1
right_child=1 2 -4 -5 -6
leaf_value=0.030469082829723403 -0.014399653744145735 -0.013204611857944696 0.064158023928275562 0.028144408618826274 -0.24855941161168493
leaf_weight=146.5558168888092 30.043942034244537 41.035628795623779 83.536815285682678 147.28859490156174 10.258907198905943
leaf_count=182 5 56 78 102 14
internal_value=-0.000595416 -0.00948097 0.0012025 0.00359549 0.000762415
internal_weight=458.72 154.616 124.572 304.103 156.815
internal_count=437 139 134 298 196
is_linear=0
shrinkage=0.0697821


Tree=61
num_leaves=5
num_cat=0
split_feature=41 14 34 34
split_gain=2.46537 1.67454 0.392642 0.230096
threshold=203.29666137695315 50.264999389648445 8.275301933288576 12.494073390960695
decision_type=2 2 2 2
left_child=2 -2 -1 -4
right_child=1 -3 3 -5
leaf_value=0.00097004871523848697 -0.010704171375086705 -0.013394815519327792 -0.0056134258125714858 0.010501826231840459
leaf_weight=142.89191991090775 21.250593245029449 29.311162948608398 71.079571306705475 194.18645769357681
leaf_count=60 11 4 97 265
internal_value=0.00106259 -0.0129449 0.00308103 0.000989605
internal_weight=458.72 50.5618 408.158 265.266
internal_count=437 15 422 362
is_linear=0
shrinkage=0.0697821


Tree=62
num_leaves=5
num_cat=0
split_feature=41 14 34 37
split_gain=2.42313 1.67454 0.43727 0.217117
threshold=203.29666137695315 50.264999389648445 8.275301933288576 212.50000000000003
decision_type=2 2 2 2
left_child=2 -2 -1 -4
right_child=1 -3 3 -5
leaf_value=0.00090235666886524487 -0.0099572117082917626 -0.012460097026275303 -0.00082395252309079505 0.090780667404491533
leaf_weight=142.89191991090775 21.250593245029449 29.311162948608398 213.97149300575256 51.294535994529724
leaf_count=60 11 4 292 70
internal_value=0.000951355 -0.0129449 0.00295605 0.00079756
internal_weight=458.72 50.5618 408.158 265.266
internal_count=437 15 422 362
is_linear=0
shrinkage=0.0697821


Tree=63
num_leaves=5
num_cat=0
split_feature=41 17 34 37
split_gain=2.38117 1.67454 0.483307 0.180618
threshold=203.29666137695315 50.240606307983406 8.275301933288576 196.50000000000003
decision_type=2 2 2 2
left_child=2 -2 -1 -4
right_child=1 -3 3 -5
leaf_value=0.00083938831633359793 -0.009262376463300942 -0.011590605162137092 0.0078456161393471412 -0.0024067865180932794
leaf_weight=142.89191991090775 21.250593245029449 29.311162948608398 113.58075827360153 151.68527072668076
leaf_count=60 11 4 155 207
internal_value=0.000840125 -0.0129449 0.00283108 0.000605516
internal_weight=458.72 50.5618 408.158 265.266
internal_count=437 15 422 362
is_linear=0
shrinkage=0.0697821


Tree=64
num_leaves=5
num_cat=0
split_feature=41 14 34 34
split_gain=2.29812 1.67454 0.579606 0.199546
threshold=203.29666137695315 50.264999389648445 8.275301933288576 16.996805191040043
decision_type=2 2 2 2
left_child=2 -2 -1 -4
right_child=1 -3 3 -5
leaf_value=0.00078081402831915953 -0.0086160282879663101 -0.01078178827510445 -0.002238835875992625 0.061633715072876689
leaf_weight=142.89191991090775 21.250593245029449 29.311162948608398 180.99643415212631 84.269594848155975
leaf_count=60 11 4 247 115
internal_value=0.000617664 -0.0129449 0.00258113 0.000221427
internal_weight=458.72 50.5618 408.158 265.266
internal_count=437 15 422 362
is_linear=0
shrinkage=0.0697821


Tree=65
num_leaves=7
num_cat=0
split_feature=5 108 6 40 28 109
split_gain=2.35718 6.928 0.495836 0.224826 0.163662 0.159781
threshold=1.4787273406982424 0.91825532913208019 -4.165027141571044 15.034313678741457 0.83741864562034618 200.31333923339847
decision_type=2 2 2 2 2 2
left_child=2 -2 5 -3 -4 -1
right_child=1 3 4 -5 -6 -7
leaf_value=-0.03264331383853878 -0.032693969481443173 -0.010818194503680873 0.0056710164820523304 0.17534563669007711 -0.0014809092122790453 0.1680789258834087
leaf_weight=30.776721596717834 14.655581474304197 46.165082395076752 260.86935293674469 30.043942511081696 33.70783793926239 9.5261281132698041
leaf_count=42 2 63 239 41 46 13
internal_value=0 -0.00977058 0.00283976 0 0.00400547 -0.00303693
internal_weight=425.745 90.8646 334.88 76.209 294.577 40.3028
internal_count=446 106 340 104 285 55
is_linear=0
shrinkage=0.0697821


Tree=66
num_leaves=7
num_cat=0
split_feature=5 55 26 8 55 39
split_gain=2.48146 6.928 0.363187 0.300368 0.2463 0.177973
threshold=1.4787273406982424 0.99550911784172069 4.7843508720397958 -3.1398319005966182 -0.3687493354082107 202.51667022705081
decision_type=2 2 2 2 2 2
left_child=2 5 4 -4 -1 -2
right_child=1 -3 3 -5 -6 -7
leaf_value=0.0023399865680712871 0.011565232357202429 -0.030412515299300662 0.045304994111887119 -0.18108498828057001 0.0048715656845101391 -0.076807841242317057
leaf_weight=101.85629290342331 63.019001364707947 14.655581474304197 8.7933490276336688 9.5261281132698041 214.70427054166794 13.190023541450499
leaf_count=139 86 2 12 13 176 18
internal_value=0.000126177 -0.00977058 0.00314424 -0.0038458 0.00388921 0
internal_weight=425.745 90.8646 334.88 18.3195 316.561 76.209
internal_count=446 106 340 25 315 104
is_linear=0
shrinkage=0.0697821


Tree=67
num_leaves=6
num_cat=0
split_feature=101 55 115 2 32
split_gain=3.70811 11.3174 0.285696 0.251331 0.117958
threshold=1.6658914685249331 0.99550911784172069 6.5000000000000009 50.88750076293946 4.8810243606567392
decision_type=2 2 2 2 2
left_child=2 -2 3 -1 -4
right_child=1 -3 4 -5 -6
leaf_value=-0.0015408574430152498 0.0088995683257074524 -0.028290265804376383 0.051028314467962528 0.0047709122003939163 -0.0040823631781425678
leaf_weight=51.294535994529724 61.553443193435669 21.983372211456299 49.828977823257446 156.81472289562225 84.269594848155975
leaf_count=70 84 3 68 106 115
internal_value=-0.000341861 -0.0136419 0.00263014 0.00424344 0
internal_weight=425.745 83.5368 342.208 208.109 134.099
internal_count=446 87 359 176 183
is_linear=0
shrinkage=0.0697821


Tree=68
num_leaves=6
num_cat=0
split_feature=33 0 26 55 55
split_gain=2.3463 2.08737 1.4491 2.79962 0.27323
threshold=0.43077346682548529 51.689998626708991 4.7843508720397958 0.99168613553047191 -0.97702786326408375
decision_type=2 2 2 2 2
left_child=1 -1 4 -4 -2
right_child=2 -3 3 -5 -6
leaf_value=-0.0071868223738525945 -0.030222736944968152 -0.0047527973457074137 -0.015143776541820121 -0.026316111357638068 0.0043329317154629709
leaf_weight=8.7933489084243792 24.914488911628723 8.7933490276336652 33.70783793926239 8.0605698227882367 341.47505235671997
leaf_count=3 34 12 46 2 349
internal_value=0.000365827 -0.0235306 0.0017063 -0.00986747 0.00333388
internal_weight=425.745 17.5867 408.158 41.7684 366.39
internal_count=446 15 431 48 383
is_linear=0
shrinkage=0.0697821


Tree=69
num_leaves=5
num_cat=0
split_feature=26 55 34 34
split_gain=1.43388 2.79962 0.30602 0.249221
threshold=4.7843508720397958 0.99168613553047191 10.166018962860109 11.82888174057007
decision_type=2 2 2 2
left_child=2 -2 -1 -4
right_child=1 -3 3 -5
leaf_value=0.0011980266239203633 -0.014087011857911785 -0.024479717574109026 -0.031410777985467667 0.0042990475125505084
leaf_weight=134.83135032653809 33.70783793926239 8.0605698227882367 49.828977823257446 199.31591105461121
leaf_count=76 46 2 68 254
internal_value=0.00168391 -0.00986747 0.00323471 0.00121692
internal_weight=425.745 41.7684 383.976 249.145
internal_count=446 48 398 322
is_linear=0
shrinkage=0.0697821


Tree=70
num_leaves=7
num_cat=0
split_feature=38 17 43 18 0 16
split_gain=1.14161 1.54198 0.955768 2.84324 0.783654 0.389168
threshold=209.3571472167969 52.085834503173835 -0.15453663468360898 1.3777797222137453 50.715000152587898 2.1005363464355473
decision_type=2 2 2 2 2 2
left_child=2 4 3 -1 -2 -4
right_child=1 -3 5 -5 -6 -7
leaf_value=-0.03364768939426363 -0.029218867613740852 0.15959233487418881 0.0039056676358816731 0.028245989182088774 -0.011700378015101005 -0.00068111305800502245
leaf_weight=8.7933489084243792 6.595011770725252 12.45724433660507 290.1805157661438 19.785035312175751 7.3277907371520996 109.1840837597847
leaf_count=3 9 8 234 27 1 149
internal_value=0.00134238 -0.0118648 0.00242631 -0.00873558 -0.0275946 0.00350632
internal_weight=454.323 26.38 427.943 28.5784 13.9228 399.365
internal_count=431 18 413 30 10 383
is_linear=0
shrinkage=0.0697821


Tree=71
num_leaves=6
num_cat=0
split_feature=19 17 103 56 9
split_gain=2.18513 6.16375 0.263032 0.192724 0.183671
threshold=50.164999008178718 51.56666564941407 2.3216164112091069 211.50000000000003 9.7733845710754412
decision_type=2 2 2 2 2
left_child=3 -2 -3 4 -1
right_child=1 2 -4 -5 -6
leaf_value=0.013164823707926597 -0.020423464453778486 -0.00039052448985714579 -0.024547956947986893 -0.018495399548991948 -0.0031455712867472967
leaf_weight=274.79215580224991 36.638953685760498 74.010687053203583 13.190023541450499 14.655581712722777 41.035628795623779
leaf_count=276 5 56 18 20 56
internal_value=0.000219331 -0.00739459 0.00165404 0.00340191 0.00388207
internal_weight=454.323 123.84 87.2007 330.483 315.828
internal_count=431 79 74 352 332
is_linear=0
shrinkage=0.0697821


Tree=72
num_leaves=7
num_cat=0
split_feature=38 17 43 18 14 18
split_gain=1.14161 1.54198 0.955768 2.84324 0.783654 0.318074
threshold=209.3571472167969 52.085834503173835 -0.15453663468360898 1.3777797222137453 50.489999771118171 1.9316772818565371
decision_type=2 2 2 2 2 2
left_child=2 4 3 -1 -2 -4
right_child=1 -3 5 -5 -6 -7
leaf_value=-0.032171474569477748 -0.028098582552301323 0.14753697579134822 0.011736756356224285 0.025750392240925811 -0.0094587084989931017 0.0028994734908574459
leaf_weight=8.7933489084243792 6.595011770725252 12.45724433660507 183.19476962089539 19.785035312175751 7.3277907371520996 216.16982990503311
leaf_count=3 9 8 115 27 1 268
internal_value=0.00134238 -0.0118648 0.00242631 -0.00873558 -0.0275946 0.00350632
internal_weight=454.323 26.38 427.943 28.5784 13.9228 399.365
internal_count=431 18 413 30 10 383
is_linear=0
shrinkage=0.0697821


Tree=73
num_leaves=6
num_cat=0
split_feature=11 109 39 14 26
split_gain=1.07332 2.66585 0.752533 0.169912 0.125028
threshold=0.89316052198410045 197.59666442871097 206.93332672119143 52.760000228881843 -3.8562663793563838
decision_type=2 2 2 2 2
left_child=3 -2 -3 4 -1
right_child=1 2 -4 -5 -6
leaf_value=-0.14739681262016746 -0.016753278621426636 0.00012394092567208581 -0.025274089673276386 -0.010508339916153103 0.011514828075867537
leaf_weight=12.45724445581436 8.0605698227882367 207.37648075819016 24.181709468364716 17.586698055267334 184.66032803058624
leaf_count=17 2 247 6 24 135
internal_value=0.00134238 -0.00154136 0 0.00503824 0.00564034
internal_weight=454.323 239.619 231.558 214.704 197.118
internal_count=431 255 253 176 152
is_linear=0
shrinkage=0.0697821


Tree=74
num_leaves=6
num_cat=0
split_feature=19 17 103 52 55
split_gain=2.11873 6.16375 0.263032 0.226399 0.219823
threshold=50.164999008178718 51.56666564941407 2.3216164112091069 0.81174489855766307 -0.96688520908355702
decision_type=2 2 2 2 2
left_child=3 -2 -3 4 -1
right_child=1 2 -4 -5 -6
leaf_value=-0.025019309247032925 -0.01558419948598712 -0.0010737673574207495 -0.023045928948451033 -0.0077241336222025753 0.01070921697100371
leaf_weight=26.380047082901001 36.638953685760498 74.010687053203583 13.190023541450499 29.311163425445557 274.79215580224991
leaf_count=36 5 56 18 40 276
internal_value=0.000107027 -0.00739459 0.00165404 0.00324765 0.00390113
internal_weight=454.323 123.84 87.2007 330.483 301.172
internal_count=431 79 74 352 312
is_linear=0
shrinkage=0.0697821


Tree=75
num_leaves=6
num_cat=0
split_feature=38 15 10 100 100
split_gain=1.78475 1.39762 0.682085 0.435993 0.263344
threshold=209.3571472167969 50.940000534057624 9.0377011299133319 -0.57910403609275807 0.83163446187973034
decision_type=2 2 2 2 2
left_child=2 -2 4 -4 -1
right_child=1 -3 3 -5 -6
leaf_value=0.0099567611927288309 -0.025427524963547232 -0.023421109636337964 -0.13274118591739012 -0.0038702564108766824 -0.0029191796275149064
leaf_weight=295.30997008085251 12.457244336605074 10.991686165332792 17.586698055267334 27.845605254173279 65.950117349624634
leaf_count=295 8 6 24 38 63
internal_value=0.00150069 -0.0162154 0.00281617 -0.00413309 0.00398806
internal_weight=430.141 23.4489 406.692 45.4323 361.26
internal_count=434 14 420 62 358
is_linear=0
shrinkage=0.0697821


Tree=76
num_leaves=5
num_cat=0
split_feature=39 6 13 24
split_gain=1.42381 1.56732 2.48409 0.451681
threshold=205.966667175293 5.1530103683471689 1.2573810219764712 -3.0935324430465694
decision_type=2 2 2 2
left_child=1 3 -3 -1
right_child=-2 2 -4 -5
leaf_value=-0.0032740079718273614 -0.010603114580666524 -0.022132539201329408 0.016004174603741227 0.0053786013857829657
leaf_weight=99.657955646514893 18.319476902484894 10.258907079696657 16.853918969631195 285.05106264352798
leaf_count=136 7 5 23 263
internal_value=0.000907673 0.00200082 -0.0131926 0.0033744
internal_weight=430.141 411.822 27.1128 384.709
internal_count=434 427 28 399
is_linear=0
shrinkage=0.0697821


Tree=77
num_leaves=5
num_cat=0
split_feature=39 104 103 12
split_gain=1.61102 0.390559 0.290885 0.171053
threshold=205.966667175293 0.061190078034996993 -4.7480282783508292 1.7862891554832461
decision_type=2 2 2 2
left_child=1 2 -1 -3
right_child=-2 3 -4 -5
leaf_value=-0.028216283528369912 -0.0098632068702391214 -0.0070020114192112957 0.0011309707528570263 0.0034730878853738542
leaf_weight=22.716151654720306 18.319476902484894 76.209024906158447 271.86103898286819 41.035628795623779
leaf_count=31 7 104 236 56
internal_value=0.0018565 0.00299175 0.00435147 0
internal_weight=430.141 411.822 294.577 117.245
internal_count=434 427 267 160
is_linear=0
shrinkage=0.0697821


Tree=78
num_leaves=5
num_cat=0
split_feature=39 1 115 26
split_gain=1.65892 0.431267 0.264358 0.140365
threshold=205.966667175293 54.584999084472663 9.5000000000000018 2.125909805297852
decision_type=2 2 2 2
left_child=1 2 -1 -3
right_child=-2 3 -4 -5
leaf_value=0.0010024298885994265 -0.0091749314812192336 0.0013480373261628472 0.00011438321888200783 -0.10832297272078764
leaf_weight=239.61875921487808 18.319476902484894 72.545129477977753 74.743466734886169 24.914488911628723
leaf_count=192 7 99 102 34
internal_value=0.00209371 0.00323949 0.00451627 0
internal_weight=430.141 411.822 314.362 97.4596
internal_count=434 427 294 133
is_linear=0
shrinkage=0.0697821


Tree=79
num_leaves=5
num_cat=0
split_feature=39 1 115 26
split_gain=1.65892 0.431267 0.264358 0.140365
threshold=205.966667175293 54.584999084472663 9.5000000000000018 2.125909805297852
decision_type=2 2 2 2
left_child=1 2 -1 -3
right_child=-2 3 -4 -5
leaf_value=0.00093247821561742467 -0.0085346854012631305 0.0012539684368771378 0.00010640131649373443 -0.10076396709816898
leaf_weight=239.61875921487808 18.319476902484894 72.545129477977753 74.743466734886169 24.914488911628723
leaf_count=192 7 99 102 34
internal_value=0.00209371 0.00323949 0.00451627 0
internal_weight=430.141 411.822 314.362 97.4596
internal_count=434 427 294 133
is_linear=0
shrinkage=0.0697821


Tree=80
num_leaves=6
num_cat=0
split_feature=45 55 17 41 19
split_gain=0.642817 2.91232 0.323795 0.249383 0.218902
threshold=-0.76118117570877064 0.99550911784172069 54.090084075927741 198.15833282470706 39.819999694824226
decision_type=2 2 2 2 2
left_child=1 -1 4 -4 -2
right_child=2 -3 3 -5 -6
leaf_value=9.8976408097786273e-05 -0.27250966894844975 -0.015780778617830653 -0.14093607551342785 0.011969724714904848 0.010410117751556137
leaf_weight=69.614013135433197 7.3277908563613883 7.3277907371520987 16.121139883995056 60.087885022163391 255.73989921808243
leaf_count=95 10 1 22 82 223
internal_value=0.00156303 -0.00357752 0.00304351 0 0.00423168
internal_weight=416.219 76.9418 339.277 76.209 263.068
internal_count=433 96 337 104 233
is_linear=0
shrinkage=0.0697821


Tree=81
num_leaves=7
num_cat=0
split_feature=45 51 13 17 103 41
split_gain=0.738715 2.16898 1.47701 0.303715 0.199345 0.108063
threshold=-0.76118117570877064 -0.87837970256805409 1.3153024911880495 54.090084075927741 -4.6010606288909903 198.15833282470706
decision_type=2 2 2 2 2 2
left_child=1 2 -1 4 -2 -5
right_child=3 -3 -4 5 -6 -7
leaf_value=-0.10595826698219953 -0.0063724781909595095 0.007947313645949694 -0.072630365673885769 -0.13110125875685838 0.010469135290918223 0.011134452065451371
leaf_weight=9.5261279940605181 23.448930740356445 57.889547765254974 9.5261281132698041 16.121139883995056 239.61875933408737 60.087885022163391
leaf_count=4 32 79 13 22 201 82
internal_value=0.00193071 -0.00357752 -0.0238509 0.00349433 0.00461897 0
internal_weight=416.219 76.9418 19.0523 339.277 263.068 76.209
internal_count=433 96 17 337 233 104
is_linear=0
shrinkage=0.0697821


Tree=82
num_leaves=6
num_cat=0
split_feature=101 34 104 12 26
split_gain=4.0231 11.0186 0.473155 0.296962 0.289799
threshold=1.6658914685249331 6.3589754104614267 1.6323167681694033 1.5208566784858706 3.6589689254760747
decision_type=2 2 2 2 2
left_child=2 -2 4 -4 -1
right_child=1 -3 3 -5 -6
leaf_value=0.059474953921636445 -0.0072855711187267335 0.0043693193299841476 -0.0086951805332829771 0.0054693218354959381 -0.0076887357660446326
leaf_weight=239.61875957250595 21.983372211456299 57.889547765254974 32.975058853626251 41.768407881259918 21.983372569084167
leaf_count=219 3 79 45 57 30
internal_value=-0.000386435 -0.0145761 0.00270616 -0.00118346 0.00421635
internal_weight=416.219 79.8729 336.346 74.7435 261.602
internal_count=433 82 351 102 249
is_linear=0
shrinkage=0.0697821


Tree=83
num_leaves=6
num_cat=0
split_feature=101 34 17 16 115
split_gain=4.08836 11.0186 0.41692 0.264146 0.211479
threshold=1.6658914685249331 6.3589754104614267 54.090084075927741 1.771730959415436 12.500000000000002
decision_type=2 2 2 2 2
left_child=2 -2 4 -4 -1
right_child=1 -3 3 -5 -6
leaf_value=0.055324666131275936 -0.0067771685918463281 0.0040644190068781722 -0.10078056026043557 0.012405522683866485 -0.0018747309249882449
leaf_weight=210.30759614706039 21.983372211456299 57.889547765254974 15.388360798358915 67.41567587852478 43.233966052532196
leaf_count=179 3 79 21 92 59
internal_value=-0.000263874 -0.0145761 0.00285774 -0.00039844 0.00432978
internal_weight=416.219 79.8729 336.346 82.804 253.542
internal_count=433 82 351 113 238
is_linear=0
shrinkage=0.0697821


Tree=84
num_leaves=6
num_cat=0
split_feature=26 55 104 36 55
split_gain=1.28001 2.93263 0.483748 0.303524 0.187652
threshold=4.7843508720397958 0.99168613553047191 1.6323167681694033 201.50000000000003 -0.97702786326408375
decision_type=2 2 2 2 2
left_child=2 -2 4 -4 -1
right_child=1 -3 3 -5 -6
leaf_value=-0.034071996069822676 -0.00011951939437917175 -0.0063042434661368975 0.027658033274459686 -0.0089540960382183052 0.022798727248908347
leaf_weight=24.914488911628723 32.242279767990112 8.0605698227882367 37.371733367443085 46.165082395076752 267.46436458826065
leaf_count=34 44 2 51 63 239
internal_value=0.00180815 -0.00922716 0.00329032 -0.000334498 0.00468038
internal_weight=416.219 40.3028 375.916 83.5368 292.379
internal_count=433 46 387 114 273
is_linear=0
shrinkage=0.0697821


Tree=85
num_leaves=5
num_cat=0
split_feature=101 55 55 6
split_gain=3.97945 9.91487 3.83644 0.312136
threshold=1.6658914685249331 0.99550911784172069 0.9996316432952882 -0.047516968101263039
decision_type=2 2 2 2
left_child=2 -2 3 -1
right_child=1 -3 -4 -5
leaf_value=0.011493817411566987 -0.0056146135074774135 -0.005864320053679292 -0.012567999711284595 -0.0017355679293801097
leaf_weight=230.09263181686401 46.897861480712891 21.983372211456299 29.311162948608398 104.05463004112244
leaf_count=233 64 3 4 133
internal_value=-0.0027085 -0.0179664 0 0.00237299
internal_weight=432.34 68.8812 363.458 334.147
internal_count=437 67 370 366
is_linear=0
shrinkage=0.0697821


Tree=86
num_leaves=5
num_cat=0
split_feature=101 55 55 16
split_gain=3.73228 9.91487 3.66255 0.398464
threshold=1.6658914685249331 0.99550911784172069 0.9996316432952882 1.0596696734428408
decision_type=2 2 2 2
left_child=2 -2 3 -1
right_child=1 -3 -4 -5
leaf_value=0.015483248985151681 -0.0052228139288114277 -0.0054550954252816546 -0.011690978170087178 9.9325137297967068e-06
leaf_weight=89.399047255516052 46.897861480712891 21.983372211456299 29.311162948608398 244.7482146024704
leaf_count=32 64 3 4 334
internal_value=-0.0031805 -0.0179664 -4.95264e-05 0.00176269
internal_weight=432.34 68.8812 363.458 334.147
internal_count=437 67 370 366
is_linear=0
shrinkage=0.0697821


Tree=87
num_leaves=5
num_cat=0
split_feature=101 55 55 16
split_gain=3.73228 9.91487 3.66255 0.398464
threshold=1.6658914685249331 0.99550911784172069 0.9996316432952882 1.0596696734428408
decision_type=2 2 2 2
left_child=2 -2 3 -1
right_child=1 -3 -4 -5
leaf_value=0.014402795197783386 -0.004858354951531166 -0.0050744273550108058 -0.010875157042749856 9.2394019618692894e-06
leaf_weight=89.399047255516052 46.897861480712891 21.983372211456299 29.311162948608398 244.7482146024704
leaf_count=32 64 3 4 334
internal_value=-0.0031805 -0.0179664 -4.95264e-05 0.00176269
internal_weight=432.34 68.8812 363.458 334.147
internal_count=437 67 370 366
is_linear=0
shrinkage=0.0697821


Tree=88
num_leaves=5
num_cat=0
split_feature=109 101 109 104
split_gain=3.09396 2.57377 6.35464 0.476586
threshold=203.04999542236331 2.0596821308135991 197.59666442871097 0.50805248320102703
decision_type=2 2 2 2
left_child=1 3 -3 -1
right_child=-2 2 -4 -5
leaf_value=0.0078564214092893461 -0.010116265635246669 -0.0047203231059798553 0.0032851367904883151 -0.0048143502572645588
leaf_weight=265.99880677461624 29.311162948608398 14.655581474304197 32.242279767990112 90.131827533245087
leaf_count=264 4 2 44 123
internal_value=-0.00200048 -0.000120613 -0.0155365 0.00165419
internal_weight=432.34 403.028 46.8979 356.131
internal_count=437 433 46 387
is_linear=0
shrinkage=0.0697821


Tree=89
num_leaves=5
num_cat=0
split_feature=55 6 7 16
split_gain=3.09396 2.57923 6.44261 0.47704
threshold=0.9996316432952882 4.2711572647094735 1.1340963244438174 1.0596696734428408
decision_type=2 2 2 2
left_child=1 3 -3 -1
right_child=-2 2 -4 -5
leaf_value=0.0028897702321612779 -0.0094103312715928967 -0.018016921645955569 0.0092389767106385388 -0.0001273040629205401
leaf_weight=98.19239616394043 29.311162948608398 16.121139645576477 34.440617024898529 254.2743427157402
leaf_count=35 4 4 47 347
internal_value=-0.00200048 -0.000120613 -0.0149284 0.00174367
internal_weight=432.34 403.028 50.5618 352.467
internal_count=437 433 51 382
is_linear=0
shrinkage=0.0697821


Tree=90
num_leaves=6
num_cat=0
split_feature=33 21 20 12 6
split_gain=3.53885 5.42638 1.34172 2.15607 0.297897
threshold=1.199283301830292 0.51267883181571972 48.795000076293952 1.4282903075218203 1.125433683395386
decision_type=2 2 2 2 2
left_child=1 -1 3 -2 -4
right_child=2 -3 4 -5 -6
leaf_value=-0.014373920873656836 0.0085942614194235191 -0.0082318013318614953 0.0075911660331928433 -0.0065156729054577419 -0.0077742403805860158
leaf_weight=14.655581474304197 9.5261281132698077 24.181709825992584 297.50830709934235 7.3277907371520987 83.536815643310547
leaf_count=2 13 33 280 1 105
internal_value=-4.12356e-05 -0.0200921 0.0016989 -0.0161906 0.00280446
internal_weight=436.736 38.8373 397.899 16.8539 381.045
internal_count=434 35 399 14 385
is_linear=0
shrinkage=0.0697821


Tree=91
num_leaves=5
num_cat=0
split_feature=33 21 47 39
split_gain=3.15129 5.42638 2.11193 0.833752
threshold=1.199283301830292 0.51267883181571972 3.0324178934097294 193.94999694824222
decision_type=2 2 2 2
left_child=1 -1 3 -2
right_child=2 -3 -4 -5
leaf_value=-0.013370878342843846 -0.03608124235897444 -0.0076573688639471321 -0.0039017340304782124 0.007266979808947251
leaf_weight=14.655581474304197 27.84560489654541 24.181709825992584 13.190023422241209 356.86341327428818
leaf_count=2 11 33 9 379
internal_value=-0.00132622 -0.0200921 0.000288812 0.00151837
internal_weight=436.736 38.8373 397.899 384.709
internal_count=434 35 399 390
is_linear=0
shrinkage=0.0697821


Tree=92
num_leaves=6
num_cat=0
split_feature=42 12 41 0 107
split_gain=2.81605 5.75554 1.34295 3.28472 0.381818
threshold=16.986395835876468 0.98667126893997203 197.96159362792972 50.420000076293952 -0.19882901757955548
decision_type=2 2 2 2 2
left_child=2 -2 3 -1 -4
right_child=1 -3 4 -5 -6
leaf_value=0.0052104922791845745 -0.012437830236479314 0.019032636071968798 0.031727779645492796 -0.00895474040888352 -0.0083794630170081156
leaf_weight=65.217338144779205 14.655581474304197 20.51781439781189 212.50593364238739 30.776721358299255 93.062943875789642
leaf_count=53 2 28 200 24 127
internal_value=-0.00132622 -0.0200067 9.56489e-05 -0.00677605 0.00261088
internal_weight=436.736 35.1734 401.563 95.9941 305.569
internal_count=434 30 404 77 327
is_linear=0
shrinkage=0.0697821


Tree=93
num_leaves=8
num_cat=0
split_feature=41 19 40 9 106 55 40
split_gain=3.76133 7.59532 2.90582 0.415305 0.267506 0.175698 0.160395
threshold=198.55833435058597 48.70000076293946 14.349836349487306 1.7878544330596926 1.0000000180025095e-35 -0.49252992868423456 14.996340751647951
decision_type=2 2 2 2 2 2 2
left_child=1 6 -3 5 -5 -2 -1
right_child=3 2 -4 4 -6 -7 -8
leaf_value=0.017704498563666671 -0.00069231303048092536 -0.0080246768253382349 -0.011569892195921101 0.011441616503544918 -0.031493826342171585 0.069068613140315954 -0.15217034790629458
leaf_weight=65.950117468833923 46.165082395076752 25.647267639636993 23.448930382728577 46.165082395076752 40.30284970998764 175.13420027494431 13.922802627086638
leaf_count=72 63 8 5 63 55 149 19
internal_value=-0.00144303 -0.0115486 -0.0329217 0.00247636 -0.000674057 0.00417568 0.00053934
internal_weight=436.736 128.969 49.0962 307.767 86.4679 221.299 79.8729
internal_count=434 104 13 330 118 212 91
is_linear=0
shrinkage=0.0697821


Tree=94
num_leaves=5
num_cat=0
split_feature=33 21 47 6
split_gain=2.80389 5.42638 1.93505 1.32402
threshold=1.199283301830292 0.51267883181571972 3.0324178934097294 4.8894948959350595
decision_type=2 2 2 2
left_child=1 -1 3 -2
right_child=2 -3 -4 -5
leaf_value=-0.01076252070338009 0.0067545988326582363 -0.0043405792326149236 -0.0054167399481379443 -0.0054478472098113458
leaf_weight=14.655581474304197 359.06175029277802 24.181709825992584 13.190023422241209 25.647267878055573
leaf_count=2 364 33 9 26
internal_value=-0.00237757 -0.0200921 -0.000340087 0.000325204
internal_weight=436.736 38.8373 397.899 384.709
internal_count=434 35 399 390
is_linear=0
shrinkage=0.0697821


Tree=95
num_leaves=8
num_cat=0
split_feature=19 17 11 22 43 45 9
split_gain=2.37076 3.7903 6.79004 0.431856 0.412007 0.255662 0.253774
threshold=48.795000076293952 51.56666564941407 0.73698386549949657 1.4099777936935427 -0.060306008905172341 -0.13886335492134091 13.202838420867922
decision_type=2 2 2 2 2 2 2
left_child=4 2 -2 -3 5 -1 -6
right_child=1 3 -4 -5 6 -7 -8
leaf_value=0.0095785238449527816 0.093975654025457961 0.057026245592292149 -0.024146537362642079 -0.12393962147143255 0.02967618618769876 -0.14202293007556163 -0.096050197091445036
leaf_weight=59.355105936527252 29.311162948608398 76.941803634166718 44.699523508548737 11.724465370178221 177.33253812789917 10.991686284542082 16.121139883995056
leaf_count=81 4 78 7 16 197 15 22
internal_value=-0.00128627 -0.00804558 -0.0196691 0.000600504 0.00250132 -0.000969705 0.0043003
internal_weight=426.477 162.677 74.0107 88.6663 263.8 70.3468 193.454
internal_count=420 105 11 94 315 96 219
is_linear=0
shrinkage=0.0697821


Tree=96
num_leaves=7
num_cat=0
split_feature=14 17 108 103 103 29
split_gain=2.64693 12.733 0.345724 0.551874 0.43912 0.270575
threshold=50.264999389648445 51.56666564941407 2.5005952119827275 2.3216164112091069 -5.8668873310089102 0.38305903971195226
decision_type=2 2 2 2 2 2
left_child=2 -2 4 -4 -1 -3
right_child=1 5 3 -5 -6 -7
leaf_value=-0.037600837286998687 -0.015610630088836171 0.033658958913956087 0.053137374576007243 -0.24804655225423103 0.029212935116572959 -0.030435880447918243
leaf_weight=14.655581712722777 21.983372211456299 76.941803634166718 21.983372569084167 10.991686284542082 238.88598048686981 41.035628795623779
leaf_count=20 3 78 30 15 218 56
internal_value=0 -0.00792738 0.00374428 -0.000681794 0.00473156 0.000452565
internal_weight=426.477 139.961 286.517 32.9751 253.542 117.977
internal_count=420 137 283 45 238 134
is_linear=0
shrinkage=0.0697821


Tree=97
num_leaves=8
num_cat=0
split_feature=19 17 11 43 100 11 9
split_gain=2.32545 4.1643 6.79004 0.359359 0.236942 0.187695 0.149023
threshold=48.795000076293952 51.56666564941407 0.73698386549949657 -0.013748624827712773 0.75680214166641246 2.0770603418350224 14.140729427337648
decision_type=2 2 2 2 2 2 2
left_child=3 2 -2 4 -1 -3 -5
right_child=1 5 -4 6 -6 -7 -8
leaf_value=0.014142253702711353 0.08537929431912597 0.040949914268784596 -0.022904860951647482 0.026843530264718436 -0.047098337878538829 -0.1176396463253964 -0.23073734040316912
leaf_weight=87.93349015712738 29.311162948608398 79.140140891075134 44.699523508548737 144.35747939348221 22.716151654720306 9.5261281132698041 8.7933490276336652
leaf_count=111 4 81 7 161 31 13 12
internal_value=-0.000688173 -0.00742075 -0.0196691 0.00308064 0 0.00174106 0.00525875
internal_weight=426.477 162.677 74.0107 263.8 110.65 88.6663 153.151
internal_count=420 105 11 315 142 94 173
is_linear=0
shrinkage=0.0697821


Tree=98
num_leaves=6
num_cat=0
split_feature=14 17 42 9 5
split_gain=1.32471 4.89608 0.206867 0.173423 0.107154
threshold=50.264999389648445 51.56666564941407 14.161478519439699 10.281491279602053 3.0324178934097294
decision_type=2 2 2 2 2
left_child=3 -2 -3 4 -1
right_child=1 2 -4 -5 -6
leaf_value=0.025007174810061785 -0.01292293784756641 -0.029298876790371516 0.047840469224066581 -0.0064827002440793506 -0.13086418916712927
leaf_weight=249.8776667714119 21.983372211456299 46.165082275867462 71.812350153923035 24.914488911628723 11.724465370178221
leaf_count=233 3 54 80 34 16
internal_value=0.00157336 -0.00357427 0.00131214 0.00445568 0.00499525
internal_weight=426.477 139.961 117.977 286.517 261.602
internal_count=420 137 134 283 249
is_linear=0
shrinkage=0.0697821


Tree=99
num_leaves=6
num_cat=0
split_feature=51 21 55 55 10
split_gain=1.36798 3.44352 4.30297 0.99428 0.415045
threshold=-0.87837970256805409 0.1771001219749451 0.99550911784172069 0.9996316432952882 4.651930809020997
decision_type=2 2 2 2 2
left_child=1 -1 -3 4 -2
right_child=3 2 -4 -5 -6
leaf_value=0.15053390243609177 0.023297394896129066 -0.035262240573672811 -0.0053289291790592393 -0.012021147974218887 -0.0024046406499761744
leaf_weight=40.302849352359772 271.86103957891464 17.586698055267334 14.655581474304197 21.983372211456299 60.087885022163391
leaf_count=28 281 24 2 3 82
internal_value=1.83022e-05 -0.00838028 -0.0254626 0.00205342 0.00326407
internal_weight=426.477 72.5451 32.2423 353.932 331.949
internal_count=420 54 26 366 363
is_linear=0
shrinkage=0.0697821


Tree=100
num_leaves=6
num_cat=0
split_feature=20 17 109 24 104
split_gain=3.2671 6.18181 1.195 0.283953 0.216454
threshold=50.534999847412116 50.240606307983406 200.05000305175784 1.0000000180025095e-35 1.6323167681694033
decision_type=2 2 2 2 2
left_child=1 2 -1 4 -2
right_child=3 -3 -4 -5 -6
leaf_value=0.006271051120581351 0.051747810546687749 -0.022161864868363586 -0.015537391093677536 -0.00015147229387624516 -0.0007001757320747277
leaf_weight=49.828977465629578 175.13420027494431 14.655581474304197 38.837291181087494 110.64964193105698 43.966745138168335
leaf_count=41 149 2 26 151 60
internal_value=-0.000218288 -0.0112017 -0.00276757 0.00293018 0.00438002
internal_weight=433.072 103.322 88.6663 329.751 219.101
internal_count=429 69 67 360 209
is_linear=0
shrinkage=0.0697821


Tree=101
num_leaves=7
num_cat=0
split_feature=20 14 109 39 106 105
split_gain=2.76061 6.53944 0.994097 0.277577 0.343166 0.16698
threshold=50.534999847412116 50.264999389648445 200.12667083740237 198.48332977294925 1.5762354135513308 -0.37827219069004053
decision_type=2 2 2 2 2 2
left_child=1 2 -1 5 -5 -2
right_child=3 -3 -4 4 -6 -7
leaf_value=0.0058334439400399719 -0.027075968385428393 -0.020615363171263043 -0.014818650276201167 0.07133040646616079 -0.028938148716343471 -0.0033385902643061002
leaf_weight=52.760093808174133 43.233966052532196 14.655581474304197 35.906174838542938 215.43705022335052 16.853918969631195 54.225652098655701
leaf_count=45 59 2 22 222 23 56
internal_value=-0.000100485 -0.0102214 -0.00162701 0.00277558 0.00408854 0
internal_weight=433.072 103.322 88.6663 329.751 232.291 97.4596
internal_count=429 69 67 360 245 115
is_linear=0
shrinkage=0.0697821


Tree=102
num_leaves=7
num_cat=0
split_feature=20 14 109 14 14 104
split_gain=2.58288 6.53944 0.994097 0.479053 0.266342 0.215329
threshold=50.534999847412116 50.264999389648445 200.12667083740237 52.215000152587898 48.109998703002937 0.50805248320102703
decision_type=2 2 2 2 2 2
left_child=1 2 -1 4 -2 -5
right_child=3 -3 -4 5 -6 -7
leaf_value=0.0054263739120077124 0.001238102218439652 -0.019176779626057214 -0.013784573589198218 0.0018784628459475466 0.065530176989846867 -0.015723067560586869
leaf_weight=52.760093808174133 91.597385704517365 14.655581474304197 35.906174838542938 46.897861480712891 161.21139764785767 30.043942511081696
leaf_count=45 125 2 22 64 130 41
internal_value=-0.000453893 -0.0102214 -0.00162701 0.00231177 0.0039192 -0.00160932
internal_weight=433.072 103.322 88.6663 329.751 252.809 76.9418
internal_count=429 69 67 360 255 105
is_linear=0
shrinkage=0.0697821


Tree=103
num_leaves=6
num_cat=0
split_feature=55 12 104 105 108
split_gain=4.05199 1.73368 0.354725 0.201347 0.182354
threshold=0.99815866351127636 0.88434073328971874 1.0000000180025095e-35 3.3407430648803715 2.2142661809921269
decision_type=2 2 2 2 2
left_child=2 -2 4 -4 -1
right_child=1 -3 3 -5 -6
leaf_value=0.061080544148291366 -0.017838583476375052 -0.006859005509227128 -0.012644784161007236 0.0058010576103296983 -0.00068014960720445567
leaf_weight=147.28859549760818 43.966744422912598 43.966744422912598 78.407362163066864 48.363419651985168 71.079571306705475
leaf_count=147 6 6 107 66 97
internal_value=-0.00151412 -0.0149224 0.00163285 -0.000661542 0.00343893
internal_weight=433.072 87.9335 345.139 126.771 218.368
internal_count=429 12 417 173 244
is_linear=0
shrinkage=0.0697821


Tree=104
num_leaves=6
num_cat=0
split_feature=55 11 52 100 24
split_gain=4.1184 1.73368 0.251342 0.176254 0.160972
threshold=0.99815866351127636 0.87973457574844371 -0.56174489110708226 0.96032312512397777 4.3709545135498056
decision_type=2 2 2 2 2
left_child=2 -2 4 -4 -1
right_child=1 -3 3 -5 -6
leaf_value=0.00010442720312570545 -0.016593769477916576 -0.0063803696307282746 0.022512189732815019 -0.0034360117769452062 -0.013612449055857628
leaf_weight=64.484559535980225 43.966744422912598 43.966744422912598 223.49762040376663 33.70783793926239 23.448930740356445
leaf_count=88 6 6 251 46 32
internal_value=-0.00139631 -0.0149224 0.00178058 0.00298109 -0.000547953
internal_weight=433.072 87.9335 345.139 257.205 87.9335
internal_count=429 12 417 297 120
is_linear=0
shrinkage=0.0697821


Tree=105
num_leaves=8
num_cat=0
split_feature=41 14 15 104 116 20 40
split_gain=5.90922 7.13142 7.31547 0.681799 0.253222 0.224248 0.11894
threshold=197.96159362792972 48.70000076293946 50.614999771118171 0.50805248320102703 0.36718750000000006 59.074998855590827 14.435468673706056
decision_type=2 2 2 2 2 2 2
left_child=1 6 -3 4 -2 -5 -1
right_child=3 2 -4 5 -6 -7 -8
leaf_value=0.080631205483479573 0.05694107890062234 -0.015435821227111811 -0.041384837211313516 -0.0016933463738338388 -0.003876593085658376 -0.013750786155420424 -0.1299348507187888
leaf_weight=32.975058734416962 195.65201491117477 29.311162948608398 18.319477021694183 53.492873251438141 28.578384339809418 27.845605254173279 15.388360798358915
leaf_count=36 195 4 16 73 39 38 21
internal_value=-0.00217883 -0.01732 -0.0362272 0.00227728 0.00443919 -0.00239284 0
internal_weight=401.563 95.9941 47.6306 305.569 224.23 81.3385 48.3634
internal_count=422 77 20 345 234 111 57
is_linear=0
shrinkage=0.0697821


Tree=106
num_leaves=5
num_cat=0
split_feature=55 33 5 24
split_gain=4.17154 1.45475 2.0267 0.464189
threshold=0.99815866351127636 1.3718760013580324 -0.65390494465827931 -3.7402486801147456
decision_type=2 2 2 2
left_child=1 2 -1 -3
right_child=-2 3 -4 -5
leaf_value=-0.20119816468717261 -0.014358677048782896 -0.005191782578488644 -0.0024742163453919043 0.044316934689367878
leaf_weight=13.190023422241209 51.294535160064697 86.467932105064392 23.448930740356445 227.16151583194733
leaf_count=9 7 118 32 256
internal_value=-0.00205181 0.00040076 -0.0121632 0.00223519
internal_weight=401.563 350.268 36.639 313.629
internal_count=422 415 41 374
is_linear=0
shrinkage=0.0697821


Tree=107
num_leaves=7
num_cat=0
split_feature=20 109 16 3 55 27
split_gain=5.71767 8.19504 1.29751 0.546572 0.570025 0.251681
threshold=50.614999771118171 197.7638854980469 1.9951250553131106 51.639999389648445 -0.98933595418930043 16.281703948974613
decision_type=2 2 2 2 2 2
left_child=1 -1 -3 5 -5 -2
right_child=3 2 -4 4 -6 -7
leaf_value=-0.013356698264237524 0.097961516384016095 0.018119229251962667 -0.0035026780506511239 -0.12396025186493839 -7.3474755208443872e-05 -0.0046677103119782005
leaf_weight=22.716151297092438 150.95249080657959 51.294535756111145 21.250593245029449 10.258907198905943 115.77909553050995 29.311163425445557
leaf_count=4 143 52 11 14 158 40
internal_value=-0.0025599 -0.0175049 -0.00420856 0.0017893 -0.00110813 0.00438754
internal_weight=401.563 95.2613 72.5451 306.302 126.038 180.264
internal_count=422 67 63 355 172 183
is_linear=0
shrinkage=0.0697821


Tree=108
num_leaves=7
num_cat=0
split_feature=20 17 17 16 8 101
split_gain=2.92033 3.63547 0.714316 0.33447 0.16775 0.167014
threshold=50.534999847412116 47.733402252197273 54.090084075927741 1.8169214725494387 1.0355799794197085 -1.4363192319869993
decision_type=2 2 2 2 2 2
left_child=1 4 5 -4 -1 -2
right_child=2 -3 3 -5 -6 -7
leaf_value=0.063496817781201212 -0.004746190852692774 -0.013490742681766517 -0.10015504002750399 0.00059764131554421748 -0.0083367389269184827 0.0035997003246943317
leaf_weight=29.311163306236267 27.845605254173279 23.448930382728577 35.173396110534668 71.079571306705475 13.922802627086638 200.78146827220917
leaf_count=31 38 5 48 97 19 184
internal_value=-1.94338e-05 -0.0134881 0.00238304 -0.00164628 0 0.00471049
internal_weight=401.563 66.6829 334.88 106.253 43.234 228.627
internal_count=422 55 367 145 50 222
is_linear=0
shrinkage=0.0697821


Tree=109
num_leaves=7
num_cat=0
split_feature=20 17 17 101 44 105
split_gain=3.14613 3.63547 0.42885 0.167014 0.153603 0.144031
threshold=50.534999847412116 47.733402252197273 54.090084075927741 -1.4363192319869993 0.018437225371599201 1.3744698166847231
decision_type=2 2 2 2 2 2
left_child=1 5 3 -2 -4 -1
right_child=2 -3 4 -5 -6 -7
leaf_value=0.03149591327590541 -0.0044149916394473953 -0.012549330188890871 0.0059854952715274364 0.0033485056398489901 -0.012465511184721854 -0.0058002185444839182
leaf_weight=28.578384220600128 27.845605254173279 23.448930382728577 57.889547765254974 200.78146827220917 48.363419651985168 14.655581712722777
leaf_count=30 38 5 79 184 66 20
internal_value=0 -0.0134881 0.002992 0.00471049 0 0
internal_weight=401.563 66.6829 334.88 228.627 106.253 43.234
internal_count=422 55 367 222 145 50
is_linear=0
shrinkage=0.0697821


end of trees

feature_importances:
doy_cos=57
price_mean_60d=38
price_min_20d=28
volume_mean_60d=22
item_return_vs_market_1d=22
return_3d=17
autocorr_1d=17
price_std_20d=14
high_low_range_30d=14
volume_mean_30d=14
price_std_30d=13
market_regime_duration_days=13
price_max_60d=12
volume_log_change_1d=12
market_return_7d=12
market_volume_mean_30d=12
price_min_60d=11
return_60d=9
volume_price_conf_7d=9
item_age_days=9
market_return_14d=9
item_return_vs_market_14d=9
market_volatility_30d=9
price_accel_7d=8
volume_mean_7d=8
return_1d=7
distance_to_resistance=7
volume_lag_1d=7
volume_std_30d=7
volume_zscore_30d=7
volume_price_conf_1d=7
price_std_7d=6
price_std_14d=6
price_std_60d=6
price_zscore_30d=6
bb_pct_b=6
item_return_vs_market_7d=6
price_lag_30d=5
return_14d=5
return_30d=5
price_max_20d=5
vol_regime_60_30=5
macd_histogram=5
market_return_30d_percentile=5
price_lag_1d=4
price_lag_7d=4
price_lag_60d=4
trend_divergence_30_60=4
volume_lag_7d=4
market_return_1d=4
return_7d=3
price_lag_14d=2
macd_signal=2
volume_std_60d=2
dow_sin=2
dow_cos=2
market_return_30d=2
item_return_vs_market_30d=2
autocorr_7d=1
macd_line=1
distance_to_support=1
volume_log_change_7d=1

parameters:
[boosting: gbdt]
[objective: quantile]
[metric: quantile]
[tree_learner: serial]
[device_type: cpu]
[data_sample_strategy: bagging]
[data: ]
[valid: ]
[num_iterations: 1000]
[learning_rate: 0.0697821]
[num_leaves: 31]
[num_threads: -1]
[seed: 91]
[deterministic: 0]
[force_col_wise: 0]
[force_row_wise: 0]
[histogram_pool_size: -1]
[max_depth: 3]
[min_data_in_leaf: 5]
[min_sum_hessian_in_leaf: 0.001]
[bagging_fraction: 0.7]
[pos_bagging_fraction: 1]
[neg_bagging_fraction: 1]
[bagging_freq: 5]
[bagging_seed: 2784]
[bagging_by_query: 0]
[feature_fraction: 0.8]
[feature_fraction_bynode: 1]
[feature_fraction_seed: 29510]
[extra_trees: 0]
[extra_seed: 8681]
[early_stopping_round: 0]
[early_stopping_min_delta: 0]
[first_metric_only: 0]
[max_delta_step: 0]
[lambda_l1: 1.5]
[lambda_l2: 1]
[linear_lambda: 0]
[min_gain_to_split: 0.1]
[drop_rate: 0.1]
[max_drop: 50]
[skip_drop: 0.5]
[xgboost_dart_mode: 0]
[uniform_drop: 0]
[drop_seed: 8477]
[top_rate: 0.2]
[other_rate: 0.1]
[min_data_per_group: 100]
[max_cat_threshold: 32]
[cat_l2: 10]
[cat_smooth: 10]
[max_cat_to_onehot: 4]
[top_k: 20]
[monotone_constraints: ]
[monotone_constraints_method: basic]
[monotone_penalty: 0]
[feature_contri: ]
[forcedsplits_filename: ]
[refit_decay_rate: 0.9]
[cegb_tradeoff: 1]
[cegb_penalty_split: 0]
[cegb_penalty_feature_lazy: ]
[cegb_penalty_feature_coupled: ]
[path_smooth: 0]
[interaction_constraints: ]
[verbosity: -1]
[saved_feature_importance_type: 0]
[use_quantized_grad: 0]
[num_grad_quant_bins: 4]
[quant_train_renew_leaf: 0]
[stochastic_rounding: 1]
[linear_tree: 0]
[max_bin: 63]
[max_bin_by_feature: ]
[min_data_in_bin: 3]
[bin_construct_sample_cnt: 200000]
[data_random_seed: 335]
[is_enable_sparse: 1]
[enable_bundle: 1]
[use_missing: 1]
[zero_as_missing: 0]
[feature_pre_filter: 0]
[pre_partition: 0]
[two_round: 0]
[header: 0]
[label_column: ]
[weight_column: ]
[group_column: ]
[ignore_column: ]
[categorical_feature: ]
[forcedbins_filename: ]
[precise_float_parser: 0]
[parser_config_file: ]
[objective_seed: 29977]
[num_class: 1]
[is_unbalance: 0]
[scale_pos_weight: 1]
[sigmoid: 1]
[boost_from_average: 1]
[reg_sqrt: 0]
[alpha: 0.1]
[fair_c: 1]
[poisson_max_delta_step: 0.7]
[tweedie_variance_power: 1.5]
[lambdarank_truncation_level: 30]
[lambdarank_norm: 1]
[label_gain: ]
[lambdarank_position_bias_regularization: 0]
[eval_at: ]
[multi_error_top_k: 1]
[auc_mu_weights: ]
[num_machines: 1]
[local_listen_port: 12400]
[time_out: 120]
[machine_list_filename: ]
[machines: ]
[gpu_platform_id: -1]
[gpu_device_id: -1]
[gpu_device_id_list: ]
[gpu_use_dp: 0]
[num_gpu: 1]

end of parameters

pandas_categorical:[]
