tree
version=v4
num_class=1
num_tree_per_iteration=1
label_index=0
max_feature_idx=121
objective=quantile
feature_names=price_lag_1d price_lag_7d price_lag_14d price_lag_30d price_lag_60d return_1d return_3d return_7d return_14d return_30d return_60d price_std_7d price_std_14d price_std_20d price_min_20d price_max_20d price_std_30d price_mean_60d price_std_60d price_min_60d price_max_60d price_zscore_30d vol_regime_60_30 trend_divergence_30_60 price_accel_7d price_tier autocorr_1d autocorr_7d bb_pct_b macd_line macd_signal macd_histogram distance_to_support distance_to_resistance high_low_range_30d volume_missing volume_lag_1d volume_lag_7d volume_mean_7d volume_mean_30d volume_std_30d volume_mean_60d volume_std_60d volume_log_change_1d volume_log_change_7d volume_zscore_30d volume_price_conf_7d volume_price_conf_1d rsi_missing macd_missing is_weekend dow_sin dow_cos month_sin month_cos doy_cos item_age_days is_stattrak is_souvenir is_knife is_glove is_sticker is_case is_capsule is_agent is_music_kit is_graffiti is_charm is_patch quality_rank event_decay_major events_next_30d_major event_density_30d_major event_density_90d_major event_decay_operation events_next_30d_operation event_density_30d_operation event_density_90d_operation event_decay_case_drop events_next_30d_case_drop event_density_30d_case_drop event_density_90d_case_drop event_decay_update events_next_30d_update event_density_30d_update event_density_90d_update event_decay_game_update events_next_30d_game_update event_density_30d_game_update event_density_90d_game_update event_decay_major_weighted event_decay_operation_weighted event_decay_case_drop_weighted event_decay_update_weighted event_decay_game_update_weighted social_mentions_1d social_mentions_7d social_mention_velocity social_sentiment_7d social_score_7d market_return_1d item_return_vs_market_1d market_return_7d item_return_vs_market_7d market_return_14d item_return_vs_market_14d market_return_30d item_return_vs_market_30d market_volatility_30d market_volume_mean_30d market_regime_crash market_regime_bear market_regime_range market_regime_bull market_regime_mania market_regime_duration_days market_return_30d_percentile supply_listings_log supply_listings_zscore supply_change_7d supply_skinport_qty_log supply_to_volume_ratio
feature_infos=[39.790000915527344:66.569999694824219] [39.790000915527344:66.569999694824219] [39.790000915527344:66.569999694824219] [39.790000915527344:66.569999694824219] [39.849998474121094:66.569999694824219] [-6.0415120124816895:6.2258315086364746] [-10.281366348266602:11.818019866943359] [-17.372880935668945:15.222199440002441] [-24.630624771118164:24.511468887329102] [-24.868003845214844:39.543319702148438] [-35.815872192382812:34.754096984863281] [0.042426407337188721:3.2751080989837646] [0.042426407337188721:4.7465720176696777] [0.042426407337188721:5.344205379486084] [38.569999694824219:61.619998931884766] [43.290000915527344:66.569999694824219] [0.042426407337188721:5.4625492095947266] [42.844001770019531:62.902332305908203] [0.042426407337188721:6.2239170074462891] [38.569999694824219:58.759998321533203] [46.650001525878906:66.569999694824219] [-3.4853887557983398:3.0036964416503906] [0.75597286224365234:4.9742584228515625] [-106.84011840820312:164.20773315429688] [-22.191015243530273:26.589687347412109] [3:3] [-17.983921051025391:24.913341522216797] [-165.46697998046875:159.38456726074219] [-0.22173035144805908:1.266255259513855] [-3.1355800628662109:3.1830518245697021] [-2.6216168403625488:2.7723205089569092] [-1.2678171396255493:0.94621419906616211] [0.018351990729570389:39.335178375244141] [0.054525628685951233:35.731788635253906] [0.12307692319154739:39.335178375244141] none [161:245] [161:245] [176:219] [176:219] [4.0414519309997559:20.361700057983398] [176:219] [4.0414519309997559:19.928762435913086] [-0.31321537494659424:0.36533302068710327] [-0.29612094163894653:0.40341803431510925] [-2.8260855674743652:2.671764612197876] [-17.372880935668945:15.222199440002441] [-6.0415120124816895:6.2258315086364746] [0:1] [0:1] [0:1] [-0.97492790222167969:0.97492790222167969] [-0.90096884965896606:1] [-0.86602538824081421:1] [-1:0.86602538824081421] [-1:0.99985265731811523] [0:234] none none none none none none none none none none none none none [0:0.98347145318984985] [0:1] [0:1] [0:1] none none none none none none none none none none none none none none none none none none none none none none none none none none [-2.4910855293273926:2.5970833301544189] [-5.0148625373840332:6.6300463676452637] [-5.9873161315917969:6.6842527389526367] [-15.224418640136719:14.81980037689209] [-7.8436169624328613:8.0323085784912109] [-21.144741058349609:25.597810745239258] [-8.3750972747802734:10.840641021728516] [-26.866291046142578:40.982707977294922] [0.43699198961257935:3.9606008529663086] [195.10000610351562:203.39999389648438] none [0:1] [0:1] [0:1] [0:1] [1:30] [0.0086206896230578423:1] none none none none none
tree_sizes=1889 1802 2308 2425 1793 1905 1800 2293 2327 2016

Tree=0
num_leaves=17
num_cat=0
split_feature=39 19 43 34 15 5 39 0 23 107 70 70 1 19 22 101
split_gain=8.69581 4.72379 6.77837 5.02505 4.21832 4.37459 3.57049 3.51358 2.83239 2.72665 2.68331 2.67572 2.49187 2.34291 2.05221 1.63132
threshold=200.841667175293 48.70000076293946 -0.072258476167917238 9.4147434234619158 61.600000381469734 3.0014326572418217 197.1166687011719 52.820001602172859 1.1797423362731936 -3.0195683240890498 0.32466374337673193 0.68731313943862926 45.949998855590827 46.085000991821296 1.2370578050613406 0.25568142533302313
decision_type=2 2 2 2 2 2 2 2 2 2 2 2 2 2 2 2
left_child=1 3 7 15 5 11 12 -3 14 -6 -8 13 -5 -2 -4 -1
right_child=4 2 8 6 9 -7 10 -9 -10 -11 -12 -13 -14 -15 -16 -17
leaf_value=0.036032772928974333 -0.070692805480113821 -0.063899445207939304 -0.27768978876107075 -0.045537346294580811 0.016924624697820079 -0.38302818154115587 -0.17643737092286055 -0.25825209658783316 -0.11424424204851223 -0.38684960183229788 0.061469309164011304 -0.19055269766504798 -0.34326472718211731 0.095072386566776218 -0.21165159273013262 -0.07813993771367167
leaf_weight=28.523980259895325 90.605580568313599 25.168218016624451 94.800286948680878 13.423048973083494 16.77881121635437 23.490336298942566 119.96850019693375 15.100930094718931 20.134573459625244 26.007157385349274 62.920542061328888 17.617751777172089 66.276304304599762 128.35791057348251 28.523979067802429 14.261989533901213
leaf_count=16 108 12 59 16 20 19 143 18 24 31 75 21 79 81 34 17
internal_value=-0.13132 -0.135271 -0.141558 -0.13132 -0.124539 -0.122069 -0.134063 -0.124498 -0.146712 -0.138227 -0.130455 -0.119926 -0.142819 -0.118351 -0.14953 -0.115906
internal_weight=0 489.102 183.728 305.374 302.858 260.072 262.588 40.2691 143.459 42.786 182.889 236.581 79.6994 218.963 123.324 42.786
internal_count=773 493 147 346 280 229 313 30 117 51 218 210 95 189 93 33
is_linear=0
shrinkage=1


Tree=1
num_leaves=16
num_cat=0
split_feature=15 41 47 5 38 108 45 107 22 104 38 108 42 33 30
split_gain=6.61117 8.65258 4.60907 4.54579 4.36191 3.37594 3.1548 2.94699 2.30498 1.76577 1.74642 1.3815 1.29053 0.635856 0.205518
threshold=59.57500076293946 199.90833282470706 -2.347063302993774 2.7712430953979497 200.78571319580081 1.5842481255531313 -0.59393480420112599 -3.3524733781814571 1.0546109080314638 -1.3293606042861936 206.78571319580081 1.7518948912620547 15.80977249145508 24.906088829040531 1.8028078675270083
decision_type=2 2 2 2 2 2 2 2 2 2 2 2 2 2 2
left_child=1 2 -1 5 6 -3 -4 12 -7 -6 11 -9 13 -2 -13
right_child=7 3 4 -5 9 8 -8 10 -10 -11 -12 14 -14 -15 -16
leaf_value=0.11899438251908138 -0.18727443862753099 0.22103055684470474 0.021257983505016391 -0.12382018899963639 0.23167174617972927 -0.0074891936561063497 -0.13906733668112131 0.085382350142038071 0.13482169290027196 -0.0035659848150802471 0.0018593937188962873 -0.21354598049722076 0.14084817971000727 0.016154798577750092 -0.047779155514577745
leaf_weight=36.91338586807251 17.617751777172092 61.24266391992569 60.40372097492218 29.362920224666595 26.846097946166992 62.081601500511169 153.52612620592117 13.423048973083494 130.87472987174988 49.497493088245392 16.77881121635437 68.793125987052917 25.168216824531555 13.423048973083494 26.007157385349274
leaf_count=26 21 28 63 26 32 74 129 16 120 59 20 82 30 16 31
internal_value=0 0.00237965 -0.00303182 0.00878177 -0.0052803 0.0110179 -0.0089973 -0.00843217 0.00727712 0.00446721 -0.0126752 -0.0149949 0.000223408 -0.0055413 -0.017085
internal_weight=0 610.749 327.187 283.562 290.273 254.199 213.93 181.211 192.956 76.3436 125.002 108.223 56.209 31.0408 94.8003
internal_count=773 557 309 248 283 222 192 216 194 91 149 129 67 37 113
is_linear=0
shrinkage=0.049892


Tree=2
num_leaves=21
num_cat=0
split_feature=17 17 28 12 30 55 41 55 108 31 100 104 29 29 29 108 109 42 3 29
split_gain=7.34376 10.3638 4.30306 6.98334 3.85836 2.94334 2.93071 2.72902 3.0568 2.7414 2.70214 2.15031 2.0775 2.06298 1.78427 1.31162 0.754841 0.6933 0.426254 0.305477
threshold=53.620000839233406 51.857625961303718 0.52318620681762706 1.3970070481300356 0.55552670359611522 0.98669421672821056 200.81742095947268 -0.20454452931880948 3.0490831136703496 -0.052748767659068101 -0.86401951313018788 -0.59367042779922474 -1.3226155638694761 0.67328667640686046 -0.87356382608413685 2.203361034393311 200.40333557128909 15.560910701751711 61.720001220703132 0.72148075699806224
decision_type=2 2 2 2 2 2 2 2 2 2 2 2 2 2 2 2 2 2 2 2
left_child=1 2 3 10 14 13 -5 8 18 15 -1 -11 -10 -4 -3 17 -6 -9 19 -2
right_child=7 4 5 6 16 -7 -8 9 12 11 -12 -13 -14 -15 -16 -17 -18 -19 -20 -21
leaf_value=0.059669601750737267 -0.17773274754782586 0.039072823053159775 0.081769797003980529 -0.14295520715161963 0.23403681031342896 -0.14502029288484433 0.12138464365005462 0.046397015705567424 0.1606823965647283 0.073724574483637659 0.21000290424024784 -0.19080845755942091 -0.13121830653101013 -0.079608131298422008 0.21805046619024937 -0.057438849194299368 -0.23216573575759719 0.29000350912527778 -0.06145226231667892 -0.21371526575845709
leaf_weight=36.074445307254791 77.182531595230103 15.93987065553665 81.377234399318695 61.242661535739899 12.584108412265779 53.692199468612671 27.685040295124054 14.261989533901216 20.134573459625244 14.261989533901213 86.410879552364349 31.040800750255585 15.100930094718931 72.98782879114151 87.249820709228516 22.6513951420784 14.261989533901213 16.77881121635437 15.93987065553665 15.100930094718931
leaf_count=25 92 19 97 64 15 10 6 17 24 17 76 37 18 87 68 27 17 20 19 18
internal_value=0 0.00313791 -0.000577482 0.00428722 0.0153722 -0.00575404 -0.00592847 -0.007259 -0.0116388 -0.000336542 0.0120885 -0.00966577 0 -0.00182824 0.019714 0.00667979 0 0.0132589 -0.0157579 -0.0173204
internal_weight=0 549.506 419.47 211.413 130.036 208.057 88.9277 242.454 143.459 98.995 122.485 45.3028 35.2355 154.365 103.19 53.6922 26.8461 31.0408 108.223 92.2835
internal_count=773 484 365 171 119 194 70 289 171 118 101 54 42 184 87 64 32 37 129 110
is_linear=0
shrinkage=0.049892


Tree=3
num_leaves=22
num_cat=0
split_feature=39 19 20 17 45 15 17 107 19 70 23 29 42 17 105 101 6 12 11 102 24
split_gain=7.70069 4.60009 4.55507 4.5719 4.48604 4.25999 4.1433 3.9398 3.78542 3.54104 3.42632 3.26156 2.704 2.41806 1.72814 1.64147 1.29645 1.06515 1.03772 0.830263 0.576079
threshold=200.55000305175784 48.70000076293946 61.000000000000007 51.857625961303718 -0.36478790640830988 48.815000534057624 53.620000839233406 -3.0195683240890498 48.640001296997077 0.68731313943862926 1.1797423362731936 0.50105968117713939 16.279417991638187 53.620000839233406 3.392686247825623 1.0000000180025095e-35 2.9515297412872319 1.9694094061851504 1.348447918891907 1.1680364608764651 -2.3585873842239375
decision_type=2 2 2 2 2 2 2 2 2 2 2 2 2 2 2 2 2 2 2 2 2
left_child=1 5 3 12 6 11 -3 17 9 -7 18 15 14 -5 -2 -1 -10 -4 -6 -8 -9
right_child=2 4 7 13 10 8 19 20 16 -11 -12 -13 -14 -15 -16 -17 -18 -19 -20 -21 -22
leaf_value=0.1500890842297154 0.14382859327449901 -0.00019194035258477641 0.1894265781178511 0.20717149621563449 -0.13144816418010122 -0.13524707075439571 -0.12598255516594906 -0.020599321986112192 0.15258020973461575 0.19014155698126817 0.019267239818222096 -0.045562519922037026 -0.24582629797030148 0.022195111289867796 -0.022158778858173897 0.020577070352094419 -0.065006257445007473 -0.03646298232812193 -0.12864632237682369 0.027508852407185286 -0.22325927897424205
leaf_weight=35.235504746437073 87.249820709228516 17.617752969264984 21.812454581260681 75.504652857780457 84.733000218868256 157.72082543373108 19.295632898807529 17.617751777172089 19.295632898807529 30.201860189437866 18.456692337989807 18.456692337989807 25.168217420578003 20.134573459625244 37.752325236797333 17.617751777172089 12.584108412265776 12.584108412265776 22.6513951420784 12.584108412265776 27.685038506984711
leaf_count=24 68 3 26 54 47 188 23 21 23 36 22 22 21 24 45 21 15 15 27 15 33
internal_value=0 -0.00436569 0.00560733 0.00902222 -0.0107241 -0.000330148 0.00107356 -0.00428259 -0.00393556 -0.0068076 -0.0157143 0.0099499 0.00312067 0.0175838 0.00638854 0.0164089 0.0110448 0.00735533 -0.0191468 -0.00853689 -0.0141373
internal_weight=0 466.451 325.509 245.81 175.339 291.112 49.4975 79.6994 219.802 187.923 125.841 71.3099 150.17 95.6392 125.002 52.8533 31.8797 34.3966 107.384 31.8797 45.3028
internal_count=773 466 307 212 137 329 41 95 262 224 96 67 134 78 113 45 38 41 74 38 54
is_linear=0
shrinkage=0.049892


Tree=4
num_leaves=16
num_cat=0
split_feature=39 19 43 34 43 55 39 55 2 1 17 55 0 101 105
split_gain=7.36895 4.05352 6.75102 5.17982 3.63253 4.24778 2.77748 2.60299 2.45717 2.35469 2.1736 1.71065 2.50503 1.60304 0.902407
threshold=200.55000305175784 48.70000076293946 -0.072258476167917238 9.4147434234619158 0.15083304047584536 0.93262013792991649 197.1166687011719 -0.76785215735435475 53.835000991821296 45.949998855590827 55.208904266357429 0.63395512104034435 59.129999160766609 0.25568142533302313 3.0735597610473637
decision_type=2 2 2 2 2 2 2 2 2 2 2 2 2 2 2
left_child=1 3 -3 13 5 11 9 -8 -4 -5 -10 12 -2 -1 -13
right_child=4 2 8 6 -6 -7 7 -9 10 -11 -12 14 -14 -15 -16
leaf_value=0.14260084231314968 0.12928088875769975 0.12826952243431067 -0.12478108290624743 0.094322020420420566 -0.23356153669134014 0.1852212487963624 0.18065501780771312 -0.043289315489778865 0.05758032869487955 -0.1867406075787221 -0.12741940642552485 0.046720256645326259 -0.10860492836249498 0.045598202720820262 -0.12766618033117988
leaf_weight=27.685039699077606 145.97565758228302 38.591266989707947 72.987832367420197 13.423048973083494 24.329276859760284 78.860417485237122 68.793125987052917 100.67286729812622 25.168216824531555 66.276304304599762 38.591265797615051 20.973514020442963 40.269146919250488 14.261989533901213 15.100930094718931
leaf_count=15 174 28 33 16 20 22 82 120 30 79 46 25 48 17 18
internal_value=0 -0.00427624 -0.0102507 -0.000473192 0.00547933 0.00709519 -0.00339106 0 -0.0155343 -0.0109838 -0.00693209 0.00323677 0.00530783 0.0152293 -0.00591292
internal_weight=0 466.451 175.339 291.112 325.509 301.18 249.165 169.466 136.747 79.6994 63.7595 222.319 186.245 41.947 36.0744
internal_count=773 466 137 329 307 287 297 202 109 95 76 265 222 32 43
is_linear=0
shrinkage=0.049892


Tree=5
num_leaves=17
num_cat=0
split_feature=17 17 42 23 0 22 56 32 6 8 39 108 22 56 45 18
split_gain=8.62824 7.43453 4.29604 4.60644 4.17124 2.92785 4.23174 2.72339 2.36897 2.31859 1.83431 1.42048 1.30763 0.766826 0.65701 0.62235
threshold=53.620000839233406 51.857625961303718 11.577460289001467 0.51653054356575023 49.085000991821296 0.90448212623596203 104.50000000000001 17.965473175048832 1.1828743219375613 0.17115809768438342 202.37564086914065 2.2934714555740361 2.0314102172851567 201.50000000000003 0.25937198102474218 2.6611498594284062
decision_type=2 2 2 2 2 2 2 2 2 2 2 2 2 2 2 2
left_child=1 2 -1 4 -4 -2 8 12 11 -5 13 -7 14 -8 -3 -10
right_child=5 7 3 9 -6 6 10 -9 15 -11 -12 -13 -14 -15 -16 -17
leaf_value=0.1527625642008987 0.060580017898740693 0.1875942443719367 -0.0022298991541054203 0.27138779566155535 -0.12303910347221336 0.10730718082235013 -0.15653752699445495 -0.059603176649420796 -0.19320054159428401 0.011404130626565208 -0.0629269803544064 -0.099274977888745994 0.070992754671902886 -0.175284084537041 0.075204419032653305 -0.013602682197678236
leaf_weight=56.209020555019379 22.6513951420784 77.182533979415894 166.94917279481888 37.752325236797333 114.93486160039902 43.624909162521362 91.444521129131317 17.617751777172089 20.973514020442963 66.276304304599762 17.617751777172089 16.77881121635437 14.261989533901213 13.423048973083494 30.201860189437866 20.134573459625244
leaf_count=22 27 56 181 45 65 52 109 21 25 79 21 20 17 16 36 24
internal_value=0 0.00303809 -2.90622e-05 -0.00203204 -0.00543662 -0.00806401 -0.00989495 0.0130264 -0.00175046 0.00666666 -0.0161396 0.00392711 0.0157397 -0.018616 0.0176091 -0.0111085
internal_weight=0 581.386 442.122 385.913 281.884 246.649 223.997 139.264 101.512 104.029 122.485 60.4037 121.646 104.868 107.384 41.1081
internal_count=816 522 392 370 246 294 267 130 121 124 146 72 109 125 92 49
is_linear=0
shrinkage=0.049892


Tree=6
num_leaves=16
num_cat=0
split_feature=17 17 33 16 19 109 22 34 56 24 39 5 45 100 5
split_gain=7.02581 7.02368 4.24064 4.9046 4.95021 2.88819 3.41262 2.69977 2.53163 2.83364 1.83431 1.70821 1.6588 1.34345 0.380594
threshold=53.620000839233406 51.857625961303718 1.4710706472396853 0.87770369648933422 48.70000076293946 201.95999908447268 0.90448212623596203 15.956485271453859 104.50000000000001 -3.1881111860275264 202.37564086914065 0.24152965098619464 0.21698600798845294 -0.62588194012641896 1.3097560405731203
decision_type=2 2 2 2 2 2 2 2 2 2 2 2 2 2 2
left_child=1 2 11 -4 -5 6 -2 12 9 -8 -10 -1 -3 -9 -15
right_child=5 7 3 4 -6 -7 8 13 10 -11 -12 -13 -14 14 -16
leaf_value=-0.11241684258234715 0.05755756072496418 0.17823479567370629 0.10556301689891825 0.025330698954607139 -0.11690043871370805 0.084058052329131411 0.10195341286842903 0.12698265580558196 -0.15639672457160919 -0.11250444054319568 -0.059787428571602741 0.0013973376214626695 0.067450785420541726 0.039502557321496025 -0.056629456021853021
leaf_weight=40.269148707389832 22.6513951420784 62.920544445514679 52.853258311748505 281.04508846998215 51.175377786159515 12.584108412265776 32.718681871891022 20.973514020442963 104.86757010221481 56.20901757478714 17.617751777172089 16.77881121635437 23.490335702896118 19.295632898807529 12.584108412265776
leaf_count=21 27 39 18 326 7 15 39 25 125 67 21 20 28 23 15
internal_value=0 0.00210458 -0.000878227 0.000899554 -0.00123016 -0.00789533 -0.00929438 0.011837 -0.0113644 -0.00407698 -0.0161396 -0.013446 0.0172871 0.00177736 -0.00352111
internal_weight=0 581.386 442.122 385.074 332.22 246.649 234.064 139.264 211.413 88.9277 122.485 57.048 86.4109 52.8533 31.8797
internal_count=816 522 392 351 333 294 279 130 252 106 146 41 67 63 38
is_linear=0
shrinkage=0.049892


Tree=7
num_leaves=21
num_cat=0
split_feature=17 17 14 108 41 15 13 18 56 22 18 12 21 41 14 56 103 0 11 18
split_gain=7.40798 6.70017 6.51518 5.93563 4.4719 3.32722 2.86602 2.51434 2.37249 3.70601 2.03977 3.0076 2.7076 2.00029 1.49967 1.33557 1.12171 1.03002 0.86854 1.39389
threshold=53.620000839233406 51.857625961303718 48.70000076293946 1.7935625314712527 199.97499847412112 48.729999542236335 1.3783600926399233 3.697302103042603 104.50000000000001 0.88728606700897228 2.6611498594284062 1.5857036709785464 -0.87250924110412587 201.14166259765628 49.745000839233406 52.500000000000007 0.46376323699951177 62.154998779296882 0.89697772264480602 2.9676433801651005
decision_type=2 2 2 2 2 2 2 2 2 2 2 2 2 2 2 2 2 2 2 2
left_child=1 2 3 6 -4 -5 -1 13 10 -10 12 -12 -2 15 -6 -3 -9 -13 19 -11
right_child=8 7 4 5 14 -7 -8 16 9 18 11 17 -14 -15 -16 -17 -18 -19 -20 -21
leaf_value=0.15660032396730897 0.12036008030975723 -0.010160862584639838 -0.11136776396070837 0.084983733585924634 0.18024702334935924 -0.055764790313588039 -0.018918728900486639 0.079909098364687417 0.13999731739764568 0.24248770163748629 0.13252073813779292 0.013987960788385096 -0.10689137099987082 0.16934230842319029 -0.20672040785039544 0.17564286832645318 -0.14776555301942529 -0.1460540965801953 -0.15306169410439444 -0.071643074810753521
leaf_weight=69.632068336009979 15.93987065553665 22.6513951420784 73.826774120330811 72.98782879114151 25.168217420578003 145.97565758228302 23.490335702896118 21.812454581260681 20.134573459625244 15.100930094718931 25.168216824531555 12.584108412265779 35.235503554344177 52.853257715702057 31.040802538394928 28.523979067802429 13.423048973083494 12.584108412265776 80.538293838500977 29.362919628620148
leaf_count=56 19 27 16 87 21 174 28 26 24 18 30 15 42 27 10 34 16 15 96 35
internal_value=0 0.00203277 -0.000878227 0.00291086 -0.0102808 -0.00138747 0.0134068 0.0115396 -0.00823268 -0.012362 -0.00175046 0.00468981 -0.00898547 0.0153926 0 0.00660164 0 -0.00597678 -0.015653 -0.0075656
internal_weight=0 581.386 442.122 312.086 130.036 218.963 93.1224 139.264 246.649 145.137 101.512 50.3364 51.1754 104.029 56.209 51.1754 35.2355 25.1682 125.002 44.4638
internal_count=816 522 392 345 47 261 84 130 294 173 121 60 61 88 31 61 42 30 149 53
is_linear=0
shrinkage=0.049892


Tree=8
num_leaves=21
num_cat=0
split_feature=39 20 5 23 70 109 22 56 47 17 31 107 4 37 17 18 1 5 8 100
split_gain=6.0551 6.87313 4.63566 4.4638 3.94693 3.98258 3.27264 4.07629 4.56464 3.77928 2.43052 2.33043 1.87942 1.77948 1.50035 1.35501 1.15089 0.904359 0.695714 0.378308
threshold=200.55000305175784 60.579999923706062 3.0014326572418217 1.1797423362731936 0.65379247069358837 200.40333557128909 1.7625870108604433 72.500000000000014 0.091205820441246047 54.114347457885749 0.039783420041203506 -3.6424813270568843 51.194999694824226 211.50000000000003 49.156999588012702 4.5377464294433603 58.579999923706062 -1.3524982333183286 0.58390650153160106 -0.37400752305984492
decision_type=2 2 2 2 2 2 2 2 2 2 2 2 2 2 2 2 2 2 2 2
left_child=3 2 4 6 5 -2 7 8 -1 14 -11 15 18 -9 -8 16 -3 -13 -5 -14
right_child=1 11 -4 12 -6 -7 9 13 -10 10 -12 17 19 -15 -16 -17 -18 -19 -20 -21
leaf_value=0.0043718758452090173 0.17282649482909204 0.25936613773905948 -0.22564369721854094 0.28933578616652084 -0.16899188212692148 0.069505287330104526 0.080382132547708013 -0.18959778247254794 -0.10451261936569174 0.085790924852986394 -0.17596045279942915 -0.00056258662174744586 -0.063584501595981099 -0.074700497020922671 0.25248755317743393 -0.1204317153135646 -0.0057038960877297505 -0.1087868541193048 0.080743726663833087 0.001715117842297079
leaf_weight=143.45884066820145 113.25697809457779 12.584108412265779 22.651395738124847 22.6513951420784 12.584108412265776 88.088760673999786 22.6513951420784 119.12955963611603 48.658554315567017 20.134573459625244 19.295632898807526 12.584108412265776 13.423048973083494 24.329276263713837 21.812454581260681 12.584108412265776 14.261989533901213 41.108087480068207 19.295632898807526 23.490335702896118
leaf_count=99 99 15 18 27 15 78 27 142 31 24 23 15 16 29 26 15 17 49 23 28
internal_value=0 0.00433573 0.00893242 -0.00433846 0.0113288 0.0131665 -0.00644376 -0.0086684 -0.00352548 0.00186652 -0.00849602 -0.00677153 0.00615031 -0.0151038 0.0121188 0.00133762 0.00857624 -0.0135052 0.0133025 -0.000880444
internal_weight=0 329.704 236.581 498.331 213.93 201.346 419.47 335.576 192.117 83.8941 39.4302 93.1224 78.8604 143.459 44.4638 39.4302 26.8461 53.6922 41.947 36.9134
internal_count=816 321 210 495 192 177 401 301 130 100 47 111 94 171 53 47 32 64 50 44
is_linear=0
shrinkage=0.049892


Tree=9
num_leaves=18
num_cat=0
split_feature=20 41 38 28 33 5 115 55 29 108 24 102 28 32 28 38 13
split_gain=5.00904 4.78779 4.2602 3.80255 4.24352 3.44824 2.26657 2.12412 3.05343 2.5323 2.28638 1.84229 1.79928 1.40438 0.625967 0.544738 0.132736
threshold=61.954999923706062 199.76705169677737 187.14286041259768 0.70555266737937938 1.2563913464546206 3.0014326572418217 19.500000000000004 -0.20454452931880948 -1.073869466781616 2.3679774999618535 2.1615984439849858 2.7701827287673955 0.22221878916025165 2.8134375810623173 0.58310356736183178 204.92857360839847 2.7433234453201298
decision_type=2 2 2 2 2 2 2 2 2 2 2 2 2 2 2 2 2
left_child=1 2 -1 4 -4 6 12 8 9 16 14 -5 -3 -11 -9 -8 -2
right_child=7 5 3 11 -6 -7 15 10 -10 13 -12 -13 -14 -15 -16 -17 -18
leaf_value=-0.10815934499351178 -0.30293054736778235 0.15981857497147936 -0.10146990653118786 -0.12314910845945824 0.050620034117744676 -0.086121730771495431 0.0010388481991558821 0.14625732938703837 -0.18742005333546966 -0.015310008513955064 -0.13645132176428695 0.069437753841974301 0.077251772877380928 0.098915760215287307 0.003517978843253848 -0.041976568040926192 -0.012933438795562566
leaf_weight=26.846099734306335 15.939870655536653 46.141732037067413 16.778812408447266 76.34359222650528 187.08374685049057 27.685039103031158 12.584108412265779 14.261989533901216 65.437363743782043 18.456692337989807 15.93987065553665 15.93987065553665 223.15819275379181 27.685038506984711 12.584108412265776 12.584108412265776 12.584108412265776
leaf_count=5 19 37 2 73 196 24 15 17 78 22 19 19 212 33 15 15 15
internal_value=0 0.000926137 -0.00326449 -0.00130894 0.00230477 0.00527749 0.00697324 -0.00835544 -0.0113235 -0.00346653 0.000291122 -0.00973312 0.00839416 0.00290631 0.0100529 -0.00597678 -0.0150675
internal_weight=0 645.145 322.992 296.146 203.863 322.153 294.468 182.889 140.103 74.6657 42.786 92.2835 269.3 46.1417 26.8461 25.1682 28.524
internal_count=816 598 295 290 198 303 279 218 167 89 51 92 249 55 32 30 34
is_linear=0
shrinkage=0.049892


end of trees

feature_importances:
price_mean_60d=14
volume_mean_30d=8
return_1d=7
vol_regime_60_30=7
market_volatility_30d=7
price_min_60d=6
macd_line=6
doy_cos=6
item_age_days=6
price_std_60d=5
volume_mean_60d=5
price_lag_1d=4
price_max_20d=4
trend_divergence_30_60=4
bb_pct_b=4
volume_mean_7d=4
volume_std_60d=4
volume_zscore_30d=4
event_decay_major=4
item_return_vs_market_30d=4
price_lag_7d=3
price_std_14d=3
price_max_60d=3
price_accel_7d=3
distance_to_resistance=3
high_low_range_30d=3
volume_log_change_1d=3
market_return_1d=3
item_return_vs_market_1d=3
market_volume_mean_30d=3
return_3d=2
return_14d=2
price_std_7d=2
price_std_20d=2
price_min_20d=2
macd_signal=2
macd_histogram=2
distance_to_support=2
volume_price_conf_1d=2
market_return_7d=2
market_return_14d=2
item_return_vs_market_14d=2
price_lag_14d=1
price_lag_30d=1
price_lag_60d=1
price_std_30d=1
price_zscore_30d=1
volume_lag_7d=1
item_return_vs_market_7d=1
market_regime_duration_days=1

parameters:
[boosting: gbdt]
[objective: quantile]
[metric: quantile]
[tree_learner: serial]
[device_type: cpu]
[data_sample_strategy: bagging]
[data: ]
[valid: ]
[num_iterations: 1000]
[learning_rate: 0.049892]
[num_leaves: 39]
[num_threads: -1]
[seed: 73]
[deterministic: 0]
[force_col_wise: 0]
[force_row_wise: 0]
[histogram_pool_size: -1]
[max_depth: 5]
[min_data_in_leaf: 15]
[min_sum_hessian_in_leaf: 0.001]
[bagging_fraction: 0.7]
[pos_bagging_fraction: 1]
[neg_bagging_fraction: 1]
[bagging_freq: 5]
[bagging_seed: 5921]
[feature_fraction: 0.7]
[feature_fraction_bynode: 1]
[feature_fraction_seed: 22355]
[extra_trees: 0]
[extra_seed: 3536]
[early_stopping_round: 0]
[early_stopping_min_delta: 0]
[first_metric_only: 0]
[max_delta_step: 0]
[lambda_l1: 1]
[lambda_l2: 1.5]
[linear_lambda: 0]
[min_gain_to_split: 0.1]
[drop_rate: 0.1]
[max_drop: 50]
[skip_drop: 0.5]
[xgboost_dart_mode: 0]
[uniform_drop: 0]
[drop_seed: 14602]
[top_rate: 0.2]
[other_rate: 0.1]
[min_data_per_group: 100]
[max_cat_threshold: 32]
[cat_l2: 10]
[cat_smooth: 10]
[max_cat_to_onehot: 4]
[top_k: 20]
[monotone_constraints: ]
[monotone_constraints_method: basic]
[monotone_penalty: 0]
[feature_contri: ]
[forcedsplits_filename: ]
[refit_decay_rate: 0.9]
[cegb_tradeoff: 1]
[cegb_penalty_split: 0]
[cegb_penalty_feature_lazy: ]
[cegb_penalty_feature_coupled: ]
[path_smooth: 0]
[interaction_constraints: ]
[verbosity: -1]
[saved_feature_importance_type: 0]
[use_quantized_grad: 0]
[num_grad_quant_bins: 4]
[quant_train_renew_leaf: 0]
[stochastic_rounding: 1]
[linear_tree: 0]
[max_bin: 63]
[max_bin_by_feature: ]
[min_data_in_bin: 3]
[bin_construct_sample_cnt: 200000]
[data_random_seed: 277]
[is_enable_sparse: 1]
[enable_bundle: 1]
[use_missing: 1]
[zero_as_missing: 0]
[feature_pre_filter: 0]
[pre_partition: 0]
[two_round: 0]
[header: 0]
[label_column: ]
[weight_column: ]
[group_column: ]
[ignore_column: ]
[categorical_feature: ]
[forcedbins_filename: ]
[precise_float_parser: 0]
[parser_config_file: ]
[objective_seed: 8155]
[num_class: 1]
[is_unbalance: 0]
[scale_pos_weight: 1]
[sigmoid: 1]
[boost_from_average: 1]
[reg_sqrt: 0]
[alpha: 0.5]
[fair_c: 1]
[poisson_max_delta_step: 0.7]
[tweedie_variance_power: 1.5]
[lambdarank_truncation_level: 30]
[lambdarank_norm: 1]
[label_gain: ]
[lambdarank_position_bias_regularization: 0]
[eval_at: ]
[multi_error_top_k: 1]
[auc_mu_weights: ]
[num_machines: 1]
[local_listen_port: 12400]
[time_out: 120]
[machine_list_filename: ]
[machines: ]
[gpu_platform_id: -1]
[gpu_device_id: -1]
[gpu_use_dp: 0]
[num_gpu: 1]

end of parameters

pandas_categorical:[]
