tree
version=v4
num_class=1
num_tree_per_iteration=1
label_index=0
max_feature_idx=121
objective=quantile
feature_names=price_lag_1d price_lag_7d price_lag_14d price_lag_30d price_lag_60d return_1d return_3d return_7d return_14d return_30d return_60d price_std_7d price_std_14d price_std_20d price_min_20d price_max_20d price_std_30d price_mean_60d price_std_60d price_min_60d price_max_60d price_zscore_30d vol_regime_60_30 trend_divergence_30_60 price_accel_7d price_tier autocorr_1d autocorr_7d bb_pct_b macd_line macd_signal macd_histogram distance_to_support distance_to_resistance high_low_range_30d volume_missing volume_lag_1d volume_lag_7d volume_mean_7d volume_mean_30d volume_std_30d volume_mean_60d volume_std_60d volume_log_change_1d volume_log_change_7d volume_zscore_30d volume_price_conf_7d volume_price_conf_1d rsi_missing macd_missing is_weekend dow_sin dow_cos month_sin month_cos doy_cos item_age_days is_stattrak is_souvenir is_knife is_glove is_sticker is_case is_capsule is_agent is_music_kit is_graffiti is_charm is_patch quality_rank event_decay_major events_next_30d_major event_density_30d_major event_density_90d_major event_decay_operation events_next_30d_operation event_density_30d_operation event_density_90d_operation event_decay_case_drop events_next_30d_case_drop event_density_30d_case_drop event_density_90d_case_drop event_decay_update events_next_30d_update event_density_30d_update event_density_90d_update event_decay_game_update events_next_30d_game_update event_density_30d_game_update event_density_90d_game_update event_decay_major_weighted event_decay_operation_weighted event_decay_case_drop_weighted event_decay_update_weighted event_decay_game_update_weighted social_mentions_1d social_mentions_7d social_mention_velocity social_sentiment_7d social_score_7d market_return_1d item_return_vs_market_1d market_return_7d item_return_vs_market_7d market_return_14d item_return_vs_market_14d market_return_30d item_return_vs_market_30d market_volatility_30d market_volume_mean_30d market_regime_crash market_regime_bear market_regime_range market_regime_bull market_regime_mania market_regime_duration_days market_return_30d_percentile supply_listings_log supply_listings_zscore supply_change_7d supply_skinport_qty_log supply_to_volume_ratio
feature_infos=[39.849998474121094:66.220001220703125] [39.849998474121094:66.220001220703125] [39.790000915527344:66.220001220703125] [40.729999542236328:66.569999694824219] [39.849998474121094:66.569999694824219] [-6.0415120124816895:5.3940391540527344] [-10.281366348266602:9.4368009567260742] [-17.372880935668945:14.35562801361084] [-21.531669616699219:24.511468887329102] [-24.868003845214844:39.543319702148438] [-29.951061248779297:26.519706726074219] [0.042426407337188721:3.2751080989837646] [0.042426407337188721:4.732576847076416] [0.042426407337188721:5.307133674621582] [39.790000915527344:61.619998931884766] [43.779998779296875:66.220001220703125] [0.042426407337188721:5.4625492095947266] [43.426834106445312:62.902332305908203] [0.042426407337188721:6.0651006698608398] [39.790000915527344:58.759998321533203] [47.880001068115234:66.569999694824219] [-3.4853887557983398:3.0036964416503906] [0.76277375221252441:3.9533336162567139] [-39.368843078613281:101.21376037597656] [-18.979106903076172:18.705087661743164] [3:3] [-16.605304718017578:24.183246612548828] [-78.099403381347656:134.03640747070312] [-0.21316516399383545:1.1863726377487183] [-3.1019792556762695:3.1830518245697021] [-2.2672655582427979:2.7412140369415283] [-1.2678171396255493:0.94621419906616211] [0.018351990729570389:39.335178375244141] [0.054525628685951233:31.854576110839844] [0.12307692319154739:39.335178375244141] none [163:245] [161:245] [176:219] [176:219] [4.0414519309997559:20.036775588989258] [176:219] [4.0414519309997559:19.928762435913086] [-0.28488487005233765:0.30276116728782654] [-0.26826399564743042:0.40341803431510925] [-2.4042847156524658:2.6703879833221436] [-17.372880935668945:14.35562801361084] [-6.0415120124816895:5.3940391540527344] [0:1] [0:1] [0:1] [-0.97492790222167969:0.97492790222167969] [-0.90096884965896606:1] [-0.86602538824081421:1] [-1:0.86602538824081421] [-1:0.99985265731811523] [0:215] none none none none none none none none none none none none none [0:0.96721607446670532] [0:1] [0:1] [0:1] none none none none none none none none none none none none none none none none none none none none none none none none none none [-1.9730401039123535:1.6730349063873291] [-4.7729063034057617:4.9617133140563965] [-4.9728598594665527:5.599886417388916] [-15.224418640136719:14.81980037689209] [-7.3588790893554688:5.6792440414428711] [-21.058666229248047:25.597810745239258] [-2.9261324405670166:2.6404297351837158] [-23.844234466552734:40.982707977294922] [0.43699198961257935:3.9010679721832275] [195.10000610351562:203.39999389648438] none none [0:1] none none [1:30] [0.040816325694322586:0.75268816947937012] none none none none none
tree_sizes=943 1063 858 1280 1063 1069 1065 1066 966 1064 1063 963 858 1069 1174 1284 1072 1279 1259 1072 1162 1061 1179 1182 1286 1162 1069 1178 1290 1178 1180 1282 1071 1071 1077 1183 962 1075 1179 868 867 980 1078 863 977 969 1059 977 1293 970 874 1275 978 1284 1075 1178 1084 1183 1085 1075 1289 1187 1184 1188 1187 765 1294 969 1081 1288 1182 1606 1375 1072 1081 867 1500 1398 1073 1090 973

Tree=0
num_leaves=8
num_cat=0
split_feature=21 14 70 101 14 14 103
split_gain=5.24531 6.62929 2.17166 1.92727 0.94249 1.16916 0.687576
threshold=1.0792645812034609 50.264999389648445 0.74704343080520641 2.0943146944046025 54.299999237060554 56.239999771118171 7.3820533752441415
decision_type=2 2 2 2 2 2 2
left_child=2 6 4 -3 -1 -6 -2
right_child=1 3 -4 -5 5 -7 -8
leaf_value=-16.092844705581665 -16.023718872070312 -16.296381683349608 -16.3521409034729 -16.309654140472411 -16.282720298767089 -16.023450822830199 -16.298495521545409
leaf_weight=245.98171520233154 35.554879188537598 17.414634704589844 20.317073822021484 21.042683601379395 15.237805366516112 18.140244483947754 13.786585807800291
leaf_count=222 49 24 28 11 21 25 19
internal_value=-16.1634 -16.1704 -16.1621 -16.1797 -16.1614 -16.1658 -16.1634
internal_weight=0 87.7988 299.677 38.4573 279.36 33.378 49.3415
internal_count=399 103 296 35 268 46 68
is_linear=0
shrinkage=1


Tree=1
num_leaves=9
num_cat=0
split_feature=21 109 9 14 15 23 20 1
split_gain=5.24531 6.89683 2.36823 2.20974 1.90053 2.38051 0.55467 0.217517
threshold=1.0792645812034609 198.3846130371094 15.675074100494387 54.299999237060554 63.154998779296882 0.054408883675932891 65.079998016357436 55.034999847412116
decision_type=2 2 2 2 2 2 2 2
left_child=3 -2 7 6 5 -5 -1 -3
right_child=1 2 -4 4 -6 -7 -8 -9
leaf_value=0.070254327678680437 -0.10172287273406987 0.2062516033172607 -0.18026769905090337 -0.013292091751098667 0.24846648130416865 -0.19311108112335204 -0.085542511940002439 -0.11461559143066409
leaf_weight=245.25610542297363 25.396342277526855 39.182928085327148 12.335366249084471 10.884146690368654 15.237805366516112 10.884146690368651 17.414634704589844 10.884146690368651
leaf_count=221 17 54 17 15 21 15 24 15
internal_value=0 -0.00695484 -0.00128422 0.00134963 -0.00534596 -0.011057 0.00235829 0.00138225
internal_weight=0 87.7988 62.4024 299.677 37.0061 21.7683 262.671 50.0671
internal_count=399 103 86 296 51 30 245 69
is_linear=0
shrinkage=0.03


Tree=2
num_leaves=7
num_cat=0
split_feature=21 109 10 14 14 20
split_gain=5.33518 6.89683 2.9479 1.89813 2.09014 0.55467
threshold=1.0792645812034609 198.3846130371094 7.3642132282257089 54.299999237060554 56.474998474121101 65.079998016357436
decision_type=2 2 2 2 2 2
left_child=3 -2 -3 5 -5 -1
right_child=1 2 -4 4 -6 -7
leaf_value=0.068146697848320059 -0.098671186552047804 0.15094180752182004 -0.14164520923233032 -0.16261455445289616 0.14158906788825984 -0.082976236581802393
leaf_weight=245.25610542297363 25.396342277526855 44.26219654083252 18.140244483947754 19.591464042663574 17.414634704589844 17.414634704589844
leaf_count=221 17 61 25 27 24 24
internal_value=0 -0.00695484 -0.00128422 0.00142215 -0.00476557 0.00235829
internal_weight=0 87.7988 62.4024 299.677 37.0061 262.671
internal_count=399 103 86 296 51 245
is_linear=0
shrinkage=0.03


Tree=3
num_leaves=11
num_cat=0
split_feature=47 15 42 105 6 100 115 42 116 6
split_gain=3.90072 2.77912 2.1506 2.98973 1.81831 3.21386 0.436806 0.391335 0.253114 0.169191
threshold=3.0324178934097294 59.679998397827156 15.548402309417726 -2.3277487754821773 3.6967729330062871 -0.24604891985654828 3.5000000000000004 13.433331966400148 0.42680864036083227 1.039129436016083
decision_type=2 2 2 2 2 2 2 2 2 2
left_child=1 4 3 7 8 -6 -5 -3 -1 -10
right_child=-2 2 -4 6 5 -7 -8 -9 9 -11
leaf_value=0.054487173164091157 -0.10522520452154641 0.093758817885875659 0.13078070416362753 -0.2025363907895279 -0.095711050955486418 0.12481992536647794 -0.13376158775379188 -0.17797808031320569 0.33660374840518004 -0.056992445723247652
leaf_weight=243.0792760848999 15.963415145874022 13.060976028442385 20.317073822021484 10.884146690368654 15.963415145874022 22.493903160095215 10.884146690368651 10.884146690368651 12.335366249084474 11.609756469726561
leaf_count=218 13 18 28 15 13 31 15 15 17 16
internal_value=0 0.000205442 -0.0053041 -0.00895488 0.00145208 -0.00447629 -0.0169222 -0.000900224 0.00236874 -9.72808e-06
internal_weight=0 371.512 66.0305 45.7134 305.482 38.4573 21.7683 23.9451 267.024 23.9451
internal_count=399 386 91 63 295 44 30 33 251 33
is_linear=0
shrinkage=0.03


Tree=4
num_leaves=9
num_cat=0
split_feature=101 34 14 42 13 13 21 18
split_gain=5.3272 5.18271 2.67245 2.09549 2.61686 1.17145 0.332375 0.218532
threshold=2.0943146944046025 7.7869880199432382 52.260000228881843 15.387777328491213 1.5946024656295779 1.838013827800751 1.8060017824172976 4.4735848903656015
decision_type=2 2 2 2 2 2 2 2
left_child=2 -2 6 4 -4 -3 7 -1
right_child=1 5 3 -5 -6 -7 -8 -9
leaf_value=0.056286729645804168 -0.092839719426821815 0.068750992593194546 0.0047625133664280029 0.12685728303871871 -0.17263873790380951 -0.13179681324718906 -0.05128024003936673 -0.017582527369975124
leaf_weight=246.70732498168945 15.237805366516112 21.768293380737305 15.237805366516112 20.317073822021484 20.317073822021484 14.512195587158201 16.689024925231934 16.689024925231934
leaf_count=223 3 30 21 28 28 20 23 23
internal_value=0 -0.00929469 0.00101 -0.00486977 -0.00930441 -0.00255139 0.00224296 0.00252504
internal_weight=0 51.5183 335.957 55.872 35.5549 36.2805 280.085 263.396
internal_count=399 53 346 77 49 50 269 246
is_linear=0
shrinkage=0.03


Tree=5
num_leaves=9
num_cat=0
split_feature=101 56 2 42 31 17 32 101
split_gain=4.57644 6.52267 2.63794 2.03796 2.76018 0.971188 0.652374 0.617124
threshold=2.0943146944046025 6.5000000000000009 55.760000228881843 15.548402309417726 -0.37057827413082117 52.616750717163093 15.305184841156008 -0.13803664594888684
decision_type=2 2 2 2 2 2 2 2
left_child=2 -2 6 4 -4 -3 -1 -6
right_child=1 5 3 -5 7 -7 -8 -9
leaf_value=0.10879425660164491 -0.090054527844017115 0.20921649883126203 0.016583214998588537 0.17169199196952759 -0.17192080750955407 -0.16414352701910409 -0.049741832838185687 -0.12989161552217102
leaf_weight=299.67683887481689 14.512195587158201 22.493903160095215 17.414634704589844 22.493903160095215 10.884146690368654 12.335366249084471 21.042683601379395 11.609756469726561
leaf_count=242 2 31 24 31 15 17 29 16
internal_value=0 -0.00852141 0.00114118 -0.0043988 -0.00851743 -0.000930963 0.00227096 -0.0153469
internal_weight=0 49.3415 383.122 62.4024 39.9085 34.8293 320.72 22.4939
internal_count=407 50 357 86 55 48 271 31
is_linear=0
shrinkage=0.03


Tree=6
num_leaves=9
num_cat=0
split_feature=14 19 22 4 104 34 22 4
split_gain=3.705 4.87913 3.9978 0.768538 0.573758 0.541983 0.856578 1.21191
threshold=50.264999389648445 50.430000305175788 1.3297716379165652 58.764999389648445 -1.1184611320495603 16.996805191040043 1.1518260240554812 53.68499946594239
decision_type=2 2 2 2 2 2 2 2
left_child=5 2 -2 -3 -4 -1 -7 -8
right_child=1 3 4 -5 -6 6 7 -9
leaf_value=0.29321355024582568 -0.091814837438567498 0.024125485437409055 -0.10291700504972866 -0.16676318328426745 0.017242007272736205 0.17487644468059571 -0.05474182280268753 0.055634611071410711
leaf_weight=216.95732402801514 35.554879188537598 64.579270362854004 10.884146690368651 15.237805366516112 23.219512939453125 38.457318305969238 15.237805366516115 12.335366249084471
leaf_count=182 22 44 15 21 32 53 21 17
internal_value=0 -0.00373183 -0.00952877 0.00116839 -0.00164247 0.00209714 -6.90129e-05 -0.00427324
internal_weight=0 149.476 69.6585 79.8171 34.1037 282.988 66.0305 27.5732
internal_count=407 134 69 65 47 273 91 38
is_linear=0
shrinkage=0.03


Tree=7
num_leaves=9
num_cat=0
split_feature=101 55 14 42 13 17 34 6
split_gain=5.05579 5.56953 2.35368 3.03156 1.41775 0.809026 0.526215 1.29966
threshold=2.0943146944046025 0.98669421672821056 52.260000228881843 14.758325576782228 1.6196455955505373 52.616750717163093 16.996805191040043 1.557066082954407
decision_type=2 2 2 2 2 2 2 2
left_child=2 5 6 4 -4 -2 -1 -8
right_child=1 -3 3 -5 -6 -7 7 -9
leaf_value=0.20382293854981426 0.20458225855040482 -0.084598446885539608 -0.047641747956431467 0.11579505961622302 -0.16176028778573942 -0.15646477608537401 0.050993307786621749 -0.050609755481143028
leaf_weight=268.47561836242676 21.768293380737305 15.237805366516112 10.884146690368654 30.475610733032227 15.963415145874022 12.335366249084471 43.536586761474609 13.786585807800291
leaf_count=199 30 3 15 42 22 17 60 19
internal_value=0 -0.00895816 0.00119792 -0.00429579 -0.0116301 -0.00164247 0.00221559 -0.000154698
internal_weight=0 49.3415 383.122 57.3232 26.8476 34.1037 325.799 57.3232
internal_count=407 50 357 79 37 47 278 79
is_linear=0
shrinkage=0.03


Tree=8
num_leaves=8
num_cat=0
split_feature=101 56 10 16 70 17 56
split_gain=5.1141 6.15983 2.46495 2.43961 1.15796 0.823739 0.366376
threshold=2.0943146944046025 6.5000000000000009 12.044538974761965 1.8272852897644045 0.83948618173599254 52.616750717163093 203.50000000000003
decision_type=2 2 2 2 2 2 2
left_child=2 -2 4 -4 6 -3 -1
right_child=1 5 3 -5 -6 -7 -8
leaf_value=0.090619334239726373 -0.082060493478973415 0.19844479079389263 0.00028983413609678265 -0.12508287483599498 -0.15690747915216724 -0.15177083280281276 -0.038656312785801263
leaf_weight=322.17074203491211 14.512195587158201 22.493903160095215 13.060976028442385 11.609756469726561 20.317073822021484 12.335366249084471 15.963415145874022
leaf_count=273 2 31 18 16 28 17 22
internal_value=0 -0.00895816 0.00125467 -0.0077064 0.00192308 -0.00154712 0.00237273
internal_weight=0 49.3415 383.122 24.6707 358.451 34.8293 338.134
internal_count=407 50 357 34 323 48 295
is_linear=0
shrinkage=0.03


Tree=9
num_leaves=9
num_cat=0
split_feature=21 55 1 20 2 39 6 14
split_gain=4.42676 7.48881 2.25098 1.40604 0.99594 0.709738 0.797032 0.526238
threshold=1.0263946652412417 0.99550911784172069 56.159999847412116 61.655000686645515 43.18499946594239 200.55000305175784 1.039129436016083 50.120000839233406
decision_type=2 2 2 2 2 2 2 2
left_child=3 2 4 -1 -2 6 7 -5
right_child=1 -3 -4 5 -6 -7 -8 -9
leaf_value=0.21901074564569717 -0.047931773433134699 -0.079598678674604212 -0.12133038859091509 0.014465284461228158 0.16597211477457918 0.096126828321475302 -0.0912242000195847 -0.09463504252784638
leaf_weight=258.31708145141602 10.884146690368651 14.512195587158201 18.865854263305664 16.689024925231934 56.597562789916992 21.768293380737305 10.884146690368651 23.945122718811035
leaf_count=185 15 2 26 23 78 30 15 33
internal_value=0 -0.00545732 -0.00185754 0.00170493 0.000515831 -0.00183233 -0.00385453 -0.00143463
internal_weight=0 100.86 86.3476 331.604 67.4817 73.2866 51.5183 40.6341
internal_count=407 121 119 286 93 101 71 56
is_linear=0
shrinkage=0.03


Tree=10
num_leaves=9
num_cat=0
split_feature=21 55 10 19 2 10 12 4
split_gain=8.60422 9.63961 4.40917 1.02004 0.904162 0.627514 0.464627 0.117009
threshold=1.0263946652412417 0.99550911784172069 11.220575332641603 52.29499816894532 44.885000228881843 6.5328664779663095 1.4912226200103762 55.614999771118171
decision_type=2 2 2 2 2 2 2 2
left_child=3 2 4 5 -2 -1 -7 -6
right_child=1 -3 -4 -5 7 6 -8 -9
leaf_value=0.22973892195719461 -0.046493820230140662 -0.14638395065037868 -0.16277444793705764 -0.14936120350176679 0.1899164858459238 0.023109086988020167 -0.047083091701805274 -0.025407364007794298
leaf_weight=269.20122814178467 10.884146690368651 21.768293380737305 18.140244483947754 16.689024925231934 44.98780632019043 17.414634704589847 12.335366249084471 10.884146690368651
leaf_count=236 15 3 25 23 62 24 17 15
internal_value=0 -0.00804615 -0.00321464 0.00177725 0.000165367 0.00221796 -0.00159101 0.00193499
internal_weight=0 106.665 84.8963 315.64 66.7561 298.951 29.75 55.872
internal_count=420 120 117 300 92 277 41 77
is_linear=0
shrinkage=0.03


Tree=11
num_leaves=8
num_cat=0
split_feature=21 55 10 70 2 10 4
split_gain=8.60422 9.63961 4.40917 1.76881 0.904162 0.573759 0.117009
threshold=1.0263946652412417 0.99550911784172069 11.220575332641603 0.85359486937522899 44.885000228881843 14.138887882232668 55.614999771118171
decision_type=2 2 2 2 2 2 2
left_child=3 2 4 5 -2 -1 -6
right_child=1 -3 -4 -5 6 -7 -8
leaf_value=0.18775233965441857 -0.045099005623236474 -0.14199243213086732 -0.15789121449894594 -0.14488036739671381 0.18421899127054608 -0.034437500485094114 -0.024645143087560478
leaf_weight=281.53659439086914 10.884146690368651 21.768293380737305 18.140244483947754 17.414634704589844 44.98780632019043 16.689024925231934 10.884146690368651
leaf_count=253 15 3 25 24 62 23 15
internal_value=0 -0.00804615 -0.00321464 0.00177725 0.000165367 0.0023618 0.00193499
internal_weight=0 106.665 84.8963 315.64 66.7561 298.226 55.872
internal_count=420 120 117 300 92 276 77
is_linear=0
shrinkage=0.03


Tree=12
num_leaves=7
num_cat=0
split_feature=14 14 70 10 103 23
split_gain=7.20626 13.4243 3.60984 2.43599 1.62339 0.512307
threshold=50.264999389648445 50.725000381469734 0.3529763668775559 8.3247065544128436 7.3820533752441415 -1.6077334284782407
decision_type=2 2 2 2 2 2
left_child=4 -2 3 -3 5 -1
right_child=1 2 -4 -5 -6 -7
leaf_value=-0.041324187928849766 -0.13773265916694127 0.192502709006797 -0.14053395637481245 -0.097624229096278436 -0.12659924445596057 0.236626717890078
leaf_weight=10.884146690368651 34.103659629821777 81.993905067443848 15.963415145874022 21.042683601379395 18.140244483947754 240.17683696746826
leaf_count=15 11 77 22 29 25 241
internal_value=0 -0.00654889 -0.00162323 0.000317668 0.00156671 0.00224215
internal_weight=0 153.104 119 103.037 269.201 251.061
internal_count=420 139 128 106 281 256
is_linear=0
shrinkage=0.03


Tree=13
num_leaves=9
num_cat=0
split_feature=14 14 56 10 12 2 101 44
split_gain=6.68285 13.6635 3.56649 1.57305 1.10378 0.465191 0.492163 0.14186
threshold=50.264999389648445 50.725000381469734 122.50000000000001 8.3247065544128436 2.4824010133743291 42.61000061035157 -2.3738565444946285 -0.16483309119939801
decision_type=2 2 2 2 2 2 2 2
left_child=4 -2 3 -3 5 -1 -7 -8
right_child=1 2 -4 -5 -6 6 7 -9
leaf_value=-0.029512908089953098 -0.13360067939193299 0.18672762773659307 -0.15939196706435466 -0.063894351650469042 -0.12280126712228177 -0.009161590131608683 -0.0027157521124367176 0.22678576747365234
leaf_weight=10.884146690368651 34.103659629821777 79.817075729370117 21.042683601379395 18.140244483947754 18.865854263305664 11.609756469726561 12.335366249084471 215.50610446929932
leaf_count=15 11 74 29 25 26 16 17 207
internal_value=0 -0.00640717 -0.00144107 0.000842571 0.00140528 0.0019796 0.0022962 0.00264174
internal_weight=0 153.104 119 97.9573 269.201 250.335 239.451 227.841
internal_count=420 139 128 99 281 255 240 224
is_linear=0
shrinkage=0.03


Tree=14
num_leaves=10
num_cat=0
split_feature=21 55 10 17 20 34 14 10 101
split_gain=8.36938 9.40715 4.40425 1.78292 1.54951 1.61848 1.04826 0.306457 0.291308
threshold=1.0263946652412417 0.99550911784172069 7.3642132282257089 52.408750534057624 65.079998016357436 13.140907287597658 44.715000152587898 13.601734161376955 -1.9626049399375913
decision_type=2 2 2 2 2 2 2 2 2
left_child=4 2 6 -4 7 -6 -2 8 -1
right_child=1 -3 3 -5 5 -7 -8 -9 -10
leaf_value=-0.00025586588652274142 -0.03626402010719218 -0.12959265901017503 -0.14567246271663034 -0.1249600485847457 0.18112579890449529 -0.13153617867163739 0.1104758452396073 -0.028558818048138868 0.24932327564117882
leaf_weight=21.768293380737305 10.884146690368651 21.768293380737305 12.335366249084474 11.609756469726561 14.512195587158205 17.414634704589844 50.067074775695801 17.414634704589844 244.53049564361572
leaf_count=30 15 3 17 16 20 24 69 24 202
internal_value=0 -0.00824927 -0.00346955 -0.0142577 0.00143297 -0.00463934 0.000606073 0.00217603 0.00244861
internal_weight=0 106.665 84.8963 23.9451 315.64 31.9268 60.9512 283.713 266.299
internal_count=420 120 117 33 300 44 84 256 232
is_linear=0
shrinkage=0.03


Tree=15
num_leaves=11
num_cat=0
split_feature=28 55 55 20 70 54 14 108 39 40
split_gain=6.25304 10.2728 2.57612 1.67098 1.55075 1.07913 0.623218 0.759387 0.147543 0.105605
threshold=0.73510283231735241 0.99550911784172069 -0.49252992868423456 64.224998474121108 0.73469588160514843 -0.93301269412040699 53.914999008178718 1.9495233297348025 196.44999694824222 13.458124160766603
decision_type=2 2 2 2 2 2 2 2 2 2
left_child=3 2 5 6 -5 -2 8 -8 -1 -4
right_child=1 -3 9 4 -6 -7 7 -9 -10 -11
leaf_value=-0.00024818990992706344 -0.024843548600756476 -0.12570487923986978 -0.01531142991498882 0.10716156988241907 -0.15132361606140754 -0.1212112471272033 0.073179116721848694 -0.038172765263597058 0.28129501956033603 0.13679153611969166
leaf_weight=21.042683601379395 10.884146690368652 21.768293380737305 10.884146690368651 13.786585807800295 13.786585807800291 12.335366249084473 13.060976028442385 12.335366249084471 219.13415336608887 36.280488967895508
leaf_count=20 15 3 15 19 19 17 18 17 203 50
internal_value=0 -0.00789674 -0.00203019 0.0010164 -0.00582407 -0.0101969 0.0017926 -0.00236284 0.00229832 0.00174044
internal_weight=0 92.1524 70.3841 293.146 27.5732 23.2195 265.573 25.3963 240.177 47.1646
internal_count=396 100 97 296 38 32 258 35 223 65
is_linear=0
shrinkage=0.03


Tree=16
num_leaves=9
num_cat=0
split_feature=11 55 55 0 1 2 41 22
split_gain=3.27908 8.38297 2.02661 1.55516 1.50292 0.881444 0.302526 0.180149
threshold=1.1347361803054812 0.98669421672821056 -0.5221133530139922 50.164999008178718 56.449998855590827 58.210000991821296 197.47016906738284 1.9253734946250918
decision_type=2 2 2 2 2 2 2 2
left_child=4 2 3 -2 6 -6 -1 -4
right_child=1 -3 7 -5 5 -7 -8 -9
leaf_value=-0.00024074421262925582 -0.0024366652477184302 -0.1219337328626737 0.16074514233193654 -0.123050384829646 -0.037027582305689179 0.014143860914150217 0.10734040790765238 -0.079194351331635701
leaf_weight=30.475610733032227 16.689024925231937 19.591464042663574 60.225611686706543 15.237805366516112 18.865854263305664 13.786585807800291 197.36585998535156 13.060976028442381
leaf_count=24 23 9 83 21 26 19 173 18
internal_value=0 -0.00453606 -0.000990656 -0.00732456 0.00135208 -0.00447214 0.00226041 0.00159631
internal_weight=0 124.805 105.213 31.9268 260.494 32.6524 227.841 73.2866
internal_count=396 154 145 44 242 45 197 101
is_linear=0
shrinkage=0.03


Tree=17
num_leaves=11
num_cat=0
split_feature=21 55 56 70 19 1 13 30 109 101
split_gain=6.44429 10.0913 2.37501 1.67676 1.69929 1.4491 0.450322 0.724504 1.13199 0.101818
threshold=1.0263946652412417 0.99550911784172069 176.50000000000003 0.73469588160514843 47.344999313354499 57.465000152587898 1.7301921844482424 -0.16354646533727643 199.92666625976565 -1.8141039609909055
decision_type=2 2 2 2 2 2 2 2 2 2
left_child=3 2 5 6 -5 -2 9 -8 -9 -1
right_child=1 -3 -4 4 -6 -7 7 8 -10 -11
leaf_value=0.029037531399026761 0.15210463319795331 -0.11827572087679353 -0.1103102372242024 0.017650593179064627 -0.14378323859653672 -0.078837092795211519 0.22661631534130777 -0.029809908784863628 0.22177504874095677 0.25017420608632729
leaf_weight=28.298781394958496 47.89024543762207 21.768293380737305 15.237805366516112 12.335366249084474 10.884146690368651 10.884146690368651 37.006098747253418 19.591464042663574 15.237805366516112 166.16463947296143
leaf_count=30 66 3 21 17 15 15 51 27 21 130
internal_value=0 -0.00793832 -0.00236956 0.00099159 -0.00652596 0.00015091 0.0017143 -0.000123662 -0.00339558 0.00246876
internal_weight=0 95.7805 74.0122 289.518 23.2195 58.7744 266.299 71.8354 34.8293 194.463
internal_count=396 105 102 291 32 81 259 99 48 160
is_linear=0
shrinkage=0.03


Tree=18
num_leaves=11
num_cat=0
split_feature=6 41 20 115 1 41 10 13 20 102
split_gain=5.31493 5.30617 1.24278 1.17958 0.417434 0.288425 0.257643 0.216395 0.466445 0.208735
threshold=3.3107038736343388 198.79167175292972 62.909999847412116 2.5000000000000004 53.994998931884773 198.3619079589844 0.44211569428443914 1.3743632435798647 53.049999237060554 1.224575996398926
decision_type=2 2 2 2 2 2 2 2 2 2
left_child=2 -2 5 -4 -3 7 -5 -1 -9 -7
right_child=1 4 3 6 -6 9 -8 8 -10 -11
leaf_value=0.44442628242323851 -0.11472744925048967 0.053186248335408678 -0.087631063198245582 -0.1150453761268605 -0.043645561659841722 0.1878878525401719 0.040380682062724167 -0.014531030993965412 0.099261318160235493 -0.0025285144619191335
leaf_weight=23.219512939453125 26.121952056884766 23.945122718811035 15.237805366516112 10.884146690368654 10.884146690368651 202.44512844085693 19.591464042663574 12.335366249084471 23.945122718811035 16.689024925231934
leaf_count=14 18 33 21 15 15 180 27 17 33 23
internal_value=0 -0.00847013 0.00113992 -0.00330241 -0.000314808 0.00192708 0 0 -0.00136771 0.00242932
internal_weight=0 60.9512 324.348 45.7134 34.8293 278.634 30.4756 59.5 36.2805 219.134
internal_count=396 66 330 63 48 267 42 64 50 203
is_linear=0
shrinkage=0.03


Tree=19
num_leaves=9
num_cat=0
split_feature=21 32 10 15 15 70 10 10
split_gain=6.87494 8.89002 3.51823 0.843073 1.32225 1.53496 0.428109 0.41316
threshold=1.0263946652412417 5.5552513599395761 7.3642132282257089 52.659999847412116 53.049999237060554 0.73469588160514843 12.044538974761965 -0.88505175709724415
decision_type=2 2 2 2 2 2 2 2
left_child=3 -2 7 -1 -5 6 -6 -3
right_child=1 2 -4 4 5 -7 -8 -9
leaf_value=0.31955329296722901 -0.11128562577297493 -0.022116443206127306 -0.10355910662996162 -0.089276877538188137 0.25649409497750136 -0.13601838015483475 -0.024777522262870198 0.16508803423255636
leaf_weight=147.29878520965576 23.219512939453125 10.884146690368651 18.140244483947754 12.335366249084471 97.957320213317871 13.060976028442381 18.865854263305664 43.536586761474609
leaf_count=122 5 15 25 17 108 18 26 60
internal_value=0 -0.00793832 -0.00247621 0.00129182 -0.000260959 0.00053608 0.00174612 0.00111413
internal_weight=0 95.7805 72.561 289.518 142.22 129.884 116.823 54.4207
internal_count=396 105 100 291 169 152 134 75
is_linear=0
shrinkage=0.03


Tree=20
num_leaves=10
num_cat=0
split_feature=19 19 42 18 18 56 32 115 33
split_gain=5.11488 7.30479 7.4023 3.2854 0.955718 0.948401 0.849779 0.157495 0.246741
threshold=48.924999237060554 51.585000991821296 11.786652088165285 2.6269023418426518 4.6070883274078378 104.50000000000001 17.438471794128422 14.500000000000002 8.9989881515502947
decision_type=2 2 2 2 2 2 2 2 2
left_child=4 2 -2 -4 6 -3 7 -1 -9
right_child=1 5 3 -5 -6 -7 -8 8 -10
leaf_value=0.18460729567998982 0.086533735970470177 0.19188058407833633 -0.10794705699978567 -0.038253829011439394 -0.072990549666943627 -0.10751346343840965 -0.039229421611147647 0.19419154517231374 -0.014375742870442102
leaf_weight=206.07317733764648 22.493903160095215 62.402441024780273 27.573171615600586 31.201220512390137 20.317073822021484 16.689024925231934 14.512195587158201 21.042683601379395 11.609756469726561
leaf_count=203 13 41 11 25 28 23 20 29 16
internal_value=0 -0.00544153 -0.0117432 -0.017338 0.00127175 0.000878189 0.0018197 0.00229406 0
internal_weight=0 160.36 81.2683 58.7744 273.555 79.0915 253.238 238.726 32.6524
internal_count=409 113 49 36 296 64 268 248 45
is_linear=0
shrinkage=0.03


Tree=21
num_leaves=9
num_cat=0
split_feature=19 17 70 29 18 46 115 115
split_gain=4.82502 6.89248 2.86315 1.27237 0.982378 0.531891 0.164348 0.187913
threshold=48.924999237060554 52.133916854858406 0.37097080051898962 0.65222474932670604 4.6070883274078378 4.9787738323211679 14.500000000000002 20.500000000000004
decision_type=2 2 2 2 2 2 2 2
left_child=4 -2 3 -3 5 6 -1 -8
right_child=1 2 -4 -5 -6 -7 7 -9
leaf_value=0.18018193131490598 -0.10470864528979205 0.17621794484215653 -0.10548194846764296 -0.026668322087472766 -0.070800833176935321 -0.029534435832288111 -0.013944470584328846 0.13598568948647102
leaf_weight=206.07317733764648 52.243904113769531 81.993905067443848 13.060976028442381 13.060976028442381 20.317073822021484 15.237805366516112 13.060976028442385 18.865854263305664
leaf_count=203 9 68 18 18 28 21 18 26
internal_value=0 -0.00517088 -0.000683602 0.00100485 0.00135118 0.00190549 0.00229192 0
internal_weight=0 160.36 108.116 95.0549 273.555 253.238 238 31.9268
internal_count=409 113 104 86 296 268 247 44
is_linear=0
shrinkage=0.03


Tree=22
num_leaves=10
num_cat=0
split_feature=14 14 55 107 56 15 20 70 56
split_gain=5.98107 15.2578 2.41543 1.1608 1.55976 0.67334 1.04659 0.592422 0.387589
threshold=50.264999389648445 50.725000381469734 -0.5221133530139922 2.3652096986770634 75.000000000000014 52.659999847412116 53.049999237060554 0.61162742972373974 203.50000000000003
decision_type=2 2 2 2 2 2 2 2 2
left_child=5 -2 -3 -4 -5 8 -7 -8 -1
right_child=1 2 3 4 -6 6 7 -9 -10
leaf_value=0.24602722664110319 -0.11715440732362187 -0.10112360108122814 0.10507434409457608 0.37403617894047247 -0.073844995919745277 -0.024951767861709991 0.18062947288392811 -0.068676808181627247 -0.026105135705374493
leaf_weight=185.03049373626709 33.378049850463867 19.591464042663574 85.621953964233398 11.609756469726564 10.884146690368651 10.884146690368651 43.536586761474609 16.689024925231934 16.689024925231934
leaf_count=147 10 27 73 16 15 15 60 23 23
internal_value=0 -0.00567306 -0.000799867 0.000843934 -0.00493317 0.00158573 -0.000763283 0.000577468 0.00248782
internal_weight=0 161.085 127.707 108.116 22.4939 272.829 71.1098 60.2256 201.72
internal_count=409 141 131 104 31 268 98 83 170
is_linear=0
shrinkage=0.03


Tree=23
num_leaves=10
num_cat=0
split_feature=14 14 34 54 13 20 31 56 103
split_gain=5.29953 15.7327 2.28314 2.87809 1.21285 0.697436 0.527269 0.575832 0.167429
threshold=50.264999389648445 50.725000381469734 13.140907287597658 0.25000000000000011 1.7301921844482424 64.224998474121108 0.47289085388183599 160.50000000000003 -6.3230574131011954
decision_type=2 2 2 2 2 2 2 2 2
left_child=5 -2 -3 4 -4 6 8 -8 -1
right_child=1 2 3 -5 -6 -7 7 -9 -10
leaf_value=-0.0095974419819730619 -0.11363977510391322 0.081021061474746345 -0.074593346736653063 0.24065602662628754 -0.09808989304879133 -0.016582033305255272 0.14347636432034663 -0.052932834605174256 0.21626375039054332
leaf_weight=18.865854263305664 33.378049850463867 74.737807273864746 10.884146690368654 22.493903160095215 19.591464042663574 15.237805366516112 10.884146690368654 10.884146690368651 216.95732402801514
leaf_count=26 10 67 15 22 27 21 15 15 191
internal_value=0 -0.00540362 -0.000460287 -0.00529696 -0.011322 0.00142645 0.00183961 -0.00225904 0.00228539
internal_weight=0 161.085 127.707 52.9695 30.4756 272.829 257.591 21.7683 235.823
internal_count=409 141 131 64 42 268 247 30 217
is_linear=0
shrinkage=0.03


Tree=24
num_leaves=11
num_cat=0
split_feature=14 14 55 16 39 56 9 56 38 0
split_gain=4.97432 15.9727 2.11807 0.695386 1.52538 0.89842 0.593964 0.947237 0.274691 0.424195
threshold=50.264999389648445 50.725000381469734 -0.5221133530139922 1.6621066927909853 197.22778320312503 171.50000000000003 1.8297231793403628 92.500000000000014 199.78571319580081 48.994998931884773
decision_type=2 2 2 2 2 2 2 2 2 2
left_child=3 -2 -3 -1 5 -5 -4 -8 9 -6
right_child=1 2 6 4 8 -7 7 -9 -10 -11
leaf_value=0.23215849733015373 -0.11023058185079584 -0.095147196257327621 0.10409049776747839 -0.066119042937020756 -0.023733996596058054 -0.0029834547198755246 0.21671753898975629 -0.068686949250689189 0.16010321025446905 0.082518322175246919
leaf_weight=148.02439498901367 33.378049850463867 19.591464042663574 83.445124626159668 13.060976028442385 10.884146690368651 15.237805366516112 13.786585807800295 10.884146690368651 60.951221466064453 24.670732498168945
leaf_count=114 10 27 70 18 15 21 19 15 66 34
internal_value=0 -0.00526891 -0.000290497 0.00134681 -0.000192993 -0.00635761 0.00124477 -0.00251744 0.0014835 -0.000248097
internal_weight=0 161.085 127.707 272.829 124.805 28.2988 108.116 24.6707 96.5061 35.5549
internal_count=409 141 131 268 154 39 104 34 115 49
is_linear=0
shrinkage=0.03


Tree=25
num_leaves=10
num_cat=0
split_feature=6 38 19 13 13 19 30 22 101
split_gain=5.00681 4.96696 2.62848 2.29569 2.41152 2.48613 0.793512 0.381612 0.11415
threshold=3.6967729330062871 199.07142639160159 49.079999923706062 1.6196455955505373 1.8568199276924136 50.430000305175788 1.1989569067955019 1.5359382033348086 -1.8141039609909055
decision_type=2 2 2 2 2 2 2 2 2
left_child=3 2 -2 8 5 -5 7 -6 -1
right_child=1 -3 -4 4 6 -7 -8 -9 -10
leaf_value=0.123766069449652 -0.09465162478255941 0.0200228098127379 -0.091336643002748338 -0.017232495989852995 0.045318223427776229 -0.06950113044683362 -0.04782469426196883 -0.085927267882115355 0.16994664691812536
leaf_weight=29.024391174316406 18.865854263305664 23.945122718811035 17.414634704589844 20.317073822021484 68.932929039001465 13.786585807800291 10.884146690368651 10.884146690368651 187.20732307434082
leaf_count=31 26 33 6 28 95 10 15 15 150
internal_value=0 -0.00860719 -0.0155719 0.000720917 -0.00245139 -0.00919137 0 0.00116839 0.00262255
internal_weight=0 60.2256 36.2805 341.037 124.805 34.1037 90.7012 79.8171 216.232
internal_count=409 65 32 344 163 38 125 110 181
is_linear=0
shrinkage=0.03


Tree=26
num_leaves=9
num_cat=0
split_feature=6 55 10 41 15 34 33 12
split_gain=4.26649 6.49269 2.78264 2.13786 1.88702 0.880031 1.21286 0.189145
threshold=3.6967729330062871 0.99550911784172069 7.3642132282257089 204.24427795410159 59.679998397827156 13.140907287597658 13.207483291625978 2.3216133117675786
decision_type=2 2 2 2 2 2 2 2
left_child=3 2 -2 4 7 -6 -7 -1
right_child=1 -3 -4 -5 5 6 -8 -9
leaf_value=0.12005308736616246 0.019422125518355742 -0.088596543712665898 -0.12931051063964127 -0.021649177940647489 0.068120204642335674 -0.089714962333144258 0.030350916148093175 -0.0060549822496447801
leaf_weight=257.59147167205811 34.829269409179688 14.512195587158201 10.884146690368651 15.237805366516112 21.042683601379395 19.591464042663578 10.884146690368651 16.689024925231934
leaf_count=247 48 2 15 3 29 27 15 23
internal_value=0 -0.00789025 -0.0018893 0.000720917 0.00128161 -0.00385453 -0.00710551 0.00230619
internal_weight=0 60.2256 45.7134 341.037 325.799 51.5183 30.4756 274.28
internal_count=409 65 63 344 341 71 42 270
is_linear=0
shrinkage=0.03


Tree=27
num_leaves=10
num_cat=0
split_feature=0 20 54 12 10 108 15 20 20
split_gain=5.26754 8.84752 2.74616 1.86135 0.980504 0.638321 0.381316 0.164045 0.135346
threshold=50.725000381469734 53.049999237060554 -0.68301269412040699 1.3173460364341738 8.3247065544128436 2.114914178848267 52.100000381469734 62.185001373291023 56.260000228881843
decision_type=2 2 2 2 2 2 2 2 2
left_child=6 -2 3 -3 -4 -6 -1 8 -8
right_child=1 2 4 -5 5 -7 7 -9 -10
leaf_value=0.17516521341044797 -0.11153375321166771 -0.00094209490877911856 0.12001375304969097 -0.11535783018906905 0.0041287330077035729 -0.063417917023478626 -0.009005448874724457 -0.011458149554457222 0.22481749866512957
leaf_weight=190.10976219177246 29.750000953674316 12.335366249084474 83.445124626159668 17.414634704589844 10.884146690368654 13.060976028442381 11.609756469726561 10.884146690368651 21.768293380737305
leaf_count=163 14 17 97 24 15 18 16 15 30
internal_value=0 -0.00485211 -0.00148837 -0.00950675 0.00062767 -0.00446221 0.00209562 -0.000102575 0.000585313
internal_weight=0 166.89 137.14 29.75 107.39 23.9451 234.372 44.2622 33.378
internal_count=409 185 171 41 130 33 224 61 46
is_linear=0
shrinkage=0.03


Tree=28
num_leaves=11
num_cat=0
split_feature=6 55 10 41 20 70 10 116 106 101
split_gain=5.39906 5.64632 2.26188 2.13786 1.61449 1.24042 0.448523 0.680392 0.298315 0.127092
threshold=3.6967729330062871 0.99550911784172069 7.3642132282257089 204.24427795410159 64.224998474121108 0.73469588160514843 11.220575332641603 0.22503516077995303 -1.2568506002426145 -2.0613540410995479
decision_type=2 2 2 2 2 2 2 2 2 2
left_child=3 2 8 4 6 -6 9 -8 -2 -1
right_child=1 -3 -4 -5 5 -7 7 -9 -10 -11
leaf_value=0.0040048710174724533 -0.0045069053611894814 -0.082592634804935935 -0.12197046041477996 -0.017653690006078068 -0.0064647794000800823 -0.083562778557477874 -0.061515379512774256 0.0044407932413378856 0.16255924150464771 0.13566976884244186
leaf_weight=23.945122718811035 10.884146690368647 14.512195587158201 10.884146690368651 15.237805366516112 18.865854263305668 10.884146690368651 10.884146690368654 15.237805366516112 23.945122718811039 245.98171520233154
leaf_count=33 15 2 15 3 26 15 15 21 33 231
internal_value=0 -0.00896566 -0.00330241 0.000720917 0.00128161 -0.00518907 0.00199009 -0.00139899 6.83466e-05 0.00237551
internal_weight=0 60.2256 45.7134 341.037 325.799 29.75 296.049 26.122 34.8293 269.927
internal_count=409 65 63 344 341 41 300 36 48 264
is_linear=0
shrinkage=0.03


Tree=29
num_leaves=10
num_cat=0
split_feature=14 15 15 56 17 103 15 70 34
split_gain=7.58319 15.6923 1.69982 2.11246 0.829667 0.729679 0.362611 0.22824 0.257033
threshold=50.264999389648445 53.129999160766609 59.864999771118171 122.50000000000001 55.001928329467781 7.3820533752441415 52.100000381469734 0.71080708503723156 12.684787750244142
decision_type=2 2 2 2 2 2 2 2 2
left_child=5 -2 -3 4 -4 6 -1 8 -8
right_child=1 2 3 -5 -6 -7 7 -9 -10
leaf_value=0.20716870091413375 -0.12205182849791431 0.079364684295984964 -0.059669918127391058 -0.10939021192667261 0.019798690609559345 -0.032130825713755119 -0.012805378473755997 -0.0086075217110991534 0.16438503601513269
leaf_weight=174.87195682525635 29.750000953674316 52.243904113769531 11.609756469726561 10.884146690368651 31.201220512390137 15.963415145874022 14.512195587158201 10.884146690368651 49.341464996337891
leaf_count=151 5 54 16 15 43 22 20 15 68
internal_value=0 -0.00697072 -0.00137248 -0.00518587 -0.00171435 0.00171079 0.00215071 0.000176757 0.0010523
internal_weight=0 135.689 105.939 53.6951 42.811 265.573 249.61 74.7378 63.8537
internal_count=409 133 128 74 59 276 254 103 88
is_linear=0
shrinkage=0.03


Tree=30
num_leaves=10
num_cat=0
split_feature=15 15 10 107 20 15 34 31 34
split_gain=1.64622 5.08052 1.56302 1.47975 1.04999 1.23338 0.594511 0.483833 0.150488
threshold=52.659999847412116 53.049999237060554 12.044538974761965 8.8802547454834002 64.224998474121108 64.485000610351577 17.738995552062992 0.22221870720386508 25.214263916015629
decision_type=2 2 2 2 2 2 2 2 2
left_child=6 -2 4 -4 8 -6 -1 -8 -3
right_child=1 2 3 -5 5 -7 7 -9 -10
leaf_value=0.1691820000959724 -0.041844980958161526 0.14876276621445442 -0.057879820583569344 -0.11502964024453639 -0.086507418869072872 0.070370849206448136 0.12621437739849628 -0.031166900942342507 -0.0014173030112797846
leaf_weight=166.89024925231934 17.414634704589844 107.3902473449707 20.317073822021488 10.884146690368651 15.963415145874023 14.512195587158203 11.609756469726564 12.335366249084471 10.884146690368651
leaf_count=140 15 130 28 15 22 20 16 17 15
internal_value=0 -0.00166243 -6.16341e-05 -0.00618754 0.00113923 -0.00359173 0.00223114 -0.00179072 0.00249453
internal_weight=0 197.366 179.951 31.2012 148.75 30.4756 190.835 23.9451 118.274
internal_count=418 245 230 43 187 42 173 33 145
is_linear=0
shrinkage=0.03


Tree=31
num_leaves=11
num_cat=0
split_feature=101 55 20 70 55 103 31 101 10 46
split_gain=4.65208 6.19155 0.981513 1.11274 0.870019 0.668639 0.56924 0.245828 0.226722 0.112138
threshold=2.0943146944046025 0.97322851419448864 61.655000686645515 0.73469588160514843 -0.5221133530139922 2.1665956974029545 0.3808093816041947 -2.3738565444946285 16.463138580322269 -4.2616620063781729
decision_type=2 2 2 2 2 2 2 2 2 2
left_child=2 4 6 5 -2 8 7 -1 -4 -9
right_child=1 -3 3 -5 -6 -7 -8 9 -10 -11
leaf_value=-0.095372211994815853 -0.1115787510372003 -0.022761802408103382 0.012146496387206759 -0.083912196303000702 0.046303728606871028 -0.056143425966062283 -0.030231893914072251 0.11570222821499446 -0.066645155331356912 0.15975850913862041
leaf_weight=13.060976028442381 13.060976028442381 15.963415145874022 42.810976982116699 17.414634704589844 21.042683601379395 12.335366249084471 21.042683601379395 15.237805366516112 10.884146690368651 205.34756755828857
leaf_count=18 18 4 59 24 29 17 29 21 15 184
internal_value=0 -0.00878657 0.000958513 -0.00176618 -0.00101339 0 0.00191171 0.00237172 0.00149055 0.00262999
internal_weight=0 50.0671 338.134 83.4451 34.1037 66.0305 254.689 233.646 53.6951 220.585
internal_count=418 51 367 115 47 91 252 223 74 205
is_linear=0
shrinkage=0.03


Tree=32
num_leaves=9
num_cat=0
split_feature=40 56 15 55 7 31 100 15
split_gain=2.49989 8.23575 1.382 1.37997 1.67129 0.893117 0.752583 1.17374
threshold=16.615822792053226 8.5000000000000018 59.864999771118171 -0.57231965661048878 1.7089685797691347 0.54353812336921703 0.89227920770645153 52.100000381469734
decision_type=2 2 2 2 2 2 2 2
left_child=2 -2 5 -4 -5 6 -1 -8
right_child=1 -3 3 4 -6 -7 7 -9
leaf_value=0.11952790288889791 -0.0053418650688501048 0.082917995931444555 -0.10099591711371025 0.001766059722830633 -0.10791078830531792 -0.073050735491913196 0.32321934375556371 -0.026414426304386521
leaf_weight=221.3109827041626 14.512195587158201 29.750000953674316 10.884146690368651 35.554879188537598 10.884146690368651 17.414634704589844 27.573171615600586 20.317073822021484
leaf_count=224 2 41 15 49 15 24 20 28
internal_value=0 -0.00691091 0.000613723 -0.00354287 -0.000886204 0.00150201 0.00197027 -0.00121951
internal_weight=0 44.2622 343.939 57.3232 46.439 286.616 269.201 47.8902
internal_count=418 43 375 79 64 296 272 48
is_linear=0
shrinkage=0.03


Tree=33
num_leaves=9
num_cat=0
split_feature=28 7 20 56 3 10 1 103
split_gain=3.02954 8.06824 1.13943 1.09214 1.02964 0.373039 0.362449 0.142574
threshold=0.78266903758049022 0.56155452132225048 64.224998474121108 178.50000000000003 61.940000534057624 13.601734161376955 57.465000152587898 -6.3230574131011954
decision_type=2 2 2 2 2 2 2 2
left_child=2 -2 5 6 -4 7 -3 -1
right_child=1 3 4 -5 -6 -7 -8 -9
leaf_value=0.097487131984705502 -0.0051816091167846065 0.10645542185736773 -0.078364952900499385 -0.10444301022503985 0.035051167378228741 -0.051221799537920845 -0.066490808974864521 0.1728962912447555
leaf_weight=21.768293380737305 14.512195587158201 47.89024543762207 19.591464042663574 13.786585807800291 13.060976028442381 21.042683601379395 10.884146690368651 225.66464138031006
leaf_count=30 2 66 27 19 18 29 15 212
internal_value=0 -0.00504874 0.0012854 -0.000688533 -0.00381552 0.00196749 0.000885403 0.00231886
internal_weight=0 87.0732 301.128 72.561 32.6524 268.476 58.7744 247.433
internal_count=418 102 316 100 45 271 81 242
is_linear=0
shrinkage=0.03


Tree=34
num_leaves=9
num_cat=0
split_feature=14 17 70 23 32 100 12 24
split_gain=2.52124 7.08303 2.09588 1.06505 0.712233 0.662199 0.770673 0.427136
threshold=50.264999389648445 52.067770004272468 0.3529763668775559 0.70972019433975231 17.438471794128422 0.89227920770645153 1.1606010198593142 6.1798641681671151
decision_type=2 2 2 2 2 2 2 2
left_child=4 -2 3 7 5 -1 -7 -3
right_child=1 2 -4 -5 -6 6 -8 -9
leaf_value=0.10706184062620767 -0.19168769533457689 0.058955379682503514 -0.095615091013283929 -0.064496084705618559 -0.067725923120404555 0.30338532077322422 -0.028546607474796079 -0.049685145551783237
leaf_weight=193.73781108856201 18.140244483947754 82.719514846801758 10.884146690368651 13.060976028442381 15.237805366516112 26.121952056884766 16.689024925231934 11.609756469726561
leaf_count=213 7 87 15 18 21 18 23 16
internal_value=0 -0.00357905 -0.000735099 0.000425907 0.00146777 0.00192026 -0.00121174 0.00167824
internal_weight=0 136.415 118.274 107.39 251.787 236.549 42.811 94.3293
internal_count=418 143 136 121 275 254 41 103
is_linear=0
shrinkage=0.03


Tree=35
num_leaves=10
num_cat=0
split_feature=13 19 15 22 109 26 109 20 17
split_gain=1.88247 4.09529 5.97319 2.40407 0.484861 0.710807 0.654151 0.470095 0.192726
threshold=1.2267415523529055 48.924999237060554 54.250000000000007 1.1299301385879519 198.23667144775393 -0.44685049355030054 200.52579498291018 53.479999542236335 54.175455093383796
decision_type=2 2 2 2 2 2 2 2 2
left_child=8 4 -3 -4 7 6 -6 -2 -1
right_child=1 2 3 -5 5 -7 -8 -9 -10
leaf_value=0.0022782694052359887 -0.050729928923782149 -0.083012801715236534 0.021070721556264722 -0.067878623945775762 -0.06493078986743861 0.054190783686663337 0.23347386836124259 0.0019274092487450466 -0.024159085831253702
leaf_weight=129.15854072570801 13.060976028442385 14.512195587158201 34.103659629821777 19.591464042663574 28.298781394958496 107.3902473449707 17.414634704589844 11.609756469726561 17.414634704589844
leaf_count=88 18 2 47 27 39 130 24 16 24
internal_value=0 -0.00197924 -0.00820927 -0.00317754 0.00034323 0.00105026 -0.0018893 -0.00338227 0.00229577
internal_weight=0 245.982 68.2073 53.6951 177.774 153.104 45.7134 24.6707 146.573
internal_count=415 303 76 74 227 193 63 34 112
is_linear=0
shrinkage=0.03


Tree=36
num_leaves=8
num_cat=0
split_feature=13 6 13 19 34 29 109
split_gain=1.91445 2.64043 2.17138 3.71479 0.851899 0.73419 0.475551
threshold=1.6653184294700625 4.8894948959350595 2.0272080898284917 48.924999237060554 14.377499580383303 1.6261568665504458 198.48999786376956
decision_type=2 2 2 2 2 2 2
left_child=1 -1 3 4 -2 6 -4
right_child=2 -3 5 -5 -6 -7 -8
leaf_value=0.011993427675038734 -0.046246667489206528 -0.080522417663779391 -0.020446449163815713 -0.062375962838593035 0.16804404419288371 -0.097330018528653278 0.052565060176063411
leaf_weight=215.50610446929932 15.237805366516112 21.042683601379395 13.060976028442381 19.591464042663574 23.945122718811035 10.884146690368651 73.286587715148926
leaf_count=198 21 20 18 18 24 15 101
internal_value=0 0.00136928 -0.00289457 -0.00742238 -0.0015968 0 0.000804816
internal_weight=0 236.549 156.006 58.7744 39.1829 97.2317 86.3476
internal_count=415 218 197 63 45 134 119
is_linear=0
shrinkage=0.03


Tree=37
num_leaves=9
num_cat=0
split_feature=56 6 7 13 38 16 10 17
split_gain=1.89511 1.68937 2.59493 1.2915 1.27542 1.62784 0.445749 0.340467
threshold=1.0000000180025095e-35 5.1530103683471689 5.9752302169799814 1.6653184294700625 199.78571319580081 2.067764520645142 6.3521187305450448 55.464500427246101
decision_type=2 2 2 2 2 2 2 2
left_child=-1 3 -3 7 5 -5 -6 -2
right_child=1 2 -4 4 6 -7 -8 -9
leaf_value=-0.021991171755353509 0.062296105513503494 -0.078106745133866007 0.0047130234686941818 -0.063970986342244629 0.09930617978766848 -0.0030764048748607386 -0.013186054698775002 -0.059420757059599046
leaf_weight=14.512195587158201 200.2682991027832 13.786585807800295 16.689024925231934 21.768293380737305 53.695123672485352 43.536586761474609 10.884146690368651 17.414634704589844
leaf_count=2 177 10 23 30 74 60 15 24
internal_value=0 0.000253653 -0.00640276 0.000888759 -0.00140425 -0.00440326 0.00140851 0.00232575
internal_weight=0 378.043 30.4756 347.567 129.884 65.3049 64.5793 217.683
internal_count=415 413 33 380 179 90 89 201
is_linear=0
shrinkage=0.03


Tree=38
num_leaves=10
num_cat=0
split_feature=19 14 20 109 38 0 55 0 4
split_gain=5.42389 16.2579 0.832159 0.837401 1.13036 0.883284 0.777566 0.586833 0.340972
threshold=50.164999008178718 51.364999771118171 51.014999389648445 198.82569122314456 199.34285736083987 60.649999618530281 -0.33662487566471094 49.085000991821296 47.61000061035157
decision_type=2 2 2 2 2 2 2 2 2
left_child=2 -2 -1 4 7 8 -3 -4 -5
right_child=1 6 3 5 -6 -7 -8 -9 -10
leaf_value=0.16366245801975776 -0.075763542779850035 -0.086919871089086984 -0.057497975536957173 -0.06156004628987858 0.045072114185004855 -0.057638134347811093 0.10182245367078926 -0.04197331102148219 0.066569731207288846
leaf_weight=104.48780822753906 29.024391174316406 13.060976028442381 14.512195587158205 11.609756469726561 14.512195587158201 10.884146690368651 53.695123672485352 14.512195587158201 126.25610160827637
leaf_count=81 4 18 20 16 20 15 47 20 174
internal_value=0 -0.00748613 0.000674482 -0.000430306 -0.00410828 0.000555828 0.00048903 -0.00760223 0.00130751
internal_weight=0 95.7805 296.774 192.287 43.5366 148.75 66.7561 29.0244 137.866
internal_count=415 69 346 265 60 205 65 40 190
is_linear=0
shrinkage=0.03


Tree=39
num_leaves=7
num_cat=0
split_feature=13 39 13 116 18 17
split_gain=1.5788 1.88197 2.15405 0.530171 0.41977 0.192726
threshold=1.2267415523529055 205.966667175293 1.2573810219764712 0.49172814190387731 4.4735848903656015 54.175455093383796
decision_type=2 2 2 2 2 2
left_child=5 2 -2 4 -4 -1
right_child=1 -3 3 -5 -6 -7
leaf_value=0.0022541416108182231 -0.073490636496454542 -0.019058530319297429 0.0035749198397899561 -0.055977958230495263 -0.085783648384580635 -0.021730111982510427
leaf_weight=129.15854072570801 12.335366249084471 12.335366249084471 189.38415241241455 12.335366249084471 19.591464042663574 17.414634704589844
leaf_count=88 8 8 243 17 27 24
internal_value=0 -0.00162598 -0.00094 -0.000177722 0.000115445 0.00229577
internal_weight=0 245.982 233.646 221.311 208.976 146.573
internal_count=415 303 295 287 270 112
is_linear=0
shrinkage=0.03


Tree=40
num_leaves=7
num_cat=0
split_feature=39 42 15 15 70 32
split_gain=1.86239 2.05268 0.819983 0.966756 1.23495 0.119077
threshold=206.93332672119143 17.935564041137699 52.659999847412116 53.129999160766609 0.73469588160514843 13.168450832366945
decision_type=2 2 2 2 2 2
left_child=1 2 5 -4 -5 -1
right_child=-2 -3 3 4 -6 -7
leaf_value=0.11428859237010122 -0.018486774409718514 -0.02245873660286845 -0.044283809770210104 0.0063111865581360503 -0.083210138933043215 0.006775159323602651
leaf_weight=179.95122528076172 15.963415145874022 15.963415145874022 15.237805366516112 148.02439498901367 18.865854263305664 15.237805366516112
leaf_count=149 4 4 21 177 26 21
internal_value=0 0.000857448 0.00134308 -2.5141e-05 0.000560615 0.0026932
internal_weight=0 393.281 377.317 182.128 166.89 195.189
internal_count=402 398 394 224 203 170
is_linear=0
shrinkage=0.03


Tree=41
num_leaves=8
num_cat=0
split_feature=42 0 56 15 15 70 105
split_gain=3.20857 3.04286 0.820318 0.735538 0.958509 0.99822 0.115834
threshold=16.986395835876468 51.170000076293952 1.0000000180025095e-35 52.659999847412116 53.129999160766609 0.74704343080520641 4.7875523567199716
decision_type=2 2 2 2 2 2 2
left_child=2 -2 -1 6 -5 -6 -4
right_child=1 -3 3 4 5 -7 -8
leaf_value=-0.017932171177426976 -0.021784974504782416 0.0061218509613919633 0.15909676780549728 -0.042955295477103798 0.0097943043212796958 -0.080713834765051895 0.0013189625724929677
leaf_weight=29.024391174316406 22.493903160095215 19.591464042663574 150.92683410644531 15.237805366516112 139.31707763671875 17.414634704589844 15.237805366516112
leaf_count=4 13 18 136 21 165 24 21
internal_value=0 -0.00792869 0.000764429 0.00121564 -7.7108e-05 0.000541457 0.00263978
internal_weight=0 42.0854 367.159 338.134 171.97 156.732 166.165
internal_count=402 31 371 367 210 189 157
is_linear=0
shrinkage=0.03


Tree=42
num_leaves=9
num_cat=0
split_feature=19 17 116 15 20 31 108 31
split_gain=2.934 7.10639 1.90262 0.487565 0.722319 0.235784 0.225581 0.25393
threshold=49.605001449584968 52.133916854858406 0.2568518072366715 52.659999847412116 53.049999237060554 0.35904194414615637 2.0707440376281743 1.0000000180025095e-35
decision_type=2 2 2 2 2 2 2 2
left_child=3 -2 -3 5 -5 -1 -6 -8
right_child=1 2 -4 4 6 -7 7 -9
leaf_value=0.13825108117220486 -0.14445344409883296 0.13476139000647139 -0.079501803340665131 -0.038204186128612018 0.080752696487741887 -0.0024400003372177181 0.0022643098465734823 -0.025298632594613436
leaf_weight=160.35976123809814 37.731708526611328 74.012197494506836 11.609756469726561 10.884146690368651 37.006098747253418 14.512195587158201 34.103659629821777 29.024391174316406
leaf_count=149 7 57 16 15 51 20 47 40
internal_value=0 -0.00409709 0.00053356 0.0014222 -2.13238e-06 0.00240941 0.000672928 -0.000209008
internal_weight=0 123.354 85.622 285.89 111.018 174.872 100.134 63.1281
internal_count=402 80 73 322 153 169 138 87
is_linear=0
shrinkage=0.03


Tree=43
num_leaves=7
num_cat=0
split_feature=39 42 20 42 11 10
split_gain=1.84078 2.02925 0.676961 1.47439 0.438598 0.39977
threshold=206.93332672119143 17.935564041137699 65.079998016357436 13.841878414154055 1.0232722163200381 15.177221298217775
decision_type=2 2 2 2 2 2
left_child=1 2 4 -4 -1 -6
right_child=-2 -3 3 -5 5 -7
leaf_value=0.049138660494204699 -0.013060602719139157 -0.016797821946673945 -0.077533460744261928 0.0082899956121713463 0.010693566029731993 -0.062415837439838348
leaf_weight=220.58537292480469 15.963415145874022 15.963415145874022 13.060976028442381 24.670732498168945 107.3902473449707 11.609756469726561
leaf_count=187 4 4 18 34 139 16
internal_value=0 0.000802168 0.00128547 -0.00234067 0.00173532 0.000129503
internal_weight=0 393.281 377.317 37.7317 339.585 119
internal_count=402 398 394 52 342 155
is_linear=0
shrinkage=0.03


Tree=44
num_leaves=8
num_cat=0
split_feature=33 39 20 70 11 41 101
split_gain=2.65995 2.03908 0.647389 1.14351 0.365875 0.35616 0.265624
threshold=0.66927340626716625 206.93332672119143 64.224998474121108 0.71080708503723156 1.5538704395294192 199.63957977294925 -1.6780065298080442
decision_type=2 2 2 2 2 2 2
left_child=-1 2 4 -4 6 -6 -2
right_child=1 -3 3 -5 5 -7 -8
leaf_value=-0.016293887288273703 -0.00038838954808332102 -0.012668784637564965 0.061875617916278144 -0.075207456921934049 -0.028044569522504118 0.012732282667363926 0.058364247969769883
leaf_weight=22.493903160095215 30.475610733032227 15.963415145874022 23.945122718811035 15.237805366516112 15.237805366516112 21.042683601379395 264.84756946563721
leaf_count=22 42 4 33 21 21 29 230
internal_value=0 0.000821317 0.00131394 -0.00214536 0.00177048 -0.000775862 0.00213478
internal_weight=0 386.75 370.787 39.1829 331.604 36.2805 295.323
internal_count=402 380 376 54 322 50 272
is_linear=0
shrinkage=0.03


Tree=45
num_leaves=8
num_cat=0
split_feature=19 32 19 10 19 100 20
split_gain=2.533 6.34058 8.18248 1.28688 0.489514 0.28753 0.155808
threshold=49.605001449584968 5.2261946201324472 51.585000991821296 16.463138580322269 39.939998626708991 1.1631355285644533 62.909999847412116
decision_type=2 2 2 2 2 2 2
left_child=3 -2 -3 4 -1 6 -6
right_child=1 2 -4 -5 5 -7 -8
leaf_value=-0.013056705765072304 -0.032474752197249046 -0.10835142975141027 -0.0074548521527261612 -0.089588665572719037 0.11870915631014113 -0.012086324219684048 0.00012307397862933555
leaf_weight=15.237805366516112 71.109758377075195 26.121952056884766 27.573171615600586 15.963415145874022 220.58537292480469 17.414634704589844 33.378049850463867
leaf_count=21 35 9 29 22 223 24 46
internal_value=0 -0.00384117 -0.0116125 0.00122179 0.00172946 0.00205858 0.00233634
internal_weight=0 124.805 53.6951 302.579 286.616 271.378 253.963
internal_count=409 73 38 336 314 293 269
is_linear=0
shrinkage=0.03


Tree=46
num_leaves=9
num_cat=0
split_feature=19 19 8 15 15 18 56 15
split_gain=2.533 5.57899 1.03305 0.542495 0.669505 0.603793 0.505358 0.117503
threshold=49.605001449584968 52.159999847412116 13.896568298339846 52.659999847412116 53.049999237060554 4.6070883274078378 100.50000000000001 47.069999694824226
decision_type=2 2 2 2 2 2 2 2
left_child=2 -2 3 7 -5 -6 -3 -1
right_child=1 6 -4 4 5 -7 -8 -9
leaf_value=0.01274201536029519 -0.063156332448619346 0.20367932295021374 -0.086901005605537443 -0.03617494071337999 0.016807931297902881 -0.044865919411964793 -0.041439376076514128 0.13378708843170475
leaf_weight=15.237805366516112 51.518294334411621 58.048782348632812 14.512195587158201 11.609756469726561 85.621953964233398 10.884146690368651 15.237805366516112 164.71341991424561
leaf_count=21 17 35 20 16 118 15 21 146
internal_value=0 -0.00384117 0.00122179 0.00166041 0 0.000810296 0.0013013 0.0026673
internal_weight=0 124.805 302.579 288.067 108.116 96.5061 73.2866 179.951
internal_count=409 73 336 316 149 133 56 167
is_linear=0
shrinkage=0.03


Tree=47
num_leaves=8
num_cat=0
split_feature=33 13 108 39 7 101 106
split_gain=2.89261 1.51949 4.31704 0.831385 0.883809 0.179922 0.15941
threshold=0.43077346682548529 1.2267415523529055 0.91825532913208019 206.93332672119143 9.6943378448486346 -2.7260642051696773 -2.2468675374984737
decision_type=2 2 2 2 2 2 2
left_child=-1 5 -3 4 -4 -2 -7
right_child=1 2 3 -5 -6 6 -8
leaf_value=-0.010659837803624601 -0.085367708302496167 -0.061261642475160721 0.0065451254122837095 -0.007143488232437125 -0.092143502242389486 -0.022965349406788231 0.0911395245334925
leaf_weight=17.414634704589844 7.2560977935791007 7.2560977935791007 193.0122013092041 22.493903160095215 13.060976028442381 10.884146690368651 156.00610256195068
leaf_count=15 10 1 257 4 18 15 89
internal_value=0 0.000255136 -0.00127216 -0.000457183 7.49159e-05 0.00240695 0.00264134
internal_weight=0 409.97 235.823 228.567 206.073 174.146 166.89
internal_count=409 394 280 279 275 114 104
is_linear=0
shrinkage=0.03


Tree=48
num_leaves=11
num_cat=0
split_feature=33 14 14 55 15 41 103 46 100 55
split_gain=2.91586 1.29746 3.42765 0.991765 0.635921 1.04948 0.326337 0.255914 0.159171 0.102101
threshold=0.43077346682548529 50.264999389648445 50.725000381469734 -0.5221133530139922 52.659999847412116 197.96159362792972 2.1665956974029545 3.8036626577377324 0.38526497781276708 0.87444871664047252
decision_type=2 2 2 2 2 2 2 2 2 2
left_child=-1 4 -3 -4 7 8 -5 -2 -6 -7
right_child=1 2 3 6 5 9 -8 -9 -10 -11
leaf_value=-0.010340042669515874 0.12692278269883275 -0.10689434383775866 -0.064912009962419678 0.10140902696715581 -0.042830981347402181 0.05294818151225808 -0.0061843790682174667 -0.0068893463686823964 -0.071805301613644443 -0.0046541124393748847
leaf_weight=17.414634704589844 173.42073726654053 32.652440071105957 17.414634704589844 82.719514846801758 10.884146690368654 34.103659629821777 22.493903160095215 14.512195587158201 10.884146690368651 10.884146690368651
leaf_count=15 149 9 24 69 15 47 31 20 15 15
internal_value=0 0.000308169 -0.00180413 0.000390878 0.0016558 -0.000683228 0.00160841 0.00256587 -0.00616922 0.00168016
internal_weight=0 409.97 155.28 122.628 254.689 66.7561 105.213 187.933 21.7683 44.9878
internal_count=409 394 133 124 261 92 100 169 30 62
is_linear=0
shrinkage=0.03


Tree=49
num_leaves=8
num_cat=0
split_feature=19 32 19 10 19 15 20
split_gain=2.46355 6.34058 8.18248 1.08282 0.460027 0.463122 0.832745
threshold=49.605001449584968 5.2261946201324472 51.585000991821296 17.096740722656254 39.939998626708991 52.659999847412116 53.049999237060554
decision_type=2 2 2 2 2 2 2
left_child=3 -2 -3 4 -1 -6 -7
right_child=1 2 -4 -5 5 6 -8
leaf_value=-0.0094279780097598648 -0.028305728776497976 -0.10224012072625617 -0.0059988476961709298 -0.087431836876245186 0.13680309977351687 -0.0331318872059378 0.0095014244530862504
leaf_weight=15.237805366516112 71.109758377075195 26.121952056884766 27.573171615600586 13.786585807800291 166.89024925231934 10.884146690368651 95.780490875244141
leaf_count=21 35 9 29 19 149 15 132
internal_value=0 -0.00384117 -0.0116125 0.00114996 0.00158853 0.0019072 0.000205349
internal_weight=0 124.805 53.6951 302.579 288.793 273.555 106.665
internal_count=409 73 38 336 317 296 147
is_linear=0
shrinkage=0.03


Tree=50
num_leaves=7
num_cat=0
split_feature=12 108 32 38 17 18
split_gain=1.95785 2.18928 1.46072 1.12377 0.537468 0.397238
threshold=1.1606010198593142 1.2665869593620303 17.438471794128422 208.64285278320315 56.642416000366218 4.1759355068206796
decision_type=2 2 2 2 2 2
left_child=5 -2 3 4 -3 -1
right_child=1 2 -4 -5 -6 -7
leaf_value=0.090596138338763926 -0.053149759263985456 0.036506235072678007 -0.077621785823390174 -0.00065514964854358477 -0.037596016394419673 -0.023069744111504118
leaf_weight=129.15854072570801 23.945122718811035 145.12195587158203 21.042683601379395 23.945122718811035 25.396342277526855 15.237805366516112
leaf_count=115 15 173 29 15 35 21
internal_value=0 -0.00211476 -0.00106933 -0.0001687 0.000612365 0.00228519
internal_weight=0 239.451 215.506 194.463 170.518 144.396
internal_count=403 267 252 223 208 136
is_linear=0
shrinkage=0.03


Tree=51
num_leaves=11
num_cat=0
split_feature=19 19 21 11 38 4 13 16 3 33
split_gain=1.95649 1.77467 3.60011 1.08769 1.00134 0.715558 0.581236 1.93949 0.244623 0.115351
threshold=48.924999237060554 51.585000991821296 -0.015757092740386721 1.5538704395294192 198.07142639160159 58.764999389648445 1.7301921844482424 2.0994882583618169 56.100000381469734 2.1476536989212041
decision_type=2 2 2 2 2 2 2 2 2 2
left_child=3 2 -2 6 -5 -3 8 -8 -1 -9
right_child=1 5 -4 4 -6 -7 7 9 -10 -11
leaf_value=0.12226447661747915 0.014925943740981964 0.12752717438977337 -0.051555266486065926 -0.082480228195256161 0.090787643510768262 -0.036468135902587059 -0.020950166417222318 -0.0058947188519665695 -0.022377651788158984 0.093280231890826446
leaf_weight=162.53659057617188 24.670732498168945 36.280488967895508 31.926830291748047 13.060976028442385 13.060976028442381 17.414634704589844 15.237805366516112 10.884146690368651 15.237805366516112 43.536586761474609
leaf_count=152 25 32 17 18 18 24 21 15 21 60
internal_value=0 -0.00375487 -0.00743849 0.000954033 -0.00466972 0 0.00161646 -0.000530853 0.00254113 0.00190685
internal_weight=0 110.293 56.5976 273.555 26.122 53.6951 247.433 69.6585 177.774 54.4207
internal_count=403 98 42 305 36 56 269 96 173 75
is_linear=0
shrinkage=0.03


Tree=52
num_leaves=8
num_cat=0
split_feature=15 15 29 34 70 42 23
split_gain=1.66176 5.43367 1.74513 0.911513 0.888099 0.719522 0.212434
threshold=52.659999847412116 53.049999237060554 1.3959044218063357 16.996805191040043 0.73469588160514843 14.904133319854738 0.31059589982032781
decision_type=2 2 2 2 2 2 2
left_child=3 -2 4 -1 6 -5 -3
right_child=1 2 -4 5 -6 -7 -8
leaf_value=0.074107743874629983 -0.050008608491483954 -0.00041831346307636964 -0.072818725402830853 0.011768551086065138 -0.052588779761944336 -0.018084716571329585 0.077765137189890504
leaf_weight=180.67683506011963 18.140244483947754 34.103659629821777 15.963415145874022 15.237805366516115 15.963415145874022 11.609756469726561 92.15244197845459
leaf_count=141 16 47 22 21 22 16 118
internal_value=0 -0.00197107 -7.00891e-05 0.0019789 0.000901564 -0.00287425 0.00183943
internal_weight=0 176.323 158.183 207.524 142.22 26.8476 126.256
internal_count=403 225 209 178 187 37 165
is_linear=0
shrinkage=0.03


Tree=53
num_leaves=11
num_cat=0
split_feature=14 14 103 15 14 100 15 6 109 109
split_gain=2.11942 5.87597 0.921193 0.884975 0.969589 0.576762 0.750855 0.894797 0.165251 0.161642
threshold=50.264999389648445 50.725000381469734 7.3820533752441415 60.364999771118171 56.020000457763679 0.47557151317596441 52.100000381469734 -0.095126852393150316 197.93666839599612 200.05000305175784
decision_type=2 2 2 2 2 2 2 2 2 2
left_child=2 -2 5 -3 -5 8 -7 -8 -1 -6
right_child=1 3 -4 4 9 6 7 -9 -10 -11
leaf_value=0.12942223068843536 -0.048508350236739411 0.039723882093297753 -0.043708182128635219 -0.062571813358791598 -0.015858852665736976 0.071884511558391109 -0.066995100028979626 0.00076444211546002451 0.11105057095680188 0.062799213989555014
leaf_weight=23.219512939453125 18.865854263305664 47.89024543762207 20.317073822021484 18.865854263305664 13.060976028442385 40.634147644042969 10.884146690368654 10.884146690368651 163.26220035552979 15.963415145874022
leaf_count=14 8 48 28 26 18 38 15 15 171 22
internal_value=0 -0.00368852 0.00116314 -0.000477264 -0.00346875 0.0017118 -0.00059209 -0.00519168 0.0025625 0
internal_weight=0 114.646 269.201 95.7805 47.8902 248.884 62.4024 21.7683 186.482 29.0244
internal_count=403 122 281 114 66 253 68 30 185 40
is_linear=0
shrinkage=0.03


Tree=54
num_leaves=9
num_cat=0
split_feature=6 26 46 103 102 19 32 16
split_gain=1.57981 1.98847 1.34137 0.454734 0.769305 1.25247 0.328358 0.130138
threshold=5.1530103683471689 3.1696088314056401 4.9787738323211679 -3.1165137290954585 0.20380283147096637 46.219999313354499 14.332885265350344 2.7017195224761967
decision_type=2 2 2 2 2 2 2 2
left_child=2 -2 3 4 -1 -6 -5 -8
right_child=1 -3 -4 6 5 -7 7 -9
leaf_value=0.049960315204447915 -0.047053099729637178 0.0083222389072110294 -0.01623092961033059 0.031431168017460341 0.13942656960171187 -0.02455891971036845 0.011364441770151288 -0.018670750358821379
leaf_weight=46.43902587890625 15.963415145874025 15.963415145874022 18.140244483947754 232.92073917388916 13.060976028442385 17.414634704589844 13.060976028442385 10.884146690368651
leaf_count=64 13 22 25 204 18 24 18 15
internal_value=0 -0.00598195 0.00091484 0.00138776 -0.000481096 -0.00429449 0.0020055 -0.000900224
internal_weight=0 31.9268 351.921 333.78 76.9146 30.4756 256.866 23.9451
internal_count=403 35 368 343 106 42 237 33
is_linear=0
shrinkage=0.03


Tree=55
num_leaves=10
num_cat=0
split_feature=19 13 19 29 22 41 15 15 46
split_gain=1.98729 3.64683 4.89457 1.09738 0.756679 0.406958 0.977866 1.0671 0.141447
threshold=49.605001449584968 1.1725760102272036 51.585000991821296 1.6261568665504458 1.0998854637145998 198.70294189453128 50.940000534057624 53.049999237060554 4.7340755462646493
decision_type=2 2 2 2 2 2 2 2 2
left_child=3 -2 -3 5 -4 6 -1 -8 -7
right_child=1 2 4 -5 -6 8 7 -9 -10
leaf_value=0.068785041171115557 -0.045526222832669307 -0.045641506737748042 0.11856350056205761 -0.074532512194660783 -0.066699305453834123 0.058674156004948692 -0.019312758174915758 0.008072571739994672 -0.0072358092886780408
leaf_weight=58.774392127990723 46.43902587890625 21.768293380737305 19.591464042663578 13.786585807800291 10.884146690368651 180.67683506011963 22.493903160095215 25.396342277526855 10.884146690368651
leaf_count=27 19 12 27 19 15 222 31 35 15
internal_value=0 -0.00366765 -0.00912555 0.00120581 -0.000780709 0.0016331 2.21908e-06 -0.0030189 0.00246073
internal_weight=0 98.6829 52.2439 312.012 30.4756 298.226 106.665 47.8902 191.561
internal_count=422 73 54 349 42 330 93 66 237
is_linear=0
shrinkage=0.03


Tree=56
num_leaves=9
num_cat=0
split_feature=6 14 13 109 55 103 22 16
split_gain=2.69423 2.19101 0.643698 0.742868 1.17664 0.463029 0.275389 0.130119
threshold=5.1530103683471689 50.264999389648445 1.3918812274932864 199.97332763671878 0.93262013792991649 3.7234232425689702 1.3989776372909548 1.8687947392463686
decision_type=2 2 2 2 2 2 2 2
left_child=2 -2 7 4 5 -4 -5 -1
right_child=1 -3 3 6 -6 -7 -8 -9
leaf_value=0.039518778469075283 -0.0013742536762637236 -0.044272261535615587 0.0032340378952182467 0.00056949118796664419 -0.033173004581938913 -0.015526927443360384 -0.019870852528205134 -0.016917545556019514
leaf_weight=179.22561550140381 17.414634704589847 13.060976028442381 59.500001907348633 76.914636611938477 13.786585807800291 18.140244483947754 19.591464042663574 13.060976028442381
leaf_count=130 24 9 82 88 19 25 27 18
internal_value=0 -0.00780827 0.00135571 2.43666e-05 -0.00182595 -0.000170191 0.0019323 0.00257567
internal_weight=0 30.4756 380.22 187.933 91.4268 77.6402 96.5061 192.287
internal_count=422 33 389 241 126 107 115 148
is_linear=0
shrinkage=0.03


Tree=57
num_leaves=10
num_cat=0
split_feature=6 38 13 16 10 55 19 31 16
split_gain=2.7648 1.63026 0.520537 0.5338 0.582293 0.542553 0.509372 0.132693 0.130119
threshold=5.1530103683471689 199.07142639160159 1.3918812274932864 2.0317702293396001 11.220575332641603 0.93262013792991649 52.29499816894532 0.13556323200464251 1.8687947392463686
decision_type=2 2 2 2 2 2 2 2 2
left_child=2 -2 8 5 7 6 -4 -5 -1
right_child=1 -3 3 4 -6 -7 -8 -9 -10
leaf_value=0.038333215115003032 -0.042944093689547172 0.10318568989100396 0.076012004337602246 0.001615904967110744 -0.019274726952359024 -0.032177814444480771 -0.064795347427075642 0.00056475715551371761 -0.016410019189338935
leaf_weight=179.22561550140381 18.865854263305668 11.609756469726561 37.006098747253418 87.073173522949219 13.060976028442381 13.060976028442381 13.786585807800291 23.945122718811035 13.060976028442381
leaf_count=130 17 16 51 102 18 18 19 33 18
internal_value=0 -0.00780827 0.00147007 0.000255412 0.00146968 -0.00186413 -0.000131954 0.00226644 0.00257567
internal_weight=0 30.4756 380.22 187.933 124.079 63.8537 50.7927 111.018 192.287
internal_count=422 33 389 241 153 88 70 135 148
is_linear=0
shrinkage=0.03


Tree=58
num_leaves=9
num_cat=0
split_feature=6 14 13 109 23 23 22 16
split_gain=2.80039 2.19101 0.463191 0.595814 0.719408 0.847765 0.24361 0.130119
threshold=5.1530103683471689 50.264999389648445 1.3918812274932864 199.92666625976565 0.37656129896640783 0.89884880185127269 1.3989776372909548 1.8687947392463686
decision_type=2 2 2 2 2 2 2 2
left_child=2 -2 7 4 -4 -6 -5 -1
right_child=1 -3 3 6 5 -7 -8 -9
leaf_value=0.037183218661552941 -4.4703255289384456e-05 -0.041655770878860708 0.017412179133243944 0.00050392930331431883 -0.056433973337802888 0.00054781444084829546 -0.0059080023621329043 -0.015917718613658777
leaf_weight=179.22561550140381 17.414634704589847 13.060976028442381 32.652440071105957 79.091465950012207 28.298781394958496 25.396342277526855 22.493903160095215 13.060976028442381
leaf_count=130 24 9 45 91 39 35 31 18
internal_value=0 -0.00780827 0.00152724 0.000370935 -0.00135625 -0.00357921 0.00198543 0.00257567
internal_weight=0 30.4756 380.22 187.933 86.3476 53.6951 101.585 192.287
internal_count=422 33 389 241 119 74 122 148
is_linear=0
shrinkage=0.03


Tree=59
num_leaves=9
num_cat=0
split_feature=47 11 11 31 11 1 30 43
split_gain=2.52677 1.33957 2.88523 0.725484 0.571447 0.333638 0.202572 0.133502
threshold=3.0324178934097294 1.1850376725196841 1.2382280230522158 0.196168027818203 1.5538704395294192 59.814998626708991 -1.5329838395118711 0.035997411236166961
decision_type=2 2 2 2 2 2 2 2
left_child=1 5 -3 7 -5 6 -1 -4
right_child=-2 2 3 4 -6 -7 -8 -9
leaf_value=-0.015440187055249001 -0.00025673881025145562 -0.04040609775249486 0.070571806337550808 0.00053138000762285029 -0.063862946090731398 -0.018519245072924198 0.017087992038477981 -0.0057307622912689026
leaf_weight=15.963415145874022 15.237805366516112 13.786585807800291 54.420733451843262 11.609756469726564 16.689024925231934 15.237805366516112 241.62805652618408 26.121952056884766
leaf_count=22 12 10 66 16 23 21 216 36
internal_value=0 0.000869227 -0.00166379 0 -0.00408999 0.00206358 0.00234567 0.00145339
internal_weight=0 395.457 122.628 108.841 28.2988 272.829 257.591 80.5427
internal_count=422 410 151 141 39 259 238 102
is_linear=0
shrinkage=0.03


Tree=60
num_leaves=11
num_cat=0
split_feature=101 55 11 39 27 15 39 106 22 27
split_gain=2.95219 3.93879 0.69542 0.626624 0.541005 0.882125 1.09455 0.291146 0.286446 0.183173
threshold=1.6622275710105898 0.99550911784172069 1.1166555285453799 197.01667022705081 -1.0000000180025095e-35 52.659999847412116 200.44913482666018 -1.7131149172782896 1.3597252964973452 9.751742362976076
decision_type=2 2 2 2 2 2 2 2 2 2
left_child=2 3 7 -2 -4 -6 -7 8 -1 -5
right_child=1 -3 4 9 5 6 -8 -9 -10 -11
leaf_value=0.018635177895001468 -0.064775250165932788 -0.03919391481992001 0.01332105652838976 0.10637493702481624 0.19071683505245915 -0.061947057708009505 0.04587365921796234 0.062757793807458828 -0.016792811317240284 -0.037899628218316647
leaf_weight=15.963415145874025 11.609756469726561 21.768293380737305 34.829269409179688 29.024391174316406 23.219512939453125 22.493903160095215 13.060976028442381 200.99390888214111 13.786585807800291 10.884146690368651
leaf_count=22 16 3 48 40 23 31 18 169 19 15
internal_value=0 -0.00537253 0.00127394 -0.00050674 -0.000789023 -0.00264818 -0.00568189 0.00217556 -0.000151784 0.000975555
internal_weight=0 73.2866 324.348 51.5183 93.6037 58.7744 35.5549 230.744 29.75 39.9085
internal_count=404 74 330 71 120 72 49 210 41 55
is_linear=0
shrinkage=0.03


Tree=61
num_leaves=10
num_cat=0
split_feature=15 20 55 23 22 22 103 28 16
split_gain=2.2929 3.49201 1.65158 1.10583 0.459665 0.404529 0.404967 0.121389 0.100889
threshold=52.659999847412116 53.049999237060554 -0.85273867845535267 0.1890937611460686 1.3597252964973452 1.4266375899314883 -2.3009805679321285 0.90933889150619518 2.037462711334229
decision_type=2 2 2 2 2 2 2 2 2
left_child=8 -2 3 -3 -5 7 -7 -4 -1
right_child=1 2 5 4 -6 6 -8 -9 -10
leaf_value=0.060875059993235073 -0.038018097375322454 0.011394204445586843 0.067687487996944101 -0.036762639371767172 -0.063894294388945838 0.044497449441423469 -0.062831992660954794 -0.016194204170043261 0.0014728945292395324
leaf_weight=176.32317638397217 26.121952056884766 15.963415145874022 81.993905067443848 10.884146690368654 10.884146690368651 13.786585807800295 18.140244483947754 13.060976028442381 30.475610733032227
leaf_count=135 18 22 95 15 15 19 25 18 42
internal_value=0 -0.00193534 -0.000212253 -0.00575694 -0.0100794 0.00133376 -0.00128281 0.00237171 0.00260538
internal_weight=0 190.835 164.713 37.7317 21.7683 126.982 31.9268 95.0549 206.799
internal_count=404 227 209 52 30 157 44 113 177
is_linear=0
shrinkage=0.03


Tree=62
num_leaves=10
num_cat=0
split_feature=101 55 10 106 103 19 100 39 108
split_gain=3.15888 3.7064 1.04372 0.71159 0.58193 0.600686 0.809255 0.557827 0.254603
threshold=1.6622275710105898 0.99550911784172069 12.044538974761965 0.56741955876350414 -3.1165137290954585 46.219999313354499 0.10794316977262498 197.01667022705081 2.317226886749268
decision_type=2 2 2 2 2 2 2 2 2
left_child=2 7 4 -4 5 -1 -7 -2 -9
right_child=1 -3 3 -5 -6 6 -8 8 -10
leaf_value=0.16506564638533894 -0.060947032881126191 -0.036877554454062815 -0.058985766795616214 0.040464013937060221 0.05904880819343801 0.033364998256934154 -0.026348583289774241 0.10135743711427472 -0.035659760190614197
leaf_weight=29.750000953674316 11.609756469726561 21.768293380737305 12.335366249084474 10.884146690368651 230.74390983581543 21.768293380737305 18.865854263305664 26.847561836242676 13.060976028442381
leaf_count=41 16 3 17 15 201 30 26 37 18
internal_value=0 -0.00566755 0.00120693 -0.00469049 0.00171842 -0.00049471 -0.00302224 -0.000925214 0.000436849
internal_weight=0 73.2866 324.348 23.2195 301.128 70.3841 40.6341 51.5183 39.9085
internal_count=404 74 330 32 298 97 56 71 55
is_linear=0
shrinkage=0.03


Tree=63
num_leaves=10
num_cat=0
split_feature=6 14 16 39 40 26 22 102 16
split_gain=2.09783 1.99103 1.06172 1.17329 0.693673 0.92705 0.526711 0.348981 0.240581
threshold=5.1530103683471689 50.264999389648445 1.6276778578758242 198.60434722900393 13.948126792907717 -0.44685049355030054 1.3597252964973452 0.20380283147096637 2.3285857439041142
decision_type=2 2 2 2 2 2 2 2 2
left_child=2 -2 -1 4 8 -6 -5 -8 -4
right_child=1 -3 3 6 5 -7 7 -9 -10
leaf_value=0.019283862308440813 0.015436545048343504 -0.035771227820440961 -0.042400150427656588 0.059025757710536531 -0.060149054570843671 -0.0018455850301674203 0.0087369185876750421 -0.050974306115602275 0.02261095058883935
leaf_weight=190.10976219177246 15.963415145874025 14.512195587158201 18.140244483947754 81.268295288085938 11.609756469726564 18.865854263305664 13.786585807800295 13.060976028442381 20.317073822021484
leaf_count=136 22 11 25 103 16 26 19 18 28
internal_value=0 -0.00710551 0.00100126 -0.000602102 -0.00370291 -0.00710551 0.00124477 -0.00207826 -0.000564877
internal_weight=0 30.4756 367.159 177.049 68.9329 30.4756 108.116 26.8476 38.4573
internal_count=404 33 371 235 95 42 140 37 53
is_linear=0
shrinkage=0.03


Tree=64
num_leaves=10
num_cat=0
split_feature=15 36 109 18 100 13 22 14 45
split_gain=2.70069 3.39897 4.73942 1.1245 0.617525 0.441387 0.239765 0.229741 0.21585
threshold=51.865001678466804 186.50000000000003 198.3846130371094 4.4735848903656015 0.41227509081363684 1.8568199276924136 1.297552287578583 40.690000534057624 0.38538184762001043
decision_type=2 2 2 2 2 2 2 2 2
left_child=7 2 -2 4 6 -6 -3 -1 -4
right_child=1 3 8 -5 5 -7 -8 -9 -10
leaf_value=-0.00080585290389111107 -0.034698090985827754 0.010790118268636881 -0.049445076932134208 -0.062906439376721038 0.00011455286943103714 -0.010501757579906403 -0.02465803715620293 0.099889689418150573 0.0016896750740188259
leaf_weight=16.689024925231934 23.945122718811035 86.347563743591309 15.237805366516115 13.786585807800291 23.945122718811035 17.414634704589844 20.317073822021484 166.16463947296143 13.786585807800291
leaf_count=23 15 92 21 19 33 24 28 130 19
internal_value=0 -0.00239755 -0.008961 -0.00013558 0.000543887 -0.00239782 0.00183038 0.00255384 -0.000229244
internal_weight=0 214.78 52.9695 161.811 148.024 41.3598 106.665 182.854 29.0244
internal_count=404 251 55 196 177 57 120 153 40
is_linear=0
shrinkage=0.03


Tree=65
num_leaves=6
num_cat=0
split_feature=55 16 55 9 109
split_gain=2.00789 1.19158 4.01817 1.04279 0.542028
threshold=0.9996316432952882 1.154907286167145 0.98669421672821056 14.254045009613039 200.12667083740237
decision_type=2 2 2 2 2
left_child=1 -1 3 4 -3
right_child=-2 2 -4 -5 -6
leaf_value=0.010466414720577752 -0.010271741610623959 -0.00080814446595233846 -0.033657148256252933 -0.061019246195419395 0.098393739396357108
leaf_weight=134.23780918121338 14.512195587158201 141.49390697479248 11.609756469726561 18.865854263305664 92.8780517578125
leaf_count=59 2 195 7 26 128
internal_value=0 0.00056171 -0.000558747 0.000189676 0.000798074
internal_weight=0 399.085 264.848 253.238 234.372
internal_count=417 415 356 349 323
is_linear=0
shrinkage=0.03


Tree=66
num_leaves=11
num_cat=0
split_feature=55 11 55 13 100 10 30 3 22 1
split_gain=2.09381 1.11512 2.92073 0.579859 0.573699 0.470206 0.381016 0.24254 0.201198 0.100861
threshold=0.9996316432952882 1.1850376725196841 0.97322851419448864 1.6653184294700625 0.10794316977262498 16.828255653381351 -0.41122478246688837 54.260000228881843 1.1299301385879519 57.670000076293952
decision_type=2 2 2 2 2 2 2 2 2 2
left_child=1 3 5 7 9 8 -6 -1 -3 -5
right_child=-2 2 -4 4 6 -7 -8 -9 -10 -11
leaf_value=0.094427515007431406 -0.0099635893623052137 0.080374015536816126 -0.032647433808565329 0.02299780913472757 0.019264684802090561 -0.059188668809556866 -0.036152502632298092 -0.011826847162501526 -0.00075743298279578035 -0.015749360919722299
leaf_weight=195.18903064727783 14.512195587158201 40.634147644042969 15.963415145874022 33.378049850463867 10.884146690368654 10.884146690368651 19.591464042663574 15.963415145874022 45.71341609954834 10.884146690368651
leaf_count=143 2 56 13 46 15 15 27 22 63 15
internal_value=0 0.000779619 -0.00166781 0.00180225 -0.000292487 0.000158348 -0.00359173 0.00261349 0.00105547 0.00165877
internal_weight=0 399.085 113.195 285.89 74.7378 97.2317 30.4756 211.152 86.3476 44.2622
internal_count=417 415 147 268 103 134 42 165 119 61
is_linear=0
shrinkage=0.03


Tree=67
num_leaves=8
num_cat=0
split_feature=47 55 6 14 20 102 2
split_gain=2.37328 2.09482 2.13181 1.96605 0.659374 1.41398 0.717457
threshold=2.7675473690032963 0.9996316432952882 4.8894948959350595 50.264999389648445 64.224998474121108 0.30621634423732763 42.61000061035157
decision_type=2 2 2 2 2 2 2
left_child=1 2 4 -4 6 -6 -1
right_child=-2 -3 3 -5 5 -7 -8
leaf_value=-0.012084065435353749 -0.0024775353990403558 -0.0096646816814360461 0.029841564484401031 -0.031668010794308331 0.028645404115783285 -0.046852905211222651 0.035590445943360437
leaf_weight=11.609756469726561 17.414634704589844 14.512195587158201 15.963415145874025 13.060976028442381 23.219512939453125 10.884146690368651 306.932936668396
leaf_count=16 15 2 22 9 32 15 306
internal_value=0 0.000324367 0.000792361 -0.00686493 0.00147389 -0.00227154 0.00192483
internal_weight=0 396.183 381.671 29.0244 352.646 34.1037 318.543
internal_count=417 402 400 31 369 47 322
is_linear=0
shrinkage=0.03


Tree=68
num_leaves=9
num_cat=0
split_feature=19 17 16 55 22 16 102 30
split_gain=2.62574 6.42047 0.809701 0.882774 0.607571 1.10105 0.399765 0.134648
threshold=50.164999008178718 52.133916854858406 1.6621066927909853 0.90566888451576244 1.2344834208488467 2.2311415672302251 0.053545430302619941 1.1989569067955019
decision_type=2 2 2 2 2 2 2 2
left_child=2 -2 -1 4 7 -6 -3 -4
right_child=1 6 3 -5 5 -7 -8 -9
leaf_value=0.10529919368183892 -0.030717970470479052 0.17354940330435056 0.039473608891351791 -0.022323754465032729 0.00065909640275476635 -0.05138984577480997 -0.039360538707630642 -0.00049117413523928725
leaf_weight=154.55488300323486 36.280488967895508 47.89024543762207 66.756099700927734 12.335366249084471 42.085367202758789 25.396342277526855 17.414634704589844 10.884146690368651
leaf_count=132 5 39 92 17 58 35 24 15
internal_value=0 -0.00433102 0.00120581 -0.000222003 0.000345449 -0.00160454 0.00109526 0.00223168
internal_weight=0 101.585 312.012 157.457 145.122 67.4817 65.3049 77.6402
internal_count=417 68 349 217 200 93 63 107
is_linear=0
shrinkage=0.03


Tree=69
num_leaves=11
num_cat=0
split_feature=55 36 28 20 11 27 38 15 11 115
split_gain=1.8751 2.31786 4.29676 0.644056 0.671267 0.30433 0.403952 0.255062 0.222228 0.11104
threshold=0.9996316432952882 187.50000000000003 0.73510283231735241 62.909999847412116 0.7326723337173463 16.032372474670414 200.07142639160159 52.659999847412116 1.5985823273658755 4.5000000000000009
decision_type=2 2 2 2 2 2 2 2 2 2
left_child=1 2 7 5 -5 8 -7 -1 -3 -9
right_child=-2 3 -4 4 -6 6 -8 9 -10 -11
leaf_value=0.10214021787138375 -0.0084532021168786282 0.080898339358323093 -0.029796431356364648 -0.031024529439592639 0.0010738142872698474 -0.0092432442632965107 0.11292334773651604 0.0006393235106721206 -0.010179848099048847 -0.021654041831081744
leaf_weight=35.554879188537598 14.512195587158201 202.44512844085693 34.103659629821777 13.060976028442381 37.006098747253418 16.689024925231934 21.768293380737305 10.884146690368654 16.689024925231934 10.884146690368651
leaf_count=22 2 189 29 18 51 23 30 15 23 15
internal_value=0 0.00018037 -0.00395715 0.00146302 -0.00146835 0.00209264 -6.1042e-06 0.000832332 0.00252843 -0.00128149
internal_weight=0 399.085 91.4268 307.659 50.0671 257.591 38.4573 57.3232 219.134 21.7683
internal_count=417 415 81 334 69 265 53 52 212 30
is_linear=0
shrinkage=0.03


Tree=70
num_leaves=10
num_cat=0
split_feature=11 55 17 116 0 12 46 103 103
split_gain=1.95677 2.40915 1.12743 0.574757 0.749026 0.260502 0.194395 0.148372 0.138437
threshold=1.004955589771271 0.98669421672821056 55.249990463256843 0.34086012840271002 53.135000228881843 1.743377208709717 1.9889405965805056 0.22792643308639529 -6.3230574131011954
decision_type=2 2 2 2 2 2 2 2 2
left_child=2 3 5 6 -5 -1 8 -7 -2
right_child=1 -3 -4 4 -6 7 -8 -9 -10
leaf_value=0.080078386203127627 -0.0033299445890550136 -0.028902538415673751 -0.05049689087020777 0.013354290358854434 -0.048954257460874756 0.0012249153923177046 -0.025293516558413422 -0.0089659469353976454 0.044120382893878138
leaf_weight=187.93293285369873 14.512195587158201 43.536586761474609 20.317073822021484 21.768293380737305 15.237805366516112 12.335366249084474 20.317073822021484 12.335366249084471 66.030489921569824
leaf_count=151 20 15 28 30 21 17 28 17 91
internal_value=0 -0.00243061 0.00171696 -0.000363564 -0.00360478 0.00241183 0.000689587 0 0.00145339
internal_weight=0 181.402 232.921 137.866 37.0061 212.604 100.86 24.6707 80.5427
internal_count=418 205 213 190 51 185 139 34 111
is_linear=0
shrinkage=0.03


Tree=71
num_leaves=14
num_cat=0
split_feature=11 19 19 3 10 29 38 7 36 20 12 103 44
split_gain=2.01381 2.71387 6.93515 1.08246 0.736515 0.611466 0.420821 0.403543 0.377105 0.458295 0.344316 0.323498 0.13508
threshold=1.004955589771271 49.605001449584968 51.585000991821296 54.260000228881843 9.6466283798217791 -1.6661640405654905 200.78571319580081 3.1919629573822026 191.50000000000003 56.260000228881843 1.4912226200103762 0.22792643308639529 -0.036750555038452141
decision_type=2 2 2 2 2 2 2 2 2 2 2 2 2
left_child=3 4 -3 10 8 -5 -4 -6 9 -2 -1 -12 -10
right_child=1 2 6 5 7 -7 -8 -9 12 -11 11 -13 -14
leaf_value=0.089301651468277815 -0.020137344423679069 -0.082489903512959456 -0.031476816161319511 0.013753700852776624 -0.00070346768146437803 -0.048981984144101563 0.11338238230076307 -0.057646359787092899 -0.0032300462513833671 0.12099920982609043 0.03036314343216711 -0.0086969685273357196 0.13440502432679366
leaf_weight=171.96951770782471 15.963415145874025 18.140244483947754 15.963415145874022 13.786585807800295 10.884146690368654 17.414634704589844 20.317073822021484 10.884146690368651 21.042683601379395 11.609756469726561 16.689024925231937 13.060976028442381 56.597562789916992
leaf_count=129 22 7 22 19 15 24 19 15 29 16 23 18 60
internal_value=0 -0.00266995 -0.00824858 0.00153045 -0.00013847 -0.00344085 -0.000184019 -0.00519168 0.000784738 -0.001947 0.00238017 -0.000151784 0.0019531
internal_weight=0 181.402 54.4207 232.921 126.982 31.2012 36.2805 21.7683 105.213 27.5732 201.72 29.75 77.6402
internal_count=418 205 48 213 157 43 41 30 127 38 170 41 89
is_linear=0
shrinkage=0.03


Tree=72
num_leaves=12
num_cat=0
split_feature=11 19 19 3 10 42 105 43 43 38 12
split_gain=1.78846 2.56846 7.3232 0.872157 0.782173 0.894797 0.466803 0.321989 0.418408 0.255208 0.239945
threshold=1.004955589771271 49.605001449584968 51.585000991821296 58.444999694824226 9.6466283798217791 13.894916057586672 4.7875523567199716 0.039610110223293311 0.10671719908714296 200.78571319580081 1.78411340713501
decision_type=2 2 2 2 2 2 2 2 2 2 2
left_child=3 4 -3 6 7 -6 10 -2 -9 -4 -1
right_child=1 2 9 -5 5 -7 -8 8 -10 -11 -12
leaf_value=0.086670511032757955 0.091827329499830412 -0.080015206407570691 -0.030532511676479926 -0.047512524619778486 0.0037909948758742115 -0.055916968993480115 -0.0026154998954314476 -0.0195332240909687 0.11062966463464073 0.10998091083174018 -6.8620313811749159e-05
leaf_weight=179.95122528076172 72.560977935791016 18.140244483947754 15.963415145874022 18.140244483947754 10.884146690368654 10.884146690368651 18.865854263305664 18.140244483947754 14.512195587158201 20.317073822021484 15.963415145874022
leaf_count=140 82 7 22 25 15 15 26 25 20 19 22
internal_value=0 -0.00243061 -0.00785223 0.00153045 0 -0.00519168 0.00211443 0.000990656 -0.00118907 0 0.00258351
internal_weight=0 181.402 54.4207 232.921 126.982 21.7683 214.78 105.213 32.6524 36.2805 195.915
internal_count=418 205 48 213 157 30 188 127 45 41 162
is_linear=0
shrinkage=0.03


Tree=73
num_leaves=9
num_cat=0
split_feature=16 34 22 20 20 55 33 32
split_gain=1.67642 5.31176 1.41263 1.40048 0.919966 0.251307 0.88345 0.140287
threshold=1.0596696734428408 6.3589754104614267 1.1631896495819094 51.420000076293952 65.079998016357436 0.87444871664047252 7.172797918319703 17.438471794128422
decision_type=2 2 2 2 2 2 2 2
left_child=-1 -2 5 -4 -5 7 -7 -3
right_child=1 2 3 4 -6 6 -8 -9
leaf_value=0.091394494874117355 -0.088541977071460359 0.091422640060536825 -0.0024573766032861323 -0.0012408315133387937 -0.046087148881185092 0.083084205745241418 -0.024954264349696994 -6.6561704397400938e-05
leaf_weight=112.46951580047607 8.7073173522949201 77.640246391296387 27.573171615600586 98.682929992675781 16.689024925231934 47.89024543762207 13.786585807800291 10.884146690368651
leaf_count=47 3 107 20 127 23 57 19 15
internal_value=0 -0.00141911 -0.000660576 -0.00282427 -0.00120439 0.0013016 0 0.00232562
internal_weight=0 301.854 293.146 142.945 115.372 150.201 61.6768 88.5244
internal_count=418 371 368 170 150 198 76 122
is_linear=0
shrinkage=0.03


Tree=74
num_leaves=9
num_cat=0
split_feature=13 19 19 10 56 109 36 23
split_gain=1.50745 2.46465 5.6485 1.16341 0.758756 0.594392 0.783191 0.336302
threshold=1.2267415523529055 49.605001449584968 52.159999847412116 13.601734161376955 112.50000000000001 198.23667144775393 189.50000000000003 0.51305150985717785
decision_type=2 2 2 2 2 2 2 2
left_child=7 3 -3 5 -4 6 -2 -1
right_child=1 2 4 -5 -6 -7 -8 -9
leaf_value=0.079700198554573096 -0.033535733038959244 -0.025762640772271708 0.074073335988268693 -0.054237463072543832 -0.044704534414749551 0.023878766229922518 0.01033296809603545 -0.0024633136004698739
leaf_weight=156.73171234130859 10.884146690368654 18.140244483947754 25.396342277526855 20.317073822021484 11.609756469726561 137.14024829864502 19.591464042663574 14.512195587158201
leaf_count=108 15 7 26 28 16 171 27 20
internal_value=0 -0.00177047 -0.00731953 -4.74711e-05 -0.000122419 0.000700628 -0.00288898 0.00188994
internal_weight=0 243.079 55.1463 187.933 37.0061 167.616 30.4756 171.244
internal_count=418 290 49 241 42 213 42 128
is_linear=0
shrinkage=0.03


Tree=75
num_leaves=7
num_cat=0
split_feature=33 6 39 20 42 19
split_gain=2.85191 2.22438 1.99039 1.00657 1.15021 0.559382
threshold=0.43077346682548529 5.1530103683471689 206.93332672119143 62.909999847412116 13.795469284057619 39.939998626708991
decision_type=2 2 2 2 2 2
left_child=-1 2 3 5 -5 -2
right_child=1 -3 -4 4 -6 -7
leaf_value=-0.042027082535622547 -0.0086303585721336871 -0.025101849027708352 -0.0016107760820193917 -0.032159278917181663 0.014269306283717035 0.030450066515113807
leaf_weight=16.689024925231934 18.865854263305664 26.847561836242676 15.237805366516112 25.396342277526855 34.103659629821777 288.79269218444824
leaf_count=14 26 28 3 35 47 272
internal_value=0 -0.000154647 0.000398583 0.000882845 -0.00257988 0.0016043
internal_weight=0 409.244 382.396 367.159 59.5 307.659
internal_count=425 411 383 380 82 298
is_linear=0
shrinkage=0.03


Tree=76
num_leaves=13
num_cat=0
split_feature=14 14 22 40 106 103 15 15 30 23 26 101
split_gain=2.23881 7.78542 1.24084 1.05471 1.1043 0.698699 0.434538 0.986935 0.287252 0.129841 0.106657 0.105318
threshold=50.264999389648445 50.725000381469734 1.2344834208488467 15.623459815979006 0.48866087198257452 8.0242187976837176 52.659999847412116 53.840000152587898 0.48342907428741461 0.54246440529823314 1.4118590950965884 0.65360626578331005
decision_type=2 2 2 2 2 2 2 2 2 2 2 2
left_child=5 -2 10 4 -4 6 8 -8 9 -1 -3 -9
right_child=1 2 3 -5 -6 -7 7 11 -10 -11 -12 -13
leaf_value=0.085348152075803263 -0.11806615172728258 0.056438101758711112 -0.031194500549666236 0.24837221988334987 -0.025928007459792114 -0.018046349320019493 -0.027288250394993305 0.058277545503642295 -0.0034934550916064211 -0.00076298910386999089 -0.020222266222343899 -0.0029924929705405388
leaf_weight=148.75000476837158 34.103659629821777 65.304880142211914 17.414634704589844 15.237805366516112 15.963415145874022 18.140244483947754 15.237805366516112 29.750000953674316 19.591464042663574 13.786585807800291 13.786585807800291 18.865854263305664
leaf_count=124 11 45 24 21 22 25 21 41 27 19 19 26
internal_value=0 -0.00348845 0 -0.00381639 -0.00688229 0.000963362 0.00143168 -0.000511086 0.00219448 0.00263176 0.00224569 0.00133445
internal_weight=0 161.811 127.707 48.6159 33.378 264.122 245.982 63.8537 182.128 162.537 79.0915 48.6159
internal_count=425 142 131 67 46 283 258 88 170 143 64 67
is_linear=0
shrinkage=0.03


Tree=77
num_leaves=12
num_cat=0
split_feature=39 40 22 32 22 31 12 102 13 29 116
split_gain=1.97287 3.29985 4.9652 0.886017 0.995087 0.836582 0.705184 0.618631 0.594202 0.406942 0.181269
threshold=198.60434722900393 14.007071971893312 1.0401839613914492 7.0281035900115976 1.2344834208488467 0.13556323200464251 1.3953821063041689 0.97940123081207286 1.8090696334838869 1.0000000180025095e-35 0.23356989771127704
decision_type=2 2 2 2 2 2 2 2 2 2 2
left_child=1 6 -3 -2 10 -4 -1 9 -6 -8 -5
right_child=3 2 5 4 8 -7 7 -9 -10 -11 -12
leaf_value=0.026976119957386302 0.013382437745759219 -0.037224285507735426 0.030854293671051847 -0.019615598235673576 -0.022219845505634144 -0.042786492551907786 -0.030258665533176233 0.023548390155360914 -0.017504958840418892 -0.056499421858031015 0.010833227837570581
leaf_weight=61.676831245422363 178.5000057220459 20.317073822021484 23.219512939453125 10.884146690368651 21.042683601379398 15.237805366516112 13.786585807800295 13.060976028442381 10.884146690368651 12.335366249084471 44.98780632019043
leaf_count=40 156 10 23 15 29 21 19 18 15 17 62
internal_value=0 -0.00289696 -0.00852412 0.00130634 -0.00103812 -0.00168242 0.000260061 -0.00269392 -0.00531064 -0.0054874 0.00116268
internal_weight=0 159.634 58.7744 266.299 87.7988 38.4573 100.86 39.1829 31.9268 26.122 55.872
internal_count=425 148 54 277 121 44 94 54 44 36 77
is_linear=0
shrinkage=0.03


Tree=78
num_leaves=9
num_cat=0
split_feature=33 6 55 19 19 33 102 101
split_gain=3.1668 2.17782 0.769682 1.04248 1.04701 0.18595 0.213304 0.174145
threshold=0.43077346682548529 5.1530103683471689 -0.017165697645395991 39.939998626708991 48.164999008178718 8.7078266143798846 -0.088620904833078371 -1.8141039609909055
decision_type=2 2 2 2 2 2 2 2
left_child=-1 2 3 -2 -5 7 -7 -4
right_child=1 -3 5 4 -6 6 -8 -9
leaf_value=-0.03610755694250338 -0.016979810075206315 -0.022742119777999274 -0.07526339637691784 0.042514998551472727 -0.025186008106586291 0.13652751846832173 -0.015825966291915759 0.026166836358664704
leaf_weight=16.689024925231934 10.884146690368651 26.847561836242676 8.7073173522949201 95.05488109588623 55.146343231201172 17.414634704589847 11.609756469726561 183.57927417755127
leaf_count=14 15 28 12 131 76 24 16 109
internal_value=0 0.000462782 0.0010808 -0.000419094 0.000146025 0.00223864 0 0.00257567
internal_weight=0 409.244 382.396 161.085 150.201 221.311 29.0244 192.287
internal_count=425 411 383 222 207 161 40 121
is_linear=0
shrinkage=0.03


Tree=79
num_leaves=9
num_cat=0
split_feature=33 6 55 46 20 9 103 103
split_gain=2.06322 2.17782 0.679822 0.573102 0.384577 0.292287 0.279628 0.155028
threshold=0.43077346682548529 5.1530103683471689 -0.034326335415244096 2.5298396348953252 64.224998474121108 6.8385660648345956 -2.9045552015304561 -4.3717803955078116
decision_type=2 2 2 2 2 2 2 2
left_child=-1 2 3 4 -2 -5 7 -4
right_child=1 -3 6 5 -6 -7 -8 -9
leaf_value=-0.035024330234228261 0.0087559883155130438 -0.02205985618465927 -0.015117620285685102 -0.017073981103316205 -0.025320215802932252 -0.00017843749310285872 0.025381831267904758 0.022056933359940183
leaf_weight=16.689024925231934 100.85975933074951 26.847561836242676 17.414634704589847 12.335366249084474 34.103659629821777 10.884146690368651 193.73781108856201 13.060976028442381
leaf_count=14 139 28 24 17 47 15 123 18
internal_value=0 0.000462782 0.0010808 -0.000344451 0.000307076 -0.00469049 0.0021516 -7.79527e-05
internal_weight=0 409.244 382.396 158.183 134.963 23.2195 224.213 30.4756
internal_count=425 411 383 218 186 32 165 42
is_linear=0
shrinkage=0.03


Tree=80
num_leaves=8
num_cat=0
split_feature=42 6 13 20 10 17 11
split_gain=4.05416 2.40196 0.859511 1.18644 0.684809 0.272934 0.141075
threshold=16.986395835876468 5.1530103683471689 1.7301921844482424 54.475000381469734 6.5328664779663095 55.114845275878913 1.1166555285453799
decision_type=2 2 2 2 2 2 2
left_child=1 2 5 -4 -5 6 -1
right_child=-2 -3 3 4 -6 -7 -8
leaf_value=0.040297125527015011 -0.033973600327201439 -0.012975342563514011 -0.015958196339850659 0.037369150025833804 -0.016561761670216731 -0.023670821389300725 0.011434504584589398
leaf_weight=178.5000057220459 39.908537864685059 21.768293380737305 18.140244483947754 81.268295288085938 16.689024925231934 18.865854263305664 37.006098747253418
leaf_count=129 28 21 25 112 23 26 42
internal_value=0 0.000386085 0.00103026 -0.000991528 0.00017929 0.00209562 0.00241973
internal_weight=0 372.238 350.47 116.098 97.9573 234.372 215.506
internal_count=406 378 357 160 135 197 171
is_linear=0
shrinkage=0.03


end of trees

feature_importances:
price_max_20d=38
price_min_20d=37
price_min_60d=37
doy_cos=36
return_60d=32
price_max_60d=32
price_std_20d=25
return_3d=21
vol_regime_60_30=19
item_return_vs_market_1d=19
item_age_days=18
item_return_vs_market_7d=18
event_decay_major=17
price_std_30d=16
price_std_7d=15
price_mean_60d=15
volume_mean_30d=14
volume_std_60d=14
market_volume_mean_30d=14
high_low_range_30d=12
price_zscore_30d=11
distance_to_support=11
distance_to_resistance=11
price_std_14d=10
macd_histogram=10
volume_mean_7d=10
trend_divergence_30_60=9
market_return_1d=9
price_lag_7d=8
price_std_60d=8
volume_mean_60d=8
price_lag_1d=7
price_lag_14d=7
volume_price_conf_7d=7
market_return_7d=7
price_lag_60d=6
macd_line=6
macd_signal=6
market_volatility_30d=6
market_regime_duration_days=6
market_return_30d_percentile=6
price_lag_30d=5
return_7d=5
volume_std_30d=5
market_return_30d=5
return_30d=4
autocorr_1d=4
bb_pct_b=4
volume_lag_1d=4
autocorr_7d=3
volume_log_change_1d=3
volume_price_conf_1d=3
month_cos=3
item_return_vs_market_14d=3
volume_log_change_7d=2
item_return_vs_market_30d=2
return_14d=1
price_accel_7d=1
volume_zscore_30d=1
market_return_14d=1

parameters:
[boosting: gbdt]
[objective: quantile]
[metric: quantile]
[tree_learner: serial]
[device_type: cpu]
[data_sample_strategy: bagging]
[data: ]
[valid: ]
[num_iterations: 1000]
[learning_rate: 0.03]
[num_leaves: 31]
[num_threads: -1]
[seed: 42]
[deterministic: 0]
[force_col_wise: 0]
[force_row_wise: 0]
[histogram_pool_size: -1]
[max_depth: 5]
[min_data_in_leaf: 15]
[min_sum_hessian_in_leaf: 0.001]
[bagging_fraction: 0.7]
[pos_bagging_fraction: 1]
[neg_bagging_fraction: 1]
[bagging_freq: 5]
[bagging_seed: 400]
[feature_fraction: 0.6]
[feature_fraction_bynode: 1]
[feature_fraction_seed: 30056]
[extra_trees: 0]
[extra_seed: 12879]
[early_stopping_round: 0]
[early_stopping_min_delta: 0]
[first_metric_only: 0]
[max_delta_step: 0]
[lambda_l1: 0.5]
[lambda_l2: 0.5]
[linear_lambda: 0]
[min_gain_to_split: 0.1]
[drop_rate: 0.1]
[max_drop: 50]
[skip_drop: 0.5]
[xgboost_dart_mode: 0]
[uniform_drop: 0]
[drop_seed: 17869]
[top_rate: 0.2]
[other_rate: 0.1]
[min_data_per_group: 100]
[max_cat_threshold: 32]
[cat_l2: 10]
[cat_smooth: 10]
[max_cat_to_onehot: 4]
[top_k: 20]
[monotone_constraints: ]
[monotone_constraints_method: basic]
[monotone_penalty: 0]
[feature_contri: ]
[forcedsplits_filename: ]
[refit_decay_rate: 0.9]
[cegb_tradeoff: 1]
[cegb_penalty_split: 0]
[cegb_penalty_feature_lazy: ]
[cegb_penalty_feature_coupled: ]
[path_smooth: 0]
[interaction_constraints: ]
[verbosity: -1]
[saved_feature_importance_type: 0]
[use_quantized_grad: 0]
[num_grad_quant_bins: 4]
[quant_train_renew_leaf: 0]
[stochastic_rounding: 1]
[linear_tree: 0]
[max_bin: 63]
[max_bin_by_feature: ]
[min_data_in_bin: 3]
[bin_construct_sample_cnt: 200000]
[data_random_seed: 175]
[is_enable_sparse: 1]
[enable_bundle: 1]
[use_missing: 1]
[zero_as_missing: 0]
[feature_pre_filter: 0]
[pre_partition: 0]
[two_round: 0]
[header: 0]
[label_column: ]
[weight_column: ]
[group_column: ]
[ignore_column: ]
[categorical_feature: ]
[forcedbins_filename: ]
[precise_float_parser: 0]
[parser_config_file: ]
[objective_seed: 16083]
[num_class: 1]
[is_unbalance: 0]
[scale_pos_weight: 1]
[sigmoid: 1]
[boost_from_average: 1]
[reg_sqrt: 0]
[alpha: 0.1]
[fair_c: 1]
[poisson_max_delta_step: 0.7]
[tweedie_variance_power: 1.5]
[lambdarank_truncation_level: 30]
[lambdarank_norm: 1]
[label_gain: ]
[lambdarank_position_bias_regularization: 0]
[eval_at: ]
[multi_error_top_k: 1]
[auc_mu_weights: ]
[num_machines: 1]
[local_listen_port: 12400]
[time_out: 120]
[machine_list_filename: ]
[machines: ]
[gpu_platform_id: -1]
[gpu_device_id: -1]
[gpu_use_dp: 0]
[num_gpu: 1]

end of parameters

pandas_categorical:[]
