tree
version=v4
num_class=1
num_tree_per_iteration=1
label_index=0
max_feature_idx=121
objective=quantile
feature_names=price_lag_1d price_lag_7d price_lag_14d price_lag_30d price_lag_60d return_1d return_3d return_7d return_14d return_30d return_60d price_std_7d price_std_14d price_std_20d price_min_20d price_max_20d price_std_30d price_mean_60d price_std_60d price_min_60d price_max_60d price_zscore_30d vol_regime_60_30 trend_divergence_30_60 price_accel_7d price_tier autocorr_1d autocorr_7d bb_pct_b macd_line macd_signal macd_histogram distance_to_support distance_to_resistance high_low_range_30d volume_missing volume_lag_1d volume_lag_7d volume_mean_7d volume_mean_30d volume_std_30d volume_mean_60d volume_std_60d volume_log_change_1d volume_log_change_7d volume_zscore_30d volume_price_conf_7d volume_price_conf_1d rsi_missing macd_missing is_weekend dow_sin dow_cos month_sin month_cos doy_cos item_age_days is_stattrak is_souvenir is_knife is_glove is_sticker is_case is_capsule is_agent is_music_kit is_graffiti is_charm is_patch quality_rank event_decay_major events_next_30d_major event_density_30d_major event_density_90d_major event_decay_operation events_next_30d_operation event_density_30d_operation event_density_90d_operation event_decay_case_drop events_next_30d_case_drop event_density_30d_case_drop event_density_90d_case_drop event_decay_update events_next_30d_update event_density_30d_update event_density_90d_update event_decay_game_update events_next_30d_game_update event_density_30d_game_update event_density_90d_game_update event_decay_major_weighted event_decay_operation_weighted event_decay_case_drop_weighted event_decay_update_weighted event_decay_game_update_weighted social_mentions_1d social_mentions_7d social_mention_velocity social_sentiment_7d social_score_7d market_return_1d item_return_vs_market_1d market_return_7d item_return_vs_market_7d market_return_14d item_return_vs_market_14d market_return_30d item_return_vs_market_30d market_volatility_30d market_volume_mean_30d market_regime_crash market_regime_bear market_regime_range market_regime_bull market_regime_mania market_regime_duration_days market_return_30d_percentile supply_listings_log supply_listings_zscore supply_change_7d supply_skinport_qty_log supply_to_volume_ratio
feature_infos=[39.849998474121094:66.220001220703125] [39.849998474121094:66.220001220703125] [39.790000915527344:66.220001220703125] [40.729999542236328:66.569999694824219] [39.849998474121094:66.569999694824219] [-6.0415120124816895:5.3940391540527344] [-10.281366348266602:9.4368009567260742] [-17.372880935668945:14.35562801361084] [-21.531669616699219:24.511468887329102] [-24.868003845214844:39.543319702148438] [-29.951061248779297:26.83879280090332] [0.042426407337188721:3.2751080989837646] [0.042426407337188721:4.732576847076416] [0.042426407337188721:5.307133674621582] [39.790000915527344:61.619998931884766] [43.779998779296875:66.220001220703125] [0.042426407337188721:5.4625492095947266] [43.426834106445312:62.902332305908203] [0.042426407337188721:6.0651006698608398] [39.790000915527344:58.759998321533203] [47.880001068115234:66.569999694824219] [-3.4853887557983398:3.0036964416503906] [0.75903922319412231:3.9533336162567139] [-39.368843078613281:101.21376037597656] [-22.131687164306641:18.705087661743164] [3:3] [-17.983921051025391:24.183246612548828] [-115.25129699707031:134.03640747070312] [-0.21316516399383545:1.1863726377487183] [-3.1019792556762695:3.1830518245697021] [-2.2672655582427979:2.7412140369415283] [-1.2678171396255493:0.94621419906616211] [0.018351990729570389:39.335178375244141] [0.054525628685951233:31.854576110839844] [0.12307692319154739:39.335178375244141] none [163:245] [161:245] [176:219] [176:219] [4.0414519309997559:20.036775588989258] [176:219] [4.0414519309997559:19.928762435913086] [-0.28488487005233765:0.30276116728782654] [-0.26826399564743042:0.40341803431510925] [-2.4042847156524658:2.6703879833221436] [-17.372880935668945:14.35562801361084] [-6.0415120124816895:5.3940391540527344] [0:1] [0:1] [0:1] [-0.97492790222167969:0.97492790222167969] [-0.90096884965896606:1] [-0.86602538824081421:1] [-1:0.86602538824081421] [-1:0.99985265731811523] [0:234] none none none none none none none none none none none none none [0:0.96721607446670532] [0:1] [0:1] [0:1] none none none none none none none none none none none none none none none none none none none none none none none none none none [-2.0933716297149658:1.6730349063873291] [-4.7729063034057617:4.9617133140563965] [-5.9873161315917969:5.599886417388916] [-15.224418640136719:14.81980037689209] [-7.3588790893554688:5.6792440414428711] [-21.058666229248047:25.597810745239258] [-2.9261324405670166:2.6404297351837158] [-23.844234466552734:40.982707977294922] [0.43699198961257935:3.9010679721832275] [195.10000610351562:203.39999389648438] none none [0:1] none none [1:30] [0.040816325694322586:0.75268816947937012] none none none none none
tree_sizes=1638 1391 1392 1719 1398 1499 1596 1196 1395 1394 1807 1802 1814 1404 1821 1593 1499 1519 1514 1402 1736 1521 1933 1604 1504 1488 1606 1620 1749 1516 999

Tree=0
num_leaves=15
num_cat=0
split_feature=15 33 15 109 100 1 108 2 30 115 115 104 102 45
split_gain=1.14283 2.08676 4.34466 1.89662 2.73238 1.17265 0.538205 0.363958 0.594871 0.344216 0.363874 0.321304 0.307798 0.114181
threshold=50.829999923706062 6.5258526802062997 56.260000228881843 200.63249969482425 -1.1911315917968748 47.545000076293952 2.481181383132935 46.880001068115241 -0.0096566843567416055 14.500000000000002 16.500000000000004 -1.0400999188423155 -1.3631384372711179 -1.0147979259490965
decision_type=2 2 2 2 2 2 2 2 2 2 2 2 2 2
left_child=6 2 3 4 -2 -3 9 -8 -9 -1 -11 12 -7 -4
right_child=1 5 13 -5 -6 11 7 8 -10 10 -12 -13 -14 -15
leaf_value=6.7520635713950528 6.6880610684607875 6.9088382811293076 6.8316196796794468 6.6529096952841194 6.8971685586183007 6.7824694936063832 6.7408411496839662 6.798446664251605 6.9489192698035875 6.9514724567154706 6.6883718631754929 6.7523566646641653 6.8425158322231114 6.7326199079236231
leaf_weight=161.21139717102051 8.0605698227882367 6.5950117707252494 6.5950117707252494 8.0605699419975263 36.638954162597656 28.578384339809418 13.922802627086641 4.3966745138168335 5.8622326850891096 4.3966745138168326 10.258907198905943 94.528501570224762 18.319477140903473 38.837291538715363
leaf_count=94 2 9 9 11 41 39 19 6 8 6 14 93 25 53
internal_value=6.80038 6.8014 6.80383 6.80799 6.80971 6.79991 6.79923 6.80175 6.80465 6.79875 6.80093 6.79933 6.80039 6.79936
internal_weight=446.262 246.214 98.1924 52.7601 44.6995 148.021 200.049 24.1817 10.2589 175.867 14.6556 141.426 46.8979 45.4323
internal_count=429 282 116 54 43 166 147 33 14 114 20 157 64 62
is_linear=0
shrinkage=1


Tree=1
num_leaves=12
num_cat=0
split_feature=56 18 8 14 3 15 8 39 15 34 107
split_gain=1.65795 2.15465 1.55921 1.86367 0.630785 2.37495 1.52483 0.343081 0.841646 0.460565 0.12146
threshold=10.500000000000002 1.3627039790153506 3.068770289421082 46.219999313354499 46.899999618530281 49.86000061035157 9.5009603500366229 203.03666687011722 52.100000381469734 10.85977077484131 -1.735645532608032
decision_type=2 2 2 2 2 2 2 2 2 2 2
left_child=-1 2 3 -2 5 10 -7 9 -9 -6 -3
right_child=1 4 -4 -5 7 6 -8 8 -10 -11 -12
leaf_value=-0.046791774439890216 -0.0079461185673651916 0.019559898073233644 -0.027597056130639265 0.107318798253161 0.052411243261211868 0.12857536246023327 -0.087882871853181263 -0.053012146808790683 0.062771765842796881 -0.049423259546921103 -0.056706125906635756
leaf_weight=161.21139645576477 8.7933490276336723 8.7933490276336652 8.0605699419975263 11.724465370178221 11.724465370178221 10.991686284542082 4.3966745138168326 16.853918969631199 12.45724445581436 161.9441779255867 29.311163425445557
leaf_count=40 12 12 11 16 16 15 6 23 17 221 40
internal_value=-0.000229973 0.000700265 0.00614746 0.00918518 0 0.00210169 0.00889617 -0.000488174 0.00134766 -0.000929658 -0.00033233
internal_weight=446.262 285.051 28.5784 20.5178 256.473 53.4929 15.3884 202.98 29.3112 173.669 38.1045
internal_count=429 389 39 28 350 73 21 277 40 237 52
is_linear=0
shrinkage=0.0215021


Tree=2
num_leaves=12
num_cat=0
split_feature=55 18 115 16 3 15 8 39 15 34 107
split_gain=1.65795 2.15465 1.9809 1.89089 0.630785 2.37495 1.52483 0.343081 0.841646 0.460565 0.12146
threshold=0.9805392622947694 1.3627039790153506 18.500000000000004 1.154907286167145 46.899999618530281 49.86000061035157 9.5009603500366229 203.03666687011722 52.100000381469734 10.85977077484131 -1.735645532608032
decision_type=2 2 2 2 2 2 2 2 2 2 2
left_child=1 2 3 -1 5 10 -7 9 -9 -6 -3
right_child=-2 4 -4 -5 7 6 -8 8 -10 -11 -12
leaf_value=-0.002597095017933784 -0.045785650940802669 0.019139318316923722 -0.066690405400949268 0.10501121393713875 0.051284289131074301 0.12581071642738997 -0.085993201636626992 -0.051872271963695392 0.061422038258202041 -0.048360553474606202 -0.055486822588908927
leaf_weight=8.0605699419975334 161.21139645576477 8.7933490276336652 9.5261281132698041 10.991686284542082 11.724465370178221 10.991686284542082 4.3966745138168326 16.853918969631199 12.45724445581436 161.9441779255867 29.311163425445557
leaf_count=11 40 12 13 15 16 15 6 23 17 221 40
internal_value=-0.000229973 0.000700265 0.00614746 0.0099935 0 0.00210169 0.00889617 -0.000488174 0.00134766 -0.000929658 -0.00033233
internal_weight=446.262 285.051 28.5784 19.0523 256.473 53.4929 15.3884 202.98 29.3112 173.669 38.1045
internal_count=429 389 39 26 350 73 21 277 40 237 52
is_linear=0
shrinkage=0.0215021


Tree=3
num_leaves=15
num_cat=0
split_feature=15 33 0 100 36 1 103 3 104 102 115 40 45 51
split_gain=0.99955 1.9243 4.87721 2.49559 1.89929 1.17265 0.787699 0.840158 0.321304 0.307798 0.271145 0.228163 0.210117 0.109481
threshold=50.829999923706062 6.5258526802062997 53.864999771118171 -1.1911315917968748 209.50000000000003 47.545000076293952 -0.9264334738254546 45.655000686645515 -1.0400999188423155 -1.3631384372711179 11.500000000000002 15.315025329589846 -1.0147979259490965 0.6078576147556306
decision_type=2 2 2 2 2 2 2 2 2 2 2 2 2 2
left_child=6 2 3 -2 -5 -3 7 11 9 -7 -8 -1 13 -4
right_child=1 5 12 4 -6 8 10 -9 -10 -11 -12 -13 -14 -15
leaf_value=0.13993967430704546 -0.1088675471182864 0.10351992596154246 -0.013708918845535841 0.095842793155061792 0.02907829547922235 -0.015358666805321384 -0.045532776130023385 -0.015539603002523066 -0.044855873152203456 0.038623551940522145 0.0041017756505031715 0.12911775070701512 -0.06029841208404995 0.032734684860742928
leaf_weight=3.6638954281806928 8.7933489084243757 6.5950117707252494 3.6638954281806937 30.776721477508545 6.5950117707252494 28.578384339809418 152.41804814338684 27.845605254173279 94.528501570224762 18.319477140903473 10.991686284542082 5.1294535994529724 44.699524223804474 3.6638954281806946
leaf_count=5 3 9 5 33 9 39 82 38 93 25 15 7 61 5
internal_value=6.1064e-05 0.00101996 0.00335623 0.00837493 0.0107559 -0.000404162 -0.00101124 0.00150186 -0.000985039 7.66137e-05 -0.00171363 0.00678929 -0.000805174 0.00113397
internal_weight=446.262 246.214 98.1924 46.1651 37.3717 148.021 200.049 36.639 141.426 46.8979 163.41 8.79335 52.0273 7.32779
internal_count=429 282 116 45 42 166 147 50 157 64 97 12 71 10
is_linear=0
shrinkage=0.0215021


Tree=4
num_leaves=12
num_cat=0
split_feature=55 18 115 16 3 15 13 39 15 102 107
split_gain=1.59522 2.2005 1.9809 1.89089 0.497301 1.93388 0.998467 0.343081 0.841646 0.249196 0.12146
threshold=0.9805392622947694 1.3627039790153506 18.500000000000004 1.154907286167145 46.899999618530281 49.86000061035157 2.1863026618957524 203.03666687011722 52.100000381469734 -0.60332611203193653 -1.735645532608032
decision_type=2 2 2 2 2 2 2 2 2 2 2
left_child=1 2 3 -1 5 10 -7 9 -9 -6 -3
right_child=-2 4 -4 -5 7 6 -8 8 -10 -11 -12
leaf_value=-0.0026294488784396508 -0.043822108919251437 0.015951473383997512 -0.065881664375512683 0.10069242203748634 -0.0043704784363594587 0.12104469061803286 -0.12848127926547309 -0.049777854536915848 0.057875432296499746 -0.049533442485503891 -0.05438193388047019
leaf_weight=8.0605699419975334 161.21139645576477 8.7933490276336652 9.5261281132698041 10.991686284542082 71.812350392341614 11.724465370178221 3.6638954281806937 16.853918969631199 12.45724445581436 101.85629290342331 29.311163425445557
leaf_count=11 40 12 13 15 98 16 5 23 17 139 40
internal_value=-0.000265162 0.000645279 0.00614746 0.0099935 0 0.00181517 0.0079632 -0.000488174 0.00134766 -0.000929658 -0.00033233
internal_weight=446.262 285.051 28.5784 19.0523 256.473 53.4929 15.3884 202.98 29.3112 173.669 38.1045
internal_count=429 389 39 26 350 73 21 277 40 237 52
is_linear=0
shrinkage=0.0215021


Tree=5
num_leaves=13
num_cat=0
split_feature=19 24 108 55 22 108 23 8 6 103 103 44
split_gain=1.42158 0.954105 1.65926 0.610081 1.22201 1.79048 0.771422 0.422282 0.229603 0.127819 0.117604 0.116293
threshold=46.854999542236335 -7.0791282653808585 1.6106976270675661 0.6205866038799287 1.3122863769531252 2.1589988470077519 0.89884880185127269 1.0355799794197085 -1.9092115759849546 -0.45311577618122095 -2.1736829280853267 0.024815780110657219
decision_type=2 2 2 2 2 2 2 2 2 2 2 2
left_child=3 2 -2 4 5 6 -1 -7 11 10 -6 -3
right_child=1 8 -4 -5 9 7 -8 -9 -10 -11 -12 -13
leaf_value=0.09161686454323982 0.10161050512097557 -0.04271120590062899 -0.054496646136753917 -0.068293305379521663 -0.014135137587014943 0.076423591066004146 0.0074455040187320068 -0.039062814760479542 -0.022449055331865777 -0.032613916341201483 0.12599845127673029 0.026287946749132169
leaf_weight=10.258907198905943 5.1294535994529751 29.311163306236267 21.250593483448029 29.311163425445557 13.922802627086641 19.785035312175751 3.6638954281806937 21.983372569084167 205.91092127561569 38.104512453079224 6.5950117707252494 10.258907198905943
leaf_count=14 7 31 29 40 19 27 5 30 146 52 9 14
internal_value=-0.000239389 -0.00119517 0.00228055 0.00141526 0.00218159 0.00441777 0.0109675 0.00143306 -0.00166732 0 0.00131339 0
internal_weight=415.486 271.861 26.38 143.625 114.314 55.6912 13.9228 41.7684 245.481 58.6223 20.5178 39.5701
internal_count=423 227 36 196 156 76 19 57 191 80 28 45
is_linear=0
shrinkage=0.0215021


Tree=6
num_leaves=14
num_cat=0
split_feature=19 27 108 15 1 55 56 11 115 6 115 13 13
split_gain=1.31122 1.07122 2.13338 1.03014 1.32296 1.56644 1.98589 0.28473 0.23372 0.25885 0.216923 0.185944 0.105995
threshold=46.854999542236335 -10.680877208709715 1.6106976270675661 49.86000061035157 50.109998703002937 0.6205866038799287 178.50000000000003 0.53355947136878978 10.500000000000002 -1.9092115759849546 14.500000000000002 1.4405501484870913 3.9173096418380742
decision_type=2 2 2 2 2 2 2 2 2 2 2 2 2
left_child=3 2 -2 7 5 6 -5 -1 -3 10 -10 -6 -13
right_child=1 8 -4 4 11 -7 -8 -9 9 -11 -12 12 -14
leaf_value=0.12328921436072043 0.099425661349177602 -0.041796821483007389 -0.030277722215058464 0.089646905476009134 0.028661475867767839 -0.13353175742238671 -0.044014251160373892 -0.039338844984402419 0.048620569346476621 -0.021966352498470936 -0.065030314534712932 -0.048043809516476986 0.050806414147202592
leaf_weight=3.6638954281806937 5.862232685089114 200.78146755695343 24.181709825992584 19.785035312175754 7.3277908563613883 12.45724445581436 8.7933490276336652 57.889547765254974 8.0605699419975263 28.578384339809418 4.3966745138168326 30.043942511081696 3.6638954281806937
leaf_count=5 8 130 33 27 10 17 12 79 11 39 6 41 5
internal_value=-0.000277175 -0.00119517 0.00226542 0.00130669 0.00291014 0.00556948 0.00824283 -0.000508606 -0.00172481 0 0.00218479 0 -0.00055284
internal_weight=415.486 271.861 30.0439 143.625 82.0713 41.0356 28.5784 61.5534 241.817 41.0356 12.4572 41.0356 33.7078
internal_count=423 227 41 196 112 56 39 84 186 56 17 56 46
is_linear=0
shrinkage=0.0215021


Tree=7
num_leaves=10
num_cat=0
split_feature=19 15 0 103 55 24 108 11 102
split_gain=1.42158 1.14216 1.12681 1.59153 1.6319 0.954105 1.65926 0.28473 0.156655
threshold=46.854999542236335 49.86000061035157 52.829999923706062 -6.8200590610504142 0.6205866038799287 -7.0791282653808585 1.6106976270675661 0.53355947136878978 -0.86702358722686756
decision_type=2 2 2 2 2 2 2 2 2
left_child=1 7 3 -3 -5 6 -2 -1 -7
right_child=5 2 -4 4 -6 8 -8 -9 -10
leaf_value=0.12063823184857585 0.097287796404042101 -0.1064436690094199 -0.037189835531537901 0.082082521620620533 -0.13066053826847943 -0.013117344049085607 -0.052673815411908617 -0.038492975451999561 -0.018191954587778426
leaf_weight=3.6638954281806937 5.1294535994529751 12.45724445581436 27.845605254173279 31.509500682353973 10.258907198905943 33.70783793926239 21.250593483448029 57.889547765254974 211.77315384149551
leaf_count=5 7 17 38 43 14 46 29 79 145
internal_value=-0.000239389 0.00141526 0.00309868 0.00487326 0.00689536 -0.00119517 0.00228055 -0.000508606 -0.00166732
internal_weight=415.486 143.625 82.0713 54.2257 41.7684 271.861 26.38 61.5534 245.481
internal_count=423 196 112 74 57 227 36 84 191
is_linear=0
shrinkage=0.0215021


Tree=8
num_leaves=12
num_cat=0
split_feature=19 15 1 55 56 115 13 102 11 13 13
split_gain=1.31122 1.03014 1.32296 1.56644 1.98589 1.02775 1.58272 1.57369 0.28473 0.185944 0.105995
threshold=46.854999542236335 49.86000061035157 50.109998703002937 0.6205866038799287 178.50000000000003 10.500000000000002 1.5838451981544497 -0.11686258390545844 0.53355947136878978 1.4405501484870913 3.9173096418380742
decision_type=2 2 2 2 2 2 2 2 2 2 2
left_child=1 8 3 4 -3 -2 7 -7 -1 -4 -11
right_child=5 2 9 -5 -6 6 -8 -9 -10 10 -12
leaf_value=0.11804425114568226 -0.040502935796506198 0.085954354506207378 0.028844853890275024 -0.1278510564839358 -0.044832800615660681 0.075616599232116971 -0.061593220868272784 -0.0012267175301057015 -0.037665293928576912 -0.046211103357708443 0.05051362850514509
leaf_weight=3.6638954281806937 217.63538652658463 19.785035312175754 7.3277908563613883 12.45724445581436 8.7933490276336652 8.0605699419975299 31.509500682353973 14.655581712722777 57.889547765254974 30.043942511081696 3.6638954281806937
leaf_count=5 153 27 10 17 12 11 43 20 79 41 5
internal_value=-0.000277175 0.00130669 0.00291014 0.00556948 0.00824283 -0.00119517 0.00119753 0.00555354 -0.000508606 0 -0.00055284
internal_weight=415.486 143.625 82.0713 41.0356 28.5784 271.861 54.2257 22.7162 61.5534 41.0356 33.7078
internal_count=423 196 112 56 39 227 74 31 84 56 46
is_linear=0
shrinkage=0.0215021


Tree=9
num_leaves=12
num_cat=0
split_feature=19 27 13 15 1 55 56 11 13 13 44
split_gain=1.31122 1.07122 2.0579 1.03014 1.32296 1.56644 1.98589 0.28473 0.185944 0.105995 0.100346
threshold=46.854999542236335 -10.680877208709715 1.5220679044723513 49.86000061035157 50.109998703002937 0.6205866038799287 178.50000000000003 0.53355947136878978 1.4405501484870913 3.9173096418380742 0.11377650126814844
decision_type=2 2 2 2 2 2 2 2 2 2 2
left_child=3 2 -2 7 5 6 -5 -1 -6 -10 -3
right_child=1 10 -4 4 8 -7 -8 -9 9 -11 -12
leaf_value=0.11550604659089593 0.046965897091780305 -0.018528960505531114 -0.05067031543607739 0.084106151548469732 0.028224627671582792 -0.12510198458291388 -0.043868799254967061 -0.036855409332935782 -0.04521746553218247 0.049427477161846624 -0.049695184131033299
leaf_weight=3.6638954281806937 8.0605699419975299 227.16151463985443 21.983372569084167 19.785035312175754 7.3277908563613883 12.45724445581436 8.7933490276336652 57.889547765254974 30.043942511081696 3.6638954281806937 14.655581712722777
leaf_count=5 11 166 30 27 10 17 12 79 41 5 20
internal_value=-0.000277175 -0.00119517 0.00226542 0.00130669 0.00291014 0.00556948 0.00824283 -0.000508606 0 -0.00055284 -0.00172481
internal_weight=415.486 271.861 30.0439 143.625 82.0713 41.0356 28.5784 61.5534 41.0356 33.7078 241.817
internal_count=423 227 41 196 112 56 39 84 56 46 186
is_linear=0
shrinkage=0.0215021


Tree=10
num_leaves=16
num_cat=0
split_feature=39 0 5 55 54 7 34 42 9 32 43 31 1 14 2
split_gain=1.53069 3.5291 1.15679 1.08777 1.3581 0.621522 1.72417 0.969776 0.773101 0.841637 0.726826 0.48952 0.277379 0.164991 0.103614
threshold=202.72499847412112 52.179998397827156 0.88653412461280834 0.6205866038799287 -0.68301269412040699 -0.56187480688095082 10.85977077484131 13.491974830627443 1.4590824842453005 8.6736545562744158 -0.013748624827712773 0.18103311955928805 50.674999237060554 46.844999313354499 48.86000061035157
decision_type=2 2 2 2 2 2 2 2 2 2 2 2 2 2 2
left_child=5 3 -3 4 -2 6 7 -1 -8 -10 -9 -6 13 -7 -14
right_child=1 2 -4 -5 11 12 8 10 9 -11 -12 -13 14 -15 -16
leaf_value=-0.044620673574561821 -0.044187515306313679 0.045693737045678279 0.011822897133845994 -0.039279603715163494 0.11302241887741622 -0.050070609345085497 -0.085108104929922671 0.0030639781670407642 0.052832267254800919 -0.020115164620118548 0.098646004917732774 0.004933704384621717 0.0083985455711172996 0.024401938018936638 -0.044604987516095554
leaf_weight=5.1294535994529751 9.5261281132698077 15.388360679149629 5.1294535994529715 55.69120979309082 7.3277908563613874 37.371733367443085 85.002373933792114 4.3966745138168344 8.0605699419975299 18.319477140903473 9.5261281132698024 3.6638954281806946 2.9311163425445548 27.845605254173279 156.81472277641296
leaf_count=7 13 12 7 22 10 51 116 6 11 25 13 5 4 38 97
internal_value=-1.16481e-05 0.00231553 0.0099008 0 0.00417586 -0.000712343 0.000338609 0.00616026 -0.000535343 0.00228055 0.00892423 0.00900011 -0.00141484 0 -0.00189915
internal_weight=452.125 96.7268 20.5178 76.209 20.5178 355.398 130.435 19.0523 111.382 26.38 13.9228 10.9917 224.963 65.2173 159.746
internal_count=437 69 19 50 28 368 178 26 152 36 19 15 190 89 101
is_linear=0
shrinkage=0.0215021


Tree=11
num_leaves=16
num_cat=0
split_feature=39 33 33 38 0 3 2 30 115 108 14 38 31 45 14
split_gain=1.39871 3.78904 1.3108 1.0938 1.01514 0.877822 1.56305 0.946298 0.804262 1.93603 0.907288 0.229661 0.22629 0.203746 0.199467
threshold=202.72499847412112 3.5158660411834721 8.3696899414062518 205.07142639160159 45.23500061035157 48.549999237060554 48.539999008178718 0.72881570458412182 10.500000000000002 1.3011792898178103 48.18499946594239 202.21428680419925 -0.24790671467781064 -1.177673816680908 52.760000228881843
decision_type=2 2 2 2 2 2 2 2 2 2 2 2 2 2 2
left_child=5 3 11 -2 -4 6 12 -8 13 10 -10 -3 -1 -7 -11
right_child=1 2 4 -5 -6 8 7 -9 9 14 -12 -13 -14 -15 -16
leaf_value=0.051696260205882215 0.041777525287729121 0.021357851555118931 -0.035218343274895307 0.074513369915838693 0.088300179617385718 -0.0084389710412583058 0.074539805125279482 0.001012818638060333 -0.1233600762116879 -0.049151325096273318 0.090439012921480308 -0.0384370071397711 -0.062769363799609609 -0.04362088245510614 0.0070675660416941108
leaf_weight=3.6638954281806937 13.190023422241213 8.0605699419975263 5.1294535994529715 4.3966745138168326 8.7933490276336652 16.853918969631195 8.7933490276336652 5.8622326850891104 3.6638954281806937 45.432303309440613 10.991686284542082 57.156767964363098 35.906175196170807 216.16982871294022 8.0605699419975263
leaf_count=5 9 11 7 6 12 23 12 8 5 62 15 24 49 178 11
internal_value=0 0.00231553 0 0.0109259 0.00585936 -0.000579899 0.00176303 0.00744664 -0.00107943 0.00075454 0.00744664 -0.00107109 -1.35556e-05 -0.00170886 -0.000841019
internal_weight=452.125 96.7268 79.1401 17.5867 13.9228 355.398 54.2257 14.6556 301.172 68.1485 14.6556 65.2173 39.5701 233.024 53.4929
internal_count=437 69 54 15 19 368 74 20 294 93 20 35 54 201 73
is_linear=0
shrinkage=0.0215021


Tree=12
num_leaves=16
num_cat=0
split_feature=39 33 44 38 33 3 29 15 24 108 33 44 44 30 8
split_gain=1.48378 3.78904 1.68291 1.0938 0.703872 0.590966 1.00344 1.03536 0.410972 1.53522 0.307294 0.226511 0.150537 0.121537 0.103821
threshold=202.72499847412112 3.5158660411834721 0.018437225371599201 205.07142639160159 6.5258526802062997 48.549999237060554 0.4199769943952561 49.86000061035157 -4.5159559249877921 1.6106976270675661 13.207483291625978 0.11377650126814844 -0.097401112318038927 0.67455801367759716 -7.7545785903930655
decision_type=2 2 2 2 2 2 2 2 2 2 2 2 2 2 2
left_child=5 3 14 -2 -4 6 7 -1 9 -7 -6 12 -10 -11 -3
right_child=1 2 4 -5 10 8 -8 -9 11 13 -12 -13 -14 -15 -16
leaf_value=-0.00080869752318411478 0.040879218898863569 0.086401536388951816 -0.042953744348622674 0.072911172662882689 0.087194192734673395 0.09458027152654 -0.070116105906598419 0.072937039458628117 -0.0037590851415461 -0.10767212821540087 0.042982943138682006 -0.0076729621903369148 -0.042518658770387636 0.0013961836615171918 -0.037584540207473635
leaf_weight=15.388360798358919 13.190023422241213 0.73277908563613792 4.3966745138168362 4.3966745138168326 10.258907198905943 6.5950117707252494 30.043942511081696 8.7933490276336652 21.983372569084167 35.906175196170807 3.6638954281806937 21.983372569084167 201.51424700021744 13.190023541450499 60.087884306907654
leaf_count=21 9 1 6 6 14 9 41 12 30 49 5 30 158 18 28
internal_value=0 0.00231553 0 0.0109259 0.00567253 -0.000668195 0.00119753 0.00450039 -0.00107943 0.000285236 0.00790261 -0.00147593 -0.00169017 -0.000727254 -0.00150061
internal_weight=452.125 96.7268 79.1401 17.5867 18.3195 355.398 54.2257 24.1817 301.172 55.6912 13.9228 245.481 223.498 49.0962 60.8207
internal_count=437 69 54 15 25 368 74 33 294 76 19 218 188 67 29
is_linear=0
shrinkage=0.0215021


Tree=13
num_leaves=12
num_cat=0
split_feature=56 108 13 8 31 39 2 3 29 4 4
split_gain=1.51779 2.19827 0.965329 1.08756 0.938075 0.73236 1.14589 0.535327 0.81882 0.313586 0.240677
threshold=10.500000000000002 1.7518948912620547 1.5838451981544497 3.8810026645660405 0.13556323200464251 203.03666687011722 48.86000061035157 46.899999618530281 0.4199769943952561 53.090000152587898 48.769998550415046
decision_type=2 2 2 2 2 2 2 2 2 2 2
left_child=-1 2 3 4 -2 7 -7 8 -3 -8 -9
right_child=1 5 -4 -5 -6 6 9 10 -10 -11 -12
leaf_value=-0.03677739159569602 0.086460701517482308 0.015116470363983954 -0.047929481055470687 -0.015060783829307872 -0.01755856461672908 -0.0079705431787288564 0.08531933059609341 0.0013661627185692225 -0.066030651560375284 0.045604869797599125 -0.047626919197238993
leaf_weight=163.40973371267319 24.914488911628727 16.121139883995056 14.655581712722777 5.8622326850891104 3.6638954281806937 24.914488911628723 3.6638954281806928 20.51781439781189 25.647267997264862 7.3277908563613892 141.42636352777481
leaf_count=43 34 22 20 8 5 34 5 28 35 10 193
internal_value=-0.000324257 0.000555695 0.00465106 0.00654763 0.00824283 -0.000217954 0.00241585 -0.00080123 0.00106891 0.00773877 -0.00142051
internal_weight=452.125 288.715 49.0962 34.4406 28.5784 239.619 35.9062 203.713 41.7684 10.9917 161.944
internal_count=437 394 67 47 39 327 49 278 57 15 221
is_linear=0
shrinkage=0.0215021


Tree=14
num_leaves=16
num_cat=0
split_feature=41 51 108 104 55 109 3 31 107 104 107 2 45 45 18
split_gain=0.899913 2.56044 2.60358 0.887277 1.07672 1.04927 0.62026 0.75287 0.58815 0.394597 0.315576 0.167497 0.149576 0.220448 0.119451
threshold=200.466667175293 -0.87837970256805409 1.8230048418045046 -0.21530213207006452 -0.46236594021320337 200.87786102294925 46.899999618530281 -0.24790671467781064 1.0000000180025095e-35 -0.92707332968711842 7.371042251586915 48.375000000000007 0.50435772538185131 1.1267950534820559 1.4491131305694582
decision_type=2 2 2 2 2 2 2 2 2 2 2 2 2 2 2
left_child=6 2 14 4 -3 -6 7 -1 -5 12 -10 -9 -8 -14 -2
right_child=1 3 -4 8 5 -7 9 11 10 -11 -12 -13 13 -15 -16
leaf_value=0.1266750930266555 0.0091445823734654912 -0.016500461077546779 -0.046897484351714085 -0.014569281985549706 0.08460161101310136 -0.032211538926130517 -0.046898894424247085 -0.067188658643659832 0.16423632505035057 -0.041531764296226931 -0.058262459674477358 0.0094300555435734915 0.029953305251880048 -0.093231294677186133 0.072374012718126504
leaf_weight=6.5950117707252494 10.258907079696657 19.785035312175751 10.991686284542082 95.994059264659882 18.319477140903476 6.5950117707252494 30.043942511081696 27.112826168537143 6.5950117707252529 185.39310735464096 9.5261281132698041 3.6638954281806937 8.0605699419975299 9.5261281132698041 3.6638954281806937
leaf_count=9 5 27 15 59 25 9 41 37 9 154 13 5 11 13 5
internal_value=-1.16481e-05 0.00110374 0.00729841 0 0.00256992 0.0055089 -0.000842322 0.00143302 -0.000961803 -0.00130575 0.0021776 0 4.34008e-05 0.0018453 0.0130107
internal_weight=452.125 181.729 24.9145 156.815 44.6995 24.9145 270.395 37.3717 112.115 233.024 16.1211 30.7767 47.6306 17.5867 13.9228
internal_count=437 167 25 142 61 34 270 51 81 219 22 42 65 24 10
is_linear=0
shrinkage=0.0215021


Tree=15
num_leaves=14
num_cat=0
split_feature=32 14 3 14 13 5 45 13 39 27 56 1 56
split_gain=1.30717 3.16877 0.763837 0.532497 0.729371 1.05997 0.373394 0.416387 0.447535 0.360397 0.476958 0.19766 0.180444
threshold=1.4522866606712344 52.159999847412116 47.319999694824226 45.770000457763679 1.4880198836326601 1.740560054779053 -1.177673816680908 2.123231172561646 199.98332977294925 -7.8269250392913809 18.500000000000004 48.189998626708991 209.50000000000003
decision_type=2 2 2 2 2 2 2 2 2 2 2 2 2
left_child=1 11 3 -2 5 -5 7 -4 -9 10 -8 -1 -11
right_child=2 -3 6 4 -6 -7 9 8 -10 12 -12 -13 -14
leaf_value=0.081743999486279015 -0.033168270569076487 0.034617971515756046 -0.020303763105308292 0.10530296131825097 -0.083778378287635777 -0.0027467960042038405 0.088868386277957415 -0.04381427341041285 0.070817816232940589 -0.035656335305122765 -0.022801780747725719 -0.10361897483175472 0.16070489184408876
leaf_weight=8.7933490276336652 30.043942511081696 13.190023422241209 17.586698055267338 7.3277908563613909 8.7933490276336652 3.6638954281806946 3.6638954281806937 3.6638954281806928 6.5950117707252502 216.90260791778564 43.233966052532196 25.647267878055573 5.1294535994529715
leaf_count=12 41 9 24 10 12 5 5 5 9 188 59 26 7
internal_value=0 0.00325043 -0.000494969 0.00179126 0.00439365 0.00773877 -0.000957994 0.000985431 0.00433518 -0.00124308 7.66137e-05 0 -0.00161667
internal_weight=394.235 47.6306 346.605 49.829 19.785 10.9917 296.776 27.8456 10.2589 268.93 46.8979 34.4406 222.032
internal_count=412 47 365 68 27 15 297 38 14 259 64 38 195
is_linear=0
shrinkage=0.0215021


Tree=16
num_leaves=13
num_cat=0
split_feature=19 15 15 28 24 27 32 105 6 6 22 44
split_gain=0.983039 0.916882 1.18607 1.2328 1.33797 0.791004 0.637289 0.218336 0.155172 0.1493 0.16478 0.139693
threshold=46.854999542236335 50.829999923706062 54.250000000000007 0.1761642396450043 -5.892737388610839 -7.8269250392913809 4.8810243606567392 -1.1418201923370359 -5.0787127017974845 -0.5289013385772704 2.2144510746002202 -0.097401112318038927
decision_type=2 2 2 2 2 2 2 2 2 2 2 2
left_child=1 9 3 -3 -5 6 7 -2 -7 10 -1 -4
right_child=5 2 11 4 -6 8 -8 -9 -10 -11 -12 -13
leaf_value=-0.006677676430363641 0.037393639134396563 -0.060902948051940423 0.064808311682014771 -0.074696886883105815 0.10303872181944967 -0.0036836542979409798 -0.0077951949227074799 0.086957525387757473 -0.019867188655531873 -0.043876015883913558 0.01632165176414201 -0.037243539024437861
leaf_weight=27.11282616853714 3.6638954281806946 10.991686284542082 4.3966745138168326 5.1294535994529751 19.785035312175751 9.5261281132698041 24.914488911628723 3.6638954281806937 211.77315407991409 37.371733367443085 7.3277908563613883 28.578384339809418
leaf_count=37 5 15 6 7 27 13 34 5 163 51 10 39
internal_value=-0.000415487 0.00093471 0.00273914 0.00536441 0.00789491 -0.00125013 0.00151077 0.00648854 -0.00175635 -0.000523403 0 0
internal_weight=394.235 140.694 68.8812 35.9062 24.9145 253.542 32.2423 7.32779 221.299 71.8124 34.4406 32.9751
internal_count=412 192 94 49 34 220 44 10 176 98 47 45
is_linear=0
shrinkage=0.0215021


Tree=17
num_leaves=13
num_cat=0
split_feature=45 45 17 55 42 20 40 34 0 103 27 2
split_gain=1.14401 2.58501 1.28219 0.669077 0.841227 1.24053 0.540469 0.360673 0.854164 1.2163 0.362656 0.180437
threshold=-0.56005913019180287 -0.68880152702331532 54.88304519653321 0.6205866038799287 14.336803436279299 62.909999847412116 14.470182895660402 11.82888174057007 50.715000152587898 1.3145839571952822 -26.333448410034176 50.129999160766609
decision_type=2 2 2 2 2 2 2 2 2 2 2 2
left_child=1 3 -3 4 5 -1 11 8 -8 -10 -9 -2
right_child=6 2 -4 -5 -6 -7 7 10 9 -11 -12 -13
leaf_value=0.06624166429824381 -0.0022940234242850199 0.077770774697168463 -0.19138883770156884 -0.065034003298819462 -0.0054542184194658044 -0.15068540624956916 -0.039793851542027518 0.033217833889660542 0.085087752104687886 -0.12276378038245341 -0.042986994172434484 -0.034487449715969204
leaf_weight=16.853918969631199 31.509500682353973 12.457244336605074 3.6638954281806937 49.828977465629578 24.914488911628723 8.7933490276336652 24.181709706783295 7.3277908563613883 10.258907198905947 6.5950117707252494 65.217338621616364 132.63301342725754
leaf_count=23 43 8 5 41 34 12 24 10 14 9 89 100
internal_value=-1.73335e-05 0.00170035 0.00933098 0.000144639 0.00203843 0.00472176 -0.000820217 0.000155444 0.00186522 0.0054387 -0.000539503 -0.00162044
internal_weight=394.235 116.512 16.1211 100.391 50.5618 25.6473 277.723 113.581 41.0356 16.8539 72.5451 164.143
internal_count=412 123 13 110 69 35 289 146 47 23 99 143
is_linear=0
shrinkage=0.0215021


Tree=18
num_leaves=13
num_cat=0
split_feature=1 15 21 7 42 55 109 21 103 37 12 107
split_gain=0.817335 0.962534 1.47291 0.637527 0.711728 1.05844 0.538764 0.410798 0.326766 0.272251 0.242225 0.131314
threshold=50.210000991821296 50.55999946594239 -0.49976110458374018 -1.379659056663513 14.834072589874269 -0.13690101355314252 198.64666748046878 1.663631856441498 -1.6784525513648985 210.50000000000003 0.98667126893997203 4.3994600772857675
decision_type=2 2 2 2 2 2 2 2 2 2 2 2
left_child=1 8 9 4 11 -6 -4 -8 10 -3 -1 -2
right_child=3 2 6 -5 5 -7 7 -9 -10 -11 -12 -13
leaf_value=0.10079902590667726 -0.091535721585642438 -0.079791902032548684 0.044807133868721073 -0.010028343726464748 -0.064538366560121713 0.077172291620652353 0.099150929884197186 0.00029511728952169792 -0.038960087930781331 0.081570355175086651 -0.005678438917120973 0.0043874966672837286
leaf_weight=5.1294535994529751 47.63064056634903 23.448930740356449 5.1294535994529751 193.45367693901062 10.991686284542086 8.0605699419975263 13.190023541450502 3.6638954281806937 49.828977823257446 6.5950117707252494 16.853918969631195 10.258907198905943
leaf_count=7 65 32 7 138 15 11 18 5 68 9 23 14
internal_value=-0.000495117 0.000846691 0.00310118 -0.00119002 0.000228049 0.00386032 0.00713584 0.00887259 -0.000523403 0 0.00109724 -0.000672636
internal_weight=394.235 123.84 52.0273 270.395 76.9418 19.0523 21.9834 16.8539 71.8124 30.0439 21.9834 57.8895
internal_count=412 169 71 243 105 26 30 23 98 41 30 79
is_linear=0
shrinkage=0.0215021


Tree=19
num_leaves=12
num_cat=0
split_feature=55 108 39 7 27 109 27 43 109 42 6
split_gain=0.870265 1.05272 1.14972 0.519655 0.391849 0.418929 0.441035 0.25579 0.295063 0.168253 0.139158
threshold=0.9805392622947694 1.7518948912620547 200.98332977294925 -0.56187480688095082 -26.333448410034176 200.12667083740237 -48.862003326416009 -0.060306008905172341 197.95475769042972 14.2878794670105 -2.1633980274200435
decision_type=2 2 2 2 2 2 2 2 2 2 2
left_child=1 2 10 -4 5 6 -3 9 -9 -6 -1
right_child=-2 4 3 -5 7 -7 -8 8 -10 -11 -12
leaf_value=0.001520577373311864 -0.02187959745783467 -0.020036329693399454 0.098631630678267496 0.0046340247687799976 0.036942885821336223 -0.10983088112137744 0.041163820235703301 0.15459198267248211 -0.038100472949362675 -0.014584296832007536 -0.018245141533092129
leaf_weight=8.0605699419975299 120.17576837539673 5.1294535994529751 7.3277908563613918 8.7933490276336652 33.70783793926239 10.991686284542082 14.65558171272278 5.8622326850891104 131.900235414505 26.380047082901001 21.250593483448029
leaf_count=11 38 7 10 12 46 15 20 8 180 36 29
internal_value=-0.000415487 0.000184994 0.00316767 0.00754263 -0.000331066 0.001677 0.0036534 -0.000761561 -0.00129381 0.000111372 0
internal_weight=394.235 274.059 45.4323 16.1211 228.627 30.7767 19.785 197.85 137.762 60.0879 29.3112
internal_count=412 374 62 22 312 42 27 270 188 82 40
is_linear=0
shrinkage=0.0215021


Tree=20
num_leaves=15
num_cat=0
split_feature=46 13 29 14 33 116 23 14 32 42 24 6 18 43
split_gain=1.15606 1.70573 1.75266 0.702098 0.694455 0.768206 0.487681 0.540441 0.379472 0.704351 0.228163 0.147101 0.137378 0.153558
threshold=-0.51801618933677662 1.5220679044723513 -0.58531731367111195 48.409999847412116 4.676358938217164 0.27789364755153662 1.5928673744201662 42.869998931884773 5.0630736351013192 14.116540908813478 -1.1469408273696897 -3.6096020936965938 3.7315403223037724 0.093944407999515547
decision_type=2 2 2 2 2 2 2 2 2 2 2 2 2 2
left_child=1 2 -1 6 -4 -6 8 -8 9 -2 -9 -5 -3 -14
right_child=3 12 4 11 5 -7 7 10 -10 -11 -12 -13 13 -15
leaf_value=-0.081196229774858589 0.070728140714746451 -0.090666923469500324 0.025426888798289114 -0.033028819674129226 0.032215546365823189 0.098180137038181667 -0.045590718163920962 0.040278709821594927 -0.014103067837853625 -0.021032908415872374 0.13606595060766427 -0.017852831861993761 -0.071088479039457031 0.028945537888578884
leaf_weight=9.5261281132698077 13.190023541450499 31.509500682353973 4.3966745138168362 23.448930621147156 3.6638954281806972 12.45724445581436 5.1294535994529715 3.6638954281806937 74.010687530040741 19.785035312175751 5.1294535994529715 193.45367705821991 8.0605699419975263 7.3277908563613883
leaf_count=13 18 43 6 23 5 17 7 5 92 27 7 147 11 10
internal_value=-0.000425289 0.00183498 0.00576194 -0.00100931 0.00918518 0.0111193 0.000146138 0.00381611 -0.000179419 0.00143296 0.00678929 -0.00174842 -0.000337062 0.000499448
internal_weight=414.753 76.9418 30.0439 337.811 20.5178 16.1211 120.909 13.9228 106.986 32.9751 8.79335 216.903 46.8979 15.3884
internal_count=431 105 41 326 28 22 156 19 137 45 12 170 64 21
is_linear=0
shrinkage=0.0215021


Tree=21
num_leaves=13
num_cat=0
split_feature=19 28 21 2 24 40 36 40 100 7 6 46
split_gain=1.06633 0.880094 1.33884 1.26338 0.467969 0.424511 0.254894 0.309869 0.223563 0.216295 0.171852 0.16377
threshold=46.854999542236335 0.43603187799453741 -1.4173485636711118 48.86000061035157 -4.5159559249877921 15.38478994369507 192.50000000000003 14.278127670288088 -0.071390140801668153 -1.0000000180025095e-35 -4.165027141571044 -1.171336770057678
decision_type=2 2 2 2 2 2 2 2 2 2 2 2
left_child=1 2 -1 8 5 -2 7 -3 -4 -9 -6 -7
right_child=4 6 3 -5 10 11 -8 9 -10 -11 -12 -13
leaf_value=-0.0045378117106021701 -0.053655515927039564 -0.030226955625360635 -0.037474714662791744 0.077501259625312235 -0.015924554604734936 0.077366938101029695 -0.020580655778209524 -0.074701947021242929 0.028465110740048191 0.08056221961548922 -0.017099618839788267 0.073776004437757739
leaf_weight=24.914488911628723 23.448930740356445 14.65558171272278 13.922802627086639 15.388360798358915 8.7933490276336652 5.8622326850891113 57.156768679618835 7.3277908563613936 13.1900235414505 9.5261281132698024 215.4370493888855 5.1294535994529706
leaf_count=34 32 20 19 21 12 8 78 10 18 13 159 7
internal_value=-0.0005767 0.000733445 0.00261448 0.00495427 -0.00144956 0.000410048 -0.000477993 0.000637389 0.00106574 0.00286329 -0.00183127 0.00395473
internal_weight=414.753 156.082 67.4157 42.5012 258.671 34.4406 88.6663 31.5095 27.1128 16.8539 224.23 10.9917
internal_count=431 213 92 58 218 47 121 43 37 23 171 15
is_linear=0
shrinkage=0.0215021


Tree=22
num_leaves=17
num_cat=0
split_feature=44 39 6 29 108 104 44 109 20 39 42 17 33 42 17 17
split_gain=1.04908 0.936359 0.718139 0.93696 0.571713 0.996105 0.452686 0.358255 0.311463 0.246723 0.167029 0.192816 0.164327 0.162433 0.14058 0.113112
threshold=0.014567569829523565 202.72499847412112 2.0484764575958256 -0.58531731367111195 1.6106976270675661 -0.31025573611259455 -0.097401112318038927 197.95475769042972 60.590000152587898 196.72556304931643 13.839679241180422 55.551549911499031 6.5258526802062997 16.654676437377933 48.040056228637702 50.848379135131843
decision_type=2 2 2 2 2 2 2 2 2 2 2 2 2 2 2 2
left_child=6 4 3 -3 5 -2 10 8 -6 -9 11 15 -5 -12 -8 -1
right_child=1 2 -4 12 7 -7 14 9 -10 -11 13 -13 -14 -15 -16 -17
leaf_value=9.447747723477043e-05 0.099363360728328062 0.034336099672391353 -0.042000615230775765 0.12170648266181629 0.097472488410026495 -0.049908966245905483 -0.0047181891162439132 0.001242926910622263 -0.094348909858446281 -0.029710130004899915 -0.012361204904161607 -0.14727251458555832 0.12530718982783207 0.098290935878915603 -0.014014673244228264 0.075834816335838745
leaf_weight=4.3966745138168317 6.5950117707252529 6.5950117707252547 5.8622326850891104 4.3966745138168335 3.6638954281806937 15.388360798358915 24.181709825992584 17.586698055267334 3.6638954281806946 71.812350392341614 35.906175196170807 3.6638954281806937 6.5950117707252502 5.1294535994529715 195.65201407670975 3.6638954281806946
leaf_count=6 9 9 8 6 5 21 33 24 5 98 49 5 9 7 132 5
internal_value=-0.000500994 0.000903238 0.00469573 0.00679837 0 0.00311011 -0.00131269 -0.000615217 0.00291883 -0.00118483 0.000126413 0.002425 0.0102615 -8.71739e-05 -0.00175374 0.00417836
internal_weight=414.753 142.159 23.4489 17.5867 118.71 21.9834 272.594 96.7268 7.32779 89.399 52.7601 11.7245 10.9917 41.0356 219.834 8.06057
internal_count=431 194 32 24 162 30 237 132 10 122 72 16 15 56 165 11
is_linear=0
shrinkage=0.0215021


Tree=23
num_leaves=14
num_cat=0
split_feature=39 32 39 46 108 13 3 2 44 23 30 4 108
split_gain=1.32641 2.27101 2.58482 0.597412 0.893971 0.902176 0.466635 0.555451 0.276237 0.22334 0.216923 0.105941 0.164831
threshold=202.72499847412112 3.0083425045013432 204.03333282470706 -0.51801618933677662 1.7518948912620547 1.5838451981544497 46.025001525878913 47.085000991821296 0.018437225371599201 1.7859528660774233 -1.0000000180025095e-35 49.55999946594239 2.481181383132935
decision_type=2 2 2 2 2 2 2 2 2 2 2 2 2
left_child=3 2 -2 4 5 -1 7 -5 -3 -9 -10 12 -6
right_child=1 8 -4 6 11 -7 -8 9 10 -11 -12 -13 -14
leaf_value=0.059111525280873892 0.027164914629159799 -0.013055947867826143 -0.013330673630904051 -0.038805453278255866 -0.076186888548388329 -0.024046369090136858 -0.034649558391866724 0.0002917180512555495 -0.04109751192970084 0.13150943155629224 0.076135585809364026 -0.089745001951242506 0.095376620871815268
leaf_weight=7.3277908563613874 15.388360679149629 41.035628437995911 13.922802507877348 19.052256226539615 11.724465370178224 4.3966745138168335 241.08431798219681 4.3966745138168317 4.3966745138168344 4.3966745138168335 8.0605699419975245 32.975058853626251 6.5950117707252494
leaf_count=10 12 29 10 26 16 6 239 6 6 6 11 45 9
internal_value=-4.67613e-05 0.00230546 0.00697288 -0.000705734 0.000985476 0.00599936 -0.00118482 0.000985431 0 0.00525856 0.00218479 0 0.000902579
internal_weight=414.753 82.804 29.3112 331.949 63.019 11.7245 268.93 27.8456 53.4929 8.79335 12.4572 51.2945 18.3195
internal_count=431 68 22 363 86 16 277 38 46 12 17 70 25
is_linear=0
shrinkage=0.0215021


Tree=24
num_leaves=13
num_cat=0
split_feature=14 39 2 55 46 23 31 40 14 6 6 44
split_gain=1.0678 0.589134 1.2108 1.03897 0.580632 0.550097 0.476059 0.342654 0.250921 0.165888 0.149267 0.107262
threshold=48.409999847412116 201.8619079589844 48.375000000000007 -0.46236594021320337 -2.4352791309356685 1.5928673744201662 0.24825068563222888 15.38478994369507 48.109998703002937 -1.7449302673339842 -3.6096020936965938 0.078388351947069182
decision_type=2 2 2 2 2 2 2 2 2 2 2 2
left_child=1 5 9 -4 7 8 -7 -2 -1 -3 -6 -10
right_child=4 2 3 -5 10 6 -8 -9 11 -11 -12 -13
leaf_value=-0.031122100385478128 -0.0014230212456906033 0.023521598127444636 -0.0040417097978374212 0.080208855428419726 -0.031368874332733145 0.090255940817785041 -0.0016115334942601956 0.051877546549830983 0.0002854454875413151 -0.012775216989163762 -0.015610474783399738 -0.0087340691621619199
leaf_weight=82.804036557674408 19.052256226539615 12.45724445581436 4.3966745138168362 12.45724445581436 23.448930621147156 9.5261281132698041 5.1294535994529715 7.3277908563613883 7.3277908563613874 24.914488911628723 202.24702608585358 3.6638954281806946
leaf_count=104 26 17 6 17 23 13 7 10 10 34 159 5
internal_value=-0.000463142 0.000809552 0.00261127 0.00715565 -0.0013692 0 0.00354549 0.00115026 -0.000733344 0 -0.00176397 0.00143204
internal_weight=414.753 162.677 54.2257 16.8539 252.076 108.451 14.6556 26.38 93.7957 37.3717 225.696 10.9917
internal_count=431 213 74 23 218 139 20 36 119 51 182 15
is_linear=0
shrinkage=0.0215021


Tree=25
num_leaves=13
num_cat=0
split_feature=45 33 45 19 27 108 105 15 39 39 9 29
split_gain=1.20096 1.83629 1.37884 1.12883 1.0395 2.02947 0.951328 1.38372 0.499076 0.661179 0.378218 0.206225
threshold=-0.56005913019180287 1.5393194556236269 -0.86587724089622486 46.915000915527351 -7.2627646923065177 1.7076801657676699 1.6898007392883303 49.86000061035157 203.03666687011722 204.03333282470706 1.4590824842453005 0.65757083892822277
decision_type=2 2 2 2 2 2 2 2 2 2 2 2
left_child=1 2 -1 6 5 -2 7 -3 -7 -10 -6 -12
right_child=4 3 -4 -5 10 8 -8 -9 9 -11 11 -13
leaf_value=-0.00039469881593405721 0.0712286120204777 -0.027866267981777042 5.2558909177117253e-05 -0.039120802806364693 -0.015381749202973624 -0.05336464736630387 -0.052571352547043849 0.073224582559135928 0.12046997333814997 -0.046862976593797588 0.028298757365503059 -0.064117435066727305
leaf_weight=8.0605699419975299 10.258907198905943 9.5261281132698077 8.0605698227882367 49.828977584838867 180.99643307924271 41.768407881259918 14.655581712722777 13.922802627086638 3.6638954281806928 4.3966745138168335 16.121139883995056 25.647267997264862
leaf_count=11 14 13 2 50 166 57 20 19 5 6 22 35
internal_value=0 0.00200551 0.00843681 0.00046429 -0.000677975 0.00164638 0.00335593 0.00595882 0 0.00417836 -0.00140764 0
internal_weight=386.907 104.055 16.1211 87.9335 282.853 60.0879 38.1045 23.4489 49.829 8.06057 222.765 41.7684
internal_count=420 115 13 102 305 82 52 32 68 11 223 57
is_linear=0
shrinkage=0.0215021


Tree=26
num_leaves=14
num_cat=0
split_feature=45 33 45 46 13 15 1 22 21 51 103 41 22
split_gain=1.24905 1.83629 1.37884 0.935615 1.52926 1.08989 0.844789 0.893926 0.629406 0.49264 0.212374 0.245423 0.132954
threshold=-0.56005913019180287 1.5393194556236269 -0.86587724089622486 -2.4352791309356685 1.5838451981544497 49.86000061035157 50.210000991821296 1.190415680408478 1.1784564256668093 1.0000000180025095e-35 3.7907936573028569 202.13240814208987 1.3770534396171572
decision_type=2 2 2 2 2 2 2 2 2 2 2 2 2
left_child=1 2 -1 4 5 -2 7 8 -3 -7 -5 -12 -8
right_child=3 6 -4 10 -6 9 12 -9 -10 -11 11 -13 -14
leaf_value=-0.00038621194492891102 -0.05766802031042019 0.066156533107525284 5.1428779913111675e-05 -0.012758714240780969 -0.066553894201609898 0.078814933617759306 -0.039246803055620443 -0.0015005856034435345 -0.056314958335698169 0.069648786681298855 -0.027389309237996689 0.11419622358217768 0.0039005061285318178
leaf_weight=8.0605699419975299 5.862232685089114 15.388360798358919 8.0605698227882367 186.85866576433182 30.043942511081696 5.8622326850891104 41.0356285572052 13.922802627086638 3.6638954281806937 9.5261281132698041 38.104512453079224 6.5950117707252494 13.922802627086638
leaf_count=11 8 21 2 174 41 8 38 19 5 13 52 9 19
internal_value=0 0.00200551 0.00843681 -0.000733386 0.00168184 0.00604981 0.00046429 0.0032611 0.00616026 0.00889617 -0.00136805 0 -0.000875004
internal_weight=386.907 104.055 16.1211 282.853 51.2945 21.2506 87.9335 32.9751 19.0523 15.3884 231.558 44.6995 54.9584
internal_count=420 115 13 305 70 29 102 45 26 21 235 61 57
is_linear=0
shrinkage=0.0215021


Tree=27
num_leaves=14
num_cat=0
split_feature=45 45 32 46 13 15 19 2 15 51 27 46 46
split_gain=0.995754 2.05006 2.07106 1.15597 1.3624 1.08989 0.641716 0.763415 0.747743 0.49264 0.341132 0.107663 0.16075
threshold=-0.56005913019180287 -0.68880152702331532 3.5723129510879521 -2.4352791309356685 1.5838451981544497 49.86000061035157 46.915000915527351 48.86000061035157 59.864999771118171 1.0000000180025095e-35 -10.680877208709715 1.675403952598572 8.2072811126709002
decision_type=2 2 2 2 2 2 2 2 2 2 2 2 2
left_child=1 6 -3 4 5 -2 7 -1 -9 -7 11 -5 -13
right_child=3 2 -4 10 -6 9 -8 8 -10 -11 -12 12 -14
leaf_value=-0.0020394039116223401 -0.056428034200153999 0.034926739199242655 -0.0019805171127275124 -0.045580982377462338 -0.065122842746229703 0.0771202435201713 -0.036484198877938592 0.070227589658569248 -0.039251439249094675 0.068151188400365714 -0.013948770470664451 0.025579157498567446 -0.02665669220968973
leaf_weight=19.052256226539612 5.862232685089114 10.258907079696657 5.8622326850891104 19.785035312175751 30.043942511081696 5.8622326850891104 52.760093927383423 11.724465370178224 4.3966745138168326 9.5261281132698041 197.8503520488739 9.5261281132698041 4.3966745138168326
leaf_count=26 8 5 8 27 41 8 54 16 6 13 189 13 6
internal_value=-1.76605e-05 0.00170697 0.00843681 -0.000733386 0.00198029 0.00604981 0.000111932 0.00250709 0.00575429 0.00889617 -0.00143565 1.58114e-05 0.00177286
internal_weight=386.907 104.055 16.1211 282.853 51.2945 21.2506 87.9335 35.1734 16.1211 15.3884 231.558 33.7078 13.9228
internal_count=420 115 13 305 70 29 102 48 22 21 235 46 19
is_linear=0
shrinkage=0.0215021


Tree=28
num_leaves=15
num_cat=0
split_feature=27 108 19 53 2 39 105 44 102 44 15 15 5 2
split_gain=0.976313 1.63739 0.597666 0.974313 0.995552 0.827589 0.537123 0.361866 0.477959 0.203881 0.130249 0.31239 0.113728 0.104396
threshold=-1.7572913169860838 1.637311637401581 46.854999542236335 0.68301269412040722 48.86000061035157 201.8619079589844 -0.92243766784667958 -0.11432660371065138 -1.0000000180025095e-35 -0.097401112318038927 54.250000000000007 49.86000061035157 -1.9559902548789976 51.905000686645515
decision_type=2 2 2 2 2 2 2 2 2 2 2 2 2 2
left_child=1 6 3 13 -5 -6 -1 8 -3 -4 11 -9 -12 -2
right_child=2 7 9 4 5 -7 -8 10 -10 -11 12 -13 -14 -15
leaf_value=0.047190589084170481 -0.024862431355767888 -0.047198936766906931 -0.054319577440534589 -0.0019955523538608333 0.030521605628707885 0.068717545872336416 0.066734049119583597 -0.055214710450505994 0.028965531896907315 -0.012123473785747697 -0.0015186548821895379 0.041652578784781041 -0.058737770519842407 -0.038407449127449381
leaf_weight=4.3966745138168344 53.492873251438141 3.6638954281806946 16.853918969631195 15.388360798358919 5.1294535994529706 7.3277908563613892 9.5261281132698024 17.586698055267334 4.3966745138168317 171.47030460834503 7.3277908563613883 21.983372569084167 41.035628795623779 7.3277908563613883
leaf_count=6 73 5 23 21 7 10 13 24 6 126 10 30 56 10
internal_value=-0.000261059 0.00136261 -0.00098645 0.000268295 0.00367004 0.00782929 0.00790261 8.65161e-05 0.00417836 -0.00168793 -0.000111933 0.000473928 -0.00102233 -0.000994957
internal_weight=386.907 109.917 276.99 88.6663 27.8456 12.4572 13.9228 95.9941 8.06057 188.324 87.9335 39.5701 48.3634 60.8207
internal_count=420 150 270 121 38 17 19 131 11 149 120 54 66 83
is_linear=0
shrinkage=0.0215021


Tree=29
num_leaves=13
num_cat=0
split_feature=104 18 107 29 15 39 39 33 101 39 45 105
split_gain=0.864414 2.36816 0.616437 0.984065 0.567437 0.35982 0.552441 0.300636 0.286036 0.39146 0.195811 0.138797
threshold=-0.21530213207006452 1.3627039790153506 5.4482431411743173 0.45842243731021887 50.614999771118171 202.84999847412112 204.03333282470706 7.1936323642730722 -2.0388177633285518 199.47406768798831 -1.177673816680908 -5.7677080631256095
decision_type=2 2 2 2 2 2 2 2 2 2 2 2
left_child=1 4 10 -4 -1 8 7 -7 9 -3 -2 -10
right_child=2 5 3 -5 -6 6 -8 -9 11 -11 -12 -13
leaf_value=0.0028006153155876725 -0.0019526436986343114 0.12133834399912251 0.089106871278614913 -0.01601287030557897 0.071859641659175383 0.033313323738135378 -0.034107915366289827 0.061198052600862585 -0.010931321145622818 -0.068988188760778696 -0.011570777662416983 -0.029997161964371365
leaf_weight=3.6638954281806937 16.853918969631195 6.5950117707252485 5.8622326850891104 31.509500682353973 8.0605699419975263 5.1294535994529751 8.7933490276336652 8.0605699419975263 25.647267997264862 7.3277908563613892 190.52256083488464 68.881234049797058
leaf_count=5 23 9 8 43 11 7 12 11 35 10 152 94
internal_value=-0.000342192 0.000903238 -0.001154 0.00102767 0.00957372 0 0.00243915 0.00518631 -0.000492293 0.00177286 -0.00165466 -0.00107232
internal_weight=386.907 142.159 244.748 37.3717 11.7245 130.435 21.9834 13.19 108.451 13.9228 207.376 94.5285
internal_count=420 194 226 51 16 178 30 18 148 19 175 129
is_linear=0
shrinkage=0.0215021


Tree=30
num_leaves=8
num_cat=0
split_feature=56 18 115 40 103 32 29
split_gain=1.19676 1.32559 1.20278 1.45796 0.326727 0.251184 0.513525
threshold=10.500000000000002 1.3627039790153506 17.500000000000004 11.703143596649172 10.821621894836428 13.560855865478517 -0.13859693706035611
decision_type=2 2 2 2 2 2 2
left_child=-1 2 3 -2 5 6 -3
right_child=1 4 -4 -5 -6 -7 -8
leaf_value=-0.031117793521771228 -0.0011319080730633421 -0.016825094339592516 -0.014133275146475511 0.074233214821837867 0.072247900773765486 -0.023912300130318972 0.015250966406571205
leaf_weight=139.96080332994461 7.3277908563613954 106.98574650287628 8.7933490276336652 11.724465370178221 5.1294535994529715 46.165082395076752 101.12351381778717
leaf_count=38 10 146 12 16 7 63 138
internal_value=-0.0003284 0.000405727 0.00474389 0.00769355 -2.13439e-06 -0.000205465 1.76893e-05
internal_weight=427.21 287.249 27.8456 19.0523 259.404 254.274 208.109
internal_count=430 392 38 26 354 347 284
is_linear=0
shrinkage=0.0215021


end of trees

feature_importances:
price_max_20d=24
volume_mean_30d=20
price_std_20d=16
volume_zscore_30d=15
market_volatility_30d=15
doy_cos=13
price_lag_14d=12
distance_to_resistance=12
volume_log_change_7d=12
price_lag_30d=10
return_3d=10
price_min_20d=10
price_min_60d=10
autocorr_7d=10
market_regime_duration_days=10
price_lag_7d=9
volume_price_conf_7d=8
item_age_days=8
item_return_vs_market_7d=8
price_std_60d=7
macd_line=7
distance_to_support=7
volume_std_60d=7
item_return_vs_market_30d=7
return_14d=6
price_accel_7d=6
volume_std_30d=6
market_return_7d=6
market_return_14d=6
market_volume_mean_30d=6
price_lag_1d=5
macd_histogram=5
return_7d=4
price_std_7d=4
price_mean_60d=4
price_zscore_30d=4
vol_regime_60_30=4
trend_divergence_30_60=4
macd_signal=4
high_low_range_30d=4
dow_sin=4
item_return_vs_market_14d=4
price_lag_60d=3
return_1d=3
volume_mean_7d=3
volume_log_change_1d=3
market_return_1d=3
return_30d=2
price_std_30d=2
price_max_60d=2
bb_pct_b=2
volume_lag_1d=2
volume_mean_60d=2
price_std_14d=1
volume_lag_7d=1
month_sin=1
month_cos=1
item_return_vs_market_1d=1
market_return_30d_percentile=1

parameters:
[boosting: gbdt]
[objective: quantile]
[metric: quantile]
[tree_learner: serial]
[device_type: cpu]
[data_sample_strategy: bagging]
[data: ]
[valid: ]
[num_iterations: 1000]
[learning_rate: 0.0215021]
[num_leaves: 63]
[num_threads: -1]
[seed: 91]
[deterministic: 0]
[force_col_wise: 0]
[force_row_wise: 0]
[histogram_pool_size: -1]
[max_depth: 5]
[min_data_in_leaf: 5]
[min_sum_hessian_in_leaf: 0.001]
[bagging_fraction: 0.7]
[pos_bagging_fraction: 1]
[neg_bagging_fraction: 1]
[bagging_freq: 5]
[bagging_seed: 2784]
[bagging_by_query: 0]
[feature_fraction: 0.8]
[feature_fraction_bynode: 1]
[feature_fraction_seed: 29510]
[extra_trees: 0]
[extra_seed: 8681]
[early_stopping_round: 0]
[early_stopping_min_delta: 0]
[first_metric_only: 0]
[max_delta_step: 0]
[lambda_l1: 1]
[lambda_l2: 1.5]
[linear_lambda: 0]
[min_gain_to_split: 0.1]
[drop_rate: 0.1]
[max_drop: 50]
[skip_drop: 0.5]
[xgboost_dart_mode: 0]
[uniform_drop: 0]
[drop_seed: 8477]
[top_rate: 0.2]
[other_rate: 0.1]
[min_data_per_group: 100]
[max_cat_threshold: 32]
[cat_l2: 10]
[cat_smooth: 10]
[max_cat_to_onehot: 4]
[top_k: 20]
[monotone_constraints: ]
[monotone_constraints_method: basic]
[monotone_penalty: 0]
[feature_contri: ]
[forcedsplits_filename: ]
[refit_decay_rate: 0.9]
[cegb_tradeoff: 1]
[cegb_penalty_split: 0]
[cegb_penalty_feature_lazy: ]
[cegb_penalty_feature_coupled: ]
[path_smooth: 0]
[interaction_constraints: ]
[verbosity: -1]
[saved_feature_importance_type: 0]
[use_quantized_grad: 0]
[num_grad_quant_bins: 4]
[quant_train_renew_leaf: 0]
[stochastic_rounding: 1]
[linear_tree: 0]
[max_bin: 63]
[max_bin_by_feature: ]
[min_data_in_bin: 3]
[bin_construct_sample_cnt: 200000]
[data_random_seed: 335]
[is_enable_sparse: 1]
[enable_bundle: 1]
[use_missing: 1]
[zero_as_missing: 0]
[feature_pre_filter: 0]
[pre_partition: 0]
[two_round: 0]
[header: 0]
[label_column: ]
[weight_column: ]
[group_column: ]
[ignore_column: ]
[categorical_feature: ]
[forcedbins_filename: ]
[precise_float_parser: 0]
[parser_config_file: ]
[objective_seed: 29977]
[num_class: 1]
[is_unbalance: 0]
[scale_pos_weight: 1]
[sigmoid: 1]
[boost_from_average: 1]
[reg_sqrt: 0]
[alpha: 0.9]
[fair_c: 1]
[poisson_max_delta_step: 0.7]
[tweedie_variance_power: 1.5]
[lambdarank_truncation_level: 30]
[lambdarank_norm: 1]
[label_gain: ]
[lambdarank_position_bias_regularization: 0]
[eval_at: ]
[multi_error_top_k: 1]
[auc_mu_weights: ]
[num_machines: 1]
[local_listen_port: 12400]
[time_out: 120]
[machine_list_filename: ]
[machines: ]
[gpu_platform_id: -1]
[gpu_device_id: -1]
[gpu_device_id_list: ]
[gpu_use_dp: 0]
[num_gpu: 1]

end of parameters

pandas_categorical:[]
