tree
version=v4
num_class=1
num_tree_per_iteration=1
label_index=0
max_feature_idx=65
objective=quantile
feature_names=price_lag_1d price_lag_3d price_lag_7d price_lag_14d price_lag_30d price_lag_60d return_1d return_3d return_7d return_14d return_30d return_60d price_std_7d price_min_7d price_max_7d price_std_14d price_std_30d price_max_30d price_std_60d price_zscore_30d vol_regime_60_30 trend_divergence_30_60 price_accel_7d price_log price_tier log_return_1d log_return_7d autocorr_1d autocorr_7d bb_lower bb_width rsi_14 macd_line macd_signal macd_histogram distance_to_support distance_to_resistance high_low_range_30d volume_missing volume_lag_1d volume_lag_7d volume_mean_7d volume_mean_30d volume_std_30d volume_mean_60d volume_std_60d volume_log_change_1d volume_log_change_7d volume_zscore_30d volume_price_conf_7d volume_price_conf_1d rsi_missing macd_missing dow_sin dow_cos events_next_30d_major events_next_30d_operation events_next_30d_case_drop events_next_30d_update events_next_30d_game_update item_type_skin item_type_sticker item_type_unknown item_return_vs_market_14d item_return_vs_market_30d item_volume_vs_market_30d
feature_infos=[1:418610] [1:436437] [1:436437] [1:418610] [1:436437] [1:418610] [-99.902435302734375:500] [-99.858291625976562:500] [-99.959068298339844:500] [-99.903755187988281:500] [-99.903755187988281:500] [-99.94195556640625:500] [0:165471.734375] [1:184238] [1:436437] [0:127730.515625] [0:98456.9453125] [1:436437] [0:95535.78125] [-4.9311947822570801:5.2937369346618652] [0.70448577404022217:73.772926330566406] [-2865:5230] [-599.95904541015625:599.82427978515625] [0:12.98639965057373] [1:4] [-6.9324479103088379:7.9694271087646484] [-7.8009819984436035:6.4260258674621582] [-49934.89453125:250000] [-49979.53515625:250000] [-161779.65625:155128.4375] [0.023668846115469933:16.390186309814453] [0:99.772552490234375] [-23768.82421875:34653.29296875] [-20016.15234375:24572.091796875] [-13536.1591796875:31588.400390625] [0.040413837879896164:886671.4375] [0.025419419631361961:493860] [0.8403361439704895:886671.4375] none none none none none none none none [0:0] [0:0] [0:0] none none [0:1] [0:1] [-0.97492790222167969:0.97492790222167969] [-0.90096884965896606:1] [0:2] [0:1] [0:1] none [0:2] [0:1] [0:1] none [-343.70986938476562:559.31884765625] [-343.98388671875:561.69342041015625] [0:0]
tree_sizes=1587 1622 1616 1618 1612 1631 1616 1620 1619 1627 1624 1605 1639 1607 1648 1620 1648 1627 1625 1613 1640 1637 1637 1620 1647 1641 1638 1641 1637 1641 1628 1646 1643 1664 1634 1629 1576 1656 1652 1566 1644 1654 1663 1387 1389 1007 1670 1000 1638 1009 1021 1663 1663 1671 1669 1659 1093 1653 1652 1265 1633 1653 1346 1647 1653 1656 1644 1665 1655 1604 1632 1628 1630 1635 1668 1650 1656 1673 1658 1636 1640 1662 1663 1636 1540 1654 1652 1629 1631 1649 1671 1659 1653 1607 1655 1606 1649 1665 1628 1617 1648 1641 1647 1670 1670 1593 1652 1631 1657 1629 1655 1645 1630 1635 1653 1641 1655 1645 1667 1643 1390 1652 1660 1641 1611 1660 1620 1646 1672 1618 1677 1558 1634 1618 1578 1678 1672 1635 1616 1660 1661 1662 1663 1662 1669 1644 1572 1670 1662 1567 1622 1641 1655 1664 1670 1647 1375 1630 1649 1614 1633 1627 1655 1660 1635 1664 1638 1679 1653 1634 1661 1656 1470 1655 1660 1634 1634 1638 1540 1657 1539 1623 1670 1610 1646 1672 1578 1639 1610 1673 1638 1693 1630 1627 1627 1640 1645 1648 1657 1659 1650 1633 1658 1647 1545 1646 1635 1622 1626 1676 1656 1597 1657 1644 1664 1687 1648 1675 1547 1533 1460 1544 1560 1660 1632 1646 1628 1667 1670 1669 1618 1642 1644 1618 1639 1653 1667 1643 1656 1510 1670 1645 1537 1365 1643 1627 1643 1663 1640 1628 1553 1656 1661 1633 1648 1641 1643 1652 1665 1650 1582 1654 1662 1652 1611 1664 1634 1646 1582 1645 1533 1631 1476 1649 1483 1661 1528 1680 1540 1572 1471 1663 1622 1548 1639 1643 1669 1661 1649 1668 1635 1557 1560 1636 1650 1639 1647 1664 1627 1646 1649 1642 1643 1648 1623 1535 1637 1660 1444 1512 1644 1509 1665 1659 1648 1662 1667 1665 1641 1630 1665 1688 1679 1655 1377 1653 1660 1647 1655 1636 1642 1642 1653 1654 1675 1655 1669 1658 1658

Tree=0
num_leaves=16
num_cat=0
split_feature=35 9 11 25 25 25 35 28 29 25 37 11 29 11 63
split_gain=3216.97 1205.85 520.656 271.358 168.209 162.872 157.698 69.9905 54.9483 24.8526 20.8564 16.1707 13.8118 12.2711 10.9134
threshold=200.0843200683594 102.55532455444337 116.70337677001955 0.50017043948173534 0.91814866662025463 0.61907157301902782 125.07384109497072 -4125.3725585937491 4.740675926208497 0.37226356565952307 276.76493835449224 -5.8272931575775138 -90.955669403076158 166.71052551269534 64.243274688720717
decision_type=2 2 2 2 2 2 2 2 2 2 2 2 2 2 2
left_child=6 3 5 8 -4 -3 10 -5 -2 13 12 -12 -1 -8 -11
right_child=1 2 4 7 -6 -7 9 -9 -10 14 11 -13 -14 -15 -16
leaf_value=-56.029533795353203 -54.429262163877162 -54.963698943688229 -56.03775233213068 -55.601413979625043 -56.631374381976968 -55.769031694296594 -53.09729481480386 -54.906422081906065 -53.19603869863132 -53.679439821692732 -51.572134969781096 -52.654999678419216 -51.542445741013061 -54.429262163877162 -54.113508112435454
leaf_weight=29 20686 8445 5408 5477 4624 5133 22259 9039 12608 7557 43053 21830 104688 1200 1552
leaf_count=29 20686 8445 5408 5477 4624 5133 22259 9039 12608 7557 43053 21830 104688 1200 1552
internal_value=-53.3835 -53.3978 -53.4124 -53.3906 -53.426 -53.4023 -53.3784 -53.3996 -53.3867 -53.3834 -53.3774 -53.3785 -53.3767 -53.382 -53.3869
internal_weight=273588 71420 23610 47810 10032 13578 202168 14516 33294 32568 169600 64883 104717 23459 9109
internal_count=273588 71420 23610 47810 10032 13578 202168 14516 33294 32568 169600 64883 104717 23459 9109
is_linear=0
shrinkage=1


Tree=1
num_leaves=16
num_cat=0
split_feature=8 35 7 7 9 11 25 63 11 64 35 25 25 52 61
split_gain=3059.74 838.192 640.302 236.416 184.913 164.88 93.5864 78.032 69.4584 54.9782 49.3798 43.6464 38.6942 28.3851 11.7706
threshold=100.11520767211915 160.88745880126956 150.18115997314456 90.939655303955092 102.55532455444337 116.70337677001955 0.800205558538437 43.538751602172859 100.03371429443361 200.55220794677737 100.0231056213379 0.40547981858253485 0.800205558538437 1.0000000180025095e-35 1.0000000180025095e-35
decision_type=2 2 2 2 2 2 2 2 2 2 2 2 2 2 2
left_child=1 10 4 7 11 12 -5 -3 -6 -7 13 -2 -4 -1 -12
right_child=2 3 5 6 8 9 -8 -9 -10 -11 14 -13 -14 -15 -16
leaf_value=1.7616756224117269 -0.90484136820166516 -0.14334917049832496 -2.2240647344518245 -1.2891689445322414 -1.745787825735152 -2.6152126144058583 -2.2897373189534376 -1.0142568399724623 -2.4456754819756541 -3.1107930028192019 0.5429005804646414 -1.4996617817289479 -2.620767985089786 0.0079015909470123817 -0.1953181141763477
leaf_weight=148132 6303 36262 2153 9833 3585 2285 3769 11965 2777 3085 28629 4140 2044 4627 3999
leaf_count=148132 6303 36262 2153 9833 3585 2285 3769 11965 2777 3085 28629 4140 2044 4627 3999
internal_value=0.000157211 0.00287678 -0.0253346 -0.00506111 -0.0160737 -0.0415962 -0.0142287 -0.00247454 -0.0266579 -0.0507455 0.00552439 -0.009621 -0.0298757 0.00611845 0.00274185
internal_weight=273588 247216 26372 61829 16805 9567 13602 48227 6362 5370 185387 10443 4197 152759 32628
internal_count=273588 247216 26372 61829 16805 9567 13602 48227 6362 5370 185387 10443 4197 152759 32628
is_linear=0
shrinkage=0.0787314


Tree=2
num_leaves=16
num_cat=0
split_feature=26 7 7 29 19 19 11 25 6 29 11 25 10 25 10
split_gain=2707.23 596.122 520.057 202.169 195.19 180.427 143.536 128.648 55.8528 54.0992 46.1506 38.8211 36.8738 36.334 27.4842
threshold=0.71301561594009411 150.18115997314456 79.393150329589858 10.445176124572756 1.966838598251343 -0.27088725566864008 116.70337677001955 0.800205558538437 121.76699829101564 -6.7527832984924308 116.70337677001955 0.33989055454730993 133.41085052490237 0.800205558538437 297.52049255371099
decision_type=2 2 2 2 2 2 2 2 2 2 2 2 2 2 2
left_child=2 6 3 5 10 -1 8 12 -2 -6 -3 -5 -4 -8 -9
right_child=1 4 7 11 9 -7 13 14 -10 -11 -12 -13 -14 -15 -16
leaf_value=1.0609238942486008 -0.957045893255138 -2.2262760589478083 -0.59547189402430267 1.5179737871661425 -2.8662786666499613 -0.71360159492878283 -1.8947830289814589 -1.7953774394142243 -1.6811592646936631 -1.8842037071210835 -2.5538384187745677 0.23387824226932791 -1.4759872531504856 -2.3022120931549832 -2.5593969640993377
leaf_weight=53239 9371 3051 13655 132391 3180 27616 2870 3681 2461 1180 2078 13959 2604 1632 620
leaf_count=53239 9371 3051 13655 132391 3180 27616 2870 3681 2461 1180 2078 13959 2604 1632 620
internal_value=0.000242679 -0.0240162 0.00277123 0.00385643 -0.0397129 0.000696217 -0.0148941 -0.00921893 -0.0103354 -0.051973 -0.0292793 0.00560209 -0.00601205 -0.026864 -0.0213306
internal_weight=273588 25823 247765 227205 9489 80855 16334 20560 11832 4360 5129 146350 16259 4502 4301
internal_count=273588 25823 247765 227205 9489 80855 16334 20560 11832 4360 5129 146350 16259 4502 4301
is_linear=0
shrinkage=0.0787314


Tree=3
num_leaves=16
num_cat=0
split_feature=8 35 7 7 11 9 9 9 35 9 11 63 52 64 61
split_gain=2391.58 758.19 483.74 189.125 157.893 119.571 79.5356 76.609 61.8682 50.0001 48.7386 32.1429 30.0279 20.0729 13.0273
threshold=121.52872467041017 160.88745880126956 150.18115997314456 104.10267257690431 166.71052551269534 102.55532455444337 123.91213226318361 60.015314102172859 94.457798004150405 291.68313598632818 100.03371429443361 131.525016784668 1.0000000180025095e-35 47.66395568847657 1.0000000180025095e-35
decision_type=2 2 2 2 2 2 2 2 2 2 2 2 2 2 2
left_child=1 8 5 7 11 13 -5 -3 12 -6 -7 -4 -1 -2 -10
right_child=2 3 4 6 9 10 -8 -9 14 -11 -12 -13 -14 -15 -16
leaf_value=1.5853081038326775 -0.87591294288123611 -0.15472786666358787 -1.9557916810874691 -1.1747730978829183 -2.229906184880813 -1.6379289346728156 -1.9307112568841387 -0.92992673473317 0.45851205037499781 -2.6913383832354558 -2.1321880099239965 -2.1933020235894074 -0.10750798495145078 -1.4100851791473175 -0.098450777468551923
leaf_weight=140453 5329 36853 2501 9372 1973 3046 3568 15029 36301 2425 2432 1994 4490 2588 5234
leaf_count=140453 5329 36853 2501 9372 1973 3046 3568 15029 36301 2425 2432 1994 4490 2588 5234
internal_value=0.000355198 0.00254756 -0.0243617 -0.00478698 -0.0385995 -0.0149052 -0.0133029 -0.00266214 0.00509736 -0.0492185 -0.0238515 -0.0281965 0.00586522 -0.00870893 0.00241679
internal_weight=273588 251300 22288 64822 8893 13395 12940 51882 186478 4398 5478 4495 144943 7917 41535
internal_count=273588 251300 22288 64822 8893 13395 12940 51882 186478 4398 5478 4495 144943 7917 41535
is_linear=0
shrinkage=0.0787314


Tree=4
num_leaves=16
num_cat=0
split_feature=8 6 19 30 30 19 11 9 6 9 6 30 30 11 8
split_gain=2103.29 467.574 457.143 224.962 194.269 169.207 134.482 108.691 55.1596 50.7677 33.374 30.9823 30.2796 29.8658 29.3431
threshold=121.52872467041017 84.64218902587892 1.966838598251343 1.375945568084717 2.2698116302490239 -0.29855386912822718 100.03371429443361 151.84336090087893 121.76699829101564 200.13661193847659 290.17402648925787 1.6676306724548342 1.4645081758499148 212.13963317871097 50.826904296875007
decision_type=2 2 2 2 2 2 2 2 2 2 2 2 2 2 2
left_child=1 3 6 14 11 -5 8 12 -2 -8 -6 -4 -3 -9 -1
right_child=2 7 4 5 10 -7 9 13 -10 -11 -12 -13 -14 -15 -16
leaf_value=1.3606561942587831 -1.1151986786578869 -0.081825759412714263 -0.72162074145267541 1.0124806487144316 -2.1649364978094452 -0.49708609285255023 -1.7361172816698862 -1.5119734136311296 -1.7819101692969779 -2.2582934940858399 -2.4892259568363868 -1.4784776803837076 -1.0824829204610942 -2.2845556652334924 0.11826258284388355
leaf_weight=119991 8150 3742 1029 62517 1716 41889 3235 2329 2869 1817 2163 1309 12004 743 8085
leaf_count=119991 8150 3742 1029 62517 1716 41889 3235 2329 2869 1817 2163 1309 12004 743 8085
internal_value=0.000463689 0.00251968 -0.0227156 0.00348601 -0.0408479 0.000773013 -0.0156978 -0.0094163 -0.0108143 -0.0263394 -0.0516609 -0.0228838 -0.0067694 -0.0229673 0.0056973
internal_weight=273588 251300 22288 232482 6217 104406 16071 18818 11019 5052 3879 2338 15746 3072 128076
internal_count=273588 251300 22288 232482 6217 104406 16071 18818 11019 5052 3879 2338 15746 3072 128076
is_linear=0
shrinkage=0.0787314


Tree=5
num_leaves=16
num_cat=0
split_feature=7 35 9 9 19 25 35 25 25 64 35 35 52 25 61
split_gain=1871.16 643.041 446.956 153.758 135.422 95.1092 76.1105 69.3871 48.9213 46.9688 34.2076 30.5738 28.0761 17.9019 14.7183
threshold=124.0300750732422 184.65003204345706 200.13661193847659 53.733140945434577 3.0838220119476323 0.69322699308395397 94.457798004150405 0.800205558538437 0.33989055454730993 57.448041915893562 416.78402709960943 320.08403015136724 1.0000000180025095e-35 1.3873993158340456 1.0000000180025095e-35
decision_type=2 2 2 2 2 2 2 2 2 2 2 2 2 2 2
left_child=1 6 5 8 9 11 12 -5 -3 -4 -7 -2 -1 -6 -8
right_child=2 3 4 7 13 10 14 -9 -10 -11 -12 -13 -14 -15 -16
leaf_value=1.3737031915404108 -0.47617028412597023 0.048458032008667634 -1.9590762537073105 -0.98848503250128872 -1.9474632805987981 -0.82346746918537006 0.37576979097934432 -1.5360981490729326 -0.85448717980259736 -2.0606521674519511 -1.9571241666177128 -1.573842316752424 -0.14255331339321248 -2.3186101068729865 -0.16907389644900644
leaf_weight=140412 4139 25200 1677 16653 860 1989 42696 4720 11314 2902 3669 5142 4515 1357 6409
leaf_count=140412 4139 25200 1677 16653 860 1989 42696 4720 11314 2902 3669 5142 4515 1357 6409
internal_value=0.000517262 0.0024297 -0.0216466 -0.00485248 -0.0383886 -0.0140267 0.00460246 -0.0101564 -0.00174671 -0.0306295 -0.0220771 -0.00911372 0.00551026 -0.0543859 0.00192237
internal_weight=273654 251919 21735 57887 6796 14939 194032 21373 36514 4579 5658 9281 144927 2217 49105
internal_count=273654 251919 21735 57887 6796 14939 194032 21373 36514 4579 5658 9281 144927 2217 49105
is_linear=0
shrinkage=0.0787314


Tree=6
num_leaves=16
num_cat=0
split_feature=8 35 6 31 6 9 35 35 30 64 64 30 6 30 30
split_gain=1695.65 544.055 393.292 156.62 116.005 109.48 61.9451 50.3571 48.2673 42.9474 34.2691 32.6385 23.8892 22.0352 12.6565
threshold=121.52872467041017 171.89255523681643 200.22727203369143 62.323879241943366 64.293170928955092 151.84336090087893 94.457798004150405 320.08403015136724 1.5597575306892397 108.0191993713379 57.448041915893562 2.765660405158997 84.64218902587892 1.2531300187110903 1.2531300187110903
decision_type=2 2 2 2 2 2 2 2 2 2 2 2 2 2 2
left_child=1 6 5 9 8 12 13 -6 -3 -4 -7 -5 -2 -1 -8
right_child=2 4 3 11 7 10 14 -9 -10 -11 -12 -13 -14 -15 -16
leaf_value=1.3039626821103976 -0.88441230332177245 0.41328290060472189 -1.7451754645773987 -1.3971340735396984 -0.43920689692365444 -1.6709779881081024 0.46873412797120012 -1.4199669931313976 -0.67960921710637456 -1.9110199104903436 -1.6743569208451969 -2.1471529317886628 -1.1155638429027233 1.0365969152669505 0.13947739701983713
leaf_weight=92157 7853 12861 2094 577 7187 2056 17937 10494 30440 1992 3338 1696 2769 52770 27433
leaf_count=92157 7853 12861 2094 577 7187 2056 17937 10494 30440 1992 3338 1696 2769 52770 27433
internal_value=0.000585448 0.00243495 -0.0201829 -0.0367516 -0.0040362 -0.0136011 0.00450889 -0.00941045 -0.00184076 -0.0275102 -0.0227401 -0.0533372 -0.00895562 0.00530382 0.0019687
internal_weight=273654 251279 22375 6359 60982 16016 190297 17681 43301 4086 5394 2273 10622 144927 45370
internal_count=273654 251279 22375 6359 60982 16016 190297 17681 43301 4086 5394 2273 10622 144927 45370
is_linear=0
shrinkage=0.0787314


Tree=7
num_leaves=16
num_cat=0
split_feature=8 35 10 19 30 19 35 19 30 30 11 11 8 8 12
split_gain=1488.12 472.322 360.656 131.603 96.2866 125.478 66.8028 69.2095 44.8274 44.2398 41.7209 26.321 22.7651 19.4124 10.2696
threshold=121.52872467041017 150.04132080078128 207.74858856201175 3.0838220119476323 1.7219762206077578 1.064345180988312 320.08403015136724 1.6979686021804812 1.2531300187110903 3.2043102979660039 300.27624511718756 -5.8272931575775138 29.488812446594242 40.913835525512702 110.35214233398439
decision_type=2 2 2 2 2 2 2 2 2 2 2 2 2 2 2
left_child=1 8 6 10 13 -6 14 -8 12 -5 -4 -10 -1 -3 -2
right_child=2 4 3 9 5 -7 7 -9 11 -11 -12 -13 -14 -15 -16
leaf_value=1.2549886435599049 -0.34920640481531168 0.44436538394056496 -1.5015732397796773 -1.3126998483465138 -0.68861628742836678 -1.454459476689768 -1.4156462153666327 -1.4834815637683632 1.0785335353472263 -2.0025598443893973 -1.9082955820734535 0.18983007786766468 0.29194825987881823 -0.28215654105693455 -0.86826619655622239
leaf_weight=93918 4265 17294 2996 867 39818 4209 8041 2398 47334 1355 1504 27554 13786 7366 949
leaf_count=93918 4265 17294 2996 867 39818 4209 8041 2398 47334 1355 1504 27554 13786 7366 949
internal_value=0.000627741 0.00236038 -0.0188282 -0.0340843 -0.00320462 -0.00541083 -0.0122733 -0.0159099 0.00445402 -0.0497823 -0.0263196 0.00297343 0.00548311 0.000732704 -0.00498403
internal_weight=273654 251279 22375 6722 68687 44027 15653 10439 182592 2222 4500 74888 107704 24660 5214
internal_count=273654 251279 22375 6722 68687 44027 15653 10439 182592 2222 4500 74888 107704 24660 5214
is_linear=0
shrinkage=0.0787314


Tree=8
num_leaves=16
num_cat=0
split_feature=7 35 8 8 11 9 35 11 30 25 11 25 25 25 8
split_gain=1356.04 461.472 300.781 126.695 100.066 66.0659 59.6475 54.3998 42.5219 32.711 32.2252 25.0542 22.1931 19.9449 11.02
threshold=150.18115997314456 171.89255523681643 293.15579223632818 73.708393096923842 212.13963317871097 102.55532455444337 94.457798004150405 166.71052551269534 2.4456017017364506 1.0993692874908449 212.13963317871097 0.800205558538437 0.23441975563764575 0.69322699308395397 64.713344573974624
decision_type=2 2 2 2 2 2 2 2 2 2 2 2 2 2 2
left_child=1 6 5 8 11 13 12 -5 -3 -6 -7 -4 -1 -2 -8
right_child=2 3 4 7 9 10 14 -9 -10 -11 -12 -13 -14 -15 -16
leaf_value=1.1909442094664895 -0.89487571608351257 0.10656500104555555 -1.6194410747503312 -0.78809402571472387 -1.7140724005787353 -1.176092234415506 0.33142517145596556 -1.3905225660445741 -0.75790417365880558 -1.8126280390939713 -1.6521534175608774 -1.6950290750859751 0.29734829515054295 -1.2741706480177408 -0.13317987438534531
leaf_weight=129892 4951 27928 1025 14891 816 3667 39553 3860 18145 1754 1682 1402 15035 2423 6630
leaf_count=129892 4951 27928 1025 14891 816 3667 39553 3860 18145 1754 1682 1402 15035 2423 6630
internal_value=0.000666868 0.00212534 -0.0203954 -0.00361457 -0.036767 -0.0139611 0.00407251 -0.00907081 -0.00139303 -0.0476125 -0.0206281 -0.0252589 0.00485782 -0.00911851 0.00160724
internal_weight=273654 255934 17720 64824 4997 12723 191110 18751 46073 2570 5349 2427 144927 7374 46183
internal_count=273654 255934 17720 64824 4997 12723 191110 18751 46073 2570 5349 2427 144927 7374 46183
is_linear=0
shrinkage=0.0787314


Tree=9
num_leaves=16
num_cat=0
split_feature=7 35 19 30 9 35 25 61 52 10 30 25 30 30 35
split_gain=1181.74 403.35 277.388 155.062 109.21 71.0857 47.415 46.1858 62.2256 44.4627 41.3077 32.4453 19.864 17.5379 7.72662
threshold=150.18115997314456 141.78593444824222 2.3554402589797978 2.6484471559524541 77.514045715332045 500.27310180664068 0.91814866662025463 1.0000000180025095e-35 1.0000000180025095e-35 75.683139801025405 1.5597575306892397 0.1921079754829407 3.3826967477798466 1.7219762206077578 264.32676696777349
decision_type=2 2 2 2 2 2 2 2 2 2 2 2 2 2 2
left_child=1 7 5 13 10 14 -6 11 -9 -7 -3 -1 -5 -4 -2
right_child=2 4 3 12 6 9 -8 8 -10 -11 -12 -13 -14 -15 -16
leaf_value=1.1000321435571374 -0.25899252080377633 0.37752646630675685 -0.38177406325277596 -1.2723952374355099 -0.71202752481653309 -1.6449303300912741 -1.233119787261717 0.27634419409187055 -1.8443399038842498 -1.5265307020097507 -0.40302438028378029 0.27942477085604295 -1.7022741040594067 -0.99788346703623687 -0.78808483881603653
leaf_weight=132150 2081 18321 562 779 17802 4170 3775 17359 966 3880 37215 28346 1702 1209 3337
leaf_count=132150 2081 18321 562 779 17802 4170 3775 17359 966 3880 37215 28346 1702 1209 3337
internal_value=0.000719518 0.00208104 -0.0189425 -0.0364784 -0.00267824 -0.0134022 -0.00743182 0.0041336 0.000386665 -0.0180973 -0.000830601 0.00456117 -0.04919 -0.0186395 -0.00641795
internal_weight=273654 255934 17720 4252 77113 13468 21577 178821 18325 8050 55536 160496 2481 1771 5418
internal_count=273654 255934 17720 4252 77113 13468 21577 178821 18325 8050 55536 160496 2481 1771 5418
is_linear=0
shrinkage=0.0787314


Tree=10
num_leaves=16
num_cat=0
split_feature=7 26 8 37 31 25 9 64 11 11 25 11 32 63 11
split_gain=1002.22 347.265 247.93 108.672 107.74 87.2778 65.9308 51.0418 35.4124 29.4123 26.3975 26.1567 25.7665 24.9406 22.6264
threshold=104.10267257690431 1.4665951132774355 45.823070526123054 309.21179199218756 62.323879241943366 1.0993692874908449 200.13661193847659 -21.112139701843258 212.13963317871097 166.71052551269534 1.3873993158340456 166.71052551269534 1.5133487582206728 30.226212501525882 137.53668975830081
decision_type=2 2 2 2 2 2 2 2 2 2 2 2 2 2 2
left_child=2 5 3 13 9 8 11 -5 -2 -3 -6 -4 -7 -1 -8
right_child=1 4 6 7 10 12 14 -9 -10 -11 -12 -13 -14 -15 -16
leaf_value=0.98122570257018804 -0.60420297917185251 -1.4685152951875309 -0.24240512165684511 0.77365343938672337 -1.4459456169175766 -1.2736113219328264 -1.0520052280766365 -0.14058878706156014 -1.2746314384071169 -1.5013101724176043 -1.5775983311641049 -1.0296833343949119 -1.2746628519518797 0.0078180125554909805 -1.4806917414182592
leaf_weight=105234 14603 1650 29299 61073 811 2473 2305 39352 2423 1153 1292 3121 1500 6076 1214
leaf_count=105234 14603 1650 29299 61073 811 2473 2305 39352 2423 1153 1292 3121 1500 6076 1214
internal_value=0.000702304 -0.0140319 0.00224358 0.00326995 -0.0328934 -0.0096227 -0.00380212 0.00139156 -0.00716681 -0.022753 -0.0463817 -0.0026895 -0.0201351 0.00496428 -0.0140394
internal_weight=273579 25905 247674 211735 4906 20999 35939 100425 17026 2803 2103 32420 3973 111310 3519
internal_count=273579 25905 247674 211735 4906 20999 35939 100425 17026 2803 2103 32420 3973 111310 3519
is_linear=0
shrinkage=0.0787314


Tree=11
num_leaves=16
num_cat=0
split_feature=7 8 11 30 64 11 8 6 30 64 6 6 28 30 8
split_gain=886.234 306.486 201.694 127.808 80.8938 66.6307 64.6123 63.6276 40.7548 24.1234 21.3039 21.1745 19.2906 15.758 9.55095
threshold=200.21367645263675 45.823070526123054 300.27624511718756 1.2920996546745303 200.55220794677737 116.70337677001955 498.80952453613287 150.07204437255862 2.4456017017364506 200.55220794677737 16.6768913269043 150.07204437255862 4445.3151855468759 4.4901127815246591 85.188877105712905
decision_type=2 2 2 2 2 2 2 2 2 2 2 2 2 2 2
left_child=1 3 7 10 8 -5 12 14 -3 -9 -1 -6 -4 -8 -2
right_child=2 4 6 5 11 -7 13 9 -10 -11 -12 -13 -14 -15 -16
leaf_value=1.0323236923911983 -0.91210702057149728 -0.17229559776121542 -1.1984519042346138 0.3368683050630305 -0.9892048969197903 -0.9539333370055616 -1.1857055185578964 -1.323800330814471 -0.84951894786480198 -1.2478351308392197 0.35305932091769654 -1.3101189308282546 -1.3847521352331429 -1.5307673891867517 -1.0432519974490295
leaf_weight=88039 3346 26861 1178 97113 2609 7589 512 2430 12529 1221 24562 1315 709 946 2620
leaf_count=88039 3346 26861 1178 97113 2609 7589 512 2430 12529 1221 24562 1315 709 946 2620
internal_value=0.000721298 0.0017208 -0.0193711 0.00292631 -0.00432623 0.000945732 -0.0360298 -0.0135712 -0.00325095 -0.0217641 0.00476759 -0.0151083 -0.0263536 -0.0485128 -0.00854941
internal_weight=273579 260617 12962 217303 43314 104702 3345 9617 39390 3651 112601 3924 1887 1458 5966
internal_count=273579 260617 12962 217303 43314 104702 3345 9617 39390 3651 112601 3924 1887 1458 5966
is_linear=0
shrinkage=0.0787314


Tree=12
num_leaves=16
num_cat=0
split_feature=35 7 31 35 9 30 11 25 30 52 29 26 7 11 30
split_gain=799.875 345.488 181.576 100.869 91.6005 83.8314 41.9579 40.5696 27.6937 25.9538 52.8883 26.7067 17.3438 13.5479 12.4595
threshold=264.32676696777349 200.21367645263675 62.323879241943366 94.457798004150405 43.337684631347663 3.2043102979660039 212.13963317871097 0.91814866662025463 2.1127330064773564 1.0000000180025095e-35 -68.972015380859361 0.19191658496856692 44.523389816284187 499.10569763183599 1.1414681077003481
decision_type=2 2 2 2 2 2 2 2 2 2 2 2 2 2 2
left_child=3 4 7 9 8 -4 -6 -3 -2 11 -11 -1 14 -14 -5
right_child=1 2 5 12 6 -7 -8 -9 -10 10 -12 -13 13 -15 -16
leaf_value=0.9710587349397598 0.36652884195626545 -1.0699828111829861 -0.81209514402148697 0.45227112931334346 -0.70230986720382749 -1.3436186768433132 -1.2689605334702676 -1.2737705575704041 -0.66205230677823579 -1.7066757565058641 0.48129805353809646 0.19737478001394906 -0.11807847309731585 -2.1945913617091488 0.10284831740327435
leaf_weight=121781 12241 5630 1169 12106 16784 1841 4053 3651 14130 632 3938 18242 20914 221 36246
leaf_count=121781 12241 5630 1169 12106 16784 1841 4053 3651 14130 632 3938 18242 20914 221 36246
internal_value=0.0007236 -0.00735132 -0.0191097 0.00296805 -0.00428892 -0.0359201 -0.00819071 -0.0136519 -0.00120434 0.0041528 -0.00167953 0.00434344 0.000502159 -0.00137828 0.00132493
internal_weight=273579 59499 12291 214080 47208 3010 20837 9281 26371 144593 4570 140023 69487 21135 48352
internal_count=273579 59499 12291 214080 47208 3010 20837 9281 26371 144593 4570 140023 69487 21135 48352
is_linear=0
shrinkage=0.0787314


Tree=13
num_leaves=16
num_cat=0
split_feature=7 9 11 37 25 11 6 9 25 27 7 32 6 23 32
split_gain=678.557 268.202 173.444 90.3285 69.2231 64.487 52.0926 45.4752 33.4972 29.9629 22.1771 21.7909 21.0099 12.1139 10.9589
threshold=200.21367645263675 43.337684631347663 499.10569763183599 291.70489501953131 1.3873993158340456 212.13963317871097 29.335247993469242 499.61239624023443 0.91814866662025463 8689.4335937500018 17.242505073547367 12.90718460083008 499.23077392578131 3.9019216299057011 2.2614743709564213
decision_type=2 2 2 2 2 2 2 2 2 2 2 2 2 2 2
left_child=1 3 4 10 9 8 -5 13 -3 -2 -1 -6 -7 -4 -9
right_child=2 5 7 6 11 12 -8 14 -10 -11 -12 -13 -14 -15 -16
leaf_value=0.94094135862630823 -0.76121612707215425 -0.22974260475120747 -0.81919121319969557 0.50863350209069302 -1.2102804017642113 -1.0370227002437804 -0.31142931611633307 -1.1614703587037147 -0.75520995321103435 -1.0967244298987586 0.30968242572965032 -1.175836695112858 -1.4569981944588444 -1.2446706816410844 -1.3056348592960969
leaf_weight=80755 7216 38300 242 82987 2093 4749 23414 131 4287 1033 25779 450 346 801 996
leaf_count=80755 7216 38300 242 82987 2093 4749 23414 131 4287 1033 25779 450 346 801 996
internal_value=0.000736838 0.00161144 -0.0168444 0.00280672 -0.0127539 -0.00372551 0.00118362 -0.0371621 -0.00272276 -0.0092441 0.00442741 -0.0241193 -0.0120983 -0.0252152 -0.0481675
internal_weight=273579 260617 12962 212935 10792 47682 106401 2170 42587 8249 106534 2543 5095 1043 1127
internal_count=273579 260617 12962 212935 10792 47682 106401 2170 42587 8249 106534 2543 5095 1043 1127
is_linear=0
shrinkage=0.0787314


Tree=14
num_leaves=16
num_cat=0
split_feature=35 25 32 26 35 30 11 30 61 52 26 26 33 11 61
split_gain=617.892 257.775 139.916 90.5404 84.1788 63.2391 47.7022 34.5779 28.5224 46.7352 20.5897 18.6586 14.9335 12.5335 12.2441
threshold=264.32676696777349 1.3873993158340456 2.7003254890441899 0.64032062888145458 94.457798004150405 4.1224277019500741 499.10569763183599 2.1127330064773564 1.0000000180025095e-35 1.0000000180025095e-35 0.099106416106224074 1.1486563682556155 -22.202949523925778 499.10569763183599 1.0000000180025095e-35
decision_type=2 2 2 2 2 2 2 2 2 2 2 2 2 2 2
left_child=4 3 11 7 8 -4 -5 -2 10 -10 -1 -3 14 -14 -6
right_child=1 2 5 6 12 -7 -8 -9 9 -11 -12 -13 13 -15 -16
leaf_value=0.95191951237822969 0.14543787970455008 -1.2597614531544694 -0.8553349591426419 -0.70132152777802481 -0.15095265626203055 -1.2083206745083297 -1.230743395383125 -0.67072563111326045 0.30535179591693912 -1.8373644492559489 0.31125110014216895 -1.1130771342559358 0.12004375059879353 -1.8810960121857261 -0.92270124345994442
leaf_weight=101415 15646 3475 1407 15282 2549 1337 1560 19184 13154 858 29166 1608 65023 654 1261
leaf_count=101415 15646 3475 1407 15282 2549 1337 1560 19184 13154 858 29166 1608 65023 654 1261
internal_value=0.00072101 -0.0063761 -0.0196921 -0.00435813 0.0026937 -0.0340256 -0.00909811 -0.00206489 0.00377601 0.000397239 0.00413826 -0.0119441 0.000440975 0.000719494 -0.00434928
internal_weight=273579 59499 7827 51672 214080 2744 16842 34830 144593 14012 130581 5083 69487 65677 3810
internal_count=273579 59499 7827 51672 214080 2744 16842 34830 144593 14012 130581 5083 69487 65677 3810
is_linear=0
shrinkage=0.0787314


Tree=15
num_leaves=16
num_cat=0
split_feature=7 35 11 11 6 9 35 29 9 19 31 35 35 8 61
split_gain=546.513 231.756 157.644 68.2274 53.0623 50.7281 45.1873 36.9642 36.144 34.2532 22.9348 17.5022 13.0542 11.8434 11.5993
threshold=200.21367645263675 133.36262512207034 499.10569763183599 212.13963317871097 200.22727203369143 499.61239624023443 54.057189941406257 -11.566235065460203 38.971698760986335 -0.90663501620292652 62.323879241943366 2112.8537597656255 600.40985107421886 498.80952453613287 1.0000000180025095e-35
decision_type=2 2 2 2 2 2 2 2 2 2 2 2 2 2 2
left_child=1 6 4 8 12 13 14 -5 -3 -8 -6 -7 -2 -4 -1
right_child=2 3 5 7 10 11 9 -9 -10 -11 -12 -13 -14 -15 -16
leaf_value=0.90486674762253283 -0.37130559463613416 0.053155866452013353 -0.96435301203744517 -1.3101492656467184 -0.97251617780144428 -0.83169380099611334 1.9661233678671843 -0.48278635520167718 -0.37062200375485294 0.19155172427879336 -0.88439551799794358 -1.1390619763906211 -1.0424565176014586 -1.0316450968364712 0.26970267965460698
leaf_weight=73444 3238 45856 709 3730 2519 350 14763 4485 31796 79478 1106 784 3954 355 6889
leaf_count=73444 3238 45856 709 3730 2519 350 14763 4485 31796 79478 1106 784 3954 355 6889
internal_value=0.000712323 0.00149929 -0.0150319 -0.00184919 -0.0111196 -0.0342608 0.00314651 -0.00867286 -0.00112674 0.00197627 -0.0188929 -0.0458786 -0.00719501 -0.0218259 0.00451884
internal_weight=273456 260441 13015 85867 10817 2198 174574 8215 77652 94241 3625 1134 7192 1064 80333
internal_count=273456 260441 13015 85867 10817 2198 174574 8215 77652 94241 3625 1134 7192 1064 80333
is_linear=0
shrinkage=0.0787314


Tree=16
num_leaves=16
num_cat=0
split_feature=35 19 30 30 19 35 19 61 30 25 30 61 25 11 11
split_gain=470.755 240.38 187.539 94.2123 77.84 71.8072 43.2272 22.7958 21.611 21.0755 18.1579 11.6092 6.43893 6.03963 5.27294
threshold=264.32676696777349 2.3554402589797978 3.2043102979660039 2.4456017017364506 -0.24190295487642285 56.908323287963874 -0.77801686525344838 1.0000000180025095e-35 4.4901127815246591 0.33989055454730993 1.9692603945732119 1.0000000180025095e-35 0.074198070913553252 -5.8272931575775138 -5.8272931575775138
decision_type=2 2 2 2 2 2 2 2 2 2 2 2 2 2 2
left_child=5 3 10 9 -5 11 13 -8 -4 -2 -3 12 -1 -7 -13
right_child=1 2 8 4 -6 6 7 -9 -10 -11 -12 14 -14 -15 -16
leaf_value=0.93976121817125191 0.30952430155092708 -0.25463982015984149 -0.8740338560181089 -0.20670836526775274 -0.93816916649865101 1.9370081129677896 0.15178359331961028 -0.31195434210996092 -1.0209288724465047 -0.40949870831832025 -0.61399327624892075 0.47565002253446359 0.4780322647204544 0.48595548817703493 -0.31522377157914938
leaf_weight=59775 16368 1603 1016 8776 19689 15834 95854 14216 1081 9003 2108 4879 17528 3387 2339
leaf_count=59775 16368 1603 1016 8776 19689 15834 95854 14216 1081 9003 2108 4879 17528 3387 2339
internal_value=0.000709156 -0.00547553 -0.0206937 -0.00383285 -0.00694229 0.0024346 0.00126758 0.000665569 -0.0395177 -0.000342587 -0.0100421 0.0042193 0.00450144 0.00471286 0.00119212
internal_weight=273456 59644 5808 53836 28465 213812 129291 110070 2097 25371 3711 84521 77303 19221 7218
internal_count=273456 59644 5808 53836 28465 213812 129291 110070 2097 25371 3711 84521 77303 19221 7218
is_linear=0
shrinkage=0.0787314


Tree=17
num_leaves=16
num_cat=0
split_feature=7 35 19 9 25 26 26 26 19 29 61 19 29 25 33
split_gain=423.174 199.28 116.703 60.031 41.5992 32.4615 31.8298 28.2668 25.0759 20.4083 11.6265 10.0065 9.87007 9.1189 6.46928
threshold=290.09803771972662 133.36262512207034 3.0838220119476323 89.371116638183608 0.1921079754829407 1.4665951132774355 2.0797123908996586 1.4665951132774355 -0.8605503737926482 -34.084712982177727 1.0000000180025095e-35 1.3280096650123598 -22.153413772583004 1.9679171442985537 -0.46749530732631678
decision_type=2 2 2 2 2 2 2 2 2 2 2 2 2 2 2
left_child=1 4 7 9 8 -5 12 11 -1 -3 -6 -2 -4 -9 -8
right_child=2 3 6 5 10 -7 14 13 -10 -11 -12 -13 -14 -15 -16
leaf_value=1.2837589232574138 -0.84495585137159079 -0.51647374831738357 -0.74815728136140613 -0.42372114557884072 0.079135314255835379 -0.8695182397051775 -0.82899013596467552 -0.89489668531442979 0.44045921409517086 0.027779495417046655 -0.52654882050881402 -0.82947404994668128 -0.5999451287266897 -1.0366525985308732 -0.91049149006840246
leaf_weight=40948 4047 12907 708 21278 26737 2702 165 1534 103739 52868 3150 1163 380 483 647
leaf_count=40948 4047 12907 708 21278 26737 2702 165 1534 103739 52868 3150 1163 380 483 647
internal_value=0.000710883 0.00128655 -0.0159559 -0.00172804 0.00283668 -0.00510036 -0.0333277 -0.0113813 0.00338906 -0.00049794 0.000161217 -0.00830302 -0.0244259 -0.0193092 -0.0451845
internal_weight=273456 264329 9127 89755 174574 23980 1900 7227 144687 65775 29887 5210 1088 2017 812
internal_count=273456 264329 9127 89755 174574 23980 1900 7227 144687 65775 29887 5210 1088 2017 812
is_linear=0
shrinkage=0.0787314


Tree=18
num_leaves=16
num_cat=0
split_feature=7 35 19 35 30 19 30 19 26 19 37 19 30 6 5
split_gain=369.496 172.453 108.946 57.1669 54.2403 60.7342 50.5133 34.2275 24.3567 22.8906 9.13858 8.84011 8.16218 8.15291 4.28446
threshold=290.09803771972662 220.0591735839844 3.0838220119476323 46.156845092773445 2.4456017017364506 0.17090483009815219 4.4901127815246591 -0.90663501620292652 1.4665951132774355 0.77777355909347545 309.21179199218756 1.3280096650123598 3.3826967477798466 499.23077392578131 98.500000000000014
decision_type=2 2 2 2 2 2 2 2 2 2 2 2 2 2 2
left_child=1 3 8 10 9 -6 12 -5 11 -3 -1 -2 -4 -10 -8
right_child=2 4 6 7 5 -7 14 -9 13 -11 -12 -13 -14 -15 -16
leaf_value=0.78016952609301093 -0.77843132598481113 0.31188263303103186 -0.53583786927186861 1.5535851045779623 -0.40854013369804909 -0.85599219662558668 -0.86870204370162052 0.13280265097987923 -0.84412461359111046 -0.26502723508791642 0.60128926787416681 -0.76416842787923223 -0.67038825337976304 -0.91634195299591348 -0.8187051388681712
leaf_weight=52027 4047 18985 655 16474 16727 10360 527 121571 1439 12364 15821 1163 443 578 275
leaf_count=52027 4047 18985 655 16474 16727 10360 527 121571 1439 12364 15821 1163 443 578 275
internal_value=0.000687563 0.00122549 -0.0148863 0.00229693 -0.00254895 -0.00512949 -0.0316707 0.00137677 -0.0104663 -0.000317944 0.0041685 -0.00760795 -0.0206199 -0.0178263 -0.0467287
internal_weight=273456 264329 9127 205893 58436 27087 1900 138045 7227 31349 67848 5210 1098 2017 802
internal_count=273456 264329 9127 205893 58436 27087 1900 138045 7227 31349 67848 5210 1098 2017 802
is_linear=0
shrinkage=0.0787314


Tree=19
num_leaves=16
num_cat=0
split_feature=7 64 11 30 30 11 30 35 25 26 19 27 19 27 30
split_gain=319.026 153.472 96.8752 71.653 50.8614 50.5197 42.1249 40.1955 26.2835 24.7645 17.6863 10.5259 9.44777 8.4953 5.95717
threshold=290.09803771972662 27.638984680175785 499.10569763183599 1.2920996546745303 4.4901127815246591 -5.8272931575775138 3.0445871353149419 600.40985107421886 1.3873993158340456 0.099106416106224074 1.064345180988312 1819.216979980469 1.3280096650123598 8689.4335937500018 3.3826967477798466
decision_type=2 2 2 2 2 2 2 2 2 2 2 2 2 2 2
left_child=1 3 8 9 14 -5 11 -8 13 -1 -6 -3 -10 -2 -4
right_child=2 6 4 5 10 -7 7 -9 12 -11 -12 -13 -14 -15 -16
leaf_value=0.70541655429179828 -0.59195852233471913 -0.13090830820930768 -0.61117401907547708 0.46186937191734084 -0.87497112188094539 -0.24045866642913793 -0.37043583618057407 -1.0546136183167722 -0.88278638989216474 0.18365048612794702 -0.80794276318834846 -0.40410117742806406 -0.71270492858992862 -0.78766726043969204 -0.69268952924629312
leaf_weight=77591 4458 33288 364 62365 229 45175 5315 4443 962 32476 828 3676 1094 764 428
leaf_count=77591 4458 33288 364 62365 229 45175 5315 4443 962 32476 828 3676 1094 764 428
internal_value=0.00066309 0.00116294 -0.0138081 0.0020421 -0.029909 0.000596303 -0.00293087 -0.00753307 -0.0097104 0.00345433 -0.0412307 -0.0017148 -0.0172623 -0.00672816 -0.0147329
internal_weight=273456 264329 9127 217607 1849 107540 46722 9758 7278 110067 1057 36964 2056 5222 792
internal_count=273456 264329 9127 217607 1849 107540 46722 9758 7278 110067 1057 36964 2056 5222 792
is_linear=0
shrinkage=0.0787314


Tree=20
num_leaves=16
num_cat=0
split_feature=7 11 25 30 35 64 30 30 35 61 63 61 35 30 63
split_gain=288.509 169.613 74.94 74.61 60.3867 37.7557 28.7667 27.4279 24.628 21.1026 12.9897 11.7473 8.47514 7.95786 6.58775
threshold=56.254829406738288 499.10569763183599 0.23441975563764575 3.8315379619598393 750.58139038085949 11.086724281311037 3.0445871353149419 1.1774497628211977 2112.8537597656255 1.0000000180025095e-35 36.24592590332032 1.0000000180025095e-35 600.40985107421886 2.5431295633316044 -75.993297576904283
decision_type=2 2 2 2 2 2 2 2 2 2 2 2 2 2 2
left_child=2 4 5 14 11 7 -6 -1 -5 10 -4 -2 -11 -7 -3
right_child=1 3 9 8 6 13 -8 -9 -10 12 -12 -13 -14 -15 -16
leaf_value=0.61992506643377698 -0.13108242468502182 -2.1892458406019193 0.066083781605440539 -0.68742081349270556 -0.53278310416027297 0.08230416392091415 -0.79991966034409046 0.44926619028661624 -0.81190792897997865 -0.43781645319095402 -0.33246809330425486 -0.44199523062719465 -0.85702848957998434 -0.44295918744137774 -0.55550771406122856
leaf_weight=77912 27097 92 28898 614 4772 22242 5199 77491 1123 5436 8263 5897 1326 5886 1422
leaf_count=77912 27097 92 28898 614 4772 22242 5199 77491 1123 5436 8263 5897 1326 5886 1422
internal_value=0.000676208 -0.00499459 0.00182863 -0.0223349 -0.00368136 0.00252781 -0.00905156 0.00300824 -0.0334773 -0.00109197 -0.000354658 -0.00205714 -0.00513777 -0.000125115 -0.00951846
internal_weight=273670 46216 227454 3251 42965 183531 9971 155403 1737 43923 37161 32994 6762 28128 1514
internal_count=273670 46216 227454 3251 42965 183531 9971 155403 1737 43923 37161 32994 6762 28128 1514
is_linear=0
shrinkage=0.0787314


Tree=21
num_leaves=16
num_cat=0
split_feature=7 25 19 30 63 30 19 30 63 52 12 19 61 32 32
split_gain=247.607 135.457 71.1488 52.2056 48.0723 41.4628 28.9902 22.2791 19.7417 16.6396 24.1158 16.267 13.9372 9.84333 6.75009
threshold=56.254829406738288 1.9679171442985537 -0.63787940144538868 1.5597575306892397 289.60208129882818 5.7932662963867196 1.0000000180025095e-35 3.8315379619598393 7.1989293098449716 1.0000000180025095e-35 199.88835906982425 3.0838220119476323 1.0000000180025095e-35 -39.49510192871093 7.4097158908844003
decision_type=2 2 2 2 2 2 2 2 2 2 2 2 2 2 2
left_child=2 4 9 8 12 14 -5 -6 -4 13 -11 -7 -2 -1 -3
right_child=1 5 3 6 7 11 -8 -9 -10 10 -12 -13 -14 -15 -16
leaf_value=0.27448570640516828 -0.20450982315764507 -0.89162339890056175 0.38217734487244864 0.030096746984665815 -0.4200228669291825 -0.86379353324577213 -0.46777007236151424 -0.74298704022033035 0.00068990702496376025 0.23600687643395205 -2.3899082153948537 -0.67767307462915738 -0.46221213187994709 1.0475579055580706 -0.5431353009365204
leaf_weight=8887 32153 1411 70078 43978 2417 257 19278 1744 23672 1515 376 391 7378 59670 465
leaf_count=8887 32153 1411 70078 43978 2417 257 19278 1744 23672 1515 376 391 7378 59670 465
internal_value=0.000655782 -0.00459767 0.0017234 0.00079034 -0.00357199 -0.0223329 -0.000957001 -0.0116238 0.00196974 0.00380232 -0.00347142 -0.0395417 -0.00272333 0.00400355 -0.0163588
internal_weight=273670 46216 227454 157006 43692 2524 63256 4161 93750 70448 1891 648 39531 68557 1876
internal_count=273670 46216 227454 157006 43692 2524 63256 4161 93750 70448 1891 648 39531 68557 1876
is_linear=0
shrinkage=0.0787314


Tree=22
num_leaves=16
num_cat=0
split_feature=7 8 8 30 25 25 19 30 30 19 30 54 2 33 31
split_gain=213.978 122.61 62.5657 49.9262 32.2414 30.2939 25.3974 20.9379 16.9925 12.9544 12.5964 9.7084 9.04233 6.01411 4.74038
threshold=50.02558898925782 498.80952453613287 23.711642265319828 4.4901127815246591 0.17337549477815631 1.3873993158340456 3.0838220119476323 0.97811341285705578 2.765660405158997 -0.0791301093995571 2.893337726593018 1.0000000180025095e-35 113.50000000000001 -15.448091030120848 58.898061752319343
decision_type=2 2 2 2 2 2 2 2 2 2 2 2 2 2 2
left_child=2 5 4 14 7 10 -5 -1 13 -10 -2 -6 -7 -4 -3
right_child=1 3 8 6 11 12 -8 -9 9 -11 -12 -13 -14 -15 -16
leaf_value=0.58470677654339165 -0.16420430728930119 -0.57899879907246177 -0.34650956379767106 -0.72504838391626025 0.1857916810656946 -0.4374942709908809 -0.60983840704217518 0.46341984938082742 -0.26858751572832029 -0.75842977767789133 -0.47680312135228298 -0.23783534953441404 -0.84011012836213217 0.029526152305571419 -0.46857539050361197
leaf_weight=58006 32720 1210 3622 878 21737 2661 748 85637 5817 4003 10305 11004 901 33498 923
leaf_count=58006 32720 1210 3622 878 21737 2661 748 85637 5817 4003 10305 11004 901 33498 923
internal_value=0.000648878 -0.00398751 0.00169428 -0.0176667 0.00237416 -0.00288275 -0.0280703 0.00288236 -0.000859595 -0.00377202 -0.00230381 0.000143317 -0.00986324 -8.80198e-05 -0.00971272
internal_weight=273670 50346 223324 3759 176384 46587 1626 143643 46940 9820 43025 32741 3562 37120 2133
internal_count=273670 50346 223324 3759 176384 46587 1626 143643 46940 9820 43025 32741 3562 37120 2133
is_linear=0
shrinkage=0.0787314


Tree=23
num_leaves=16
num_cat=0
split_feature=11 25 30 19 25 30 19 54 30 31 12 63 30 24 31
split_gain=182.828 119.164 100.754 48.0847 35.5151 31.0644 23.7453 22.8087 18.9056 15.9016 10.2181 9.95095 7.64502 6.38247 4.83299
threshold=499.10569763183599 0.23441975563764575 5.0110099315643319 -0.63787940144538868 1.3873993158340456 1.6128750443458559 3.0838220119476323 1.0000000180025095e-35 3.3826967477798466 1.0000000180025095e-35 68.95685195922853 -81.644390106201158 5.7932662963867196 2.5000000000000004 49.86756896972657
decision_type=2 2 2 2 2 2 2 2 2 2 2 2 2 2 2
left_child=1 3 8 9 7 -5 13 -3 11 -1 -6 -2 -8 -4 -10
right_child=2 4 6 5 10 -7 12 -9 14 -11 -12 -13 -14 -15 -16
leaf_value=-2.3757000492168219 -2.684594089037744 -0.023051268423403062 -0.38743344122805179 0.26186264570452483 -0.44450643527142714 -0.080658475223046186 -0.47334271430291469 -0.32837226026761562 -0.5311975315507349 0.8129175457243486 -0.72444925916172698 -0.43399993458584829 -0.59038974816116707 -0.95136831884872231 -0.74756738270283907
leaf_weight=273 319 39921 103 80308 4244 50363 134 22385 217 67512 2064 3549 417 698 1163
leaf_count=273 319 39921 103 80308 4244 50363 134 22385 217 67512 2064 3549 417 698 1163
internal_value=0.000604286 0.000924334 -0.0123396 0.00190231 -0.00190373 0.00101921 -0.03151 -0.00133299 -0.00739086 0.00360407 -0.0075343 -0.00455272 -0.0441695 -0.0227304 -0.0153128
internal_weight=273670 267070 6600 198456 68614 130671 1352 62306 5248 67785 6308 3868 551 801 1380
internal_count=273670 267070 6600 198456 68614 130671 1352 62306 5248 67785 6308 3868 551 801 1380
is_linear=0
shrinkage=0.0787314


Tree=24
num_leaves=16
num_cat=0
split_feature=9 11 30 25 30 35 30 11 54 19 63 30 33 25 26
split_gain=163.57 121.617 69.6698 47.4287 33.3249 27.9974 22.9768 20.8007 20.6893 18.6223 18.3147 13.0993 13.0825 11.0038 7.56351
threshold=31.606680870056156 499.10569763183599 5.7932662963867196 0.089443061500787749 3.0445871353149419 933.46994018554699 1.1774497628211977 -5.8272931575775138 1.0000000180025095e-35 3.0838220119476323 -18.536382675170895 1.4180745482444765 -9.839498043060301 1.0993692874908449 0.051312658935785301
decision_type=2 2 2 2 2 2 2 2 2 2 2 2 2 2 2
left_child=3 4 10 6 12 -6 14 -8 11 -4 -3 -5 -2 -10 -1
right_child=1 2 9 8 5 -7 7 -9 13 -11 -12 -13 -14 -15 -16
leaf_value=0.66817919782814905 -0.38393175149482994 -2.4964725761175317 -0.77966802575723682 0.2865322115461203 -0.27230212492485145 -0.6994275548152733 0.64305600843537047 -0.046373258815391262 -0.18848170805896794 -0.54112603449714236 -0.49018682682286585 -0.093090344126085009 -0.057691402324899436 -1.0318813367387063 0.24855224568862397
leaf_weight=49060 5258 175 437 23084 8728 5644 47739 26583 20123 414 3031 18817 45381 1402 17794
leaf_count=49060 5258 175 437 23084 8728 5644 47739 26583 20123 414 3031 18817 45381 1402 17794
internal_value=0.000572641 -0.00273998 -0.0159655 0.00169109 -0.00191392 -0.00526044 0.00249456 0.00154099 -9.6697e-05 -0.0360047 -0.0106293 0.000921819 -0.000963318 -0.00208117 0.00355404
internal_weight=273670 69068 4057 204602 65011 14372 141176 74322 63426 851 3206 41901 50639 21525 66854
internal_count=273670 69068 4057 204602 65011 14372 141176 74322 63426 851 3206 41901 50639 21525 66854
is_linear=0
shrinkage=0.0787314


Tree=25
num_leaves=16
num_cat=0
split_feature=11 26 25 26 25 54 29 11 64 27 32 25 29 34 29
split_gain=148.616 82.2538 71.5663 30.3386 24.8794 23.3788 20.7751 19.06 17.7475 15.8956 10.9305 10.4527 7.07656 5.79033 5.46515
threshold=137.53668975830081 2.0797123908996586 0.10537030547857286 0.21359198540449145 1.9679171442985537 1.0000000180025095e-35 -27.499896049499508 499.10569763183599 11.086724281311037 2590.7148437500005 10.589899063110353 1.9679171442985537 -27.499896049499508 4.5265116691589364 6.5228238105773935
decision_type=2 2 2 2 2 2 2 2 2 2 2 2 2 2 2
left_child=2 6 3 8 13 9 7 -2 -1 -4 -6 -7 -5 -3 -8
right_child=1 4 5 12 10 11 14 -9 -10 -11 -12 -13 -14 -15 -16
leaf_value=0.52507732307666388 -0.38784045801013922 -0.35860111875912398 0.077717559649278956 -0.42462061875399465 -0.42861749680011435 -0.23178050625877683 -0.36155406760043046 -0.90309909611266737 0.0037511352029509157 -0.40816146515089186 -0.48059143606605331 -1.1530382060178475 0.039445209465000852 -0.52387991743800266 -0.14267303775345805
leaf_weight=120805 4474 380 51308 5158 288 31001 6956 1938 15566 3842 450 845 22264 736 7599
leaf_count=120805 4474 380 51308 5158 288 31001 6956 1938 15566 3842 450 845 22264 736 7599
internal_value=0.000537085 -0.00554533 0.00109073 0.00206008 -0.0214436 -0.00073386 -0.00413717 -0.00787375 0.0025406 0.000246257 -0.0326972 -0.00243241 -0.000328161 -0.0139552 -0.00248816
internal_weight=273610 22821 250789 163793 1854 86996 20967 6412 136371 55150 738 31846 27422 1116 14555
internal_count=273610 22821 250789 163793 1854 86996 20967 6412 136371 55150 738 31846 27422 1116 14555
is_linear=0
shrinkage=0.0787314


Tree=26
num_leaves=16
num_cat=0
split_feature=7 11 64 35 18 52 35 29 8 29 33 33 63 35 0
split_gain=128.959 88.6804 46.9306 36.6872 32.0328 35.9231 28.6307 20.0584 19.4131 11.9319 9.7268 9.56367 6.99506 5.19855 3.89083
threshold=33.234413146972663 499.10569763183599 18.390254020690922 4152.2727050781259 262.93588256835943 1.0000000180025095e-35 600.40985107421886 -54.132118225097649 -1.2484413981437681 -27.499896049499508 -9.839498043060301 1.5460783243179324 99.519695281982436 6626.1364746093759 21.500000000000004
decision_type=2 2 2 2 2 2 2 2 2 2 2 2 2 2 2
left_child=2 6 4 11 8 -6 10 -5 -1 -8 -2 -3 14 -14 -4
right_child=1 3 12 7 5 -7 9 -9 -10 -11 -12 -13 13 -15 -16
leaf_value=0.62678582296905838 -0.3157193195529675 -0.24946041945461073 -0.47440678195869695 -0.54485998253774448 -0.035185609418400682 -1.4310796241505597 -0.5274617194132285 -0.40808304862175454 0.1825407760785871 -0.33756833278550907 -0.042880056280718434 -0.72850991707475032 -0.39961970752455778 -2.064359974738696 -0.065596887688961644
leaf_weight=93556 8696 1360 3346 582 18630 1026 5360 358 62042 8463 42140 1398 3620 306 22727
leaf_count=93556 8696 1360 3346 582 18630 1026 5360 358 62042 8463 42140 1398 3620 306 22727
internal_value=0.000521259 -0.00244035 0.00150778 -0.0142987 0.00200042 -0.000992928 -0.00176142 -0.0277506 0.00237881 -0.00493911 -0.000896552 -0.0096955 -0.0013689 -0.00446943 -0.000900442
internal_weight=273610 68357 205253 3698 175254 19656 64659 940 155598 13823 50836 2758 29999 3926 26073
internal_count=273610 68357 205253 3698 175254 19656 64659 940 155598 13823 50836 2758 29999 3926 26073
is_linear=0
shrinkage=0.0787314


Tree=27
num_leaves=16
num_cat=0
split_feature=9 26 7 30 30 30 10 25 10 25 33 32 26 10 30
split_gain=111.58 70.8685 44.7358 27.9966 27.3502 22.1508 18.6634 17.5714 12.8723 10.7735 8.75567 7.27827 5.42999 2.23587 2.18294
threshold=31.606680870056156 2.0797123908996586 17.242505073547367 2.893337726593018 4.4901127815246591 0.97811341285705578 -4.6491420269012442 1.9679171442985537 297.52049255371099 1.3873993158340456 -9.839498043060301 -15.081114768981932 -0.042539505288004868 499.40475463867193 2.2698116302490239
decision_type=2 2 2 2 2 2 2 2 2 2 2 2 2 2 2
left_child=2 3 5 10 14 12 -7 -6 -5 11 -2 -4 -1 -11 -3
right_child=1 4 9 8 7 6 -8 -9 -10 13 -12 -13 -14 -15 -16
leaf_value=0.62449178509581238 -0.31713047636795044 0.66081740884538942 -0.31036562705245246 -0.36932934578316301 -0.55136911228169283 0.50797655765387073 -0.026352794292332164 -0.39605250008922072 -0.48869870536874632 -0.74008012193704265 -0.044957808961624712 0.002865901214254357 0.30070106871898156 -0.65507945753951613 -0.45503330116661039
leaf_weight=31207 4986 159 8070 12703 865 61130 33310 679 3255 1212 45008 42883 26680 136 1327
leaf_count=31207 4986 159 8070 12703 865 61130 33310 679 3255 1212 45008 42883 26680 136 1327
internal_value=0.000496225 -0.0022419 0.00141947 -0.00170027 -0.014016 0.00210164 0.00135762 -0.0213638 -0.00457188 -0.000566608 -0.000782833 -0.000381964 0.00331478 -0.00751407 -0.00635041
internal_weight=273610 68982 204628 65952 3030 152327 94440 1544 15958 52301 49994 50953 57887 1348 1486
internal_count=273610 68982 204628 65952 3030 152327 94440 1544 15958 52301 49994 50953 57887 1348 1486
is_linear=0
shrinkage=0.0787314


Tree=28
num_leaves=16
num_cat=0
split_feature=11 30 35 19 30 61 18 5 19 30 19 30 35 32 32
split_gain=97.1189 57.8835 59.8856 53.3765 36.9687 23.8152 20.9965 21.3049 20.1881 13.1534 7.87508 7.76173 6.26416 4.89662 4.62616
threshold=137.53668975830081 4.4901127815246591 2903.0612792968755 -0.54632523655891407 2.4456017017364506 1.0000000180025095e-35 262.93588256835943 99.500000000000014 0.86304855346679699 7.1930594444274911 -1.0107623338699339 3.2043102979660039 2112.8537597656255 -11.403530597686766 12.90718460083008
decision_type=2 2 2 2 2 2 2 2 2 2 2 2 2 2 2
left_child=3 11 14 6 5 -5 10 -8 -6 -4 -1 13 -13 -2 -3
right_child=1 2 9 4 8 -7 7 -9 -10 -11 -12 12 -14 -15 -16
leaf_value=0.92444005518989714 -0.688822906471796 -0.34965325789381535 -0.51719034212004966 0.12263777485945414 -0.23093443449252446 -0.38598350534309073 -1.2470799605308993 0.12307145165693816 -0.56840408627103645 -0.43424296280821284 0.49705581057785275 -0.27913516740383759 -0.65169084999835236 -0.17518498627239096 -0.61151208935663992
leaf_weight=27628 925 1657 828 120091 34333 8560 1509 8455 3466 390 46747 2770 879 14552 820
leaf_count=27628 925 1657 828 120091 34333 8560 1509 8455 3466 390 46747 2770 879 14552 820
internal_value=0.000475507 -0.00444137 -0.0134645 0.000923092 0.000105243 0.000741468 0.00253671 -0.000854118 -0.00205912 -0.0277644 0.00299151 -0.0026958 -0.00596714 -0.0019218 -0.00641291
internal_weight=273610 22821 3695 250789 166450 128651 84339 9964 37799 1218 74375 19126 3649 15477 2477
internal_count=273610 22821 3695 250789 166450 128651 84339 9964 37799 1218 74375 19126 3649 15477 2477
is_linear=0
shrinkage=0.0787314


Tree=29
num_leaves=16
num_cat=0
split_feature=64 30 61 52 36 9 30 34 6 30 37 53 53 31 30
split_gain=86.569 45.2014 38.4967 47.2589 35.1865 30.8501 21.0083 15.7728 14.131 13.6337 8.17833 7.84382 8.52913 6.88892 4.98783
threshold=18.390254020690922 4.1224277019500741 1.0000000180025095e-35 1.0000000180025095e-35 123.70346450805665 25.288208007812504 7.1930594444274911 -0.1110870875418186 4.6959633827209482 3.0445871353149419 14508.695800781252 0.87837970256805431 0.6078576147556306 32.979490280151374 1.7775023579597475
decision_type=2 2 2 2 2 2 2 2 2 2 2 2 2 2 2
left_child=2 11 5 7 6 8 -3 -4 -1 -7 -6 12 -2 -5 -13
right_child=1 4 3 13 10 9 -8 -9 -10 -11 -12 14 -14 -15 -16
leaf_value=0.47981550485027485 -0.12478900711825752 -0.32890770510516226 0.17813207474501849 -1.8970965099230552 -0.29557797873365438 0.01964100123195291 -0.3636396748386872 -0.39283101883585825 0.14189105223073506 -0.58646254924326702 -0.74579508210351986 0.31792516744432159 -0.38623211447734673 -1.361547558985482 -0.15505218753106231
leaf_weight=101487 37806 1518 14415 351 4574 31289 358 11401 47532 5163 1207 5011 6921 928 3649
leaf_count=101487 37806 1518 14415 351 4574 31289 358 11401 47532 5163 1207 5011 6921 928 3649
internal_value=0.000448746 -0.00216431 0.00119934 -0.00157198 -0.00782224 0.00160441 -0.017198 -0.000838349 0.00210666 -0.000447733 -0.00477168 -0.00135202 -0.00177221 -0.0163431 0.000813632
internal_weight=273610 61044 212566 27095 7657 185471 1876 25816 149019 36452 5781 53387 44727 1279 8660
internal_count=273610 61044 212566 27095 7657 185471 1876 25816 149019 36452 5781 53387 44727 1279 8660
is_linear=0
shrinkage=0.0787314


Tree=30
num_leaves=16
num_cat=0
split_feature=11 7 19 25 63 7 20 33 18 20 20 7 12 25 19
split_gain=77.7767 54.9192 33.0655 22.5114 14.7675 14.5672 12.4698 11.6672 11.3374 9.71748 7.70137 3.91065 3.81824 3.51971 1.98474
threshold=499.10569763183599 36.372220993041999 -0.81643366813659657 1.9679171442985537 10.056208133697512 499.39576721191412 1.133258640766144 2.6497199535369877 112.40566635131837 0.72921741008758556 1.4869341254234316 499.39576721191412 39.744722366333015 1.9679171442985537 1.6979686021804812
decision_type=2 2 2 2 2 2 2 2 2 2 2 2 2 2 2
left_child=1 2 8 6 -4 10 7 -2 -1 12 -3 -11 -5 -7 -8
right_child=3 5 4 9 -6 13 14 -9 -10 11 -12 -13 -14 -15 -16
leaf_value=0.8357528160519514 -0.30382686928316094 -0.078545531054574 0.1660631269780628 0.23550517077184172 -0.090569898356981551 -0.4889773380081911 -0.11351761930818045 -1.0968679463182485 0.16515181091223419 -0.38588692822943738 -0.29716657856588991 -0.27857101423115516 -0.34213680947807446 -0.46441557626678681 -0.43298094328648939
leaf_weight=35730 1302 46510 122580 11.999999999999998 35781 3273 1925 1874 12575 347 9695 491 170 796 369
leaf_count=35730 1302 46510 122580 12 35781 3273 1925 1874 12575 347 9695 491 170 796 369
internal_value=0.000406139 0.000613327 0.0012233 -0.00810907 0.000672959 -0.00147746 -0.00609501 -0.00929211 0.00302666 -0.0188631 -0.00114724 -0.0151829 -0.0355046 -0.00602843 -0.00165046
internal_weight=273430 266940 206666 6490 158361 60274 5470 3176 48305 1020 56205 838 182 4069 2294
internal_count=273430 266940 206666 6490 158361 60274 5470 3176 48305 1020 56205 838 182 4069 2294
is_linear=0
shrinkage=0.0787314


Tree=31
num_leaves=16
num_cat=0
split_feature=7 25 19 30 30 11 54 11 11 61 18 64 31 11 54
split_gain=65.1787 39.1946 31.9977 24.8915 23.166 19.3576 13.5699 11.1666 10.6919 11.1181 10.6552 5.80193 5.30113 4.97128 3.64741
threshold=40.242515563964851 1.9679171442985537 -0.81643366813659657 1.7219762206077578 7.1930594444274911 38.927371978759773 1.0000000180025095e-35 100.03371429443361 499.10569763183599 1.0000000180025095e-35 112.40566635131837 -66.785751342773423 1.0000000180025095e-35 -9.2999229431152326 1.0000000180025095e-35
decision_type=2 2 2 2 2 2 2 2 2 2 2 2 2 2 2
left_child=2 8 10 6 14 -5 -4 -6 9 -2 13 -10 -12 -1 -3
right_child=1 4 3 5 7 -7 -8 -9 11 -11 12 -13 -14 -15 -16
leaf_value=0.91058213629892715 -0.075390705752933052 -0.2431236008689649 0.27854952094851648 0.0026598434145952963 -0.19332468027914468 -0.47566935320257536 0.024594990778772637 -0.32342848117098089 -1.416996171011047 -0.28557254532039228 -2.1123739604279597 -0.27042415140228665 0.16024669895958898 0.38188658387298036 -0.56241569671572911
leaf_weight=28178 44961 1361 60084 47345 77 13944 43770 308 185 9457 45 2378 12689 7778 870
leaf_count=28178 44961 1361 60084 47345 77 13944 43770 308 185 9457 45 2378 12689 7778 870
internal_value=0.000385695 -0.00191658 0.00102755 0.000504301 -0.011341 -0.000753535 0.00124699 -0.0292051 -0.00148312 -0.00124813 0.00280141 -0.00645576 0.000840205 0.00349487 -0.00823477
internal_weight=273430 59597 213833 165143 2616 61289 103854 385 56981 54418 48690 2563 12734 35956 2231
internal_count=273430 59597 213833 165143 2616 61289 103854 385 56981 54418 48690 2563 12734 35956 2231
is_linear=0
shrinkage=0.0787314


Tree=32
num_leaves=16
num_cat=0
split_feature=35 35 34 31 9 61 56 32 64 25 5 54 55 20 12
split_gain=59.5854 32.8517 29.3523 29.2832 23.9895 19.6346 17.735 17.5367 12.7285 10.3075 8.6275 7.86931 6.87206 4.68215 3.55255
threshold=264.32676696777349 6626.1364746093759 -0.1110870875418186 32.979490280151374 499.61239624023443 1.0000000180025095e-35 1.0000000180025095e-35 12.90718460083008 1.0000000180025095e-35 1.9679171442985537 7.5000000000000009 1.0000000180025095e-35 1.0000000180025095e-35 0.99686729907989513 199.88835906982425
decision_type=2 2 2 2 2 2 2 2 2 2 2 2 2 2 2
left_child=2 9 8 6 13 -5 -4 -6 12 10 -2 -10 -1 -3 -11
right_child=1 4 3 5 7 -7 -8 -9 11 14 -12 -13 -14 -15 -16
leaf_value=0.33152946267625683 -0.44220304291968143 -1.0310223458882612 -0.95030262365061313 0.06051078115621035 -0.4722264148980127 -0.40611108980821337 -2.0373463249715589 -1.3418140850945743 0.2115566823570354 -0.28959031067355068 -0.09237278293129178 -0.17394638674425453 0.48656265858756415 -0.19825333571996431 -0.46601579077360916
leaf_weight=54344 4748 1042 997 89254 567 10172 261 623 12778 2554 48008 9901 36230 1357 594
leaf_count=54344 4748 1042 997 89254 567 10172 261 623 12778 2554 48008 9901 36230 1357 594
internal_value=0.000369282 -0.00183444 0.000982295 3.8319e-06 -0.00913762 0.000155283 -0.0119301 -0.0182858 0.00185182 -0.0013648 -0.0011027 0.000181906 0.00226951 -0.00458049 -0.00574388
internal_weight=273430 59493 213937 100684 3589 99426 1258 1190 113253 55904 52756 22679 90574 2399 3148
internal_count=273430 59493 213937 100684 3589 99426 1258 1190 113253 55904 52756 22679 90574 2399 3148
is_linear=0
shrinkage=0.0787314


Tree=33
num_leaves=16
num_cat=0
split_feature=9 30 35 6 18 52 8 33 30 53 52 54 55 37 59
split_gain=50.4281 31.3057 43.206 21.3566 15.6351 19.1155 12.3706 10.548 9.15518 9.14991 8.21252 6.20472 6.02874 3.36853 2.7831
threshold=15.390478134155275 3.0445871353149419 4152.2727050781259 50.002206802368171 262.93588256835943 1.0000000180025095e-35 -1.2484413981437681 -11.331346511840819 4.1224277019500741 0.87837970256805431 1.0000000180025095e-35 1.0000000180025095e-35 1.0000000180025095e-35 600.15527343750011 1.0000000180025095e-35
decision_type=2 2 2 2 2 2 2 2 2 2 2 2 2 2 2
left_child=3 7 12 4 6 -6 -1 14 -4 10 -5 -9 -3 -11 -2
right_child=1 2 8 9 5 -7 -8 11 -10 13 -12 -13 -14 -15 -16
leaf_value=0.42641963873572269 -0.39627749199472961 -0.31534434059932159 -0.88000182164617768 -0.25486725159857404 -0.021574170752478167 -1.2154983578649241 0.10657964992497632 0.062957082100666195 -0.57243670114177991 0.56573292532337849 -1.229225394082829 -0.093272060762726428 -0.036318963362571788 -0.20203406877648997 -0.097851572356623409
leaf_weight=90084 5130 10641 945 11717 18119 988 52780 38401 1531 2516 519 29408 6028 2236 2387
leaf_count=90084 5130 10641 945 11717 18119 988 52780 38401 1531 2516 519 29408 6028 2236 2387
internal_value=0.000354309 -0.00111707 -0.00396011 0.00113126 0.00140993 -0.000703771 0.0016929 -0.000393936 -0.0136671 -0.00152332 -0.00266309 -8.31321e-05 -0.00251551 0.00140317 -0.00319219
internal_weight=273430 94471 19145 178959 161971 19107 142864 75326 2476 16988 12236 67809 16669 4752 7517
internal_count=273430 94471 19145 178959 161971 19107 142864 75326 2476 16988 12236 67809 16669 4752 7517
is_linear=0
shrinkage=0.0787314


Tree=34
num_leaves=16
num_cat=0
split_feature=7 34 11 31 15 11 35 30 30 54 37 54 64 32 15
split_gain=47.628 23.1707 20.7731 17.098 16.0917 13.5891 12.8474 11.1331 11.1043 10.4549 10.3447 9.79455 9.05841 7.71214 3.22486
threshold=15.163644790649416 -0.18537738919258115 499.10569763183599 32.979490280151374 105.65486526489259 54.815055847167976 416.78402709960943 2.5431295633316044 1.5597575306892397 1.0000000180025095e-35 14508.695800781252 1.0000000180025095e-35 -66.785751342773423 7.4097158908844003 456.80610656738287
decision_type=2 2 2 2 2 2 2 2 2 2 2 2 2 2 2
left_child=1 5 6 4 -3 9 11 -5 -8 -1 12 -2 -4 -12 -7
right_child=2 3 10 7 -6 14 8 -9 -10 -11 13 -13 -14 -15 -16
leaf_value=0.5487038944753555 0.041220779353586451 -0.15548793725360624 -1.4469999150741248 0.095213516107483784 -1.6846204059436707 -0.099390199180348096 0.5471349301749886 -0.29507592793058363 -0.26955275506729287 0.22151203782005874 -0.29222070811719442 -0.15740069287480443 -0.14877753738505942 -0.28783809405289368 -0.78529313684536572
leaf_weight=46295 47504 645 250 62883 522 8365 2455 13111 19444 43374 295 23829 3232 316 910
leaf_count=46295 47504 645 250 62883 522 8365 2455 13111 19444 43374 295 23829 3232 316 910
internal_value=0.000345095 0.00111767 -0.00105244 9.44843e-05 -0.0093601 0.0019152 -0.000810937 0.000240252 -0.0024792 0.00221208 -0.00654316 -0.000298222 -0.00486744 -0.0160166 -0.000950667
internal_weight=273430 176105 97325 77161 1167 98944 93232 75994 21899 89669 4093 71333 3482 611 9275
internal_count=273430 176105 97325 77161 1167 98944 93232 75994 21899 89669 4093 71333 3482 611 9275
is_linear=0
shrinkage=0.0787314


Tree=35
num_leaves=16
num_cat=0
split_feature=7 34 31 15 35 30 25 30 64 35 20 34 30 15 30
split_gain=41.5073 22.6321 18.3483 18.2153 14.8259 21.4839 10.9003 10.2315 7.36384 6.1362 6.27319 6.06605 6.0212 3.14922 1.59851
threshold=26.930172920227054 -0.18537738919258115 32.979490280151374 114.18538665771486 6626.1364746093759 4.1224277019500741 -0.018336955457925793 2.765660405158997 -4.650554656982421 750.58139038085949 1.1492212414741518 -1.2867756485939024 0.6780773699283601 29.34060096740723 2.765660405158997
decision_type=2 2 2 2 2 2 2 2 2 2 2 2 2 2 2
left_child=1 6 3 -3 9 14 8 -4 -1 10 -2 -11 -8 -7 -6
right_child=4 2 7 -5 5 13 12 -9 -10 11 -12 -13 -14 -15 -16
leaf_value=0.56974261647637903 -0.014307406833651481 -0.21201835969792707 0.064515249928367852 -1.5906617810336336 0.14318965736407127 -0.056321446051724428 0.31446427155545126 -0.34430866828001 0.071565614302190092 -0.69872200762149916 -0.18412840528291968 -0.13278629187971291 0.061602180078972252 -0.42492104081700532 -0.56844070004404423
leaf_weight=51915 40260 722 76585 544 765 78 7370 11915 9676 1823 21125 11375 38031 775 528
leaf_count=51915 40260 722 76585 544 765 78 7370 11915 9676 1823 21125 11375 38031 775 528
internal_value=0.000344649 0.000950458 2.81542e-05 -0.00938063 -0.00120832 -0.00766223 0.0017239 0.000163245 0.0024065 -0.00102204 -0.000690024 -0.00256324 0.000796999 -0.0173606 -0.00122951
internal_weight=273487 196758 89766 1266 76729 2146 106992 88500 61591 74583 61385 13198 45401 853 1293
internal_count=273487 196758 89766 1266 76729 2146 106992 88500 61591 74583 61385 13198 45401 853 1293
is_linear=0
shrinkage=0.0787314


Tree=36
num_leaves=15
num_cat=0
split_feature=19 29 18 31 11 53 54 57 23 33 19 25 53 37
split_gain=35.8335 30.5355 19.6351 22.3384 14.2478 12.8559 23.0804 10.7344 7.14011 6.96249 6.8763 6.73251 5.76352 3.63858
threshold=-0.51750671863555897 1.0000000180025095e-35 129.30435180664065 1.0000000180025095e-35 499.10569763183599 -0.60785761475563038 1.0000000180025095e-35 1.0000000180025095e-35 1.0000000180025095e-35 2.6497199535369877 -1.0107623338699339 1.0000000180025095e-35 -1.0000000180025095e-35 129.42785644531253
decision_type=2 2 2 2 2 2 2 2 2 2 2 2 2 2
left_child=2 4 8 12 7 13 -7 -2 -1 -6 -10 -5 -4 -3
right_child=1 5 3 11 9 6 -8 -9 10 -11 -12 -13 -14 -15
leaf_value=2.4273438761846151 -0.2379210424371333 0.28626222500262855 -2.0517808135884685 0.099701266040476286 -0.12249703626069351 0.096780651164520268 -0.21369722229354687 0.10997679268111547 0.64990051867061216 -0.46827770761367515 0.31099512387539086 -0.36466620303235264 -1.379047331141807 0.15241358071422578
leaf_weight=1397 47676 10216 80 15734 2006 55094 27315 10989 23802 2167 43844 5321 66 27780
leaf_count=1397 47676 10216 80 15734 2006 55094 27315 10989 23802 2167 43844 5321 66 27780
internal_value=0.000333134 -0.000299125 0.00161738 -0.000476811 -0.0017061 0.000434834 -0.000117128 -0.00138901 0.00226102 -0.00615363 0.00214512 -0.000261746 -0.0311164 0.001633
internal_weight=273487 183243 90244 21201 62838 120405 82409 58665 69043 4173 67646 21055 146 37996
internal_count=273487 183243 90244 21201 62838 120405 82409 58665 69043 4173 67646 21055 146 37996
is_linear=0
shrinkage=0.0787314


Tree=37
num_leaves=16
num_cat=0
split_feature=7 8 29 11 11 63 54 53 31 18 31 22 13 32 30
split_gain=31.8167 17.0599 11.2087 10.2166 9.3936 10.7399 9.55808 17.0671 8.97611 7.40836 6.45465 6.27791 6.17624 5.34975 1.9944
threshold=13.160073280334474 -1.2484413981437681 -11.566235065460203 87.514434814453139 499.10569763183599 -81.644390106201158 1.0000000180025095e-35 -1.0000000180025095e-35 1.0000000180025095e-35 129.30435180664065 48.696166992187507 -186.098518371582 4.5000000000000009 -30.844805717468258 3.0445871353149419
decision_type=2 2 2 2 2 2 2 2 2 2 2 2 2 2 2
left_child=1 3 8 9 6 10 12 -8 -3 -1 -6 -7 -2 -4 -5
right_child=4 2 13 14 5 11 7 -9 -10 -11 -12 -13 -14 -15 -16
leaf_value=0.39766571990906852 -0.33279903139696038 -1.4960799815743548 -0.27335348773848639 -0.18753099079778662 -0.74912439538499531 -0.85595836214507537 0.042994737109224863 -0.29500480754165131 -0.28396044546374383 0.086596715720783465 -1.7071594582183214 -0.080371960563823744 0.018240308416312377 0.090772736043896476 -0.7659679901356814
leaf_weight=76638 4992 107 2898 3898 108 436 14264 19291 13013 22753 103 3593 59044 51136 1213
leaf_count=76638 4992 107 2898 3898 108 436 14264 19291 13013 22753 103 3593 59044 51136 1213
internal_value=0.000321907 0.000976067 -2.46173e-06 0.00160525 -0.000780421 -0.00440955 -0.000622322 -0.00169872 -0.00206722 0.00178198 -0.0217395 -0.00348962 -5.76621e-05 0.000498168 -0.00182369
internal_weight=273487 171656 67154 104502 101831 4240 97591 33555 13120 99391 211 4029 64036 54034 5111
internal_count=273487 171656 67154 104502 101831 4240 97591 33555 13120 99391 211 4029 64036 54034 5111
is_linear=0
shrinkage=0.0787314


Tree=38
num_leaves=16
num_cat=0
split_feature=19 29 31 33 18 19 64 34 61 7 23 21 7 0 7
split_gain=28.7755 21.3826 14.0718 11.5135 11.4828 10.4946 9.39118 6.45704 5.5202 5.11391 4.27018 3.65314 2.97597 2.73344 0.915587
threshold=-0.7403346300125121 1.529357969760895 1.0000000180025095e-35 -3.5390707254409786 98.02624893188478 0.082521382719278349 11.086724281311037 3.3592406511306767 1.0000000180025095e-35 3.8471448421478276 1.0000000180025095e-35 0.68626973032951366 -1.0000000180025095e-35 396.50000000000006 50.02558898925782
decision_type=2 2 2 2 2 2 2 2 2 2 2 2 2 2 2
left_child=4 2 13 7 9 -4 -5 -3 12 10 -1 -10 -6 -2 -11
right_child=1 3 5 6 8 -7 -8 -9 11 14 -12 -13 -14 -15 -16
leaf_value=2.1428830326867789 -0.51911250467523185 0.011979181640233713 -0.075967994574803924 0.18988162252873211 0.24323251695904102 -0.18102117346904631 -0.026359388996433496 -0.19353276559544774 -0.71747211278552459 0.11566065137770834 0.55667952521229747 -0.01150337442946177 -0.20583571131105965 -1.6539229947929088 -0.53891827707863882
leaf_weight=1046 22 22361 51727 67925 11470 28009 30811 13964 1773 3418 36166 1759 2166 45 825
leaf_count=1046 22 22361 51727 67925 11470 28009 30811 13964 1773 3418 36166 1759 2166 45 825
internal_value=0.000302907 -0.000118758 -0.00114067 0.000484765 0.00184904 -0.00110973 0.000925848 -0.00071307 0.000134364 0.00255819 0.00285348 -0.00263664 0.000855067 -0.0370912 -2.22638e-05
internal_weight=273487 214864 79803 135061 58623 79736 98736 36325 17168 41455 37212 3532 13636 67 4243
internal_count=273487 214864 79803 135061 58623 79736 98736 36325 17168 41455 37212 3532 13636 67 4243
is_linear=0
shrinkage=0.0787314


Tree=39
num_leaves=15
num_cat=0
split_feature=19 30 18 60 30 20 55 23 11 2 6 23 34 20
split_gain=25.2047 20.8224 14.8365 13.6999 10.8428 13.0362 10.2125 9.15218 8.98091 10.7188 7.5749 4.76547 3.44593 3.07122
threshold=-0.51750671863555897 2.5431295633316044 642.84152221679699 1.0000000180025095e-35 0.59456273913383495 1.0196226239204409 1.0000000180025095e-35 1.0000000180025095e-35 -5.8272931575775138 95.500000000000014 -10.988400936126707 8.8530931472778338 9.1399750709533709 2.2612053155899052
decision_type=2 2 2 2 2 2 2 2 2 2 2 2 2 2
left_child=2 4 7 11 12 -6 -5 -1 13 -10 -9 -3 -2 -4
right_child=1 3 8 6 5 -7 -8 10 9 -11 -12 -13 -14 -15
leaf_value=2.179875283650202 0.29827647846237176 -0.043143710639739853 0.13329496309529726 -0.54885179483719126 0.10607153140259931 -0.082952159458789462 -0.056028824958545054 0.45415309864959991 -1.5477181417389165 -0.63672225521308579 0.088843241957678815 -0.93719915470182347 -0.11310241625422708 -0.71342940288831969
leaf_weight=1439 12461 24634 2277 13467 59262 65888 5648 53409 149 1532 30526 230 1653 912
leaf_count=1439 12461 24634 2277 13467 59262 65888 5648 53409 149 1532 30526 230 1653 912
internal_value=0.000293407 -0.000236825 0.00137049 -0.00173039 0.000234559 9.43933e-07 -0.00331557 0.00161189 -0.00285311 -0.00751026 0.00150455 -0.000510109 0.00230318 -0.000385079
internal_weight=273487 183243 90244 43979 139264 125150 19115 85374 4870 1681 83935 24864 14114 3189
internal_count=273487 183243 90244 43979 139264 125150 19115 85374 4870 1681 83935 24864 14114 3189
is_linear=0
shrinkage=0.0787314


Tree=40
num_leaves=16
num_cat=0
split_feature=34 31 56 9 11 25 64 10 11 32 33 57 15 15 35
split_gain=25.4919 15.729 14.7845 17.7938 14.5823 11.5083 9.13655 8.7641 8.71567 7.64997 6.83311 5.51172 4.92607 4.6735 1.90667
threshold=-0.1110870875418186 32.979490280151374 1.0000000180025095e-35 -2.3242827653884883 61.292793273925788 0.060381155461072929 -10.817625999450682 -22.962859153747555 212.13963317871097 -17.56874847412109 -4.3861989974975577 1.0000000180025095e-35 74.020881652832045 720.66595458984386 112.51666641235353
decision_type=2 2 2 2 2 2 2 2 2 2 2 2 2 2 2
left_child=4 2 12 -4 6 8 10 -8 -3 -7 -1 13 -2 -6 -13
right_child=1 5 3 -5 11 9 7 -9 -10 -11 -12 14 -14 -15 -16
leaf_value=0.12359743615552346 -0.047052120154537136 0.059236789397408611 0.023483128296312869 -1.8144170604350254 -0.21877668693733968 -0.40796142802723107 -0.63703868959863019 0.066841166109935971 -0.48753801438899114 -0.078157944093616219 0.4547879622321383 -0.099132092219164802 -1.053874350306292 -0.93189253357038804 0.33823251620572164
leaf_weight=29192 676 72225 110 173 11495 5178 1285 31984 2648 59914 54101 916 501 891 1711
leaf_count=29192 676 72225 110 173 11495 5178 1285 31984 2648 59914 54101 916 501 891 1711
internal_value=0.000264889 -0.00046874 -0.00859819 -0.0247719 0.00105374 -0.000383628 0.00135136 0.00024706 0.000281599 -0.00114942 0.00179196 -0.00125437 -0.00466705 -0.00195072 0.00201361
internal_weight=273000 141425 1460 283 131575 139965 116562 33269 74873 65092 83293 15013 1177 12386 2627
internal_count=273000 141425 1460 283 131575 139965 116562 33269 74873 65092 83293 15013 1177 12386 2627
is_linear=0
shrinkage=0.0787314


Tree=41
num_leaves=16
num_cat=0
split_feature=19 13 54 5 16 5 34 54 35 35 27 20 33 35 24
split_gain=24.1367 17.0356 12.5585 10.8993 9.49186 7.21385 8.52841 6.01732 7.80527 5.64923 5.47341 4.55897 4.22839 2.79962 0.318015
threshold=-0.48941665887832636 4.5000000000000009 1.0000000180025095e-35 7.5000000000000009 70.844272613525405 111.50000000000001 -0.28130152821540827 1.0000000180025095e-35 93.755268096923842 99.915538787841811 156.86551666259768 0.92286279797554027 -162.2163391113281 21.065813064575199 1.5000000000000002
decision_type=2 2 2 2 2 2 2 2 2 2 2 2 2 2 2
left_child=4 9 3 -3 7 6 -6 13 -9 14 -4 -11 -7 -1 -2
right_child=1 2 10 -5 5 12 -8 8 -10 11 -12 -13 -14 -15 -16
leaf_value=0.61124032530408512 2.6834278853032263 -0.73669783848544024 -0.061864121812591405 0.064699779195755494 0.011515892851323956 -0.26269665723437391 -0.79767235195914288 0.016563372733560983 0.76606804674496864 -0.53078191278113473 -0.22426822637328842 -0.26944216721781467 0.17903579170329989 0.54804360473325808 0.41017211927228198
leaf_weight=6692 347 1624 52130 99543 3718 2250 2570 19853 10935 4725 12349 7810 23251 25166 37
leaf_count=6692 347 1624 52130 99543 3718 2250 2570 19853 10935 4725 12349 7810 23251 25166 37
internal_value=0.000253353 -0.000284828 -6.98209e-05 0.00047721 0.0012714 0.000161973 -0.00222479 0.00183373 0.00104665 -0.00303847 -0.000928715 -0.00332876 0.000752072 0.00259312 0.00632718
internal_weight=273000 178565 165646 101167 94435 31789 6288 62646 30788 12919 64479 12535 25501 31858 384
internal_count=273000 178565 165646 101167 94435 31789 6288 62646 30788 12919 64479 12535 25501 31858 384
is_linear=0
shrinkage=0.0787314


Tree=42
num_leaves=16
num_cat=0
split_feature=34 11 31 56 9 54 6 30 18 30 33 57 15 15 55
split_gain=19.4795 11.8703 11.5277 12.1082 14.0278 9.79877 9.81593 9.55195 8.87828 5.69739 5.48808 4.85622 4.74249 3.38125 2.53623
threshold=-0.1110870875418186 30.627789497375492 32.979490280151374 1.0000000180025095e-35 -2.3242827653884883 1.0000000180025095e-35 -6.9752960205078116 1.2531300187110903 642.84152221679699 0.92025440931320202 -3.5390707254409786 1.0000000180025095e-35 720.66595458984386 74.020881652832045 1.0000000180025095e-35
decision_type=2 2 2 2 2 2 2 2 2 2 2 2 2 2 2
left_child=1 5 3 13 -5 9 -7 10 -9 -1 -4 12 -3 -2 -13
right_child=2 11 7 4 -6 6 -8 8 -10 -11 -12 14 -14 -15 -16
leaf_value=0.39314791139319383 -0.035927519366500578 -0.11128341034910522 -0.07295855884608328 0.016540367844848428 -1.6531389480669965 0.2650676201647294 -0.09511142206892384 -0.082870610598898636 -0.55346290476977589 0.30432738508096202 0.099678398622154565 -0.084951481703154128 -0.77653908934566518 -0.95952363572547439 0.4212904091158981
leaf_weight=15867 676 19469 20337 110 173 27229 21910 73808 3527 41113 42293 1783 1201 501 3003
leaf_count=15867 676 19469 20337 110 173 27229 21910 73808 3527 41113 42293 1783 1201 501 3003
internal_value=0.000242683 0.000932267 -0.000398596 -0.00735832 -0.0219948 0.00129864 0.000482904 -0.00032569 -0.000911154 0.00200143 0.000396608 -0.000593504 -0.0011179 -0.00379783 0.00166296
internal_weight=273000 131575 141425 1460 283 106119 49139 139965 77335 56980 62630 25456 20670 1177 4786
internal_count=273000 131575 141425 1460 283 106119 49139 139965 77335 56980 62630 25456 20670 1177 4786
is_linear=0
shrinkage=0.0787314


Tree=43
num_leaves=13
num_cat=0
split_feature=19 13 23 18 52 54 51 19 33 23 63 18
split_gain=19.2824 14.3689 12.5988 9.88295 11.9468 9.82846 12.7704 4.59179 3.66711 3.01615 1.72097 1.60162
threshold=-0.35304865241050715 4.5000000000000009 1.0000000180025095e-35 60.443994522094734 1.0000000180025095e-35 1.0000000180025095e-35 1.0000000180025095e-35 -1.2286310195922849 -11.331346511840819 4.6200466156005868 421.33345031738287 10.997303009033205
decision_type=2 2 2 2 2 2 2 2 2 2 2 2
left_child=2 9 -1 7 -5 6 -3 -4 -7 11 -11 -2
right_child=1 5 3 4 -6 8 -8 -9 -10 10 -12 -13
leaf_value=2.0095856523134339 -0.35649703184336407 0.046302767602219443 0.67979918125249728 0.046958492219772073 -0.71587314813641978 -0.24862966620167831 -2.8456256008513523 0.24707446187167031 -0.075289696559585478 -0.86738246930503138 -0.0079634650690813252 -0.28639185620893143
leaf_weight=1642 2967 89529 10142 49317 1529 5733 232 54243 49827 657 187 6995
leaf_count=1642 2967 89529 10142 49317 1529 5733 232 54243 49827 657 187 6995
internal_value=0.000232012 -0.000340285 0.000996862 0.000898878 7.75758e-05 -0.000134035 0.000375056 0.00154686 -0.000957209 -0.0031102 -0.00765405 -0.00272092
internal_weight=273000 156127 116873 115231 50846 145321 89761 64385 55560 10806 844 9962
internal_count=273000 156127 116873 115231 50846 145321 89761 64385 55560 10806 844 9962
is_linear=0
shrinkage=0.0787314


Tree=44
num_leaves=13
num_cat=0
split_feature=64 23 33 11 30 13 10 56 34 10 11 11
split_gain=18.1713 12.7929 10.5544 11.4335 10.152 7.37561 8.87892 7.3549 8.38645 6.11795 5.71461 2.35054
threshold=-20.018806457519528 1.0000000180025095e-35 -6.8264863491058341 499.10569763183599 0.78343242406845104 4.5000000000000009 2.6682847738265996 1.0000000180025095e-35 0.18899249285459521 -13.886638164520262 -5.8272931575775138 -5.8266088962554923
decision_type=2 2 2 2 2 2 2 2 2 2 2 2
left_child=1 -1 10 -4 7 11 -7 8 -2 -9 -3 -6
right_child=4 2 3 -5 5 6 -8 9 -10 -11 -12 -13
leaf_value=1.917639711208915 0.33640532010379254 0.042768545794178429 0.24936446529974199 -1.1849172946135902 -0.21544913540114122 -0.2340110811184877 -0.015633501614818378 -0.52266873172341088 -0.0080109471420448802 -0.040827587654669303 -0.2912147988446126 -0.35366592242477773
leaf_weight=1615 13246 28285 91129 1472 3304 25443 77727 985 12441 2850 9618 4885
leaf_count=1615 13246 28285 91129 1472 3304 25443 77727 985 12441 2850 9618 4885
internal_value=0.000217016 0.000880398 0.000793863 0.00124693 -0.000404829 -0.000749139 -0.000568142 0.000892587 0.00137372 -0.00231955 -0.000311988 -0.00302447
internal_weight=273000 132119 130504 92601 140881 111359 103170 29522 25687 3835 37903 8189
internal_count=273000 132119 130504 92601 140881 111359 103170 29522 25687 3835 37903 8189
is_linear=0
shrinkage=0.0787314


Tree=45
num_leaves=9
num_cat=0
split_feature=23 25 27 8 29 18 9 20
split_gain=15.8757 13.6772 10.2926 9.27995 7.07654 5.53974 5.12028 3.06201
threshold=1.0000000180025095e-35 0.060381155461072929 125.92938232421876 -1.2484413981437681 22.126726150512699 313.44952392578131 13.249190330505373 1.362027704715729
decision_type=2 2 2 2 2 2 2 2
left_child=-1 3 5 6 -5 -3 -2 -4
right_child=1 2 7 4 -6 -7 -8 -9
leaf_value=1.7511319017478244 0.23884134001377719 0.016734784632267616 -0.11175733128159966 -0.1629495009607756 0.073349354380416634 -0.24734615077915462 -0.031109504593561169 -0.30366488565975258
leaf_weight=1672 80549 76373 24552 28334 33154 7552 14821 6810
leaf_count=1672 80549 76373 24552 28334 33154 7552 14821 6810
internal_value=0.000199605 0.000152461 -0.00049839 0.000631072 -0.000122536 -4.31528e-05 0.00111736 -0.00171533
internal_weight=273817 272145 115287 156858 61488 83925 95370 31362
internal_count=273817 272145 115287 156858 61488 83925 95370 31362
is_linear=0
shrinkage=0.0787314


Tree=46
num_leaves=16
num_cat=0
split_feature=53 54 6 7 51 7 7 31 8 15 20 18 32 17 29
split_gain=15.8455 24.847 16.6078 8.53871 9.18741 7.82593 6.73111 6.04409 5.73254 4.01935 3.59157 2.67376 1.89507 1.6979 1.34164
threshold=-0.60785761475563038 1.0000000180025095e-35 -5.6955301761627188 11.115130424499513 1.0000000180025095e-35 1.0000000180025095e-35 17.242505073547367 1.0000000180025095e-35 100.11520767211915 79.218521118164077 1.0651807188987734 42.733299255371101 -181.4756164550781 396.50000000000006 63.466953277587898
decision_type=2 2 2 2 2 2 2 2 2 2 2 2 2 2 2
left_child=6 3 5 4 -2 -3 7 13 -4 -9 -5 14 -13 -1 -8
right_child=1 2 8 10 -6 -7 11 9 -10 -11 -12 12 -14 -15 -16
leaf_value=1.1307498723016902 0.19941971801983241 0.064685633340689067 -0.30787313153265677 0.041300955773409954 -2.7737730122887281 -0.30193711485351754 0.069443316895738141 0.34734308617758719 -0.02562381709930061 0.078610397683101324 -0.096730990231741115 -0.70976247358153421 -0.050581061048744602 -1.2894789073201203 0.31953047844499599
leaf_weight=9.9999999999999982 63409 32461 31526 29907 198 8123 11911 36625 6159 14477 23983 337 13238 53 1400
leaf_count=10 63409 32461 31526 29907 198 8123 11911 36625 6159 14477 23983 337 13238 53 1400
internal_value=0.000187816 -0.000190186 -0.00127709 0.000533509 0.00115137 -0.000170908 0.00113641 0.00166648 -0.00246731 0.00169734 -0.000195037 0.000126209 -0.000649546 -0.0225655 0.000920302
internal_weight=273817 195766 78269 117497 63607 40584 78051 51165 37685 51102 53890 26886 13575 63 13311
internal_count=273817 195766 78269 117497 63607 40584 78051 51165 37685 51102 53890 26886 13575 63 13311
is_linear=0
shrinkage=0.0787314


Tree=47
num_leaves=9
num_cat=0
split_feature=23 19 13 54 33 11 23 6
split_gain=15.9657 13.2757 11.7115 11.3208 8.10756 4.84106 3.83507 1.54908
threshold=1.0000000180025095e-35 -0.8605503737926482 1.5000000000000002 1.0000000180025095e-35 -15.448091030120848 -17.17900466918945 3.9019216299057011 150.07204437255862
decision_type=2 2 2 2 2 2 2 2
left_child=-1 4 7 -4 6 -6 -2 -3
right_child=1 2 3 -5 5 -7 -8 -9
leaf_value=1.586380397879628 1.63646879229513 -0.51757921153837638 0.056947550731229639 -0.080253794761370997 0.52750910504826676 0.095532701739710083 -0.15108521730545296 -0.13084359012822885
leaf_weight=1672 1049 3734 131874 90273 24238 10430 8668 1879
leaf_count=1672 1049 3734 131874 90273 24238 10430 8668 1879
internal_value=0.00017804 0.000130763 -0.000111826 -2.19023e-05 0.00137648 0.0019401 -0.000630337 -0.00366342
internal_weight=273817 272145 227760 222147 44385 34668 9717 5613
internal_count=273817 272145 227760 222147 44385 34668 9717 5613
is_linear=0
shrinkage=0.0787314


Tree=48
num_leaves=16
num_cat=0
split_feature=53 54 6 11 34 64 63 7 8 31 35 32 35 0 1
split_gain=14.0224 19.0254 12.8719 8.68844 6.71237 6.52568 6.35128 6.00492 4.87527 4.29373 3.72511 2.30024 1.81412 1.80063 1.26759
threshold=-0.60785761475563038 1.0000000180025095e-35 -5.6955301761627188 43.755342483520515 3.3592406511306767 -6.7972428798675528 -109.10180282592772 17.242505073547367 100.11520767211915 1.0000000180025095e-35 6626.1364746093759 -17.56874847412109 264.32676696777349 315.50000000000006 30.500000000000004
decision_type=2 2 2 2 2 2 2 2 2 2 2 2 2 2 2
left_child=7 3 5 4 -2 -3 -5 9 -4 13 -11 14 -13 -1 -9
right_child=1 2 8 6 -6 -7 -8 11 -10 10 -12 12 -14 -15 -16
leaf_value=0.52364113376669352 0.16848838393629392 0.062172876788189037 -0.27867582251416789 -1.2911896366900475 -0.078389502032924177 -0.2350976749083965 -0.058169726612406603 0.88423524537817932 -0.014671544831261612 0.25401058627411066 -1.3875795797645643 0.10074664617916368 -0.04007885165911277 -1.1709088423570282 -0.31650382989410109
leaf_weight=17 76749 31045 31526 653 13674 9539 26421 283 6159 50708 394 14753 9643 46 2207
leaf_count=17 76749 31045 31526 653 13674 9539 26421 283 6159 50708 394 14753 9643 46 2207
internal_value=0.00017344 -0.000182142 -0.00113325 0.00045109 0.000821763 -0.000159269 -0.000785438 0.0010658 -0.00218109 0.00156646 0.00159258 0.000111568 0.000345629 -0.0188459 -0.00216547
internal_weight=273817 195766 78269 117497 90423 40584 27074 78051 37685 51165 51102 26886 24396 63 2490
internal_count=273817 195766 78269 117497 90423 40584 27074 78051 37685 51165 51102 26886 24396 63 2490
is_linear=0
shrinkage=0.0787314


Tree=49
num_leaves=9
num_cat=0
split_feature=23 61 20 29 34 34 35 32
split_gain=16.0522 12.6877 10.0357 14.157 8.56771 25.42 5.20824 3.67169
threshold=1.0000000180025095e-35 1.0000000180025095e-35 1.362027704715729 -54.132118225097649 -0.1110870875418186 -0.11108435317873953 1600.9259033203127 -53.63727951049804
decision_type=2 2 2 2 2 2 2 2
left_child=-1 2 3 -2 7 -6 -4 -3
right_child=1 4 6 -5 5 -7 -8 -9
leaf_value=1.4414839082604409 -0.21943464313418931 -0.39339801917009409 -0.11165009777111763 0.10773834410565127 -1.1067327585877997 -0.15061138446579131 0.41415447861151244 0.069831855272999677
leaf_weight=1672 17717 1861 44221 169314 1690 17534 3691 16117
leaf_count=1672 17717 1861 44221 169314 1690 17534 3691 16117
internal_value=0.000157338 0.000109934 0.000323982 0.000584535 -0.00124078 -0.0023962 -0.000692293 -3.06514e-06
internal_weight=273817 272145 234943 187031 37202 19224 47912 17978
internal_count=273817 272145 234943 187031 37202 19224 47912 17978
is_linear=0
shrinkage=0.0787314


Tree=50
num_leaves=9
num_cat=0
split_feature=23 61 64 52 33 10 19 6
split_gain=15.9795 13.0658 15.7168 12.8129 9.4529 7.32733 7.11008 4.89482
threshold=1.0000000180025095e-35 1.0000000180025095e-35 1.0000000180025095e-35 1.0000000180025095e-35 -47.784151077270501 1.0000000180025095e-35 -1.0719544887542722 -1.0000000180025095e-35
decision_type=2 2 2 2 2 2 2 2
left_child=-1 2 6 4 -3 -4 -2 -5
right_child=1 3 5 7 -6 -7 -8 -9
leaf_value=1.4867222745502575 0.37119592634751369 -0.56960441262225059 -0.31159078947617969 -0.61735868651191839 -0.068419010965634269 -0.044268901334792825 0.083890529179713957 -1.2271965058968117
leaf_weight=1677 23775 3132 5018 711 32721 69572 136329 603
leaf_count=1677 23775 3132 5018 711 32721 69572 136329 603
internal_value=0.00018631 0.000138893 0.000356229 -0.00123242 -0.000951272 -0.000587394 0.000796094 -0.00887038
internal_weight=273538 271861 234694 37167 35853 74590 160104 1314
internal_count=273538 271861 234694 37167 35853 74590 160104 1314
is_linear=0
shrinkage=0.0787314


Tree=51
num_leaves=16
num_cat=0
split_feature=53 54 19 19 57 20 16 8 10 11 33 8 61 59 11
split_gain=13.2197 13.8786 9.52257 8.08604 7.04756 4.67662 4.49071 3.94301 3.72252 4.40302 5.30505 4.0596 3.2061 2.39958 1.67393
threshold=-0.60785761475563038 1.0000000180025095e-35 -1.0719544887542722 -0.40653078258037562 1.0000000180025095e-35 0.95978629589080822 98.293895721435561 -32.775505065917962 163.74680328369143 499.10569763183599 4.3481395244598398 121.52872467041017 1.0000000180025095e-35 1.0000000180025095e-35 137.53668975830081
decision_type=2 2 2 2 2 2 2 2 2 2 2 2 2 2 2
left_child=8 3 7 6 -5 -4 -2 -3 9 12 -11 13 -1 -10 -13
right_child=1 2 5 4 -6 -7 -8 -9 11 10 -12 14 -14 -15 -16
leaf_value=0.19534127940033394 0.32455965387825592 0.72349668937602296 -0.059825374338087919 -0.056253518338024736 0.16061055450938042 -0.22467484743835944 -0.029043497935221936 -0.0094137191507541775 -0.61950153029685129 0.07861643247392136 -1.2659746639643825 -0.03582009297782305 -0.017609800425505577 -0.001753048218267368 0.12003999468736849
leaf_weight=62484 31720 4786 24533 61058 13902 40813 10790 7759 2000 702 435 836 8976 1311 1433
leaf_count=62484 31720 4786 24533 61058 13902 40813 10790 7759 2000 702 435 836 8976 1311 1433
internal_value=0.000180265 -0.000165795 -0.000980863 0.00037432 -0.000117109 -0.00136254 0.0012418 0.00100411 0.00104556 0.00119641 -0.00365452 -0.000909985 0.00127417 -0.00267232 0.00164436
internal_weight=273538 195361 77891 117470 74960 65346 42510 12545 78177 72597 1137 5580 71460 3311 2269
internal_count=273538 195361 77891 117470 74960 65346 42510 12545 78177 72597 1137 5580 71460 3311 2269
is_linear=0
shrinkage=0.0787314


Tree=52
num_leaves=16
num_cat=0
split_feature=6 27 11 63 11 11 53 61 52 54 53 53 12 11 19
split_gain=13.0267 12.8715 8.91821 8.4872 6.568 6.10174 5.90838 5.33851 7.36389 5.22062 3.72438 7.06981 2.49113 2.21025 1.51054
threshold=-1.8169856667518614 55.688344955444343 77.33465957641603 -109.10180282592772 -91.662090301513658 300.27624511718756 -1.0000000180025095e-35 1.0000000180025095e-35 1.0000000180025095e-35 0.81174489855766307 -0.60785761475563038 0.87837970256805431 304.84349060058599 -1.0000000180025095e-35 -0.27088725566864008
decision_type=2 2 2 2 2 2 2 2 2 2 2 2 2 2 2
left_child=2 7 4 5 14 -4 -6 9 -9 -2 13 -12 -5 -3 -1
right_child=1 10 3 12 6 -7 -8 8 -10 -11 11 -13 -14 -15 -16
leaf_value=2.2809594167525331 0.058518429378294115 -0.17105133520758478 -1.1053227962675733 -0.065024096836983875 0.25450971430624514 -2.5876463631297835 0.058133537426767384 -0.11750291832865023 -1.1146782771867796 -0.15563386994604272 -0.25089960897445152 0.0013659977434695195 -0.44273628041736279 0.02262194060093117 -0.76991028909820014
leaf_weight=3138 80234 3702 319 9397 47994 164 69473 13246 479 9729 19136 7160 1361 7949 57
leaf_count=3138 80234 3702 319 9397 47994 164 69473 13246 479 9729 19136 7160 1361 7949 57
internal_value=0.000173933 -0.0003502 0.000737035 -0.00138252 0.000934826 -0.0115939 0.000838604 0.000103494 -0.00134226 0.000324505 -0.00159091 -0.00211046 -0.00091988 -0.000414891 0.00445951
internal_weight=273538 141635 131903 11241 120662 483 117467 103688 13725 89963 37947 26296 10758 11651 3195
internal_count=273538 141635 131903 11241 120662 483 117467 103688 13725 89963 37947 26296 10758 11651 3195
is_linear=0
shrinkage=0.0787314


Tree=53
num_leaves=16
num_cat=0
split_feature=6 27 64 53 53 22 9 33 12 53 20 37 54 64 5
split_gain=11.1381 11.2366 7.82212 5.07959 8.59359 4.67271 4.05306 3.56969 2.88456 2.76586 2.70324 2.07408 2.23325 1.69421 1.54128
threshold=-1.8169856667518614 55.688344955444343 1.0000000180025095e-35 0.87837970256805431 -0.60785761475563038 41.539175033569343 -45.82732963562011 -15.448091030120848 26.442210197448734 -0.60785761475563038 1.2723137736320498 14508.695800781252 1.0000000180025095e-35 143.67668151855472 19.500000000000004
decision_type=2 2 2 2 2 2 2 2 2 2 2 2 2 2 2
left_child=2 3 5 4 -2 6 -1 10 -7 -9 -3 12 -4 -13 -5
right_child=1 7 11 14 -6 8 -8 9 -10 -11 -12 13 -14 -15 -16
leaf_value=0.68886295813791099 0.11642125414345843 -0.17249256467646124 0.033803727443120546 -0.20697336070638478 -0.086644434551082838 0.17485683458101825 0.14289041533052893 -0.0092306058961704272 -0.19177723892174472 -0.14653442157551078 -0.51836672792997618 -0.89168410814019849 -0.14598766024940293 -0.14695006046349002 0.17899441856209447
leaf_weight=17466 30546 2647 13840 1558 53997 8013 71097 10257 8738 22815 2228 442 11779 528 17587
leaf_count=17466 30546 2647 13840 1558 53997 8013 71097 10257 8738 22815 2228 442 11779 528 17587
internal_value=0.000165011 -0.000319627 0.000685703 0.000104253 -0.000157568 0.000990473 0.00121862 -0.00147888 -0.000213378 -0.00118386 -0.0034719 -0.00051995 -0.000382908 -0.00409679 0.00126247
internal_weight=273538 141635 131903 103688 84543 105314 88563 37947 16751 33072 4875 26589 25619 970 19145
internal_count=273538 141635 131903 103688 84543 105314 88563 37947 16751 33072 4875 26589 25619 970 19145
is_linear=0
shrinkage=0.0787314


Tree=54
num_leaves=16
num_cat=0
split_feature=7 64 53 10 32 29 11 11 8 20 30 59 11 30 11
split_gain=9.59989 10.6564 6.70014 6.63619 6.56653 6.13834 5.15408 3.34579 3.29745 3.14157 3.02722 4.64279 2.60095 2.20586 2.14612
threshold=-1.0000000180025095e-35 -10.817625999450682 -1.0000000180025095e-35 -22.962859153747555 -20.91308498382568 108.28664016723634 -5.8272931575775138 166.71052551269534 100.11520767211915 1.1659998893737795 1.1774497628211977 1.0000000180025095e-35 -5.8266088962554923 0.70477843284606945 116.70337677001955
decision_type=2 2 2 2 2 2 2 2 2 2 2 2 2 2 2
left_child=1 2 7 13 10 8 -4 -1 -6 -7 14 -12 -5 -3 -2
right_child=4 3 6 12 5 9 -8 -9 -10 -11 11 -13 -14 -15 -16
leaf_value=0.35477076019347631 -0.042719944595748953 -0.63684262001903924 0.18179497009268455 0.055932563286342697 -0.079000259372623158 0.18753052778799875 -0.11036711889191882 -0.5139978992035632 0.04050096283694693 -0.021340546458272273 -0.49441550484593172 0.045809509068403649 -0.10320162496175533 -0.5042688754361484 -0.49994856721516207
leaf_weight=37079 5506 393 41709 16806 79956 16049 18892 918 19284 8971 5616 2030 19204 1035 90
leaf_count=37079 5506 393 41709 16806 79956 16049 18892 918 19284 8971 5616 2030 19204 1035 90
internal_value=0.000154937 0.000623953 0.00105347 -0.00050618 -0.000308793 -0.000130838 0.000538634 0.00187352 -0.000408966 0.000970749 -0.00197564 -0.00299522 -0.000296249 -0.00577051 -0.000575379
internal_weight=273538 136036 98598 37438 137502 124260 60601 37997 99240 25020 13242 7646 36010 1428 5596
internal_count=273538 136036 98598 37438 137502 124260 60601 37997 99240 25020 13242 7646 36010 1428 5596
is_linear=0
shrinkage=0.0787314


Tree=55
num_leaves=16
num_cat=0
split_feature=33 29 19 25 57 57 61 4 10 30 30 56 55 11 5
split_gain=9.79869 10.9777 12.1969 7.51947 5.42197 5.04038 4.85856 5.572 5.05414 4.59693 2.82493 1.82132 1.80453 1.74609 1.42073
threshold=-13.158977031707762 77.585826873779311 -0.51750671863555897 -0.42243844270706171 1.0000000180025095e-35 1.0000000180025095e-35 1.0000000180025095e-35 2254.5000000000005 -90.472644805908189 0.56292986869812023 1.5597575306892397 1.0000000180025095e-35 1.0000000180025095e-35 499.10569763183599 126.50000000000001
decision_type=2 2 2 2 2 2 2 2 2 2 2 2 2 2 2
left_child=4 2 3 -2 6 -4 8 -8 -1 11 -11 -3 14 -14 -6
right_child=1 9 5 -5 12 -7 7 -9 -10 10 -12 -13 13 -15 -16
leaf_value=1.826895952900939 0.62038566102146464 0.33286867935729408 -0.07385569454954774 0.044638655682295469 -0.34198530644664632 0.063678113429203473 -0.31142743565800379 -1.2249369873064693 -0.13197226558528713 0.11695321389476664 -0.47381578689706771 -0.041819090173508142 0.33190954332308975 -0.6036020971923417 0.019579919917755467
leaf_weight=1149 22704 10883 100081 32068 254 23841 6567 548 24365 43609 1223 944 3180 37 2407
leaf_count=1149 22704 10883 100081 32068 254 23841 6567 548 24365 43609 1223 944 3180 37 2407
internal_value=0.000162574 0.000353191 5.01837e-05 0.00102877 -0.00100143 -0.000382022 -0.00139851 -0.00321985 -0.000889004 0.00130813 0.000942511 0.00269061 0.001196 0.00245187 -0.000307648
internal_weight=273860 235353 178694 54772 38507 123922 32629 7115 25514 56659 44832 11827 5878 3217 2661
internal_count=273860 235353 178694 54772 38507 123922 32629 7115 25514 56659 44832 11827 5878 3217 2661
is_linear=0
shrinkage=0.0787314


Tree=56
num_leaves=10
num_cat=0
split_feature=23 30 33 6 56 63 59 34 30
split_gain=11.7524 8.8679 8.12574 6.99149 6.2647 5.75971 4.70208 4.18645 0.137098
threshold=1.0000000180025095e-35 0.65095016360282909 -47.784151077270501 -27.395439147949215 1.0000000180025095e-35 -17.011799812316891 1.0000000180025095e-35 1.4736162424087527 3.0445871353149419
decision_type=2 2 2 2 2 2 2 2 2
left_child=8 4 6 -4 7 -6 -3 -2 -1
right_child=1 2 3 -5 5 -7 -8 -9 -10
leaf_value=1.0414509725242842 0.28302625848979768 -0.37675418111699954 0.17210147072821094 -0.018652140311903199 0.15972731003869103 -0.33231957385454214 0.071984016828843797 0.025157389547255399 1.2733793232361401
leaf_weight=622 19257 8261 52745 177468 1429 1769 2897 8300 1112
leaf_count=622 19257 8261 52745 177468 1429 1769 2897 8300 1112
internal_value=0.000161999 0.000120675 -3.95984e-05 6.08066e-05 0.00137979 -0.00191259 -0.0021146 0.00176333 0.0066226
internal_weight=273860 272126 241371 230213 30755 3198 11158 27557 1734
internal_count=273860 272126 241371 230213 30755 3198 11158 27557 1734
is_linear=0
shrinkage=0.0787314


Tree=57
num_leaves=16
num_cat=0
split_feature=20 30 55 57 36 37 32 30 20 19 64 10 36 3 30
split_gain=10.0271 13.2595 8.14172 9.19547 7.05376 6.70669 5.83769 5.3068 4.23729 3.63282 3.05639 3.74419 3.04187 1.74504 0.872449
threshold=1.2249304652214053 0.81033647060394298 1.0000000180025095e-35 1.0000000180025095e-35 2550.714233398438 2668.2390136718755 -82.878749847412095 2.3537254333496098 3.1050754785537724 0.62904468178749096 -10.817625999450682 -17.498317718505856 2550.714233398438 95.500000000000014 1.375945568084717
decision_type=2 2 2 2 2 2 2 2 2 2 2 2 2 2 2
left_child=1 10 4 -4 -3 6 8 14 -2 -8 13 -12 -9 -1 -7
right_child=5 2 3 -5 -6 7 9 12 -10 -11 11 -13 -14 -15 -16
leaf_value=0.16532006371474095 -0.27219870192778162 -0.058245930530176675 0.027807001157966756 0.2974994958422692 0.88537436228958055 1.2579989614127358 -0.054886107686900588 -0.10011142183569129 -1.0920078770588295 -0.15257013786611701 -0.29354129632521492 0.10638902104128009 1.4127381604024172 0.33319607471261814 0.83257207052336279
leaf_weight=5703 2650 95130 39510 17564 5143 1369 53680 6419 624 13598 660 12955 1166 15055 2634
leaf_count=5703 2650 95130 39510 17564 5143 1369 53680 6419 624 13598 660 12955 1166 15055 2634
internal_value=0.000151075 0.000463016 0.000156715 0.00090754 -0.000270254 -0.000576535 -0.000865177 0.00117739 -0.00411389 -0.000706468 0.00186398 0.000942545 -4.15165e-05 0.00246641 0.00349655
internal_weight=273860 191720 157347 57074 100273 82140 70552 11588 3274 67278 34373 13615 7585 20758 4003
internal_count=273860 191720 157347 57074 100273 82140 70552 11588 3274 67278 34373 13615 7585 20758 4003
is_linear=0
shrinkage=0.0787314


Tree=58
num_leaves=16
num_cat=0
split_feature=61 52 11 54 53 37 5 36 56 33 37 21 36 7 7
split_gain=8.36283 13.7468 8.52478 7.62137 7.57693 6.79608 7.52509 5.72717 6.97006 5.158 5.50475 4.68153 4.38623 3.9268 1.46779
threshold=1.0000000180025095e-35 1.0000000180025095e-35 20.001561164855961 1.0000000180025095e-35 -1.0000000180025095e-35 10504.687500000002 173.50000000000003 508.89408874511724 1.0000000180025095e-35 -47.784151077270501 1109.2329711914065 0.45132003724575048 2550.714233398438 -1.0000000180025095e-35 26.930172920227054
decision_type=2 2 2 2 2 2 2 2 2 2 2 2 2 2 2
left_child=2 9 3 13 -5 11 -7 8 -3 10 -2 -4 -11 -1 -9
right_child=1 7 5 4 -6 6 -8 14 -10 12 -12 -13 -14 -15 -16
leaf_value=0.2895182999613144 -0.56194638870702596 -1.2935672891584153 -0.098747672191961691 0.15833061493948677 -0.059917257138501025 -0.34759348098143056 -1.3410165159595262 0.12806645804811689 -1.4926953114109196 -0.078312220675584174 0.08133292983524705 0.041275866628388627 0.67386421015576026 0.070680638641386045 -0.81883640657100421
leaf_weight=45055 2007 734 36666 23620 50794 2688 439 339 165 30686 1112 34586 2756 42179 34
leaf_count=45055 2007 734 36666 23620 50794 2688 439 339 165 30686 1112 34586 2756 42179 34
internal_value=0.000143313 -0.000943107 0.000317624 0.000638673 5.2795e-05 -0.000379581 -0.00397244 -0.00898991 -0.012394 -0.000661953 -0.0037252 -0.000221324 -0.000375029 0.00113799 -0.000674539
internal_weight=273860 37833 236027 161648 74414 74379 3127 1272 899 36561 3119 71252 33442 87234 373
internal_count=273860 37833 236027 161648 74414 74379 3127 1272 899 36561 3119 71252 33442 87234 373
is_linear=0
shrinkage=0.0787314


Tree=59
num_leaves=12
num_cat=0
split_feature=23 20 37 57 35 32 3 20 19 22 28
split_gain=9.19476 8.5513 7.78158 6.64711 5.81276 4.78101 4.33409 2.44523 1.01264 0.255179 0.127228
threshold=1.0000000180025095e-35 1.2249304652214053 135.82711029052737 1.0000000180025095e-35 1600.9259033203127 -82.878749847412095 167.50000000000003 2.5818945169448857 -0.90663501620292652 -152.3859939575195 -2999.7678222656245
decision_type=2 2 2 2 2 2 2 2 2 2 2
left_child=8 2 6 -4 5 -3 -2 -6 9 -1 -11
right_child=1 4 3 -5 7 -7 -8 -9 -10 10 -12
leaf_value=7.7839518680972963 0.05306255035103765 -0.37594267491035371 -0.010085663447634874 0.1327654757946086 0.40571202412074636 -0.078740872702494774 0.22547469247004029 -0.12618595194945564 1.0008080680836353 0.0035491639015218274 0.91293148154973514
leaf_weight=196 13007 3572 128235 30988 4939 71915 18363 1107 895 67 576
leaf_count=196 13007 3572 128235 30988 4939 71915 18363 1107 895 67 576
internal_value=0.000136413 9.98443e-05 0.000388631 0.000165055 -0.000574744 -0.000763247 0.00152215 0.00177216 0.00585095 0.00378886 0.0029119
internal_weight=273860 272126 190593 159223 81533 75487 31370 6046 1734 839 643
internal_count=273860 272126 190593 159223 81533 75487 31370 6046 1734 839 643
is_linear=0
shrinkage=0.0787314


Tree=60
num_leaves=16
num_cat=0
split_feature=19 20 29 55 61 32 36 54 11 8 19 20 11 8 20
split_gain=8.10014 7.35815 8.78381 10.5146 6.87573 3.89414 3.88651 2.8191 2.29682 2.16262 1.83359 1.3653 0.709725 0.505119 0.470502
threshold=-1.3384977579116819 1.2041439414024355 17.245963096618656 1.0000000180025095e-35 1.0000000180025095e-35 -6.4081149101257315 750.11520385742199 1.0000000180025095e-35 -9.2999229431152326 -7.0167765617370597 -0.57612282037734974 1.1659998893737795 -54.283786773681634 5.2651963233947763 0.84641501307487499
decision_type=2 2 2 2 2 2 2 2 2 2 2 2 2 2 2
left_child=5 2 3 -2 -4 8 7 -3 9 -1 -8 -10 14 -14 -7
right_child=1 6 4 -5 -6 12 10 -9 11 -11 -12 -13 13 -15 -16
leaf_value=0.28679308038555457 -0.12865195842796387 -0.038427184037203049 0.11163764999014687 0.1075538165716204 -0.28787890797309207 0.94909093272560352 0.8854354594576207 -0.15178787629288903 0.11170303891665265 -0.33756944226253366 -0.066753985470109592 -0.61376000604950831 0.59088006325636211 -0.49748438236238829 1.9582273860010901
leaf_weight=5896 56858 44017 85929 32799 3985 181 3444 31300 383 691 2072 568 3837 84 1820
leaf_count=5896 56858 44017 85929 32799 3985 181 3444 31300 383 691 2072 568 3837 84 1820
internal_value=0.000149175 5.16706e-05 0.000332601 -0.00021848 0.000882542 0.00203255 -0.000571929 -0.00072002 0.000838646 0.00136488 0.0014429 -0.00276366 0.0035454 0.00290311 0.00478328
internal_weight=273864 260404 179571 89657 89914 13460 80833 75317 7538 6587 5516 951 5922 3921 2001
internal_count=273864 260404 179571 89657 89914 13460 80833 75317 7538 6587 5516 951 5922 3921 2001
is_linear=0
shrinkage=0.0787314


Tree=61
num_leaves=16
num_cat=0
split_feature=19 30 20 30 37 33 9 20 7 55 30 33 34 8 37
