tree
version=v4
num_class=1
num_tree_per_iteration=1
label_index=0
max_feature_idx=121
objective=quantile
feature_names=price_lag_1d price_lag_7d price_lag_14d price_lag_30d price_lag_60d return_1d return_3d return_7d return_14d return_30d return_60d price_std_7d price_std_14d price_std_20d price_min_20d price_max_20d price_std_30d price_mean_60d price_std_60d price_min_60d price_max_60d price_zscore_30d vol_regime_60_30 trend_divergence_30_60 price_accel_7d price_tier autocorr_1d autocorr_7d bb_pct_b macd_line macd_signal macd_histogram distance_to_support distance_to_resistance high_low_range_30d volume_missing volume_lag_1d volume_lag_7d volume_mean_7d volume_mean_30d volume_std_30d volume_mean_60d volume_std_60d volume_log_change_1d volume_log_change_7d volume_zscore_30d volume_price_conf_7d volume_price_conf_1d rsi_missing macd_missing is_weekend dow_sin dow_cos month_sin month_cos doy_cos item_age_days is_stattrak is_souvenir is_knife is_glove is_sticker is_case is_capsule is_agent is_music_kit is_graffiti is_charm is_patch quality_rank event_decay_major events_next_30d_major event_density_30d_major event_density_90d_major event_decay_operation events_next_30d_operation event_density_30d_operation event_density_90d_operation event_decay_case_drop events_next_30d_case_drop event_density_30d_case_drop event_density_90d_case_drop event_decay_update events_next_30d_update event_density_30d_update event_density_90d_update event_decay_game_update events_next_30d_game_update event_density_30d_game_update event_density_90d_game_update event_decay_major_weighted event_decay_operation_weighted event_decay_case_drop_weighted event_decay_update_weighted event_decay_game_update_weighted social_mentions_1d social_mentions_7d social_mention_velocity social_sentiment_7d social_score_7d market_return_1d item_return_vs_market_1d market_return_7d item_return_vs_market_7d market_return_14d item_return_vs_market_14d market_return_30d item_return_vs_market_30d market_volatility_30d market_volume_mean_30d market_regime_crash market_regime_bear market_regime_range market_regime_bull market_regime_mania market_regime_duration_days market_return_30d_percentile supply_listings_log supply_listings_zscore supply_change_7d supply_skinport_qty_log supply_to_volume_ratio
feature_infos=[39.790000915527344:66.569999694824219] [39.790000915527344:66.569999694824219] [39.790000915527344:66.569999694824219] [39.849998474121094:66.569999694824219] [39.849998474121094:66.569999694824219] [-6.0415120124816895:6.1626429557800293] [-10.281366348266602:11.818019866943359] [-17.372880935668945:14.35562801361084] [-24.630624771118164:24.511468887329102] [-24.868003845214844:39.543319702148438] [-35.815872192382812:34.754096984863281] [0.042426407337188721:3.2751080989837646] [0.042426407337188721:4.7465720176696777] [0.042426407337188721:5.344205379486084] [39.790000915527344:61.619998931884766] [43.290000915527344:66.569999694824219] [0.042426407337188721:5.4625492095947266] [42.844001770019531:62.902332305908203] [0.042426407337188721:6.2239170074462891] [39.790000915527344:58.759998321533203] [46.650001525878906:66.569999694824219] [-3.4853887557983398:3.0036964416503906] [0.76277375221252441:4.9742584228515625] [-106.84011840820312:164.20773315429688] [-22.191015243530273:26.589687347412109] [3:3] [-16.605304718017578:24.183246612548828] [-165.46697998046875:159.38456726074219] [-0.22173035144805908:1.2130904197692871] [-3.1355800628662109:3.1830518245697021] [-2.6216168403625488:2.7723205089569092] [-1.2678171396255493:0.94621419906616211] [0.018351990729570389:39.335178375244141] [0.054525628685951233:35.731788635253906] [0.12307692319154739:39.335178375244141] none [161:245] [161:245] [176:219] [176:219] [4.0414519309997559:20.361700057983398] [176:219] [4.0414519309997559:19.928762435913086] [-0.31321537494659424:0.36533302068710327] [-0.29612094163894653:0.40341803431510925] [-2.8260855674743652:2.671764612197876] [-17.372880935668945:14.35562801361084] [-6.0415120124816895:5.4516053199768066] [0:1] [0:1] [0:1] [-0.97492790222167969:0.97492790222167969] [-0.90096884965896606:1] [-0.86602538824081421:1] [-1:0.86602538824081421] [-1:0.99985265731811523] [0:215] none none none none none none none none none none none none none [0:0.98347145318984985] [0:1] [0:1] [0:1] none none none none none none none none none none none none none none none none none none none none none none none none none none [-2.4910855293273926:2.5970833301544189] [-5.0148625373840332:6.6300463676452637] [-4.9728598594665527:6.6842527389526367] [-15.224418640136719:14.81980037689209] [-7.8436169624328613:8.0323085784912109] [-21.058666229248047:25.597810745239258] [-8.3750972747802734:10.840641021728516] [-26.866291046142578:40.982707977294922] [0.43699198961257935:3.9606008529663086] [195.10000610351562:203.39999389648438] none [0:1] [0:1] [0:1] [0:1] [1:30] [0.0086206896230578423:1] none none none none none
tree_sizes=1545 1585 1487 1585 1275 1691 1596 1276 1492 1599 1171 1486 1601 1692

Tree=0
num_leaves=14
num_cat=0
split_feature=14 101 109 54 32 34 0 18 116 6 31 9 23
split_gain=5.66652 4.42862 6.46357 4.39319 2.5262 2.3438 4.82918 1.4776 1.35768 1.24869 0.595247 0.285174 0.100988
threshold=49.079999923706062 1.6658914685249331 198.37128448486331 1.0000000180025095e-35 17.531001091003422 13.295719146728517 57.340000152587898 2.8281736373901372 0.31227837502956396 -1.8829171061515806 0.1462095454335213 1.0769612789154055 2.8874458074569707
decision_type=2 2 2 2 2 2 2 2 2 2 2 2 2
left_child=4 3 -3 5 12 11 8 -4 -7 -8 -5 -2 -1
right_child=1 2 7 10 -6 6 9 -9 -10 -11 -12 -13 -14
leaf_value=-15.388656839214654 -15.908063228370461 -16.598007073004329 -15.879406600452301 -15.96055948746479 -16.509238255713516 -16.104270087008764 -16.51346249613789 -16.418451893619629 -16.632350128875348 -16.563015117287129 -16.177053438479177 -16.25857387291849 -15.627360008272975
leaf_weight=360.82759428024292 22.344828307628632 18.20689594745636 19.034483373165131 134.89655190706253 19.034483373165131 33.931035578250885 13.241379737854002 17.37931090593338 12.413793504238127 24.000000774860382 14.068965971469877 12.413793504238127 23.172414541244507
leaf_count=382 27 4 23 100 23 41 16 21 15 29 17 15 28
internal_value=-16.114 -16.1219 -16.1417 -16.1177 -16.1082 -16.1288 -16.1357 -16.1217 -16.1185 -16.1558 -16.1089 -16.1119 -16.1068
internal_weight=0 321.931 54.6207 267.31 403.034 118.345 83.5862 36.4138 46.3448 37.2414 148.966 34.7586 384
internal_count=741 308 48 260 433 143 101 44 56 45 117 42 410
is_linear=0
shrinkage=1


Tree=1
num_leaves=14
num_cat=0
split_feature=21 32 34 14 42 104 3 12 39 20 21 6 12
split_gain=5.71621 8.60213 3.77244 3.25791 3.35814 3.06881 2.32591 1.55824 1.35199 1.261 1.09798 0.706481 0.588124
threshold=1.0655560493469241 6.5042243003845224 21.350307464599613 54.299999237060554 15.460385799407961 -0.92707332968711842 53.754999160766609 1.69346559047699 200.81666564941409 65.36999893188478 -1.4201640486717222 -1.8829171061515806 2.3983078002929692
decision_type=2 2 2 2 2 2 2 2 2 2 2 2 2
left_child=3 -2 6 9 5 -5 12 -8 -4 -1 -11 -7 -3
right_child=1 2 8 4 -6 11 7 -9 -10 10 -12 -13 -14
leaf_value=0.55153062287209131 -0.24091738757802308 0.57834506850902967 -0.45203201216186373 -0.41961752565071631 0.30366550014373778 0.23243581578453756 -0.38184155290372895 -0.049675382036501251 -0.13497628537774065 0.0089640774422168421 -0.2777093972256352 -0.15577863089997937 -0.14880412605256929
leaf_weight=436.96552360057831 16.551723480224609 84.413795828819275 13.241379737854006 18.206897139549255 41.379311680793762 12.41379350423813 12.41379350423813 17.37931090593338 12.413793504238127 18.206897139549259 12.413793504238127 14.068965971469877 14.896552205085753
leaf_count=411 2 102 16 22 50 15 15 21 15 22 15 17 18
internal_value=0 -0.0123482 -0.00627252 0.00380516 -0.00992426 -0.0242256 -0.000686271 -0.019001 -0.0323013 0.00636385 -0.00847145 -0.00631769 0.0050748
internal_weight=0 171.31 154.759 553.655 86.069 44.6897 129.103 29.7931 25.6552 467.586 30.6207 26.4828 99.3103
internal_count=741 189 187 552 104 54 156 36 31 448 37 32 120
is_linear=0
shrinkage=0.0776549


Tree=2
num_leaves=13
num_cat=0
split_feature=14 28 55 54 54 105 116 16 105 20 39 32
split_gain=4.61916 7.8514 4.05325 2.75943 2.53147 1.95168 2.43186 1.33985 1.28011 1.24267 0.805332 0.262578
threshold=50.11000061035157 0.77292585372924816 0.99374407529830944 0.25000000000000011 1.0000000180025095e-35 3.6518284082412724 0.34086012840271002 1.9369950294494631 12.645969867706301 63.849998474121101 197.61250305175784 17.163262367248539
decision_type=2 2 2 2 2 2 2 2 2 2 2 2
left_child=8 4 3 7 5 6 10 -3 9 11 -2 -1
right_child=1 2 -4 -5 -6 -7 -8 -9 -10 -11 -12 -13
leaf_value=0.66802914751258879 -0.13310857467507428 -0.045817843791380146 -0.22220896504764345 0.53793524960938988 0.098685769501110646 -0.33335001074473158 -0.46601096801958031 -0.35218967437725374 -0.32945380340889346 -0.2015785817100228 0.093711677787697886 -0.070327313183107185
leaf_weight=388.13793939352036 19.862069606781006 13.241379737854006 16.551723480224609 16.551724672317505 116.68965536355972 13.241379737854002 14.896552205085753 18.206897139549255 19.862069606781006 22.344828307628632 45.517242848873138 19.862069606781006
leaf_count=406 24 16 2 20 87 16 18 22 24 27 55 24
internal_value=0 -0.0078487 -0.0310942 -0.0182516 -0.000484554 -0.00989049 -0.00492097 -0.031126 0.00488881 0.00579718 0.00181221 0.00678713
internal_weight=0 274.759 64.5517 48 210.207 93.5172 80.2759 31.4483 450.207 430.345 65.3793 408
internal_count=741 260 60 58 200 113 97 38 481 457 79 430
is_linear=0
shrinkage=0.0776549


Tree=3
num_leaves=14
num_cat=0
split_feature=14 14 56 32 22 4 103 32 22 17 56 7 7
split_gain=4.18971 4.5947 4.09314 3.40024 1.62013 1.84902 1.16109 1.12343 1.66622 0.742462 1.4964 0.279488 0.170039
threshold=50.11000061035157 50.420000076293952 84.500000000000014 11.272970199584963 1.4325816035270693 57.055000305175788 1.4636766314506533 17.531001091003422 1.070298492908478 55.646999359130866 158.50000000000003 4.0804088115692148 9.6293001174926776
decision_type=2 2 2 2 2 2 2 2 2 2 2 2 2
left_child=7 -2 11 4 -4 -6 -5 9 -9 12 -11 -3 -1
right_child=1 2 3 6 5 -7 -8 8 -10 10 -12 -13 -14
leaf_value=0.60876684936598224 -0.31922989615201663 0.31160744320845563 0.18550750962712281 -0.25607297553621877 -0.11127234360404775 -0.47666261044783703 -0.30746373946221861 0.26018624266042489 -0.38957107276107827 0.30467874980824006 -0.2404903234435237 -0.018477840289300215 -0.066910491783131909
leaf_weight=374.06897342205048 29.793102622032166 105.93103492259979 33.931035578250885 13.241379737854006 43.034484148025513 12.413793504238127 18.206897139549255 15.724138438701631 12.413793504238127 22.344828307628632 12.413793504238127 18.206897139549255 13.241379737854002
leaf_count=389 9 83 41 16 52 15 22 19 15 27 15 22 16
internal_value=0 -0.00738428 -0.00374721 -0.0138131 -0.00576698 -0.0137597 -0.0349687 0.0047467 -0.00980904 0.00575877 -0.00489532 0.00611389 0.00673514
internal_weight=0 274.759 244.966 120.828 89.3793 55.4483 31.4483 450.207 28.1379 422.069 34.7586 124.138 387.31
internal_count=741 260 251 146 108 67 38 481 34 447 42 105 405
is_linear=0
shrinkage=0.0776549


Tree=4
num_leaves=11
num_cat=0
split_feature=47 30 38 19 28 56 56 31 39 30
split_gain=3.86731 2.77648 2.39491 4.09844 5.67575 2.60812 2.33875 1.94524 0.828989 0.138056
threshold=3.0562850236892705 1.7566977739334109 200.50000000000003 49.605001449584968 0.77292585372924816 134.50000000000003 92.500000000000014 0.53704392910003673 197.7416687011719 1.214886546134949
decision_type=2 2 2 2 2 2 2 2 2 2
left_child=1 2 3 7 5 -5 -3 8 -1 -4
right_child=-2 6 9 4 -6 -7 -8 -9 -10 -11
leaf_value=-0.035985446574104019 -0.10263149770654731 0.034275739913137065 0.29336640146595994 0.11581210790888727 -0.23618764690508512 -0.4396474094681907 -0.28358766472781671 -0.35931895892198401 0.43666447384450346 0.0035396244878968994
leaf_weight=124.1379326581955 27.310345113277435 13.241379737854006 297.93103992938995 43.034483551979065 19.862069010734558 12.413793504238127 15.724138438701628 14.896552205085753 139.86207288503647 16.551724672317505
leaf_count=114 24 16 297 43 15 15 19 18 160 20
internal_value=0 0.000946097 0.00199308 -0.00238152 -0.0182049 -0.00481032 -0.0217918 0.00199047 0.00359987 0.00690416
internal_weight=0 697.655 668.69 354.207 75.3103 55.4483 28.9655 278.897 264 314.483
internal_count=741 717 682 365 73 58 35 292 274 317
is_linear=0
shrinkage=0.0776549


Tree=5
num_leaves=15
num_cat=0
split_feature=14 15 54 9 6 10 56 3 4 56 7 9 38 100
split_gain=3.1499 5.46844 4.32072 3.06715 3.52927 2.73472 1.26879 1.08516 1.85249 0.899133 1.31411 0.610655 0.6044 0.207071
threshold=50.11000061035157 53.335000991821296 1.0000000180025095e-35 2.5707798004150395 -1.0930384993553159 20.245248794555668 149.50000000000003 58.07500076293946 54.135000228881843 203.50000000000003 0.81012073159217846 -1.7842863798141477 199.07142639160159 1.4245457053184511
decision_type=2 2 2 2 2 2 2 2 2 2 2 2 2 2
left_child=5 -2 3 6 -5 7 11 9 -9 13 -11 -3 -6 -1
right_child=1 2 -4 4 12 -7 -8 8 -10 10 -12 -13 -14 -15
leaf_value=0.5192897746754942 -0.34869404554125188 0.23380929934756606 0.50239665890877039 0.0044550564780681387 -0.3418650294482713 -0.33319078501531779 -0.35866693040197206 -0.2190206172637375 0.46755604748970664 0.87458149807270369 -0.13093751743034374 -0.052264277822384186 -0.10296800272316907 -0.012014624322303319
leaf_weight=362.48276495933533 49.655170440673828 42.206897914409637 130.7586225271225 14.068965971469877 15.724138438701631 14.896552205085753 19.862069606781006 14.896552205085753 19.862069606781006 16.551724672317508 12.413793504238127 18.206897139549255 12.413793504238127 23.172414541244507
leaf_count=357 6 51 122 17 19 18 24 18 24 20 15 22 15 28
internal_value=0 -0.00682928 -0.002115 -0.0124936 -0.0289298 0.00332167 -0.00335875 0.00445641 -0.00839198 0.00556863 -0.00726393 0.00236826 -0.0439275 0.00656496
internal_weight=0 302.897 253.241 122.483 42.2069 464.276 80.2759 449.379 34.7586 414.621 28.9655 60.4138 28.1379 385.655
internal_count=756 276 270 148 51 480 97 462 42 420 35 73 34 385
is_linear=0
shrinkage=0.0776549


Tree=6
num_leaves=14
num_cat=0
split_feature=21 109 70 3 29 10 103 22 23 22 105 103 42
split_gain=4.38204 9.52481 3.60895 3.543 2.87831 1.08496 1.55752 0.622239 0.915282 0.459861 0.238462 0.193599 0.132562
threshold=0.99589151144027721 198.37128448486331 0.73469588160514843 56.100000381469734 2.0465749502182011 11.669373989105226 -0.59078919887542714 1.226358234882355 0.6010078787803651 1.5931196212768557 4.6990511417388925 -6.696293592453002 14.002517700195314
decision_type=2 2 2 2 2 2 2 2 2 2 2 2 2
left_child=2 -2 5 -4 7 10 12 -3 9 -9 11 -1 -7
right_child=1 4 3 -5 -6 6 -8 8 -10 -11 -12 -13 -14
leaf_value=0.22561466582121065 -0.32161623433221048 0.32458494623967143 0.87235702004365812 -0.33081467553115546 -0.30731687839545324 -0.016737853952768198 -0.23057421580486237 -0.038560086710124113 -0.26082849065594543 0.22108333827459259 -0.026976894430799932 0.37883154296829191 0.025788560087972884
leaf_weight=43.034484148025513 36.413793087005615 75.310347259044647 16.551724672317505 19.862069606781006 20.689655840396881 12.413793504238127 17.37931090593338 14.896552205085753 12.413793504238127 32.275863111019135 19.862069606781006 421.24138277769089 24.827587008476257
leaf_count=52 26 91 20 24 25 15 21 18 15 39 24 356 30
internal_value=0 -0.00987181 0.00361876 -0.0194068 -0.00130501 0.00524104 -0.00499413 0.00295754 -0.00292184 0.00222182 0.00641157 0.00676738 0.00409429
internal_weight=0 192 575.172 36.4138 155.586 538.759 54.6207 134.897 59.5862 47.1724 484.138 464.276 37.2414
internal_count=756 214 542 44 188 498 66 163 72 57 432 408 45
is_linear=0
shrinkage=0.0776549


Tree=7
num_leaves=11
num_cat=0
split_feature=103 6 38 39 17 70 10 37 32 41
split_gain=2.53249 2.65112 2.97598 2.15559 1.68023 2.637 2.53934 1.34115 0.299358 0.11344
threshold=7.8454196453094491 5.1767497062683114 199.07142639160159 206.53333282470706 53.668878555297859 0.73469588160514843 7.7673120498657235 193.50000000000003 17.531001091003422 197.45832824707034
decision_type=2 2 2 2 2 2 2 2 2 2
left_child=1 3 -3 4 8 6 -6 -2 9 -1
right_child=7 2 -4 -5 5 -7 -8 -9 -10 -11
leaf_value=0.10447840172762467 -0.30567644534372318 -0.29664114861919616 0.13722696145217692 -0.019837799481930474 0.21048561679999095 -0.30512528552362467 -0.050208927363438127 -0.094209209319308637 -0.011642019804677353 0.48056726738363947
leaf_weight=95.999999523162842 14.896552205085753 19.862069010734558 19.862069606781006 21.517240881919861 139.86207348108292 20.689655840396881 60.413795053958893 23.172414541244507 16.551724672317505 334.34483242034912
leaf_count=62 18 15 24 8 169 25 73 28 20 314
internal_value=0 0.00176685 -0.0172509 0.00290945 0.00371285 -0.00181587 0.00101669 -0.0182843 0.00644241 0.0068377
internal_weight=0 729.103 39.7241 689.379 667.862 220.966 200.276 38.069 446.897 430.345
internal_count=756 710 39 671 663 267 242 46 396 376
is_linear=0
shrinkage=0.0776549


Tree=8
num_leaves=13
num_cat=0
split_feature=28 109 20 56 16 41 109 10 20 56 0 3
split_gain=2.93599 8.11945 1.4865 1.40953 1.3184 2.47655 1.15732 1.79054 1.6684 0.449545 0.67999 0.188242
threshold=0.75816234946250927 198.37128448486331 62.909999847412116 176.50000000000003 1.6323423981666567 204.17317962646487 199.91666412353518 18.335251808166507 65.36999893188478 137.50000000000003 53.385000228881843 54.135000228881843
decision_type=2 2 2 2 2 2 2 2 2 2 2 2
left_child=4 -2 3 11 -1 6 7 8 -6 -8 -11 -3
right_child=1 2 -4 -5 5 -7 9 -9 -10 10 -12 -13
leaf_value=0.45093626332540382 -0.27360550140395429 0.35220487359954872 -0.23667490216835466 -0.25794021141714224 0.046340640857810325 -0.018297296579620426 0.42166659746206303 -0.20877002087061583 -0.15262871460033794 0.12916898215101552 -0.2091826654240517 -0.030822035290677004
leaf_weight=232.55172389745712 35.58620685338974 96.827589333057404 20.689655840396881 17.37931090593338 106.75862413644791 16.551723480224609 153.10345202684402 14.896552205085753 31.448276877403259 16.551724672317508 12.413793504238127 12.413793504238127
leaf_count=164 25 117 25 21 129 2 167 18 38 20 15 15
internal_value=0 -0.00830714 -8.60832e-05 0.00314784 0.00291583 -9.08415e-05 0.00142952 -0.00352192 -0.000595876 0.00558627 -0.00311311 0.00647044
internal_weight=0 182.897 147.31 126.621 584.276 351.724 335.172 153.103 138.207 182.069 28.9655 109.241
internal_count=756 203 178 153 553 389 387 185 167 202 35 132
is_linear=0
shrinkage=0.0776549


Tree=9
num_leaves=14
num_cat=0
split_feature=13 34 10 55 16 19 18 19 6 20 13 104 16
split_gain=2.2716 5.15218 1.85373 3.45999 2.14612 1.62385 2.55734 2.92329 1.57761 0.775545 0.670874 0.339827 0.129906
threshold=1.1889864802360537 5.7647643089294442 13.953812599182131 1.0000000180025095e-35 1.9985926151275637 48.914999008178718 2.6421437263488774 50.430000305175788 0.42101596295833593 65.36999893188478 1.4422766566276553 3.2935562133789067 2.2688237428665166
decision_type=2 2 2 2 2 2 2 2 2 2 2 2 2
left_child=12 -2 5 4 -4 9 10 -8 -6 11 -7 -3 -1
right_child=1 2 3 -5 8 6 7 -9 -10 -11 -12 -13 -14
leaf_value=0.35001596905811383 -0.25235868572841985 0.39810769568309695 -0.014579843050659323 0.64927747957026494 -0.18474133998466624 -0.029273252310788429 -0.0041615284901134536 -0.23831310363556299 -0.26356019017766258 -0.052607203683512828 0.20165290919706808 -0.014740246102075064 0.044719891529535719
leaf_weight=226.75861966609955 8.2758617401123029 235.86207538843155 16.551724672317505 31.448276877403259 12.41379350423813 12.413793504238127 37.241379916667938 26.48275887966156 13.241379737854002 21.517242074012756 60.413795053958893 45.517242848873138 19.034483373165131
leaf_count=148 1 267 20 38 15 15 36 23 16 26 73 55 23
internal_value=0 -0.00184186 -0.000748581 -0.0119774 -0.0260223 0.0011792 -0.00579803 -0.0169162 -0.0392729 0.00434207 0.00412251 0.00544284 0.00718411
internal_weight=0 521.379 513.103 73.6552 42.2069 439.448 136.552 63.7241 25.6552 302.897 72.8276 281.379 245.793
internal_count=756 585 584 89 51 495 147 59 31 348 88 322 171
is_linear=0
shrinkage=0.0776549


Tree=10
num_leaves=10
num_cat=0
split_feature=107 47 6 7 10 70 17 107 14
split_gain=3.68216 3.10416 2.63742 3.09486 2.47611 1.1877 0.388165 1.13216 0.265173
threshold=15.12460231781006 3.0562850236892705 5.1767497062683114 5.476729393005372 11.200847625732424 0.86794066429138195 54.753898620605476 8.8802547454834002 39.88499832153321
decision_type=2 2 2 2 2 2 2 2 2
left_child=1 2 5 -4 -2 6 8 -8 -1
right_child=4 -3 3 -5 -6 -7 7 -9 -10
leaf_value=-0.013595593343501968 0.016412016461266495 -0.23105633265314904 -0.23276179000710301 0.047430960286048721 -0.28973789735645022 -0.17443241342983587 0.059287863389807155 -0.2217686495231756 0.27321933206260041
leaf_weight=17.37931090593338 14.068965971469877 24.82758641242981 20.689655244350433 23.172414541244507 22.344828307628632 19.862069606781006 144.00000464916229 13.241379737854002 422.89655703306198
leaf_count=21 17 21 16 28 27 24 174 16 385
internal_value=0 0.00195208 0.00299412 -0.0149938 -0.0227528 0.00431637 0.00495248 0.00161431 0.00613199
internal_weight=0 686.069 661.241 43.8621 36.4138 617.379 597.517 157.241 440.276
internal_count=729 685 664 44 44 620 596 190 406
is_linear=0
shrinkage=0.0776549


Tree=11
num_leaves=13
num_cat=0
split_feature=19 36 107 16 22 106 10 20 21 2 8 27
split_gain=3.24548 5.54544 3.36746 2.92892 2.76981 1.89887 0.721223 0.544759 0.482224 0.41298 0.67999 0.107333
threshold=48.914999008178718 185.50000000000003 18.142310142517093 1.8118842840194704 1.1670032739639284 3.9925017356872563 21.007048606872562 65.36999893188478 0.2571758776903153 42.569999694824226 7.8210182189941415 12.692213058471681
decision_type=2 2 2 2 2 2 2 2 2 2 2 2
left_child=2 3 6 -2 -3 8 7 9 -6 10 -1 -11
right_child=1 4 -4 -5 5 -7 -8 -9 -10 11 -12 -13
leaf_value=0.81357075903141618 -0.21468668982376685 0.012950422762408558 -0.22059386669681039 -0.23273364521575807 -0.019587061996320178 0.16456143125949779 -0.21311366930439801 -0.053125989835992413 -0.11304129829403502 0.42151912759600341 -0.048609972348790401 0.36565639904138675
leaf_weight=16.551724672317508 23.999999582767487 100.96551871299744 18.206897139549255 16.551724672317505 42.206896126270294 25.655173242092133 22.344828307628632 21.517242074012756 16.551724672317505 326.89655750989914 12.413793504238127 78.620692193508148
leaf_count=20 11 95 22 20 24 31 27 26 20 323 15 95
internal_value=0 -0.00809209 0.00309374 -0.0333778 -0.00226362 -0.0124942 0.00438837 0.00506552 -0.0199911 0.0056686 -0.00311311 0.00630807
internal_weight=0 225.931 496.552 40.5517 185.379 84.4138 478.345 456 58.7586 434.483 28.9655 405.517
internal_count=729 201 528 31 170 75 506 479 44 453 35 418
is_linear=0
shrinkage=0.0776549


Tree=12
num_leaves=14
num_cat=0
split_feature=107 19 100 39 55 1 10 19 107 39 20 20 10
split_gain=3.43274 1.98753 2.38065 2.21158 1.87251 1.90365 1.73367 1.45909 1.16578 0.500595 0.738721 1.80342 0.131039
threshold=16.379364013671879 48.914999008178718 -1.1984736323356626 206.53333282470706 -0.84831994771957386 56.68499946594239 13.953812599182131 39.819999694824226 7.3918194770812997 198.48332977294925 52.685001373291023 53.604999542236335 13.953812599182131
decision_type=2 2 2 2 2 2 2 2 2 2 2 2 2
left_child=1 7 -3 4 5 -4 -2 -1 -6 10 -9 -12 -11
right_child=6 2 3 -5 8 -7 -8 9 -10 12 11 -13 -14
leaf_value=-0.061555353420405579 -0.022954447009691403 -0.19801521025456864 0.010622506032502222 -0.01806603009555199 0.011944758607480285 -0.23161398275780506 -0.29626109422752916 0.33932767775846412 -0.19576900693154176 0.57674227802795852 -0.15121553893536993 0.034911524270911973 0.082331364717380937
leaf_weight=12.413793504238127 14.068965971469881 16.551724076271057 13.241379737854006 16.551723480224609 150.62069153785706 12.413793504238127 13.241379737854002 80.275860488414764 14.896552205085753 249.103455722332 16.551724672317505 93.517244398593903 19.034483373165131
leaf_count=15 17 11 16 2 137 15 16 34 18 292 20 113 23
internal_value=0 0.0014749 -0.00451587 -0.00211438 0.000365957 -0.0183583 -0.0256535 0.00433518 0.00345275 0.00508008 0.00200472 -0.00212177 0.0072322
internal_weight=0 695.172 224.276 207.724 191.172 25.6552 27.3103 470.897 165.517 458.483 190.345 110.069 268.138
internal_count=729 696 199 188 186 31 33 497 155 482 167 133 315
is_linear=0
shrinkage=0.0776549


Tree=13
num_leaves=15
num_cat=0
split_feature=14 6 41 105 19 41 53 3 102 41 20 14 14 26
split_gain=2.54271 4.18664 2.14404 1.47947 1.4448 1.16568 0.850454 1.66622 1.06549 0.627957 1.12071 1.38146 1.43559 0.185043
threshold=50.11000061035157 5.1767497062683114 204.17317962646487 5.229302406311036 39.819999694824226 200.67500305175784 0.25000000000000011 55.715000152587898 3.2049120664596562 198.466667175293 52.685001373291023 45.139999389648445 48.640001296997077 6.8453593254089364
decision_type=2 2 2 2 2 2 2 2 2 2 2 2 2 2
left_child=4 2 3 6 -1 -5 7 -2 -8 10 -6 -12 -13 -11
right_child=1 -3 -4 5 9 -7 8 -9 -10 13 11 12 -14 -15
leaf_value=-0.05677527684572143 0.039630550741942924 -0.20614889958124735 -0.016663113818433214 -0.034414518948962775 0.18174095979170657 -0.13361027503882578 0.011017189230696452 -0.2136280154644575 -0.044465910392391707 0.33668225332984503 0.99838346005590684 -0.25340004677653089 0.26584077918827503 -0.032882896987771859
leaf_weight=12.413793504238127 15.724138438701631 21.517241477966309 16.551723480224609 19.034483373165131 73.655170619487762 13.241379737854002 153.931037068367 12.413793504238127 17.37931090593338 278.06897330284119 28.965518176555634 28.965518176555634 17.37931090593338 13.241379737854002
leaf_count=15 19 17 2 23 26 16 150 15 21 318 35 35 21 16
internal_value=0 -0.00529653 -0.00231103 -0.000274965 0.00419782 -0.0151872 0.00226505 -0.00980904 0.00433854 0.00496953 0.000851402 -0.0057358 -0.013825 0.00705522
internal_weight=0 269.793 248.276 231.724 452.69 32.2759 199.448 28.1379 171.31 440.276 148.966 75.3103 46.3448 291.31
internal_count=729 263 246 244 466 39 205 34 171 451 117 91 56 334
is_linear=0
shrinkage=0.0776549


end of trees

feature_importances:
price_min_20d=10
return_60d=9
price_max_60d=9
item_age_days=8
return_3d=7
price_min_60d=7
distance_to_support=6
volume_mean_30d=6
price_lag_30d=5
price_std_30d=5
vol_regime_60_30=5
volume_mean_60d=5
item_return_vs_market_30d=5
return_7d=4
price_zscore_30d=4
month_cos=4
item_return_vs_market_7d=4
item_return_vs_market_14d=4
market_volume_mean_30d=4
return_30d=3
price_mean_60d=3
bb_pct_b=3
high_low_range_30d=3
volume_mean_7d=3
doy_cos=3
event_decay_major=3
price_lag_1d=2
price_lag_60d=2
price_std_14d=2
price_std_20d=2
price_std_60d=2
trend_divergence_30_60=2
macd_signal=2
macd_histogram=2
volume_std_60d=2
volume_price_conf_1d=2
market_return_1d=2
market_return_14d=2
market_return_30d_percentile=2
price_lag_7d=1
price_lag_14d=1
return_14d=1
price_max_20d=1
autocorr_1d=1
autocorr_7d=1
macd_line=1
volume_lag_1d=1
volume_lag_7d=1
month_sin=1
item_return_vs_market_1d=1
market_return_7d=1
market_return_30d=1

parameters:
[boosting: gbdt]
[objective: quantile]
[metric: quantile]
[tree_learner: serial]
[device_type: cpu]
[data_sample_strategy: bagging]
[data: ]
[valid: ]
[num_iterations: 1000]
[learning_rate: 0.0776549]
[num_leaves: 55]
[num_threads: -1]
[seed: 42]
[deterministic: 0]
[force_col_wise: 0]
[force_row_wise: 0]
[histogram_pool_size: -1]
[max_depth: 6]
[min_data_in_leaf: 15]
[min_sum_hessian_in_leaf: 0.001]
[bagging_fraction: 0.7]
[pos_bagging_fraction: 1]
[neg_bagging_fraction: 1]
[bagging_freq: 5]
[bagging_seed: 400]
[feature_fraction: 0.6]
[feature_fraction_bynode: 1]
[feature_fraction_seed: 30056]
[extra_trees: 0]
[extra_seed: 12879]
[early_stopping_round: 0]
[early_stopping_min_delta: 0]
[first_metric_only: 0]
[max_delta_step: 0]
[lambda_l1: 0]
[lambda_l2: 2]
[linear_lambda: 0]
[min_gain_to_split: 0.1]
[drop_rate: 0.1]
[max_drop: 50]
[skip_drop: 0.5]
[xgboost_dart_mode: 0]
[uniform_drop: 0]
[drop_seed: 17869]
[top_rate: 0.2]
[other_rate: 0.1]
[min_data_per_group: 100]
[max_cat_threshold: 32]
[cat_l2: 10]
[cat_smooth: 10]
[max_cat_to_onehot: 4]
[top_k: 20]
[monotone_constraints: ]
[monotone_constraints_method: basic]
[monotone_penalty: 0]
[feature_contri: ]
[forcedsplits_filename: ]
[refit_decay_rate: 0.9]
[cegb_tradeoff: 1]
[cegb_penalty_split: 0]
[cegb_penalty_feature_lazy: ]
[cegb_penalty_feature_coupled: ]
[path_smooth: 0]
[interaction_constraints: ]
[verbosity: -1]
[saved_feature_importance_type: 0]
[use_quantized_grad: 0]
[num_grad_quant_bins: 4]
[quant_train_renew_leaf: 0]
[stochastic_rounding: 1]
[linear_tree: 0]
[max_bin: 63]
[max_bin_by_feature: ]
[min_data_in_bin: 3]
[bin_construct_sample_cnt: 200000]
[data_random_seed: 175]
[is_enable_sparse: 1]
[enable_bundle: 1]
[use_missing: 1]
[zero_as_missing: 0]
[feature_pre_filter: 0]
[pre_partition: 0]
[two_round: 0]
[header: 0]
[label_column: ]
[weight_column: ]
[group_column: ]
[ignore_column: ]
[categorical_feature: ]
[forcedbins_filename: ]
[precise_float_parser: 0]
[parser_config_file: ]
[objective_seed: 16083]
[num_class: 1]
[is_unbalance: 0]
[scale_pos_weight: 1]
[sigmoid: 1]
[boost_from_average: 1]
[reg_sqrt: 0]
[alpha: 0.1]
[fair_c: 1]
[poisson_max_delta_step: 0.7]
[tweedie_variance_power: 1.5]
[lambdarank_truncation_level: 30]
[lambdarank_norm: 1]
[label_gain: ]
[lambdarank_position_bias_regularization: 0]
[eval_at: ]
[multi_error_top_k: 1]
[auc_mu_weights: ]
[num_machines: 1]
[local_listen_port: 12400]
[time_out: 120]
[machine_list_filename: ]
[machines: ]
[gpu_platform_id: -1]
[gpu_device_id: -1]
[gpu_use_dp: 0]
[num_gpu: 1]

end of parameters

pandas_categorical:[]
