tree
version=v4
num_class=1
num_tree_per_iteration=1
label_index=0
max_feature_idx=116
objective=quantile
feature_names=price_lag_1d price_lag_7d price_lag_14d price_lag_30d price_lag_60d return_1d return_3d return_7d return_14d return_30d return_60d price_std_7d price_std_14d price_std_20d price_min_20d price_max_20d price_std_30d price_mean_60d price_std_60d price_min_60d price_max_60d price_zscore_30d vol_regime_60_30 trend_divergence_30_60 price_accel_7d price_tier autocorr_1d autocorr_7d bb_pct_b macd_line macd_signal macd_histogram distance_to_support distance_to_resistance high_low_range_30d volume_missing volume_lag_1d volume_lag_7d volume_mean_7d volume_mean_30d volume_std_30d volume_mean_60d volume_std_60d volume_log_change_1d volume_log_change_7d volume_zscore_30d volume_price_conf_7d volume_price_conf_1d rsi_missing macd_missing is_weekend dow_sin dow_cos month_sin month_cos doy_cos item_age_days is_stattrak is_souvenir is_knife is_glove is_sticker is_case is_capsule is_agent is_music_kit is_graffiti is_charm is_patch quality_rank event_decay_major events_next_30d_major event_density_30d_major event_density_90d_major event_decay_operation events_next_30d_operation event_density_30d_operation event_density_90d_operation event_decay_case_drop events_next_30d_case_drop event_density_30d_case_drop event_density_90d_case_drop event_decay_update events_next_30d_update event_density_30d_update event_density_90d_update event_decay_game_update events_next_30d_game_update event_density_30d_game_update event_density_90d_game_update event_decay_major_weighted event_decay_operation_weighted event_decay_case_drop_weighted event_decay_update_weighted event_decay_game_update_weighted market_return_1d item_return_vs_market_1d market_return_7d item_return_vs_market_7d market_return_14d item_return_vs_market_14d market_return_30d item_return_vs_market_30d market_volatility_30d market_volume_mean_30d market_regime_crash market_regime_bear market_regime_range market_regime_bull market_regime_mania market_regime_duration_days market_return_30d_percentile supply_listings_log supply_listings_zscore supply_change_7d supply_skinport_qty_log supply_to_volume_ratio
feature_infos=[39.790000915527344:66.569999694824219] [39.790000915527344:66.569999694824219] [39.790000915527344:66.569999694824219] [39.849998474121094:66.569999694824219] [39.849998474121094:66.569999694824219] [-6.0415120124816895:6.1626429557800293] [-10.281366348266602:11.818019866943359] [-17.372880935668945:14.35562801361084] [-24.630624771118164:24.511468887329102] [-24.868003845214844:39.543319702148438] [-35.815872192382812:34.754096984863281] [0.042426407337188721:3.2751080989837646] [0.042426407337188721:4.7465720176696777] [0.042426407337188721:5.344205379486084] [39.790000915527344:61.619998931884766] [43.290000915527344:66.569999694824219] [0.042426407337188721:5.4625492095947266] [42.844001770019531:62.902332305908203] [0.042426407337188721:6.2239170074462891] [39.790000915527344:58.759998321533203] [46.650001525878906:66.569999694824219] [-3.4853887557983398:3.0036964416503906] [0.76277375221252441:4.9742584228515625] [-106.84011840820312:164.20773315429688] [-22.191015243530273:26.589687347412109] [3:3] [-16.605304718017578:24.183246612548828] [-165.46697998046875:159.38456726074219] [-0.22173035144805908:1.2130904197692871] [-3.135434627532959:3.1833817958831787] [-2.6213173866271973:2.772597074508667] [-1.2685985565185547:0.94650393724441528] [0.018351990729570389:39.335178375244141] [0.054525628685951233:35.731788635253906] [0.12307692319154739:39.335178375244141] none [161:245] [161:245] [176:219] [176:219] [4.0414519309997559:20.361700057983398] [176:219] [4.0414519309997559:19.928762435913086] [-0.31321537494659424:0.36533302068710327] [-0.29612094163894653:0.40341803431510925] [-2.8260855674743652:2.671764612197876] [-17.372880935668945:14.35562801361084] [-6.0415120124816895:5.4516053199768066] [0:1] [0:1] [0:1] [-0.97492790222167969:0.97492790222167969] [-0.90096884965896606:1] [-0.86602538824081421:1] [-1:0.86602538824081421] [-1:0.99985265731811523] [0:215] none none none none none none none none none none none none none [0:0.98347145318984985] [0:1] [0:1] [0:1] none none none none none none none none none none none none none none none none none none none none none [-2.4910855293273926:2.5970833301544189] [-5.0148625373840332:6.6300463676452637] [-4.9728598594665527:6.6842527389526367] [-15.224418640136719:14.81980037689209] [-7.8436169624328613:8.0323085784912109] [-21.058666229248047:25.597810745239258] [-8.3750972747802734:10.840641021728516] [-26.866291046142578:40.982707977294922] [0.43699198961257935:3.9606008529663086] [195.10000610351562:203.39999389648438] none [0:1] [0:1] [0:1] [0:1] [1:30] [0.0086206896230578423:1] none none none none none
tree_sizes=1256 1313 1531 1642 1197 1629 1619 1503 1532 1420 1632 1747 1529 1643 1532 1419 1426 1515 1313 1417 1525 1404 1524 1528 1525 1514 1526 1413 1398 1300 1403 1525 1427 1517 1417 1302 1296 1319 1303 1402 1522 1630 1427 1516 1529 1635 1201 1418 1512 1308 1307 1637 1421 1418 1519 1310 1520 1424 1304 1305 1532 1644 1638 1749 1529 1521 1621 1520 1528 1423 1527 1423 1632 1524 1523 1416 1304 1644 1514 1424 1423 1414 1540 1423 1646 1404 1427 1425 1511 1303 1427 1422 1417 1505 1538 1427 1098 1423 1412 1426 1630 1539 1751 1739 1731 1296 1429 1312 1314 1320 1522 1523 1534 1535 1633 1639 1430 1520 1511 1420 1744 1638 1641 1645 1538 1109 1519 1742 1632 1415 1534 1538 1534 1639 1622 1325 1432 1433 1427 1649 1521 1529 1525 1738 1427 1634 1103 1627 1304 1297 1437 1503 1429 1740 1317 1837 1420 1526 1506 1414 1516 1411 1419 1419 1410 1645 1638 1535 1427 1538 1416 1529 1428 1423 1435 1422 1317 1418 1629 1646 1542 1312 1633 1519 1737 1214 1323 1421 1432 1431 1536 1512 1425 1413 1421 1409 1541 1409 1415 1627 1627 1521 1521 1103 1431 1636 1426 1525 1527 1637 1309 1526 1194 1404 1514 1510 1428 1428 1405 1509 1514 1409 1312 1421 1646 1418 1210 1644 1537 1642 1422 1639 1538 1635 1427 1424 1420 1534 1541 1209 1528 1429 1418 1529 1321 1102 1321 1101 1207 1314 1515 1537 1528 1529 1431 1636 1427 1308 1633 1541 1534 1637 1438 1759 1323 1295 1628 1415 1642 1621 1426 1322 1311 1533 1517 1639 1636 1526 1526 1642 1412 1428 1642 1425 1746 1648 1303 1628 1405 1411 1731 1414 1726 1432 1424 1531 1522 1418 1505 1540 1311 1425 1299 1435 1538 1307 1532 1316 1409 1639 1415 1743 1312 1517 1531 1308 1410 1545 1612 1544 1307 1415 1305 1528 1415 1644 1313 1531 1638 1526 1079 1319 1529 1324 1525 1538 1546 1529 1524 1416 1629 1540 1638 1644 1628 1544 1634 1538 1424 1521 1431 1749 1318 1421 1638 1636 1330 1428 1436 1646 1410 1326 1200 1205 1654 1551 1518 1541 1412 1435 1547 1526 1541 1532 1525 1527 1514 1631 1419 1539 1315 1427 1412 1414 1757 1216 1540 1321 1619 1428 1509 1533 1434 1095 1435 1302 1201 1523 1430 1393 1432 1622 1534 1610 1308 1435 1215 1217 1522 1321 1430 1413 1419 1539 1533 1544 1416 1510 1619 1623 1645 1643 1855 1648 1530 1730 1423 1522 1622 1416 1411 1609 1533 1616 1529 1423 1529 1402 1527 1643 1543 1632 1545 1633 1531 1642 1437 1320 1416 1427 1430 1514 1525 1510 1431 1615 1537 1627 1633 1647 1535 1422 1410 1313 1424 1409 1531 1414 1639 1426 1215 1418 1402 1220 1502 1416 1650 1409 1632 1643 1508 1760 1386 1414 1430 1416 1614 1427 1511 1616 1525 1310 1523 1524 1519 1311 1510 1497 1424 1219 1519 1390 1544 1542 1537 1752 1523 1524 1205 1509 1523 1409 1528 1404 1535 1637 1404 1539 1432 1635 1207 1321 1222 1425 1416 1410 1524 1631 1542 1544 1413 1390 1516 1437 1634 1646 1529 1644 1626 1510 1433 1522 1334 1430 1622 1425 1513 1509 1305 1638 1400 1520 1110 1525 1533 1307 1515 1631 1424 1518 1711 1516 1419 1534 1533 1321 1318 1329 1522 1305 1189 1412 1641 1631 1541 1519 1419 1420 1319 1544 1292 1404 1755 1300 1299 1630 1535 1529 1747 1528 1414 1305 1309 1737 1433 1512 1529 1081 1404 1428 1320 1302 1430 1305 1539 1528 1415 1514 1185 1519 1653 1517 1418 1407 1550 1542 1640 1758 1765 1404 1618 1318 1752 1632 1615 1330 1416 1323 1222 1427 1518 1524 1640 1629 1533 1648 1628 1433 1627 1313 1520 1498 1509 1307 1626 1429 1303 1423 1291 1290 1605 1431 1650 1648 1404 1431 1413 1414 1191 1621 1524 1199 1290 1396 1430 1535 1518 1629 1400 1519 1310 1529 1741 1332 1423 1397 1649 1402 1540 1536 1644 1645 1506 1286 1509 1190 1633 1540 1428 1653 1437 1403 1542 1519 1509 1628 1438 1660 1333 1434 1437 1718 1435 1403 1650 1409 1521 1658 1325 1326 1505 1529 1637 1748 1513 1395 1436 1519 1076 1092 1765 1538 1548 1191 1429 1541 1214 1537 1440 1611 1196 1497 1327 1544 1653 1725 1621 1292 1430 1516 1414 1419 1406 1420 1644 1434 1213 1293 1416 1430 1631 1327 1390 1624 1532 1435 1508 1436 1535 1546 1416 1526 1725 1527 1203 1521 1617 1414 1397 1538 1435 1078 1657 1523 1092 1522 1501 1436 1500 1523 1539 1507 1427 1537 1629 1507 1193 1094 1537 1193 1293 1648 1524 1659 1498 1300 1515 1212 1507 1413 1537 1293 1427 1649 1606 1544 1303 1534 1297 1515 1327 1517 1433 1431 1322 1545 1544 1655 1515 1521 1426 1333 1213 1431 1409 1528 1195 1312 1435 1630 1550 1518 1543 1390 1597 1639 1646 1303 1403 1528 1626 1709 1398 1311 1542 1407 1217 1212 1304 1184 1406 1658 1419 1402 1524 1650 1598 1403 1607 1428 1510 1411 1415 1535 1317 1516 1516 1656 1746 1407 1423 1434 1513 1539 1737 1553 1501 1415 1531 1637 1424 1436 1636 1340 1300 1839 1531 1753 1538 1662 1316 1389 1521 1387 1392 1663 1542 1291 1319 1543 1202 1430 1217 1195 1514 1623 1652 1547 1325 1608 1418 1196 1429 1327 1293 1422 1105 1103 1432 1414 1435 1421 1425 1521 1418 1520 1521 1330 1204 1311 1525 1408 1752 1409 1412 1437 1513 1325 1308 1537 1604 1417 1287 1403 1544 1420 1407 1644 1429 1299 1521 1759 1757 1423 1218 1631 1422 1426 1302 1522 1619 1545 1617 1638 1652 1209 1304 1412 1296 1760 1436 1208 1094 1749 1438 1531 1605 1617 1439 1618 1598 1544 1426 1527 1528 1097 1408 1413 1623 1543 1528 1190 1430 1545 1655 1508 1539 1743 1627 1531

Tree=0
num_leaves=11
num_cat=0
split_feature=14 28 14 55 23 104 70 9 32 14
split_gain=7.55006 11.0945 3.15728 2.04248 1.70691 1.55574 0.507894 0.797356 0.428409 0.11006
threshold=50.11000061035157 0.75816234946250927 56.204999923706062 1.0000000180025095e-35 0.27352060377597814 200.56999969482425 0.74704343080520641 -13.229098796844481 17.163262367248539 46.639999389648445
decision_type=2 2 2 2 2 2 2 2 2 2
left_child=6 3 5 4 -2 -3 8 -8 -1 -10
right_child=1 2 -4 -5 -6 -7 7 -9 9 -11
leaf_value=-2.3531896754567025 -2.3601245346674413 -2.3640801374730729 -2.3643669498708744 -2.359036962655999 -2.3642575875665557 -2.3618892276355647 -2.3629650362992511 -2.349866288991215 -2.3623286810445014 -2.357255854544738
leaf_weight=413.7931102514267 39.724139213562012 53.793103396892548 14.068965971469877 113.37931042909622 48.000001549720764 9.9310348033905012 9.1034485697746259 33.10344934463501 9.9310348033905047 20.689655840396881
leaf_count=401 48 38 17 83 58 12 11 40 12 25
internal_value=-2.36057 -2.36067 -2.36092 -2.36057 -2.36066 -2.36099 -2.36051 -2.36057 -2.3605 -2.36057
internal_weight=0 278.897 77.7931 201.103 87.7241 63.7241 486.621 42.2069 444.414 30.6207
internal_count=745 256 67 189 106 50 489 51 438 37
is_linear=0
shrinkage=0.146492


Tree=1
num_leaves=11
num_cat=0
split_feature=17 30 14 96 18 104 30 21 18 2
split_gain=31.5743 9.41523 7.51042 6.4733 5.48435 4.9954 2.18556 1.14129 0.935079 1.22046
threshold=53.668878555297859 -0.047530366107821458 45.139999389648445 1.5742978453636172 1.7718827724456789 200.81370544433597 1.5085552334785464 0.90045064687728893 3.2688437700271611 49.73500061035157
decision_type=2 2 2 2 2 2 2 2 2 2
left_child=1 8 -2 4 -3 -4 -7 -5 -1 -10
right_child=2 3 5 7 -6 6 -8 -9 9 -11
leaf_value=0.0036115388915197839 0.0036500452022156528 -0.0044998650010395751 -0.011833204265855563 -0.0032979550277005038 -0.0089462136757020444 -0.0034097843365001766 0.0012592441094488546 -0.013069129343250437 -0.0006823653494462252 -0.0038322475615578324
leaf_weight=65.379312455654144 11.586207270622252 167.9999982714653 177.93104022741318 14.068965971469877 145.6551741361618 19.034483373165134 12.413793504238127 64.551724433898926 65.379312455654144 21.517242074012756
leaf_count=79 14 95 215 17 131 23 15 51 79 26
internal_value=0 -0.000146475 -0.000436839 -0.000198262 -0.000148873 -0.000464253 -0.000153261 -0.000371006 -4.01908e-06 -5.354e-05
internal_weight=0 544.552 220.966 392.276 313.655 209.379 31.4483 78.6207 152.276 86.8966
internal_count=745 478 267 294 226 253 38 68 184 105
is_linear=0
shrinkage=0.000633148


Tree=2
num_leaves=13
num_cat=0
split_feature=14 54 14 42 19 15 29 41 14 39 20 12
split_gain=25.9659 9.5316 8.16824 7.89252 6.53228 5.72835 2.0862 2.20953 1.41534 0.982355 1.34523 0.812657
threshold=49.079999923706062 1.0000000180025095e-35 52.159999847412116 14.269673824310305 46.379999160766609 65.430000305175795 0.76016846299171459 201.93508148193362 44.510000228881843 200.19523620605472 50.940000534057624 2.1734888553619389
decision_type=2 2 2 2 2 2 2 2 2 2 2 2
left_child=6 4 3 -3 -2 -6 9 8 -8 10 -1 -4
right_child=1 2 11 -5 5 -7 7 -9 -10 -11 -12 -13
leaf_value=0.0012249913873501597 0.0067875871289444752 -0.0020354808849971139 0.0025900749741768246 -0.0099556602273607152 -0.0099819409892062602 -0.0036852998302906873 -0.007950364304845298 0.0010191637618437845 -0.0069637335806368075 0.0055329407161801812 -0.0045510855678495121 -0.0070203986036221277
leaf_weight=105.93103313446045 13.241379737854002 42.206896722316742 74.482759833335876 66.206895112991333 107.58621037006378 13.241379737854002 9.9310348033905047 21.517242074012756 15.724138438701628 182.06897020339966 105.10345166921616 8.2758623361587507
leaf_count=56 16 33 72 26 130 16 12 26 19 202 127 10
internal_value=0 -0.00028819 -0.000158381 -0.000300938 -0.00045655 -0.000514342 4.14214e-06 -0.000145677 -0.000297102 2.67927e-05 -3.34706e-06 1.22953e-05
internal_weight=0 325.241 191.172 108.414 134.069 120.828 440.276 47.1724 25.6552 393.103 211.034 82.7586
internal_count=745 303 141 59 162 146 442 57 31 385 183 82
is_linear=0
shrinkage=0.000795314


Tree=3
num_leaves=14
num_cat=0
split_feature=14 54 14 42 19 15 32 53 15 15 29 13 10
split_gain=25.5162 9.45158 7.87421 7.54696 6.41255 5.60468 3.45774 1.75498 1.06935 4.13681 0.625974 0.57792 0.380541
threshold=49.079999923706062 1.0000000180025095e-35 52.159999847412116 14.269673824310305 46.379999160766609 65.430000305175795 14.268288612365724 0.93301269412040722 52.924999237060554 53.049999237060554 0.51579308509826671 2.1865427494049077 8.2620482444763201
decision_type=2 2 2 2 2 2 2 2 2 2 2 2 2
left_child=6 4 3 -3 -2 -6 8 10 12 -10 -8 -4 -1
right_child=1 2 11 -5 5 -7 7 -9 9 -11 -12 -13 -14
leaf_value=0.0028681946825388507 0.0063676621776118754 -0.0019095525992406128 0.0020944637988578405 -0.0093397373585947518 -0.0093643922190073843 -0.0034573028525013909 -0.0057502127951007702 0.0004398402226253996 -0.0048744537667770316 0.00095611156303410734 -0.0074585022807760974 -0.0065860703974485258 -0.0014791451763773826
leaf_weight=293.79310697317123 13.241379737854002 42.206896722316742 71.172414898872375 66.206895112991333 107.58621037006378 13.241379737854002 9.9310348033905047 14.068965971469877 11.586207270622252 79.448278427124023 18.206897139549255 11.586207270622252 13.241379737854002
leaf_count=265 16 33 68 26 130 16 12 17 14 96 22 14 16
internal_value=0 -0.000268006 -0.00014616 -0.0002782 -0.000426022 -0.000480035 5.31011e-06 -0.000189334 3.05412e-05 -3.05815e-05 -0.000292137 1.15961e-05 5.35988e-05
internal_weight=0 325.241 191.172 108.414 134.069 120.828 440.276 42.2069 398.069 91.0345 28.1379 82.7586 307.034
internal_count=745 303 141 59 162 146 442 51 391 110 34 82 281
is_linear=0
shrinkage=0.000750081


Tree=4
num_leaves=10
num_cat=0
split_feature=15 55 42 0 12 15 17 12 12
split_gain=17.108 15.429 7.02782 7.32432 5.14699 6.50034 3.81588 2.36265 0.176896
threshold=57.614999771118171 0.068612210452556624 16.493077278137211 50.320001602172859 2.9954878091812138 65.430000305175795 54.983251571655281 1.1597985625267031 2.3983078002929692
decision_type=2 2 2 2 2 2 2 2 2
left_child=2 4 6 -4 5 -2 7 -1 -3
right_child=1 8 3 -5 -6 -7 -8 -9 -10
leaf_value=0.0025330307175620509 -0.0083523962801273863 0.0018497144463821649 0.0020192413363499338 -0.0093874936949704408 -0.0039615429472585773 -0.003053298431454121 -0.0067739694305120647 -0.0038394648664778802 -0.0020319265812646153
leaf_weight=226.75862205028534 105.10345166921616 49.655174016952515 22.344828307628632 33.103447556495667 14.068965971469877 14.068965971469877 31.448276877403259 258.20690071582794 10.758621037006376
leaf_count=184 127 60 27 13 17 17 38 249 13
internal_value=0 -0.000268119 -3.59989e-05 -0.000257908 -0.000393189 -0.000437476 -8.69986e-06 3.60282e-06 0
internal_weight=0 193.655 571.862 55.4483 133.241 119.172 516.414 484.966 60.4138
internal_count=745 234 511 40 161 144 471 433 73
is_linear=0
shrinkage=0.000665956


Tree=5
num_leaves=14
num_cat=0
split_feature=14 104 19 19 31 32 104 15 15 39 42 12 10
split_gain=22.2505 10.6079 6.55854 7.40418 4.63974 2.45771 1.30385 1.14001 1.05304 1.39473 0.616819 0.230489 0.181159
threshold=49.079999923706062 200.58666992187503 52.159999847412116 46.085000991821296 0.022708482109010223 14.268288612365724 199.94333648681643 52.015001296997077 52.924999237060554 197.7416687011719 14.860476493835451 1.9421921372413637 11.669373989105226
decision_type=2 2 2 2 2 2 2 2 2 2 2 2 2
left_child=5 2 3 -2 -4 8 10 -3 12 -10 -7 -9 -1
right_child=1 7 4 -5 -6 6 -8 11 9 -11 -12 -13 -14
leaf_value=0.0054169094221961402 0.0022556592656948404 -0.0054368162022190294 -0.0017839039330760339 -0.010012196729253377 -0.010009776472097805 -0.00077251213605229307 0.0012570743901268362 0.0030882850101994273 -0.0052101928136389346 0.0015706780194722225 -0.011367272458255907 -0.0070240980973321245 -0.0015938409261199164
leaf_weight=287.17241770029068 18.206897139549255 16.551723480224609 67.034483134746552 146.48276036977768 16.551724672317505 8.2758623361587542 18.206897139549255 66.206898093223572 28.965518176555634 53.793105185031891 15.724138438701628 14.068965971469877 9.1034485697746259
leaf_count=266 22 2 54 132 20 10 22 71 35 65 19 17 11
internal_value=0 -0.000257299 -0.000345382 -0.000442939 -0.000128473 1.49466e-05 -0.00015819 -1.27121e-05 3.9186e-05 -2.82016e-05 -0.000274096 1.04049e-05 6.34768e-05
internal_weight=0 345.103 248.276 164.69 83.5862 421.241 42.2069 96.8276 379.034 82.7586 24 80.2759 296.276
internal_count=746 318 228 154 74 428 51 90 377 100 29 88 277
is_linear=0
shrinkage=0.00080604


Tree=6
num_leaves=14
num_cat=0
split_feature=14 55 17 18 19 15 39 56 19 21 55 29 9
split_gain=21.9407 9.15618 13.1179 7.65591 8.72796 1.81145 2.81258 2.06325 1.80732 1.33251 1.00541 0.178907 0.117932
threshold=49.079999923706062 1.0000000180025095e-35 52.000249862670906 2.6421437263488774 46.085000991821296 52.924999237060554 197.44999694824222 191.50000000000003 39.819999694824226 0.17327696084976199 0.52211335301399242 0.71965131163597118 -0.42097225785255427
decision_type=2 2 2 2 2 2 2 2 2 2 2 2 2
left_child=5 3 -3 9 -5 8 7 -7 -1 -2 -4 -10 -8
right_child=1 2 10 4 -6 6 12 -9 11 -11 -12 -13 -14
leaf_value=-0.0074127676549650577 0.00082211822864278693 -0.0089417314390112038 -0.0026796523025600354 0.0061443167961634879 -0.0093309030858709369 -0.00894479563677128 0.0022558990896963315 0.001149315516615731 0.0038121562151360085 -0.0060951256078247478 0.0035738413126396818 -0.00085085388476345395 -0.0019447336609408514
leaf_weight=10.758621037006376 26.482759475708008 64.551722049713135 49.655174016952515 13.241379737854002 88.551726996898651 21.51724207401276 41.379311680793762 8.2758623361587507 283.86207276582718 10.758621037006376 91.862069547176361 24.000000774860382 31.448276877403259
leaf_count=13 32 15 60 16 107 26 50 10 262 13 75 29 38
internal_value=0 -0.000229291 -0.000119986 -0.000377036 -0.00048058 1.34199e-05 -6.40221e-05 -0.000244585 4.31204e-05 -4.706e-05 0 5.7568e-05 0
internal_weight=0 345.103 206.069 139.034 101.793 421.241 102.621 29.7931 318.621 37.2414 141.517 307.862 72.8276
internal_count=746 318 150 168 123 428 124 36 304 45 135 291 88
is_linear=0
shrinkage=0.000723707


Tree=7
num_leaves=13
num_cat=0
split_feature=0 104 19 32 12 0 39 39 17 38 8 12
split_gain=13.9998 8.50322 6.45442 5.92462 1.37206 1.75121 2.25145 1.04527 0.775166 0.706833 0.53958 0.292466
threshold=50.094999313354499 200.56999969482425 46.085000991821296 2.9578684568405156 1.3847254514694216 48.079999923706062 199.06781768798831 196.98332977294925 55.138584136962898 209.64285278320315 7.8210182189941415 1.9421921372413637
decision_type=2 2 2 2 2 2 2 2 2 2 2 2
left_child=4 2 7 -4 8 10 -7 -2 -1 11 -6 -3
right_child=1 9 3 -5 5 6 -8 -9 -10 -11 -12 -13
leaf_value=0.001899356104832555 -0.0085616791766500739 0.002418096899183605 -0.0046755358584840371 -0.0075284981824011079 0.0031131366921449853 -0.0061755479068697165 0.0021134024195194751 0.0036258537677042102 -0.0064986675745829468 -0.0040605358770011424 -0.0058050158747273706 -0.0041012024868682098
leaf_weight=220.96551960706711 14.896552205085753 76.137932300567627 73.655172407627106 186.20690017938614 59.586208820343018 13.241379737854006 12.413793504238127 43.034484148025513 14.068965971469877 22.344827115535736 9.1034485697746259 20.689655840396881
leaf_count=195 18 74 53 189 72 16 15 52 17 9 11 25
internal_value=0 -0.000151039 -0.000203203 -0.000244285 1.28251e-05 -4.30596e-05 -0.000173841 0 4.06003e-05 -7.67013e-07 0 1.17128e-05
internal_weight=0 436.966 317.793 259.862 329.379 94.3448 25.6552 57.931 235.034 119.172 68.6897 96.8276
internal_count=746 420 312 242 326 114 31 70 212 108 83 99
is_linear=0
shrinkage=0.000612569


Tree=8
num_leaves=13
num_cat=0
split_feature=14 104 19 55 19 32 56 15 15 104 12 10
split_gain=22.1878 10.4278 7.00922 8.32374 7.40418 2.50767 2.17705 1.14001 0.920949 1.34686 0.230489 0.181159
threshold=49.079999923706062 200.58666992187503 52.159999847412116 -0.66012781858444203 46.085000991821296 14.268288612365724 173.50000000000003 52.015001296997077 52.924999237060554 198.78569030761722 1.9421921372413637 11.669373989105226
decision_type=2 2 2 2 2 2 2 2 2 2 2 2
left_child=5 2 4 -4 -2 8 -7 -3 11 -10 -9 -1
right_child=1 7 3 -5 -6 6 -8 10 9 -11 -12 -13
leaf_value=0.0046652470866905332 0.0019633128152393362 -0.0046274723084461554 -0.0098459498123318837 0.00039653515744228311 -0.008579635279316225 -0.00059893107417490041 -0.0097570701266672128 0.0026427617338761976 -0.0047407679514022789 0.00094508217777829217 -0.0060446009495199165 -0.0013762537238000967
leaf_weight=287.17241770029068 18.206897139549255 16.551723480224609 18.206897139549255 65.379310667514801 146.48276036977768 27.310345709323883 14.896552205085753 66.206898093223572 18.206897139549255 64.551726222038269 14.068965971469877 9.1034485697746259
leaf_count=266 22 2 22 52 132 33 18 71 22 78 17 11
internal_value=0 -0.000222354 -0.0002984 -0.000105074 -0.000385662 1.43862e-05 -0.000137735 -1.10683e-05 3.56431e-05 -1.77023e-05 9.05943e-06 5.52687e-05
internal_weight=0 345.103 248.276 83.5862 164.69 421.241 42.2069 96.8276 379.034 82.7586 80.2759 296.276
internal_count=746 318 228 74 154 428 51 90 377 100 88 277
is_linear=0
shrinkage=0.000701811


Tree=9
num_leaves=12
num_cat=0
split_feature=14 104 19 55 19 29 22 17 14 17 12
split_gain=22.4993 10.6079 6.55854 8.18388 7.40418 1.81046 1.8643 1.14001 0.803925 0.534715 0.230489
threshold=49.079999923706062 200.58666992187503 52.159999847412116 -0.62058660387992848 46.085000991821296 1.0139431953430178 0.99966445565223705 51.049821853637702 39.819999694824226 55.138584136962898 1.9421921372413637
decision_type=2 2 2 2 2 2 2 2 2 2 2
left_child=5 2 4 -4 -2 8 -7 -3 -1 -10 -9
right_child=1 7 3 -5 -6 6 -8 10 9 -11 -12
leaf_value=-0.0045080258993828275 0.0013369141025247318 -0.0031921350268986582 -0.0067267795954357567 0.00035221379757096379 -0.0058843901241721073 0.0010338800478964039 -0.0066694237423116764 0.001795066684686792 0.0012187247209788771 -0.0013595304120819984 -0.0041451740768290498
leaf_weight=9.1034485697746259 18.206897139549255 16.551723480224609 19.862069606781006 63.724138200283051 146.48276036977768 19.034483373165134 12.413793504238127 66.206898093223572 354.20690262317657 26.482759475708008 14.068965971469877
leaf_count=11 22 2 24 50 132 23 15 71 347 32 17
internal_value=0 -0.000152544 -0.000204765 -7.61671e-05 -0.000262603 9.79575e-06 -9.20276e-05 -7.53659e-06 2.08781e-05 2.64385e-05 6.1687e-06
internal_weight=0 345.103 248.276 83.5862 164.69 421.241 31.4483 96.8276 389.793 380.69 80.2759
internal_count=746 318 228 74 154 428 38 90 390 379 88
is_linear=0
shrinkage=0.000477873


Tree=10
num_leaves=14
num_cat=0
split_feature=14 32 31 54 15 39 14 56 19 7 39 29 30
split_gain=20.1993 12.1866 7.59808 7.93358 4.30521 3.84486 2.78193 2.34693 2.12793 0.924374 0.702587 0.423687 0.320623
threshold=50.11000061035157 2.9578684568405156 1.0000000180025095e-35 1.0000000180025095e-35 52.924999237060554 198.34523773193362 56.204999923706062 191.50000000000003 39.819999694824226 -2.6238915920257564 199.58947753906253 0.61684483289718639 0.8278234899044038
decision_type=2 2 2 2 2 2 2 2 2 2 2 2 2
left_child=4 9 3 -3 8 7 -4 -6 -1 10 -2 -10 -7
right_child=1 2 6 -5 5 12 -8 -9 11 -11 -12 -13 -14
leaf_value=-0.0082676843947150913 -0.008264227105023756 -0.009058671191108229 -0.0095481818220173806 0.0028671533632736376 -0.0086258274123952282 0.0016553619307988364 -0.0036616445876793309 0.0012957213065685851 0.0020976104145919768 0.0042050242047974948 -0.0030633034282706857 -0.0011825377037113093 -0.0019539166994395436
leaf_weight=14.896552205085753 10.75862103700638 62.068967521190643 91.862069547176361 43.862070381641388 49.655174016952515 66.20689868927002 16.551724672317505 9.9310348033905012 273.10345113277435 55.448274672031403 14.068965971469877 32.275863111019135 19.862069606781006
leaf_count=18 13 75 75 53 60 80 20 12 240 22 17 39 24
internal_value=0 -0.000293098 -0.000394631 -0.000206332 -1.49284e-05 -0.00013334 -0.00055668 -0.000291009 3.43223e-05 0 -0.000141375 5.41073e-05 -1.41409e-06
internal_weight=0 294.621 214.345 105.931 465.931 145.655 108.414 59.5862 320.276 80.2759 24.8276 305.379 86.069
internal_count=748 275 223 128 473 176 95 72 297 52 30 279 104
is_linear=0
shrinkage=0.000820818


Tree=11
num_leaves=15
num_cat=0
split_feature=14 32 31 54 15 39 14 40 32 104 100 39 10 100
split_gain=20.1993 12.1866 7.59808 7.93358 4.30521 3.84486 2.78193 1.85837 1.42437 1.3672 1.12053 0.689815 0.384537 0.325814
threshold=50.11000061035157 2.9578684568405156 1.0000000180025095e-35 1.0000000180025095e-35 52.924999237060554 198.34523773193362 56.204999923706062 13.781838417053224 14.268288612365724 199.53000640869143 -3.2284045219421382 198.88333129882815 12.756351947784426 12.645969867706301
decision_type=2 2 2 2 2 2 2 2 2 2 2 2 2 2
left_child=4 10 3 -3 8 7 -4 -6 12 -10 11 -2 -1 -7
right_child=1 2 6 -5 5 13 -8 -9 9 -11 -12 -13 -14 -15
leaf_value=0.0023918390133956663 -0.0081437700267019478 -0.0089266345164994657 -0.0094090101764479472 0.0028253625324008353 -0.0044845573057086495 0.00047838678004402202 -0.0036082734734445097 -0.0098463142407850084 -0.0081471769238992409 0.0064644894618050078 0.0033067531733475923 -0.0030186535685447369 -0.0025043816637341943 -0.0021278621310296124
leaf_weight=282.20689970254898 9.9310348033905047 62.068967521190643 91.862069547176361 43.862070381641388 23.172414541244507 76.137933492660522 16.551724672317505 36.413794279098511 14.068965971469881 13.241379737854002 57.931033372879028 12.413793504238127 10.758621037006376 9.9310348033905012
leaf_count=251 12 75 75 53 28 92 20 44 17 16 25 15 13 12
internal_value=0 -0.000290362 -0.000390949 -0.000204407 -1.47891e-05 -0.000132096 -0.000551485 -0.000288293 3.4002e-05 -0.000121304 0 -0.000162632 5.47176e-05 -1.40089e-06
internal_weight=0 294.621 214.345 105.931 465.931 145.655 108.414 59.5862 320.276 27.3103 80.2759 22.3448 292.966 86.069
internal_count=748 275 223 128 473 176 95 72 297 33 52 27 264 104
is_linear=0
shrinkage=0.000813159


Tree=12
num_leaves=13
num_cat=0
split_feature=14 32 104 15 15 104 14 19 16 12 97 29
split_gain=19.8624 11.9827 7.79977 4.30521 3.99161 3.29088 2.92506 2.12793 1.07688 0.948271 0.584543 0.423687
threshold=50.11000061035157 2.9578684568405156 200.47912597656253 52.924999237060554 65.430000305175795 199.94333648681643 52.654998779296882 39.819999694824226 1.664566218852997 1.1413075327873232 -0.58858665823936451 0.61684483289718639
decision_type=2 2 2 2 2 2 2 2 2 2 2 2
left_child=3 9 4 7 -3 8 -4 -1 -5 -2 -11 -9
right_child=1 2 6 5 -6 -7 -8 11 -10 10 -12 -13
leaf_value=-0.0068651641887303542 0.0070782886644869128 -0.0079284395463741879 -0.0057084983426790147 -0.00039795001339465225 -0.0030404875289220278 -0.00029954120837701715 0.0025168662981741416 0.0017403177156777368 -0.0065334244077822363 -0.00093973326456700524 -0.0092435899620507481 -0.00095062382840465406
leaf_weight=14.896552205085753 50.482757270336151 138.20689922571182 25.655172646045685 12.413793504238127 15.724138438701628 70.344829857349396 34.75862181186676 273.10345113277435 62.896553754806519 14.896552205085756 14.896552205085753 32.275863111019135
leaf_count=18 16 140 22 15 19 85 42 240 76 18 18 39
internal_value=0 -0.000244052 -0.000328548 -1.25282e-05 -0.000413066 -0.000111902 -8.47931e-05 2.8804e-05 -0.000210034 0 -0.000107287 4.54081e-05
internal_weight=0 294.621 214.345 465.931 153.931 145.655 60.4138 320.276 75.3103 80.2759 29.7931 305.379
internal_count=748 275 223 473 159 176 64 297 91 52 36 279
is_linear=0
shrinkage=0.000688849


Tree=13
num_leaves=14
num_cat=0
split_feature=14 55 14 42 15 55 15 39 40 14 13 30 100
split_gain=19.8624 9.23491 12.1189 7.13112 5.63518 6.48993 4.30521 3.84486 1.85837 1.28986 0.547084 0.5164 0.325814
threshold=50.11000061035157 1.0000000180025095e-35 52.159999847412116 14.329013347625734 65.430000305175795 -0.98376169800758351 52.924999237060554 198.34523773193362 13.781838417053224 39.819999694824226 2.0089713335037236 0.38182745873928076 12.645969867706301
decision_type=2 2 2 2 2 2 2 2 2 2 2 2 2
left_child=6 4 3 -3 5 -2 9 8 -8 -1 -4 -11 -9
right_child=1 2 10 -5 -6 -7 7 12 -10 11 -12 -13 -14
leaf_value=-0.0063399300117973423 0.0070828358857826235 -0.0015709874850808189 0.002650586938293599 -0.0075884636259749387 -0.0030251518749092668 -0.008734419360641385 -0.0037452369867464279 0.0004047967434163083 -0.0082644204683917435 0.0017315398765627801 -0.0019441066022532955 -0.00094582905849028176 -0.0017588847455605801
leaf_weight=13.241379737854002 10.758621037006376 26.48275887966156 81.103448510169983 41.379309296607971 15.724138438701628 99.310348033905029 23.172414541244507 76.137933492660522 36.413794279098511 262.34483009576797 19.862069606781006 44.689656615257263 9.9310348033905012
leaf_count=16 13 23 62 14 19 120 28 92 44 227 24 54 12
internal_value=0 -0.000244113 -0.000124119 -0.00034594 -0.000389913 -0.000444112 -1.25314e-05 -0.00011193 -0.000244283 2.88113e-05 1.54142e-05 4.18549e-05 -1.18703e-06
internal_weight=0 294.621 168.828 67.8621 125.793 110.069 465.931 145.655 59.5862 320.276 100.966 307.034 86.069
internal_count=748 275 123 37 152 133 473 176 72 297 86 281 104
is_linear=0
shrinkage=0.000689022


Tree=14
num_leaves=13
num_cat=0
split_feature=15 55 19 40 15 19 15 19 10 15 40 41
split_gain=17.4352 11.9791 6.24313 10.2598 5.69413 5.31309 7.15369 1.74195 1.71475 0.822647 0.739509 0.755306
threshold=56.680000305175788 0.068612210452556624 49.049999237060554 14.388912200927736 53.335000991821296 45.954999923706062 65.430000305175795 39.819999694824226 18.335251808166507 50.940000534057624 14.167778968811037 201.24500274658206
decision_type=2 2 2 2 2 2 2 2 2 2 2 2
left_child=2 5 7 -4 -5 8 -7 -1 -2 -9 11 -3
right_child=1 10 3 4 -6 6 -8 9 -10 -11 -12 -13
leaf_value=-0.0071592728060601591 0.0021970503230036068 -0.0059401369998555937 0.0090886219248092117 -0.0079506366954984701 -0.0053435725662084287 -0.0089380349116920024 0.00045738085506848635 0.0015607616114713919 -0.010423649142974813 -0.00073067603974423078 0.001804546508102012 7.8221676222138637e-05
leaf_weight=14.896552205085753 23.172414541244507 20.689655840396881 55.448274075984955 35.586205661296844 22.344827711582184 124.13793504238129 17.37931090593338 227.58620947599411 9.1034485697746259 147.31034958362579 48.827587783336639 14.068965971469877
leaf_count=18 28 25 13 7 18 150 21 203 11 178 59 17
internal_value=0 -0.000262782 -2.7088e-05 -0.000176383 -0.000386676 -0.000370989 -0.000433078 1.33116e-05 -4.70203e-05 2.69052e-05 -1.74273e-05 -0.000104301
internal_weight=0 257.379 503.172 113.379 57.931 173.793 141.517 389.793 32.2759 374.897 83.5862 34.7586
internal_count=748 311 437 38 25 210 171 399 39 381 101 42
is_linear=0
shrinkage=0.000725749


Tree=15
num_leaves=12
num_cat=0
split_feature=0 54 20 19 19 14 19 42 42 10 19
split_gain=15.892 11.8149 10.1634 7.1091 3.52063 3.49442 2.04616 1.9987 0.88027 1.25235 0.611095
threshold=55.460000991821296 1.0000000180025095e-35 63.849998474121101 55.590000152587898 45.954999923706062 48.164999008178718 39.819999694824226 16.965359687805179 14.718465805053713 16.896352767944339 58.674999237060554
decision_type=2 2 2 2 2 2 2 2 2 2 2
left_child=2 3 6 4 -2 -4 -1 -8 9 -3 -5
right_child=1 8 5 10 -6 -7 7 -9 -10 -11 -12
leaf_value=-0.0063498698677447165 -0.0088143470637819157 -0.0054071387401660063 0.00070918849924037021 0.0011480621770096552 -0.0079238436811691314 -0.0066671991457919206 0.0011390628593304232 -0.0059511270800677654 0.0021472363698464181 0.00059361479203775213 -0.0029717373484887295
leaf_weight=11.586207270622252 9.9310348033905012 19.862069606781006 8.2758623361587542 16.551724672317505 72.000002324581146 23.172414541244507 470.89655858278275 41.379310488700867 37.241380512714386 13.241379737854002 9.9310348033905047
leaf_count=14 12 24 10 20 87 28 443 32 45 16 12
internal_value=0 -0.000244476 -1.88441e-05 -0.000378263 -0.000473212 -0.000367158 9.05449e-07 9.93972e-06 -1.55224e-05 -0.000101089 -2.6179e-05
internal_weight=0 178.759 555.31 108.414 81.931 31.4483 523.862 512.276 70.3448 33.1034 26.4828
internal_count=743 216 527 131 99 38 489 475 85 40 32
is_linear=0
shrinkage=0.000651322


Tree=16
num_leaves=12
num_cat=0
split_feature=15 56 15 102 21 104 41 20 24 56 7
split_gain=18.3643 15.8384 6.93613 5.65367 2.10066 3.30581 2.34657 1.21215 1.11027 1.06317 0.180031
threshold=57.614999771118171 88.500000000000014 65.430000305175795 -10.801256179809569 1.0655560493469241 197.9929122924805 199.54772949218753 62.909999847412116 -2.6802663803100581 1.0000000180025095e-35 5.476729393005372
decision_type=2 2 2 2 2 2 2 2 2 2 2
left_child=4 10 3 -3 7 -6 -7 9 -9 -1 -2
right_child=1 2 -4 -5 5 6 -8 8 -10 -11 -12
leaf_value=-0.0036980930893294639 0.0020762062160878296 -0.0042925711922885881 0.00036213305597363767 -0.0069094501439930251 -0.0056866770582715259 -0.0069648157743418147 0.0015069292465603732 0.00082537975722329373 -0.0048679056202753221 0.0012299004903915662 -0.0037291142532181855
leaf_weight=24.827585220336914 48.827587783336639 21.517242074012756 18.206897139549255 96.000003099441528 15.72413784265518 27.310345709323883 74.482761025428772 10.75862103700638 17.37931090593338 363.31034940481186 15.724138438701628
leaf_count=3 59 26 22 116 10 33 90 13 21 331 19
internal_value=0 -0.000219246 -0.000331873 -0.000383242 -9.13303e-06 -7.87056e-05 -2.47029e-05 7.98627e-06 -9.95674e-05 1.92599e-05 2.79528e-06
internal_weight=0 200.276 135.724 117.517 533.793 117.517 101.793 416.276 28.1379 388.138 64.5517
internal_count=743 242 164 142 501 133 123 368 34 334 78
is_linear=0
shrinkage=0.000586401


Tree=17
num_leaves=13
num_cat=0
split_feature=15 56 15 13 12 22 4 20 47 103 12 7
split_gain=18.3643 15.8384 6.93613 5.72148 2.17424 1.87681 2.63688 1.8436 2.0148 0.629497 0.613201 0.180031
threshold=57.614999771118171 88.500000000000014 65.430000305175795 3.7947489023208623 1.4130202531814577 1.1670032739639284 55.849998474121101 62.909999847412116 3.0562850236892705 1.5591576695442202 1.2250016331672671 5.476729393005372
decision_type=2 2 2 2 2 2 2 2 2 2 2 2
left_child=4 11 3 -3 7 9 -7 8 -1 -6 -9 -2
right_child=1 2 -4 -5 5 6 -8 10 -10 -11 -12 -13
leaf_value=0.0024107020317130699 0.0027023883904390071 -0.0089632413326962961 0.00047135210302055955 -0.0006133014273775548 -0.0044336158352196705 -0.0066072704344140119 0.0073814293349280221 -0.0077793117986612089 -0.006934503262290421 0.0015233992659536759 5.6683677642941048e-05 -0.0048538122015193662
leaf_weight=317.79310655593872 48.827587783336639 100.96552050113678 18.206897139549255 16.551724672317505 8.2758623361587507 79.44827663898468 25.655173242092133 14.896552205085756 16.551724076271057 62.896553754806519 8.2758623361587507 15.724138438701628
leaf_count=276 59 122 22 20 10 69 31 18 11 76 10 19
internal_value=0 -0.000286889 -0.000434264 -0.000501482 -1.19508e-05 -8.2936e-05 -0.000147535 1.90469e-05 3.77288e-05 0 -0.000171123 3.6577e-06
internal_weight=0 200.276 135.724 117.517 533.793 176.276 105.103 357.517 334.345 71.1724 23.1724 64.5517
internal_count=743 242 164 142 501 186 100 315 287 86 28 78
is_linear=0
shrinkage=0.000767321


Tree=18
num_leaves=11
num_cat=0
split_feature=15 56 15 13 17 21 42 56 4 7
split_gain=18.5322 15.8384 6.93613 5.72148 2.51239 2.51818 2.96445 1.23126 0.977882 0.180031
threshold=57.614999771118171 88.500000000000014 65.430000305175795 3.7947489023208623 54.983251571655281 0.99589151144027721 14.206606864929201 1.0000000180025095e-35 57.055000305175788 5.476729393005372
decision_type=2 2 2 2 2 2 2 2 2 2
left_child=4 9 3 -3 5 7 -7 -1 -6 -2
right_child=1 2 -4 -5 8 6 -8 -9 -10 -11
leaf_value=-0.0048797751454201154 0.002745077756874317 -0.0091048327838190671 0.00047879800632487 -0.00062298969034569349 -0.0074847079582684231 0.0015474642559165051 -0.0070440469355307709 0.0018295466088356807 0.00022679916286621747 -0.0049304874005440258
leaf_weight=24.827585220336914 48.827587783336639 100.96552050113678 18.206897139549255 16.551724672317505 24.000000774860382 48.000001549720764 73.655174195766449 354.20690083503723 9.1034485697746259 15.724138438701628
leaf_count=3 59 122 22 20 29 58 80 320 11 19
internal_value=0 -0.000292971 -0.000443472 -0.000512114 -1.09939e-05 1.07509e-07 -9.37861e-05 3.46907e-05 -0.000213986 3.73526e-06
internal_weight=0 200.276 135.724 117.517 533.793 500.69 121.655 379.034 33.1034 64.5517
internal_count=743 242 164 142 501 461 138 323 40 78
is_linear=0
shrinkage=0.00078359


Tree=19
num_leaves=12
num_cat=0
split_feature=0 56 20 19 3 19 19 42 42 19 32
split_gain=15.6108 11.6681 10.2136 7.28917 3.49442 3.41178 2.06915 2.03579 0.6996 1.08183 0.618625
threshold=55.460000991821296 88.500000000000014 63.849998474121101 55.590000152587898 54.584999084472663 45.954999923706062 39.819999694824226 16.965359687805179 14.718465805053713 48.350000381469734 7.0218477249145517
decision_type=2 2 2 2 2 2 2 2 2 2 2
left_child=2 8 6 5 -4 -3 -1 -8 9 -2 -5
right_child=1 3 4 10 -6 -7 7 -9 -10 -11 -12
leaf_value=-0.0062327689422975374 0.00065277306137512107 -0.0086246934068359791 0.00073103331851827834 0.00056034215522395318 -0.006504204159001793 -0.0077238952559430564 0.0011016363666334502 -0.0057962385562197278 0.0022588045877376299 -0.0051821915327234852 -0.0028237458946582428
leaf_weight=11.586207270622252 13.241379737854002 9.9310348033905012 8.2758623361587542 17.379310905933384 23.172414541244507 72.827588558197021 470.89655858278275 41.379310488700867 36.413794279098511 19.034483373165131 9.9310348033905012
leaf_count=14 16 12 10 21 28 88 443 32 44 23 12
internal_value=0 -0.000240341 -1.77916e-05 -0.000369941 -0.000365405 -0.000465722 1.92127e-06 1.09354e-05 -9.73901e-06 -8.895e-05 -2.34882e-05
internal_weight=0 178.759 555.31 110.069 31.4483 82.7586 523.862 512.276 68.6897 32.2759 27.3103
internal_count=743 216 527 133 38 100 489 475 83 39 33
is_linear=0
shrinkage=0.000648214


Tree=20
num_leaves=13
num_cat=0
split_feature=14 54 14 42 17 18 32 56 15 15 12 17
split_gain=18.0972 13.1651 7.16281 6.73985 6.18858 5.85654 3.95888 2.03241 0.813273 2.20752 0.432807 0.369338
threshold=49.079999923706062 1.0000000180025095e-35 52.159999847412116 14.084897041320803 52.336698532104499 2.4252361059188847 17.531001091003422 112.50000000000001 52.924999237060554 53.049999237060554 1.9798063039779665 54.56463813781739
decision_type=2 2 2 2 2 2 2 2 2 2 2 2
left_child=6 4 3 -3 -2 -6 8 -8 11 -10 -4 -1
right_child=1 2 10 -5 5 -7 7 -9 9 -11 -12 -13
leaf_value=0.0017779775656421102 0.0062415364896831194 -0.0017950946608416404 0.0036501237910857892 -0.008626168521002113 -0.0033320687927296611 -0.0093033604922922418 0.00053678768615657247 -0.0096971698328364615 -0.0045918897405024328 0.0011476505828146551 -0.0023184561691034712 -0.0030817851159557169
leaf_weight=274.758624792099 14.068965971469877 41.379309892654419 91.862069547176361 62.068964540958405 27.310345709323883 104.27586543560028 9.1034485697746295 14.896552205085753 9.9310348033905012 83.5862095952034 12.413793504238127 9.1034485697746259
leaf_count=260 17 23 75 30 33 126 11 18 12 101 15 11
internal_value=0 -0.000242702 -0.000102069 -0.000250498 -0.000428378 -0.00048188 1.36146e-07 -0.000296124 2.46369e-05 -2.95516e-05 3.21407e-05 4.8142e-05
internal_weight=0 353.379 207.724 103.448 145.655 131.586 401.379 24 377.379 93.5172 104.276 283.862
internal_count=732 319 143 53 176 159 413 29 384 113 90 271
is_linear=0
shrinkage=0.000796283


Tree=21
num_leaves=12
num_cat=0
split_feature=15 54 42 0 29 15 17 4 13 7 13
split_gain=18.0367 14.9835 6.9744 6.09656 5.02525 3.39583 3.02163 1.54983 1.47366 0.445626 0.519754
threshold=57.614999771118171 1.0000000180025095e-35 16.493077278137211 50.320001602172859 -0.13665340095758435 62.175001144409187 54.983251571655281 55.849998474121101 1.5923935174942019 4.3705272674560556 2.1865427494049077
decision_type=2 2 2 2 2 2 2 2 2 2 2
left_child=2 4 6 -4 5 -2 8 -8 -1 -3 -11
right_child=1 9 3 -5 -6 -7 7 -9 -10 10 -12
leaf_value=0.0017564538702833045 -0.008222808696566301 0.0022998747630567323 0.0044955439684799649 -0.0072859070795002756 -0.0077541663929576376 -0.0015427791457784143 -0.0061211909445719141 1.0250722552982377e-05 -0.0035822441609233641 0.00098543015578748234 -0.0056031583974832586
leaf_weight=286.34482967853546 31.448276877403259 43.034484148025513 21.517242074012756 43.034481763839722 75.310347259044647 28.965518176555634 18.206897139549259 9.9310348033905012 172.13793420791626 9.1034485697746295 15.724138438701628
leaf_count=238 38 52 26 16 91 35 22 12 172 11 19
internal_value=0 -0.000265192 -2.81476e-05 -0.000232288 -0.000392631 -0.000198656 0 -0.000206472 1.32716e-05 0 -7.43204e-05
internal_weight=0 203.586 551.172 64.5517 135.724 60.4138 486.621 28.1379 458.483 67.8621 24.8276
internal_count=732 246 486 42 164 73 444 34 410 82 30
is_linear=0
shrinkage=0.000672341


Tree=22
num_leaves=13
num_cat=0
split_feature=14 56 14 42 19 97 32 56 15 15 12 19
split_gain=18.3307 13.1651 7.16281 6.73985 5.9943 5.84598 4.00992 2.03241 0.862722 2.20752 0.432807 0.40282
threshold=49.079999923706062 88.500000000000014 52.159999847412116 14.084897041320803 46.085000991821296 -3.4169945716857906 17.531001091003422 112.50000000000001 52.924999237060554 53.049999237060554 1.9798063039779665 40.525001525878913
decision_type=2 2 2 2 2 2 2 2 2 2 2 2
left_child=6 2 3 -2 -3 -6 8 -8 11 -10 -4 -1
right_child=1 4 10 -5 5 -7 7 -9 9 -11 -12 -13
leaf_value=-0.0012045893149249345 -0.0015037806363483847 0.0019522174846826105 0.0030104463641632529 -0.0071146622693487671 -0.0030409708819563517 -0.0075732083151071224 0.00045645848681191502 -0.007994314629631117 -0.0037939199916976287 0.0009456124946721745 -0.0019050431552403435 0.0018888239144049998
leaf_weight=46.344829082489014 41.379309892654419 15.724138438701628 91.862069547176361 62.068964540958405 16.551724672317505 113.37931400537491 9.1034485697746295 14.896552205085753 9.9310348033905012 83.5862095952034 12.413793504238127 237.51724427938461
leaf_count=56 23 19 75 30 20 137 11 18 12 101 15 215
internal_value=0 -0.000201207 -8.46179e-05 -0.00020767 -0.000355138 -0.000401192 1.46724e-06 -0.000245496 2.18647e-05 -2.44991e-05 2.66456e-05 4.18222e-05
internal_weight=0 353.379 207.724 103.448 145.655 129.931 401.379 24 377.379 93.5172 104.276 283.862
internal_count=732 319 143 53 176 157 413 29 384 113 90 271
is_linear=0
shrinkage=0.000660141


Tree=23
num_leaves=13
num_cat=0
split_feature=14 54 14 17 18 17 32 56 15 15 12 31
split_gain=17.8261 12.7819 7.16281 6.07786 5.67392 5.34195 3.95888 2.03241 0.813273 2.20752 0.432807 0.409935
threshold=49.079999923706062 1.0000000180025095e-35 52.159999847412116 52.336698532104499 2.4252361059188847 50.297332763671882 17.531001091003422 112.50000000000001 52.924999237060554 53.049999237060554 1.9798063039779665 0.22186880558729175
decision_type=2 2 2 2 2 2 2 2 2 2 2 2
left_child=6 3 5 -2 -5 -3 8 -8 11 -10 -4 -1
right_child=1 2 10 4 -6 -7 7 -9 9 -11 -12 -13
leaf_value=0.0015940802874992491 0.0055627057190228407 0.014987044555978614 0.0032474549399985216 -0.0029538450500653651 -0.0082703427227130543 -0.0076747904922197883 0.00049239487723396597 -0.008623696753060699 -0.0040926104399877259 0.0010200593518964792 -0.0020550247561428175 -0.0012994250845952866
leaf_weight=227.58620947599411 14.068965971469877 24.827585220336914 91.862069547176361 27.310345709323883 104.27586543560028 78.620689213275909 9.1034485697746295 14.896552205085753 9.9310348033905012 83.5862095952034 12.413793504238127 56.275863885879517
leaf_count=203 17 3 75 33 126 50 11 18 12 101 15 68
internal_value=0 -0.000216535 -9.17656e-05 -0.000381124 -0.000428803 -0.000225212 1.22403e-07 -0.000266232 2.21499e-05 -2.65685e-05 2.88963e-05 4.32824e-05
internal_weight=0 353.379 207.724 145.655 131.586 103.448 401.379 24 377.379 93.5172 104.276 283.862
internal_count=732 319 143 176 159 53 413 29 384 113 90 271
is_linear=0
shrinkage=0.000715903


Tree=24
num_leaves=13
num_cat=0
split_feature=14 54 14 17 17 15 32 38 15 15 12 17
split_gain=17.8261 12.7819 7.16281 6.07786 5.34195 5.30965 3.95888 1.45277 0.813273 2.20752 0.432807 0.369338
threshold=49.079999923706062 1.0000000180025095e-35 52.159999847412116 52.336698532104499 50.297332763671882 65.430000305175795 17.531001091003422 200.21428680419925 52.924999237060554 53.049999237060554 1.9798063039779665 54.56463813781739
decision_type=2 2 2 2 2 2 2 2 2 2 2 2
left_child=6 3 4 -2 -3 -5 8 -8 11 -10 -4 -1
right_child=1 2 10 5 -6 -7 7 -9 9 -11 -12 -13
leaf_value=0.0012041397807581607 0.0042019685566994872 0.011320945806412136 0.0024530694659089859 -0.006149319627352239 -0.0057973996749964181 -0.0022885680753282306 -0.0065141865180741512 -0.00083351635962099018 -0.0030914848371071785 0.00077053461734970198 -0.0015523290004397419 -0.0020908431566372459
leaf_weight=274.758624792099 14.068965971469877 24.827585220336914 91.862069547176361 117.51724517345428 78.620689213275909 14.068965971469877 14.068965971469881 9.9310348033905012 9.9310348033905012 83.5862095952034 12.413793504238127 9.1034485697746259
leaf_count=260 17 3 75 142 50 17 17 12 12 101 15 11
internal_value=0 -0.000164437 -6.9687e-05 -0.000289426 -0.000171027 -0.000325634 9.29531e-08 -0.000202177 1.68207e-05 -2.01762e-05 2.19439e-05 3.28687e-05
internal_weight=0 353.379 207.724 145.655 103.448 131.586 401.379 24 377.379 93.5172 104.276 283.862
internal_count=732 319 143 176 53 159 413 29 384 113 90 271
is_linear=0
shrinkage=0.000543658


Tree=25
num_leaves=13
num_cat=0
split_feature=14 54 14 17 18 11 32 34 17 39 12 41
split_gain=18.3753 10.9967 7.12752 6.93952 7.84338 5.80609 4.46674 2.60203 2.22424 0.484313 0.330054 0.144331
threshold=49.079999923706062 1.0000000180025095e-35 52.159999847412116 53.126667022705085 2.4252361059188847 0.87973457574844371 14.268288612365724 17.965473175048832 48.513500213623054 199.25000000000003 2.1734888553619389 196.5419616699219
decision_type=2 2 2 2 2 2 2 2 2 2 2 2
left_child=6 3 5 -2 -5 -3 9 -8 -9 11 -4 -1
right_child=1 2 10 4 -6 -7 7 8 -10 -11 -12 -13
leaf_value=-0.0036229907822369276 0.0044236689228257858 0.00036440519342254024 0.0025627324726453658 -0.0020590676522873521 -0.0066716128587466636 -0.0067976506263243567 0.0022952192060113601 -0.0075699205202090711 -0.00091786604074638254 0.0027199470843487544 -0.0016924714801609135 -0.0012408104413795904
leaf_weight=62.89655077457428 20.689655840396881 33.103448152542114 86.896553337574005 21.517242074012756 101.79310673475266 67.034481942653656 17.37931090593338 17.37931090593338 14.896552205085753 212.68966084718704 9.1034485697746259 93.517243802547455
leaf_count=31 25 22 87 26 123 36 21 21 18 239 11 104
internal_value=0 -0.000173992 -7.6338e-05 -0.000296283 -0.000347095 -0.000183388 2.46168e-06 -0.000152301 -0.000244749 2.70797e-05 2.50916e-05 0
internal_weight=0 340.138 196.138 144 123.31 100.138 418.759 49.6552 32.2759 369.103 96 156.414
internal_count=764 330 156 174 149 58 434 60 39 374 98 135
is_linear=0
shrinkage=0.000573233


Tree=26
num_leaves=13
num_cat=0
split_feature=15 56 19 28 10 55 15 19 40 55 16 41
split_gain=14.6429 11.6238 6.87311 6.06569 5.13481 4.80656 2.09604 1.70889 1.19813 1.12398 0.98908 0.664663
threshold=56.680000305175788 88.500000000000014 49.049999237060554 0.75816234946250927 4.4427995681762704 -0.66012781858444203 57.614999771118171 39.819999694824226 14.167778968811037 0.33662487566471105 2.0347021818161015 199.39166259765628
decision_type=2 2 2 2 2 2 2 2 2 2 2 2
left_child=2 8 7 10 5 -3 -6 -1 9 -2 -4 -9
right_child=1 4 3 -5 6 -7 -8 11 -10 -11 -12 -13
leaf_value=-0.0062074154165747322 -0.0015463882426580717 -0.0074703850279200477 0.0055581923456090076 -0.0081075540727951478 -0.0090047970651826442 0.0012504678495402842 -0.0082167057169377829 -2.9908585238962545e-06 0.0021445321266005883 -0.0053697705717953674 -0.0041517733561264453 0.0022487258593023173
leaf_weight=12.413793504238127 20.689655840396881 35.586208045482635 36.413792490959167 33.103447556495667 22.344828307628632 34.75862181186676 73.655174791812897 158.89655327796936 57.931036353111267 13.241379737854002 28.96551638841629 230.8965579867363
leaf_count=15 25 43 17 13 27 42 89 138 70 16 8 261
internal_value=0 -0.000223223 -1.71905e-05 -0.000180647 -0.000331758 -0.000151125 -0.000444204 2.01032e-05 -9.05396e-06 -0.000119321 -3.13188e-05 3.17073e-05
internal_weight=0 258.207 500.69 98.4828 166.345 70.3448 96 402.207 91.8621 33.931 65.3793 389.793
internal_count=764 312 452 38 201 85 116 414 111 41 25 399
is_linear=0
shrinkage=0.000692273


Tree=27
num_leaves=12
num_cat=0
split_feature=14 54 14 18 15 96 32 56 39 15 13
split_gain=17.8102 10.9257 6.82167 5.99897 7.60885 4.79055 4.46674 3.57587 0.484313 0.340441 0.276923
threshold=49.079999923706062 1.0000000180025095e-35 52.159999847412116 2.4252361059188847 57.614999771118171 -0.094186011701822267 14.268288612365724 173.50000000000003 199.25000000000003 52.924999237060554 2.3060783147811894
decision_type=2 2 2 2 2 2 2 2 2 2 2
left_child=6 3 5 -2 -5 -3 8 -8 9 -1 -4
right_child=1 2 10 4 -6 -7 7 -9 -10 -11 -12
leaf_value=0.001003844581686572 -0.0026418018995607484 -0.0022487878718566146 0.0026799964224537977 -0.0059497488151618819 -0.0087677685215956595 -0.0087931988088633829 -0.00072342596256312977 -0.0097663204113940978 0.0035222334184772503 -0.0039358306032717385 -0.0021708061726472957
leaf_weight=115.86206912994385 23.172414541244507 40.551724255084991 82.758622169494629 23.172414541244507 97.655175566673279 59.586205840110779 29.793104410171509 19.862069606781006 212.68966084718704 40.551725447177887 13.241379737854002
leaf_count=86 28 31 82 28 118 27 36 24 239 49 16
internal_value=0 -0.000225455 -9.73664e-05 -0.000385857 -0.000452549 -0.000235363 3.24146e-06 -0.000200544 3.56576e-05 0 3.30397e-05
internal_weight=0 340.138 196.138 144 120.828 100.138 418.759 49.6552 369.103 156.414 96
internal_count=764 330 156 174 146 58 434 60 374 135 98
is_linear=0
shrinkage=0.000754813


Tree=28
num_leaves=12
num_cat=0
split_feature=14 54 17 17 18 32 56 4 10 15 19
split_gain=18.032 10.9257 6.90688 6.79358 7.65522 4.53804 3.57587 0.679251 0.514707 0.405045 0.10985
threshold=49.079999923706062 1.0000000180025095e-35 52.000249862670906 53.126667022705085 2.4252361059188847 14.268288612365724 173.50000000000003 52.445001602172859 12.756351947784426 52.924999237060554 45.770000457763679
decision_type=2 2 2 2 2 2 2 2 2 2 2
left_child=5 3 -3 -2 -5 8 10 -4 9 -1 -7
right_child=1 2 7 4 -6 6 -8 -9 -10 -11 -12
leaf_value=0.0011055237489543104 0.0038436948734770562 -0.0057882729310160816 0.0016991459037313591 -0.0017850961051063669 -0.0056699405153203819 0.0032227291912148453 -0.0064285902702100814 -0.0023195313531033023 -0.0014660588832181264 -0.00034153291267476467 -0.0011013213593439332
leaf_weight=279.72414219379425 20.689655840396881 65.37930828332901 99.310346841812134 21.517242074012756 101.79310673475266 19.862069606781009 19.862069606781006 31.448276877403259 9.1034485697746259 80.275864660739899 9.9310348033905012
leaf_count=266 25 16 102 26 123 24 24 38 11 97 12
internal_value=0 -0.000147729 -6.37991e-05 -0.000252832 -0.000296209 3.09676e-06 -0.000131406 0 2.44675e-05 2.94926e-05 0
internal_weight=0 340.138 196.138 144 123.31 418.759 49.6552 130.759 369.103 360 29.7931
internal_count=764 330 156 174 149 434 60 140 374 363 36
is_linear=0
shrinkage=0.000494589


Tree=29
num_leaves=11
num_cat=0
split_feature=14 54 17 17 18 102 70 19 31 15
split_gain=17.5309 10.5766 6.90688 6.64919 7.46933 3.56369 1.54961 1.33204 0.769327 0.561937
threshold=49.079999923706062 1.0000000180025095e-35 52.000249862670906 53.126667022705085 2.4252361059188847 13.534576892852785 0.66478031873703014 39.819999694824226 0.19310186803340915 52.924999237060554
decision_type=2 2 2 2 2 2 2 2 2 2
left_child=5 3 -3 -2 -5 7 -7 -1 -4 -9
right_child=1 2 8 4 -6 6 -8 9 -10 -11
leaf_value=-0.0055846288401295349 0.0051814385515204222 -0.0077427070275473391 0.0013817109195402349 -0.0023468069718026265 -0.0075778190589736302 -0.0091022035585353791 0.000224817874740943 0.001475953933932126 -0.0052495971174040196 -0.0013459364494992792
leaf_weight=11.586207270622252 20.689655840396881 65.37930828332901 116.68965774774551 21.517242074012756 101.79310673475266 14.896552205085756 8.2758623361587507 289.65517699718475 14.068965971469877 94.344830632209778
leaf_count=14 25 16 123 26 123 18 10 278 17 114
internal_value=0 -0.000197657 -8.60585e-05 -0.000337262 -0.00039515 2.865e-06 -0.000236519 2.13627e-05 0 3.14444e-05
internal_weight=0 340.138 196.138 144 123.31 418.759 23.1724 395.586 130.759 384
internal_count=764 330 156 174 149 434 28 406 140 392
is_linear=0
shrinkage=0.000667151


Tree=30
num_leaves=12
num_cat=0
split_feature=14 104 32 101 17 56 100 12 12 103 21
split_gain=17.7224 9.61151 7.34529 5.67096 2.5848 3.22827 2.23361 0.981753 0.553171 0.310865 0.113622
threshold=50.11000061035157 200.58666992187503 2.4083037376403813 4.4255495071411142 55.138584136962898 143.50000000000003 12.645969867706301 1.577417314052582 1.439625144004822 2.2796804904937749 1.3067914843559267
decision_type=2 2 2 2 2 2 2 2 2 2 2
left_child=4 2 7 -4 6 -6 8 -2 -1 -8 -3
right_child=1 10 3 -5 5 -7 9 -9 -10 -11 -12
leaf_value=0.0016809687249775742 0.0032798579013440317 0.0019313682839638606 -0.0059062348805241421 4.7459360265584544e-05 0.00052914015877397443 -0.0050360738259697755 -0.0050661428058287163 -0.006954016120258236 -0.0012997138797946357 -0.0064186236126071196 -0.0025163284813206769
leaf_weight=283.03448474407196 33.931033790111542 44.689656615257263 142.3448303937912 15.724138438701628 22.344828307628632 17.37931090593338 8.2758623361587542 14.068965971469877 120.82759010791779 11.586207270622252 9.9310348033905012
leaf_count=234 14 54 145 19 27 21 10 17 146 14 12
internal_value=0 -0.000175307 -0.000229132 -0.000286006 0 -0.0001274 1.46054e-05 -1.60898e-05 2.59905e-05 -0.000148225 9.428e-06
internal_weight=0 260.69 206.069 158.069 463.448 39.7241 423.724 48 403.862 19.8621 54.6207
internal_count=713 261 195 164 452 48 404 31 380 24 66
is_linear=0
shrinkage=0.000545097


Tree=31
num_leaves=13
num_cat=0
split_feature=14 54 14 19 17 17 70 100 14 19 97 38
split_gain=17.3806 9.71599 13.8135 4.88604 3.62023 2.5848 4.17377 2.23361 0.634768 0.46786 0.428109 0.310865
threshold=50.11000061035157 1.0000000180025095e-35 50.420000076293952 55.590000152587898 53.126667022705085 55.138584136962898 0.69886434078216564 12.645969867706301 52.159999847412116 40.525001525878913 -0.24033141136169431 199.07142639160159
decision_type=2 2 2 2 2 2 2 2 2 2 2 2
left_child=5 3 -3 4 -2 7 -7 9 -4 -1 -5 -9
right_child=1 2 8 10 -6 6 -8 11 -10 -11 -12 -13
leaf_value=-0.0024446969659746875 -0.0073141733511472304 -0.0086638083404962703 -0.0037461059148221078 0.00068375192163422653 -0.010005488078843603 0.00084686448341008997 -0.0079885195276907604 -0.010604877601538972 0.0026874756469778432 0.0018167993199841865 -0.0034114926617984727 -0.0016469087457968833
leaf_weight=45.517242848873138 9.9310348033905012 25.655171453952789 25.655173242092133 14.896552205085756 82.758623361587524 26.482759475708008 13.241379737854002 11.586207270622255 93.517242610454559 358.34483200311661 8.2758623361587507 8.2758623361587507
leaf_count=55 12 4 31 18 100 32 16 14 86 325 10 10
internal_value=0 -0.000262787 -0.000102713 -0.00044374 -0.000529253 0 -0.000192863 2.21103e-05 5.54199e-06 3.93456e-05 -2.12515e-05 -0.00022439
internal_weight=0 260.69 144.828 115.862 92.6897 463.448 39.7241 423.724 119.172 403.862 23.1724 19.8621
internal_count=713 261 121 140 112 452 48 404 117 380 28 24
is_linear=0
shrinkage=0.000825192


Tree=32
num_leaves=12
num_cat=0
split_feature=17 54 97 2 42 17 98 13 16 12 22
split_gain=12.3932 7.91821 7.23111 7.46986 5.74507 6.83167 2.85322 1.08435 1.08311 0.686363 0.5673
threshold=53.914035797119148 1.0000000180025095e-35 -1.8902409076690672 50.635000228881843 16.493077278137211 46.026000976562507 6.7279882431030282 1.7714896798133852 1.5674126744270327 1.7581149339675906 1.1129133701324465
decision_type=2 2 2 2 2 2 2 2 2 2 2
left_child=4 2 10 -4 6 -6 7 -1 -3 -8 -2
right_child=1 8 3 -5 5 -7 9 -9 -10 -11 -12
leaf_value=0.0014672026948583162 0.0012702047750582494 -0.0032484154299897046 -0.0014456379069327139 -0.0050056262139020037 0.0012545377108208709 -0.0043832541372129993 -0.0012136260568129656 -0.0015541508795055955 0.00096503671268515509 -0.0048945586591344981 -0.0035642628614406605
leaf_weight=288.00000095367432 23.172414541244507 14.068965971469877 22.344828307628632 89.379313230514526 31.448276877403259 39.724136829376221 9.9310348033905047 115.03448647260666 56.275863885879517 15.724138438701628 19.034483373165131
leaf_count=222 28 17 27 108 38 12 12 139 68 19 23
internal_value=0 -0.000126179 -0.000177683 -0.000232038 -8.87757e-06 -0.000115387 7.36286e-06 1.77583e-05 -3.89278e-07 -0.000115888 -1.13397e-05
internal_weight=0 224.276 153.931 111.724 499.862 71.1724 428.69 403.034 70.3448 25.6552 42.2069
internal_count=713 271 186 135 442 50 392 361 85 31 51
is_linear=0
shrinkage=0.000408357


Tree=33
num_leaves=13
num_cat=0
split_feature=14 54 14 18 55 20 100 14 18 14 100 7
split_gain=17.9108 10.0821 13.8135 5.6614 6.17296 3.33217 2.18233 2.1586 0.984696 0.634768 0.566 0.167091
threshold=50.11000061035157 1.0000000180025095e-35 50.420000076293952 2.4252361059188847 -0.97702786326408375 65.36999893188478 12.645969867706301 48.409999847412116 3.1195396184921269 52.159999847412116 4.6990511417388925 0.2403172850608826
decision_type=2 2 2 2 2 2 2 2 2 2 2 2
left_child=5 3 -3 11 -5 6 10 -7 -8 -4 -1 -2
right_child=1 2 9 4 -6 7 8 -9 -10 -11 -12 -13
leaf_value=0.0018798001803733708 0.00066460061714093232 -0.007947970045435241 -0.0034878704940728453 0.0046321718780256982 -0.0091845423326478992 4.6701622764543372e-06 0.0024603544538709591 -0.0073434851079442042 -0.0097306043855550865 0.0024700544673671395 -0.0024367950935041478 -0.0031685086502461065
leaf_weight=357.51724576950073 14.068965971469881 25.655171453952789 25.655173242092133 9.9310348033905012 83.5862095952034 9.1034485697746295 8.2758623361587542 11.586207270622252 11.586207270622252 93.517242610454559 65.379312455654144 8.2758623361587507
leaf_count=324 17 4 31 12 101 11 10 14 14 86 79 10
internal_value=0 -0.000241916 -9.3629e-05 -0.000409777 -0.000490648 7.80192e-07 1.83125e-05 -0.000276649 -0.000204545 5.05185e-06 3.32336e-05 0
internal_weight=0 260.69 144.828 115.862 93.5172 463.448 442.759 20.6897 19.8621 119.172 422.897 22.3448
internal_count=713 261 121 140 113 452 427 25 24 117 403 27
is_linear=0
shrinkage=0.000752212


Tree=34
num_leaves=12
num_cat=0
split_feature=17 54 10 42 17 70 100 17 16 12 42
split_gain=12.873 8.12833 6.82496 5.81113 6.83167 4.83062 3.82979 1.10966 1.08311 0.709883 0.275878
threshold=53.914035797119148 1.0000000180025095e-35 4.4427995681762704 16.493077278137211 46.026000976562507 0.69886434078216564 12.645969867706301 56.965084075927741 1.5674126744270327 1.439625144004822 13.954278945922853
decision_type=2 2 2 2 2 2 2 2 2 2 2
left_child=3 2 5 6 -5 -2 9 -4 -3 -1 -8
right_child=1 8 7 4 -6 -7 10 -9 -10 -11 -12
leaf_value=0.0018822574140164806 -0.0018519381656158815 -0.0041725353498432965 -0.0062127396801378472 0.0016197709217075304 -0.0056534069161515051 -0.007181904733033464 -0.0060923639931280069 -0.0031557776415794777 0.001223910035951622 -0.0015118065125300183 -0.0062676634362201526
leaf_weight=288.82758718729019 78.620692193508148 14.068965971469877 48.000001549720764 31.448276877403259 39.724136829376221 17.37931090593338 8.2758623361587542 9.9310348033905012 56.275863885879517 122.48276257514954 9.1034485697746259
leaf_count=223 95 17 58 38 12 21 10 12 68 148 11
internal_value=0 -0.000166403 -0.000234411 -1.0693e-05 -0.000150391 -0.000125774 1.06192e-05 -0.000386469 -5.07371e-07 2.37478e-05 -0.000215547
internal_weight=0 224.276 153.931 499.862 71.1724 96 428.69 57.931 70.3448 411.31 17.3793
internal_count=713 271 186 442 50 116 392 70 85 371 21
is_linear=0
shrinkage=0.000532238


Tree=35
num_leaves=11
num_cat=0
split_feature=14 104 19 19 32 56 10 20 21 42
split_gain=13.7758 12.6171 5.19276 6.85247 2.89817 3.9579 0.670726 0.59944 0.284588 0.158835
threshold=49.079999923706062 200.58666992187503 46.379999160766609 52.159999847412116 14.268288612365724 173.50000000000003 13.953812599182131 62.909999847412116 1.3067914843559267 14.797884941101076
decision_type=2 2 2 2 2 2 2 2 2 2
left_child=4 2 -2 -4 6 -6 7 -1 -3 -10
right_child=1 8 3 -5 5 -7 -8 -9 9 -11
leaf_value=0.0012432744326864706 0.0016491191230665388 0.0020224459869344238 -0.0064005175860456535 -0.0039371041631774961 0.00013252886885654821 -0.0066810210148855013 -0.0018784478050492982 -0.0028068940582559989 -0.0034591985323190453 0.005306605961552747
leaf_weight=311.17242085933685 23.172414541244507 71.172414898872375 152.27586400508881 67.034483730792999 28.137931942939758 17.37931090593338 9.9310348033905012 28.965518176555634 8.2758623361587542 9.1034485697746259
leaf_count=331 28 68 139 63 34 21 12 35 10 11
internal_value=0 -0.000154309 -0.000221134 -0.000248102 0 -0.000129123 1.98248e-05 2.69795e-05 1.70042e-05 -1.16962e-05
internal_weight=0 331.034 242.483 219.31 395.586 45.5172 350.069 340.138 88.5517 17.3793
internal_count=752 319 230 202 433 55 378 366 89 21
is_linear=0
shrinkage=0.000566662


Tree=36
num_leaves=11
num_cat=0
split_feature=14 104 19 19 32 104 39 15 22 28
split_gain=14.0251 12.8131 5.27182 7.05416 2.89817 3.22733 0.78437 0.589596 0.284588 0.127464
threshold=49.079999923706062 200.58666992187503 46.379999160766609 52.159999847412116 14.268288612365724 199.7799987792969 200.08333587646487 50.940000534057624 1.0003183484077456 0.73839151859283458
decision_type=2 2 2 2 2 2 2 2 2 2
left_child=4 2 -2 -4 6 -6 7 -1 9 -3
right_child=1 8 3 -5 5 -7 -8 -9 -10 -11
leaf_value=0.00079655162953091118 0.0014271809480780979 0.00069673080620874777 -0.0052770032361870618 -0.0032683551727825094 -0.0055031189254258926 9.0660506000411699e-05 0.0037801531234231502 -0.0015426542099191511 0.0017819561759122935 -0.0028448477323658214
leaf_weight=104.27586305141449 23.172414541244507 8.2758623361587542 152.27586400508881 67.034483730792999 21.517242074012756 24.000000774860382 160.55172872543335 85.24138206243515 71.172414898872375 9.1034485697746259
leaf_count=90 28 10 139 63 26 29 185 103 68 11
internal_value=0 -0.000127494 -0.000182625 -0.000204869 0 -0.00010572 1.62316e-05 0 1.39222e-05 -9.57631e-06
internal_weight=0 331.034 242.483 219.31 395.586 45.5172 350.069 189.517 88.5517 17.3793
internal_count=752 319 230 202 433 55 378 193 89 21
is_linear=0
shrinkage=0.000463956


Tree=37
num_leaves=11
num_cat=0
split_feature=14 104 55 18 14 29 41 20 22 28
split_gain=13.9778 12.6171 4.10131 5.25689 1.74597 1.8178 3.04484 0.460096 0.284588 0.127464
threshold=49.079999923706062 200.58666992187503 -0.97702786326408375 2.4916663169860844 39.819999694824226 0.71965131163597118 199.54772949218753 62.909999847412116 1.0003183484077456 0.73839151859283458
decision_type=2 2 2 2 2 2 2 2 2 2
left_child=4 2 -2 -4 -1 7 -7 -6 9 -3
right_child=1 8 3 -5 5 6 -8 -9 -10 -11
leaf_value=-0.0067877530850451789 0.0047085288498803267 0.0011558290695356213 -0.0066029163887993195 -0.0085686735754193707 0.0016703144012241839 -0.0089591452843661261 0.00056766092092712774 -0.0037434208355396313 0.0028996327926128804 -0.0046389644228528289
leaf_weight=13.241379737854002 16.551724672317505 8.2758623361587542 111.72413736581802 114.20690023899078 301.24138605594635 16.551724672317505 35.586208045482635 28.965518176555634 71.172414898872375 9.1034485697746259
leaf_count=16 20 10 72 138 319 20 43 35 68 11
internal_value=0 -0.000208631 -0.000298979 -0.000326254 6.11326e-07 1.44898e-05 -0.000108724 3.90944e-05 2.29901e-05 -1.58136e-05
internal_weight=0 331.034 242.483 225.931 395.586 382.345 52.1379 330.207 88.5517 17.3793
internal_count=752 319 230 210 433 417 63 354 89 21
is_linear=0
shrinkage=0.000766143


Tree=38
num_leaves=11
num_cat=0
split_feature=14 104 19 19 32 56 41 10 21 16
split_gain=13.9778 12.6171 5.19276 6.85247 2.95777 3.9579 0.713782 0.327975 0.284588 0.127464
threshold=49.079999923706062 200.58666992187503 46.379999160766609 52.159999847412116 14.268288612365724 173.50000000000003 199.70832824707034 13.953812599182131 1.3067914843559267 2.490200519561768
decision_type=2 2 2 2 2 2 2 2 2 2
left_child=4 2 -2 -4 6 -6 7 -1 -3 -10
right_child=1 8 3 -5 5 -7 -8 -9 9 -11
leaf_value=0.00013869574450908013 0.0022562345379486285 0.0026077288862202241 -0.0082263597717293566 -0.0050283780050359005 0.00024244166048808106 -0.0086012323503385692 0.0035733518128711604 -0.0023657837409395317 0.0055304370316990497 -0.0044536403417342763
leaf_weight=166.34483057260513 23.172414541244507 71.172414898872375 152.27586400508881 67.034483730792999 28.137931942939758 17.37931090593338 173.79310846328735 9.9310348033905012 8.2758623361587542 9.1034485697746259
leaf_count=165 28 68 139 63 34 21 201 12 10 11
internal_value=0 -0.000201362 -0.000288563 -0.000323754 5.90027e-07 -0.000168496 2.76081e-05 0 2.21891e-05 -1.52627e-05
internal_weight=0 331.034 242.483 219.31 395.586 45.5172 350.069 176.276 88.5517 17.3793
internal_count=752 319 230 202 433 55 378 177 89 21
is_linear=0
shrinkage=0.00073945


Tree=39
num_leaves=12
num_cat=0
split_feature=14 104 17 42 96 32 56 39 20 21 42
split_gain=13.7758 12.6171 4.60633 9.89168 5.28755 2.89817 3.9579 0.78437 0.607799 0.284588 0.158835
threshold=49.079999923706062 200.58666992187503 53.487466812133796 15.460385799407961 1.5742978453636172 14.268288612365724 173.50000000000003 200.08333587646487 52.685001373291023 1.3067914843559267 14.797884941101076
decision_type=2 2 2 2 2 2 2 2 2 2 2
left_child=5 2 4 -4 -2 7 -7 8 -1 -3 -11
right_child=1 9 3 -5 -6 6 -8 -9 -10 10 -12
leaf_value=0.0011128558459842235 -0.0034022308997256638 0.0023661092674389346 -0.0074835577161083792 -0.002143894366962593 -0.0076933924221291514 0.00017140757536909058 -0.0077877129780573092 0.0054021105998507991 -0.0022376061841509944 -0.0040442143401450172 0.0061750661641476233
leaf_weight=97.655173182487488 69.517240643501282 71.172414898872375 99.310348033905029 49.655174016952515 23.999999582767487 28.137931942939758 17.37931090593338 160.55172872543335 91.862071931362152 8.2758623361587542 9.1034485697746259
leaf_count=82 39 68 120 60 11 34 21 185 111 10 11
internal_value=0 -0.000181733 -0.000260433 -0.000338714 -0.000117283 0 -0.000152071 2.33481e-05 0 2.00261e-05 -1.37748e-05
internal_weight=0 331.034 242.483 148.966 93.5172 395.586 45.5172 350.069 189.517 88.5517 17.3793
internal_count=752 319 230 180 50 433 55 378 193 89 21
is_linear=0
shrinkage=0.000667367


Tree=40
num_leaves=13
num_cat=0
split_feature=14 104 19 19 32 55 56 15 15 19 17 42
split_gain=15.7713 11.8952 6.07024 7.77368 5.96398 5.88927 3.55333 1.04072 4.12532 0.498284 0.436083 0.286891
threshold=49.079999923706062 200.47912597656253 51.07500076293946 46.379999160766609 14.268288612365724 -0.62058660387992848 173.50000000000003 52.924999237060554 53.049999237060554 45.770000457763679 54.341415405273445 14.239095687866213
decision_type=2 2 2 2 2 2 2 2 2 2 2 2
left_child=4 2 3 -2 7 -4 9 10 -9 -6 -1 -3
right_child=1 11 5 -5 6 -7 -8 8 -10 -11 -12 -13
leaf_value=0.0018390203859096432 0.001835904736406359 -0.0023516309779293564 -0.0067914286314406389 -0.0055966569865391258 0.002055060037511732 -0.00043017339376496926 -0.0067037301702567867 -0.0032241476741367765 0.00091892524214121736 -0.0013687451935508114 -0.0020108987501673507 0.0017034036850336299
leaf_weight=264.82759058475494 19.862069606781006 30.620690643787384 16.551724672317505 143.17241483926773 19.862069606781009 66.206897497177124 22.344828307628632 11.586207270622252 78.620692193508148 11.586207270622252 9.1034485697746259 63.724139392375946
leaf_count=257 24 37 20 119 24 62 27 14 95 14 11 68
internal_value=0 -0.000153785 -0.000213025 -0.000273376 -2.11391e-06 -7.83399e-05 -0.000161015 1.9299e-05 -2.1642e-05 -9.97883e-06 3.6572e-05 0
internal_weight=0 340.138 245.793 163.034 417.931 82.7586 53.7931 364.138 90.2069 31.4483 273.931 94.3448
internal_count=772 330 225 143 442 82 65 377 109 38 268 105
is_linear=0
shrinkage=0.000514865


Tree=41
num_leaves=14
num_cat=0
split_feature=14 104 19 19 32 18 101 39 15 38 42 12 20
split_gain=15.7713 11.8952 6.07024 7.77368 5.96398 4.46285 3.09166 0.874074 1.63935 0.757655 0.286891 0.213435 0.159979
threshold=49.079999923706062 200.47912597656253 51.07500076293946 46.379999160766609 14.268288612365724 2.6421437263488774 0.13528550416231158 198.48332977294925 52.015001296997077 199.64285278320315 14.239095687866213 1.1413075327873232 48.204999923706062
decision_type=2 2 2 2 2 2 2 2 2 2 2 2 2
left_child=4 2 3 -2 7 -4 9 8 -1 -6 11 -3 -9
right_child=1 10 5 -5 6 -7 -8 12 -10 -11 -12 -13 -14
leaf_value=0.0018061943843273637 0.0031992708482791845 0.00050558245451866606 -0.0017900069194083177 -0.0095990776833184584 -0.011490442936058888 -0.011658354470879947 -0.0002431138093476271 -7.2800839547076266e-06 -0.0051744586913887039 -0.0029510700190223515 0.0030346745616202531 -0.00538117504328755 0.0048114473896330324
leaf_weight=87.724137783050537 19.862069606781006 12.41379350423813 65.379311263561249 143.17241483926773 19.862069606781006 17.37931090593338 21.517242074012756 10.758621037006376 45.517242848873138 12.413793504238127 63.724139392375946 18.206897139549255 220.13793694972992
leaf_count=61 24 15 61 119 24 21 26 13 55 15 68 22 248
internal_value=0 -0.000267143 -0.00037005 -0.000474886 -3.67212e-06 -0.000136086 -0.000279702 3.35246e-05 -1.35913e-05 -0.000446652 0 -6.54242e-05 6.82772e-05
internal_weight=0 340.138 245.793 163.034 417.931 82.7586 53.7931 364.138 133.241 32.2759 94.3448 30.6207 230.897
internal_count=772 330 225 143 442 82 65 377 116 39 105 37 261
is_linear=0
shrinkage=0.000894383


Tree=42
num_leaves=12
num_cat=0
split_feature=17 10 14 36 55 54 55 30 55 14 16
split_gain=28.4533 10.3758 9.8844 7.36087 5.62268 5.07916 3.11037 3.08424 2.19504 1.90171 0.158835
threshold=53.668878555297859 4.4427995681762704 45.139999389648445 189.50000000000003 0.74541041254997265 1.0000000180025095e-35 0.20454452931880954 1.5085552334785464 0.74541041254997265 43.680000305175788 1.9985926151275637
decision_type=2 2 2 2 2 2 2 2 2 2 2
left_child=1 3 -2 4 -1 -4 9 -7 -5 -3 -8
right_child=2 6 5 8 -6 7 10 -9 -10 -11 -12
leaf_value=-0.0027828600769153012 0.002854692911381118 -0.001006818415476379 -0.0065959171217709958 0.00018820449553881981 -0.0071036493440670674 -0.0030806309187324096 0.0012535967628782606 0.0004522549723530012 -0.0047558558468125617 -0.0066930952989691598 -0.0025212929174758701
leaf_weight=52.965518951416016 16.551724672317505 9.1034485697746259 148.13793581724167 142.34483218193054 62.89655077457428 67.034484922885895 9.1034485697746295 12.413793504238127 164.68965393304825 64.551726222038269 8.2758623361587507
leaf_count=64 20 11 179 172 31 81 11 15 100 78 10
internal_value=0 -8.16771e-05 -0.000234853 -5.5015e-05 -0.00013288 -0.000254379 -0.000193953 -0.000153526 -2.26329e-05 -0.00022709 -7.42839e-06
internal_weight=0 513.931 244.138 422.897 115.862 227.586 91.0345 79.4483 307.034 73.6552 17.3793
internal_count=772 477 295 367 95 275 110 96 272 89 21
is_linear=0
shrinkage=0.000359893


Tree=43
num_leaves=13
num_cat=0
split_feature=14 104 32 19 55 56 39 18 19 42 16 19
split_gain=16.3602 11.5216 5.42862 5.11539 7.23416 3.55333 1.55149 2.24388 0.498284 0.40136 0.389027 0.212523
threshold=49.079999923706062 200.62583160400393 14.268288612365724 46.379999160766609 -0.62058660387992848 173.50000000000003 198.48332977294925 1.6632465720176699 45.770000457763679 14.239095687866213 2.490200519561768 40.690000534057624
decision_type=2 2 2 2 2 2 2 2 2 2 2 2
left_child=2 3 6 -2 -5 8 7 -1 -4 10 -3 -8
right_child=1 9 5 4 -6 -7 11 -9 -10 -11 -12 -13
leaf_value=-0.0074396991305043514 0.0019262569877947907 0.004030224036724101 0.0022341174033533766 -0.0093671088231017888 -0.0085634355785913236 -0.010370289801398336 -0.00024234340868813895 -0.004595997524036625 -0.0027216484523767607 0.0022490435250417215 -0.0052514052588849133 0.0039030925070926968
leaf_weight=63.724137008190155 20.689655840396881 13.241379737854006 19.862069606781009 60.413795053958893 180.41379415988922 22.344828307628632 32.275863111019135 69.517243623733521 11.586207270622252 54.620690822601318 10.758621037006376 198.62069487571716
leaf_count=32 25 16 24 73 146 27 39 84 14 57 13 222
internal_value=0 -0.000240681 -1.49248e-05 -0.000316027 -0.000346793 -0.000234877 1.45711e-05 -4.35847e-05 -1.45564e-05 0 -6.41481e-05 5.46663e-05
internal_weight=0 340.138 417.931 261.517 240.828 53.7931 364.138 133.241 31.4483 78.6207 24 230.897
internal_count=772 330 442 244 219 65 377 116 38 86 29 261
is_linear=0
shrinkage=0.00075105


Tree=44
num_leaves=13
num_cat=0
split_feature=14 55 17 19 18 32 101 39 18 31 38 19
split_gain=16.3195 10.3041 10.5542 7.51805 7.70436 5.49386 3.09166 1.42652 2.03448 0.957422 0.757655 0.212523
threshold=49.079999923706062 1.0000000180025095e-35 52.000249862670906 46.379999160766609 2.2647454738616948 14.268288612365724 0.13528550416231158 198.48332977294925 1.6632465720176699 0.2061850503087044 199.64285278320315 40.690000534057624
decision_type=2 2 2 2 2 2 2 2 2 2 2 2
left_child=5 3 -3 -2 -5 7 10 8 -1 -4 -7 -9
right_child=1 2 9 4 -6 6 -8 11 -10 -11 -12 -13
leaf_value=-0.0077836233587821073 0.0067770946810357452 -0.0097924218470466975 0.0012544249500771576 -0.0026214797220090835 -0.0095657440992942683 -0.010849690090899138 -0.00099987113170757762 -0.00025354651896843566 -0.0048084624199810997 -0.007869898144779626 -0.0033583413351156409 0.0040835256206973288
leaf_weight=63.724137008190155 17.37931090593338 56.27586030960083 123.31034702062607 24.827587008476257 102.62069296836853 19.862069606781006 21.517242074012756 32.275863111019135 69.517243623733521 15.724138438701628 12.413793504238127 198.62069487571716
leaf_count=32 21 14 122 30 124 24 26 39 84 19 15 222
internal_value=0 -0.000251237 -0.000119224 -0.000414456 -0.000480705 -1.4141e-05 -0.000247043 1.71114e-05 -4.10082e-05 0 -0.000394499 5.74978e-05
internal_weight=0 340.138 195.31 144.828 127.448 417.931 53.7931 364.138 133.241 139.034 32.2759 230.897
internal_count=772 330 155 175 154 442 65 377 116 141 39 261
is_linear=0
shrinkage=0.000789952


Tree=45
num_leaves=14
num_cat=0
split_feature=15 54 99 17 16 8 21 104 15 15 14 41 23
split_gain=20.211 12.7634 5.00681 4.61425 2.37078 1.80667 1.50673 4.06613 1.12409 4.87215 1.99526 0.647213 0.211171
threshold=56.424999237060554 1.0000000180025095e-35 -4.3807308673858634 53.126667022705085 1.5674126744270327 0.14840579777956012 0.99589151144027721 198.37128448486331 52.924999237060554 53.049999237060554 50.420000076293952 199.62500000000003 1.2666980028152468
decision_type=2 2 2 2 2 2 2 2 2 2 2 2 2
left_child=6 2 5 -4 -3 -2 8 -8 10 -10 -1 -9 -6
right_child=1 4 3 -5 12 -7 7 11 9 -11 -12 -13 -14
leaf_value=0.0014237822047773591 0.00037489265950137489 -0.0034806580050935208 -0.0055152524641369138 -0.0048440518285739961 0.00051609544018804275 -0.0050825347948527267 -0.004035859082652464 -0.0034047038995916943 -0.0036910368990998336 0.00021205169418168861 -0.0028463506753389394 0.00072125264226071014 -0.0036647139176597394
leaf_weight=266.48276126384735 24.000000774860382 14.896552205085753 21.517242074012756 112.55172777175903 66.20689868927002 8.2758623361587507 24.000000178813934 14.896552205085753 13.241379737854002 101.79310435056686 16.551723480224609 66.20689868927002 8.2758623361587507
leaf_count=232 29 18 26 136 80 10 20 18 16 87 2 80 10
internal_value=0 -0.000145174 -0.00021013 -0.000245219 -1.36261e-05 -3.53671e-05 -6.37373e-06 -4.88073e-05 3.03007e-06 -2.72306e-05 1.82242e-05 0 6.81327e-06
internal_weight=0 255.724 166.345 134.069 89.3793 32.2759 503.172 105.103 398.069 115.034 283.034 81.1035 74.4828
internal_count=764 309 201 162 108 39 455 118 337 103 234 98 90
is_linear=0
shrinkage=0.000397679


Tree=46
num_leaves=10
num_cat=0
split_feature=15 56 13 15 16 19 15 17 41
split_gain=20.211 13.3022 5.38279 6.45394 3.09122 1.73586 1.29002 4.19554 1.7662
threshold=56.424999237060554 84.500000000000014 3.7947489023208623 65.430000305175795 1.5674126744270327 39.819999694824226 50.940000534057624 51.945964813232429 204.17317962646487
decision_type=2 2 2 2 2 2 2 2 2
left_child=5 4 3 -3 -2 -1 8 -8 -7
right_child=1 2 -4 -5 -6 6 7 -9 -10
leaf_value=-0.0035351783626658274 -0.0030105043824397225 -0.0042820524287218026 0.00097161684747202757 0.00026061511031212408 0.00047470788141884708 0.0012667696356022851 -0.0032881886610513851 0.00053913017258710484 -0.0024380755919651861
leaf_weight=14.896552205085753 13.241379737854002 143.17241841554642 13.241379737854002 17.37931090593338 68.689657390117645 245.79310601949692 71.172415494918823 153.10345023870468 18.20689594745636
leaf_count=18 16 173 16 21 83 216 77 140 4
internal_value=0 -0.000123442 -0.00017604 -0.000193134 -2.27841e-06 -5.41963e-06 -3.32963e-07 -2.03859e-05 1.41853e-05
internal_weight=0 255.724 173.793 160.552 81.931 503.172 488.276 224.276 264
internal_count=764 309 210 194 99 455 437 217 220
is_linear=0
shrinkage=0.00033815


Tree=47
num_leaves=12
num_cat=0
split_feature=15 56 99 19 30 19 15 20 41 15 22
split_gain=19.4628 12.7923 5.33459 6.15318 3.48612 1.73586 1.29002 4.13271 1.7662 1.10452 2.39609
threshold=56.424999237060554 84.500000000000014 -3.854102253913879 45.954999923706062 1.608876168727875 39.819999694824226 50.940000534057624 53.049999237060554 204.17317962646487 57.614999771118171 1.2879915833473208
decision_type=2 2 2 2 2 2 2 2 2 2 2
left_child=5 9 4 -4 -3 -1 8 -8 -7 10 -2
right_child=1 2 3 -5 -6 6 7 -9 -10 -11 -12
leaf_value=-0.0069435061441315863 0.0007750559191992655 0.00019791711187871987 -0.0093300188194294035 -0.0081816497842279387 -0.0085883990600037347 0.0025293118307925487 -0.0064231918663911411 0.00031066702845643744 -0.0048181389242941746 0.00095110254373286765 -0.0058750922113313328
leaf_weight=14.896552205085753 14.896552205085756 29.793104410171509 20.689655840396881 113.37931400537491 9.9310348033905012 245.79310601949692 50.482759058475494 173.79310667514801 18.20689594745636 55.448277652263641 11.586207270622252
leaf_count=18 18 36 25 137 12 216 43 174 4 67 14
internal_value=0 -0.000243794 -0.000347497 -0.000415042 -7.79795e-05 -1.08952e-05 -6.69364e-07 -4.09823e-05 2.85171e-05 -4.58035e-06 -0.000126083
internal_weight=0 255.724 173.793 134.069 39.7241 503.172 488.276 224.276 264 81.931 26.4828
internal_count=764 309 210 162 48 455 437 217 220 99 32
is_linear=0
shrinkage=0.000679792


Tree=48
num_leaves=13
num_cat=0
split_feature=17 10 42 70 12 38 17 19 96 19 4 19
split_gain=17.4132 9.47455 9.63151 6.7802 2.49149 3.12615 2.52763 2.18633 1.91213 1.23901 0.505483 0.167091
threshold=53.487466812133796 4.4427995681762704 15.681700706481935 0.71060970425605785 1.3847254514694216 199.07142639160159 48.513500213623054 51.315000534057624 3.0815296173095708 50.430000305175788 42.245000839233406 56.274999618530281
decision_type=2 2 2 2 2 2 2 2 2 2 2 2
left_child=4 3 -3 7 8 6 -6 -2 10 -7 -1 -4
right_child=1 2 11 -5 5 9 -8 -9 -10 -11 -12 -13
leaf_value=-0.00058032624612901847 0.00028927343593082333 -0.0068662365181774866 0.0012955480430783175 -0.0079496762982246959 -0.0078299753256053893 0.00043665367322131909 -0.0038409993584011008 -0.0023180429484278521 -0.0053904965036874015 -0.0040434976201762368 0.0034714115174875474 -0.0029205297190744062
leaf_weight=10.758621037006376 76.137933492660522 60.413795053958893 14.896552205085756 19.862069606781006 23.172414541244507 109.24138164520264 56.275863289833069 69.517243623733521 19.034482777118683 16.551723480224609 274.75862300395966 8.2758623361587507
leaf_count=13 92 73 18 24 28 114 59 84 14 2 233 10
internal_value=0 -0.00020128 -0.000363161 -0.000109323 -1.38959e-05 -6.36327e-05 -0.000151421 -5.45942e-05 1.6077e-05 0 3.15038e-05 0
internal_weight=0 249.103 83.5862 165.517 509.793 205.241 79.4483 145.655 304.552 125.793 285.517 23.1724
internal_count=764 301 101 200 463 203 87 176 260 116 246 28
is_linear=0
shrinkage=0.000573534


Tree=49
num_leaves=11
num_cat=0
split_feature=15 56 15 19 18 19 15 17 41 22
split_gain=19.8352 13.046 5.22759 7.03436 1.90813 1.73586 1.29002 4.19554 1.7662 0.611822
threshold=56.424999237060554 84.500000000000014 65.430000305175795 45.954999923706062 2.0391235351562504 39.819999694824226 50.940000534057624 51.945964813232429 204.17317962646487 1.3141336441040041
decision_type=2 2 2 2 2 2 2 2 2 2
left_child=5 4 3 -3 9 -1 8 -8 -7 -2
right_child=1 2 -4 -5 -6 6 7 -9 -10 -11
leaf_value=-0.0038589885099065253 -0.00027500810603008367 -0.0047783945240014196 0.00033896945870934237 -0.0045639961740782551 0.00085124280866541435 0.0013982504330298444 -0.0035888010473751641 0.0005825121720380459 -0.0026872158279583848 -0.0032746947873832639
leaf_weight=14.896552205085753 9.1034485697746295 31.448276877403259 17.37931090593338 124.96552127599716 62.896553754806519 245.79310601949692 71.172415494918823 153.10345023870468 18.20689594745636 9.9310348033905012
leaf_count=18 11 38 21 151 76 216 77 140 4 12
internal_value=0 -0.000135956 -0.000193837 -0.000215299 -2.53165e-06 -6.022e-06 -3.6997e-07 -2.26517e-05 1.57619e-05 -0.000107669
internal_weight=0 255.724 173.793 156.414 81.931 503.172 488.276 224.276 264 19.0345
internal_count=764 309 210 189 99 455 437 217 220 23
is_linear=0
shrinkage=0.000375734


Tree=50
num_leaves=11
num_cat=0
split_feature=14 54 17 19 15 102 34 19 15 31
split_gain=22.4466 8.54322 12.5587 6.7134 7.28489 3.21147 2.39154 1.24591 0.899528 0.889271
threshold=49.079999923706062 1.0000000180025095e-35 52.000249862670906 46.085000991821296 65.430000305175795 12.723214149475099 17.965473175048832 39.819999694824226 52.924999237060554 0.17994924634695056
decision_type=2 2 2 2 2 2 2 2 2 2
left_child=5 3 -3 -2 -5 7 -7 -1 -9 -4
right_child=1 2 9 4 -6 6 -8 8 -10 -11
leaf_value=-0.0083449397070417819 0.0062665116588441153 -0.010348790162440601 0.0010139601643536446 -0.010333048976659563 1.2855658295754581e-05 0.0039292343358217543 -0.0093358689312758054 0.001025084276628763 -0.0027338316206772339 -0.0072850031154403066
leaf_weight=10.758621037006376 14.896552205085753 47.999998569488525 107.58620917797089 115.86207270622253 14.896552205085753 9.1034485697746295 17.37931090593338 289.65517640113831 96.827589333057404 15.724138438701628
leaf_count=13 18 13 112 140 18 11 21 269 117 19
internal_value=0 -0.000300281 -0.000155396 -0.000454936 -0.000515374 -2.2506e-06 -0.000276815 1.31561e-05 2.54659e-05 0
internal_weight=0 316.966 171.31 145.655 130.759 423.724 26.4828 397.241 386.483 123.31
internal_count=751 320 144 176 158 431 32 399 386 131
is_linear=0
shrinkage=0.000836928


Tree=51
num_leaves=14
num_cat=0
split_feature=0 56 19 19 19 19 40 20 100 21 17 40 44
split_gain=13.5572 15.082 9.74076 8.82715 6.92651 6.82881 5.52226 3.57508 2.01539 0.801329 0.591225 0.449926 0.394043
threshold=54.699998855590827 84.500000000000014 49.079999923706062 51.07500076293946 55.590000152587898 46.085000991821296 13.840281009674074 65.36999893188478 4.6990511417388925 1.0000000180025095e-35 55.242240905761726 15.151267528533937 0.046292660757899291
decision_type=2 2 2 2 2 2 2 2 2 2 2 2 2
left_child=2 11 7 6 5 -3 -4 8 -1 -6 -9 12 -2
right_child=1 4 3 -5 9 -7 -8 10 -10 -11 -12 -13 -14
leaf_value=0.00072043778591128396 -0.0025412501932544954 -0.0090799487557739807 -0.0041413173102833652 0.00076645065750875231 0.00064328014974616835 -0.0086274292894489655 -0.0082526041458991749 -0.00078801539787264529 -0.0049912876819805749 -0.0033627826902436803 -0.0053421041795210598 0.0016918085588743094 9.8699120945268664e-05
leaf_weight=352.55173015594482 28.965518176555634 14.068965971469877 19.034482777118683 43.862069189548492 17.379310905933384 81.103450894355774 42.206895530223846 9.1034485697746295 64.551726222038269 8.2758623361587507 9.9310348033905012 40.551725447177887 9.1034485697746259
leaf_count=345 35 17 14 35 21 98 15 11 78 10 12 49 11
internal_value=0 -0.000254922 -4.61842e-05 -0.000227512 -0.000402273 -0.000486194 -0.000387941 0 1.19021e-05 -2.97831e-05 -0.000271463 -7.46145e-06 -6.90589e-05
internal_weight=0 199.448 541.241 105.103 120.828 95.1724 61.2414 436.138 417.103 25.6552 19.0345 78.6207 38.069
internal_count=751 241 510 64 146 115 29 446 423 31 23 95 46
is_linear=0
shrinkage=0.000670957


Tree=52
num_leaves=12
num_cat=0
split_feature=14 54 17 19 19 100 39 12 39 1 12
split_gain=22.7049 8.54322 12.5587 6.7134 6.18854 3.00257 2.4809 0.778095 0.775051 0.831657 0.459483
threshold=49.079999923706062 1.0000000180025095e-35 52.000249862670906 46.085000991821296 55.590000152587898 4.6990511417388925 198.21111297607425 1.9421921372413637 198.88333129882815 51.085000991821296 2.1734888553619389
decision_type=2 2 2 2 2 2 2 2 2 2 2
left_child=5 3 -3 -2 -5 8 -7 -4 9 -1 -8
right_child=1 2 7 4 -6 6 10 -9 -10 -11 -12
leaf_value=-0.0024143020377539923 0.0055707293237967749 -0.0090638628220769853 0.00099186834348925323 -0.0091861472781438174 -0.0036146107073102515 -0.0081910490658506051 0.00044584270789151689 -0.0063072220489433211 0.0038296297989677233 0.00014213906933069933 -0.0054819480075843719
leaf_weight=89.379313230514526 14.896552205085753 47.999998569488525 101.79310554265976 106.75862413644791 24.000000774860382 16.551724672317505 36.413794279098511 21.517242074012756 185.37931513786316 71.999998152256012 24.000000774860382
leaf_count=108 18 13 105 129 29 20 44 26 206 24 29
internal_value=0 -0.000265804 -0.000137554 -0.000402702 -0.000456201 -5.52051e-07 -0.000134192 0 2.54612e-05 -4.06537e-06 -3.2253e-05
internal_weight=0 316.966 171.31 145.655 130.759 423.724 76.9655 123.31 346.759 161.379 60.4138
internal_count=751 320 144 176 158 431 93 131 338 132 73
is_linear=0
shrinkage=0.000740836


Tree=53
num_leaves=12
num_cat=0
split_feature=14 55 17 19 19 100 16 56 31 20 10
split_gain=22.9639 8.50242 12.3704 6.75694 5.74373 3.06165 1.86745 2.24965 1.19428 0.686905 0.250743
threshold=49.079999923706062 1.0000000180025095e-35 52.000249862670906 46.085000991821296 55.590000152587898 4.6990511417388925 1.9985926151275637 173.50000000000003 0.17994924634695056 65.36999893188478 11.200847625732424
decision_type=2 2 2 2 2 2 2 2 2 2 2
left_child=5 3 -3 -2 -5 9 -7 -8 -4 10 -1
right_child=1 2 8 4 -6 6 7 -9 -10 -11 -12
leaf_value=0.00088938454703296494 0.0054903862767186531 -0.0089331405566254879 0.0008695972230861618 -0.0090536613826109318 -0.0035624795012604506 0.00045087866146197741 -0.0017038495680325313 -0.0080729148319890493 -0.0062725244276637159 -0.0058007423513290798 -0.00073856519652839799
leaf_weight=323.58621197938919 14.896552205085753 47.999998569488525 108.41379541158676 105.93103790283203 23.172414541244507 26.482759475708008 31.448276877403259 19.034483373165131 16.551724672317505 9.9310348033905012 13.241379737854002
leaf_count=310 18 13 113 128 28 32 38 23 20 12 16
internal_value=0 -0.000263365 -0.00013778 -0.000400201 -0.000454014 0 -0.00013296 -0.000213942 -2.31255e-06 2.69694e-05 3.63657e-05
internal_weight=0 316.966 172.966 144 129.103 423.724 76.9655 50.4828 124.966 346.759 336.828
internal_count=751 320 146 174 156 431 93 61 133 338 326
is_linear=0
shrinkage=0.000734037


Tree=54
num_leaves=13
num_cat=0
split_feature=14 54 17 17 15 32 42 39 15 31 98 31
split_gain=22.7796 8.85157 12.5587 5.50638 6.51394 3.52582 1.05331 0.961006 1.65138 0.889271 0.427573 0.167091
threshold=49.079999923706062 1.0000000180025095e-35 52.000249862670906 53.126667022705085 65.430000305175795 17.163262367248539 14.045783519744875 198.60434722900393 50.940000534057624 0.17994924634695056 5.9193508625030526 0.12782090157270434
decision_type=2 2 2 2 2 2 2 2 2 2 2 2
left_child=5 3 -3 11 -5 7 -7 8 -1 -4 -9 -2
right_child=1 2 9 4 -6 6 -8 10 -10 -11 -12 -13
leaf_value=0.00046461606652474247 0.0040224103788217766 -0.0054872156359332281 0.00051782722427786061 -0.0055307863438784745 -1.7913964732880851e-05 -0.0011109597657881392 -0.0060915396336624055 0.0013871645150259906 -0.0026218453970239821 -0.0038942730327949592 -0.0013000295509112639 -0.0051581303994708066
leaf_weight=98.48275762796402 14.068965971469881 47.999998569488525 107.58620917797089 108.41379660367966 14.896552205085753 11.586207270622255 13.241379737854002 209.37931591272354 62.896553754806519 15.724138438701628 28.137931942939758 8.2758623361587507
leaf_count=56 17 13 112 131 18 14 16 235 76 19 34 10
internal_value=0 -0.000160338 -8.23796e-05 -0.00024366 -0.000280369 -1.1931e-06 -0.000158538 7.12877e-06 -1.59192e-05 0 2.64955e-05 0
internal_weight=0 316.966 171.31 145.655 123.31 423.724 24.8276 398.897 161.379 123.31 237.517 22.3448
internal_count=751 320 144 176 149 431 30 401 132 131 269 27
is_linear=0
shrinkage=0.000443678


Tree=55
num_leaves=11
num_cat=0
split_feature=14 54 96 17 15 102 41 15 18 39
split_gain=16.44 12.8565 8.64085 6.07786 6.28152 5.01791 1.93469 1.28409 1.11615 1.44741
threshold=49.079999923706062 1.0000000180025095e-35 1.6658914685249331 52.336698532104499 65.430000305175795 13.534576892852785 199.54772949218753 50.940000534057624 1.7281307578086855 199.68333435058597
decision_type=2 2 2 2 2 2 2 2 2 2
left_child=5 3 6 -2 -5 8 -3 -7 -1 -10
right_child=1 2 -4 4 -6 7 -8 -9 9 -11
leaf_value=0.0019439962832492085 0.0024076945747927461 -0.0020774255877055786 -0.0043717734644767234 -0.0043902742990216941 -2.9126149514677371e-06 -0.0034665459549060224 0.00095459098034330399 -0.0048726223998666997 -0.0016523642843685202 0.00090853203539885137
leaf_weight=152.27586221694946 14.068965971469877 58.758621394634247 38.896551191806793 115.86207270622253 15.724138438701628 8.2758623361587542 113.37930983304977 15.724138438701628 113.37931340932846 142.34483158588409
leaf_count=112 17 53 20 140 19 10 74 19 128 163
internal_value=0 -0.000107506 -4.58938e-05 -0.000190105 -0.000213887 -2.30382e-06 -6.42061e-06 -0.00015553 5.68226e-06 -6.51693e-06
internal_weight=0 356.69 211.034 145.655 131.586 432 172.138 24 408 255.724
internal_count=755 323 147 176 159 432 127 29 403 291
is_linear=0
shrinkage=0.000357093


Tree=56
num_leaves=13
num_cat=0
split_feature=14 54 28 19 15 32 34 41 55 15 15 19
split_gain=16.1788 12.4764 8.40638 6.55911 7.55248 6.07637 5.70688 1.37337 1.29795 0.982097 1.99825 1.22957
threshold=49.079999923706062 1.0000000180025095e-35 0.75816234946250927 46.379999160766609 65.430000305175795 17.531001091003422 11.571935176849367 199.54772949218753 -0.40043914318084711 52.924999237060554 53.049999237060554 40.525001525878913
decision_type=2 2 2 2 2 2 2 2 2 2 2 2
left_child=5 3 7 -2 -5 9 -4 -3 -7 11 -11 -1
right_child=1 2 6 4 -6 8 -8 -9 -10 10 -12 -13
leaf_value=-0.0020538985877971857 0.0035864613682149876 -0.0031540968550435723 -0.0064852820639566553 -0.0064877347421647908 4.7132116620477525e-07 -0.0071631607218093267 -0.0021369314853466859 0.0018849587592220034 -0.00060614909545627282 -0.0035039056604247469 -0.00030472465682760899 0.0013724942688740545
leaf_weight=50.48276025056839 17.37931090593338 45.517241656780243 32.275861322879791 112.55172777175903 15.724138438701628 15.724138438701631 28.965518176555634 104.27586126327515 9.9310348033905012 9.9310348033905012 86.068968296051025 259.86207139492035
leaf_count=61 21 37 12 136 19 19 35 63 12 12 104 224
internal_value=0 -0.000157034 -6.75552e-05 -0.000276886 -0.000317497 -3.3912e-06 -0.000228254 0 -0.00024355 1.03157e-05 -3.09982e-05 2.65778e-05
internal_weight=0 356.69 211.034 145.655 128.276 432 61.2414 149.793 25.6552 406.345 96 310.345
internal_count=755 323 147 176 155 432 47 100 31 401 116 285
is_linear=0
shrinkage=0.000525637


Tree=57
num_leaves=12
num_cat=0
split_feature=14 54 96 55 15 32 33 56 15 15 98
split_gain=16.7032 13.2421 8.64085 6.18858 6.4133 6.07637 3.87866 1.47637 0.982097 1.99825 1.18878
threshold=49.079999923706062 1.0000000180025095e-35 1.6658914685249331 -0.98376169800758351 65.430000305175795 17.531001091003422 1.2460429668426516 112.50000000000001 52.924999237060554 53.049999237060554 5.6717734336853036
decision_type=2 2 2 2 2 2 2 2 2 2 2
left_child=5 3 6 -2 -5 8 -3 -7 10 -10 -1
right_child=1 2 -4 4 -6 7 -8 -9 9 -11 -12
leaf_value=0.00094468673682634628 0.0030552959698220594 -0.0031854100022448229 -0.0045061833871091056 -0.0045142626809977614 -4.1251534479250479e-05 -7.6093578036512296e-05 0.00061078541177817848 -0.0046075698408851746 -0.002440070194643912 -0.0002051436051016559 -0.0017779039522016525
leaf_weight=282.20689970254898 14.068965971469877 14.896551609039305 38.896551191806793 115.86207270622253 15.724138438701628 8.2758623361587542 157.24137961864471 17.37931090593338 9.9310348033905012 86.068968296051025 28.137931942939758
leaf_count=251 17 9 20 140 19 10 118 21 12 104 34
internal_value=0 -0.000109758 -4.64988e-05 -0.000194639 -0.000218948 -2.3342e-06 -6.50525e-06 -0.000167637 7.10037e-06 -2.13363e-05 1.82937e-05
internal_weight=0 356.69 211.034 145.655 131.586 432 172.138 25.6552 406.345 96 310.345
internal_count=755 323 147 176 159 432 127 31 401 116 285
is_linear=0
shrinkage=0.000361801


Tree=58
num_leaves=11
num_cat=0
split_feature=14 54 96 19 18 102 33 0 18 104
split_gain=16.1788 12.4764 8.64085 6.55911 7.55261 5.01791 3.87866 1.28409 1.11615 1.77408
threshold=49.079999923706062 1.0000000180025095e-35 1.6658914685249331 46.379999160766609 2.4252361059188847 13.534576892852785 1.2460429668426516 50.320001602172859 1.7281307578086855 199.94333648681643
decision_type=2 2 2 2 2 2 2 2 2 2
left_child=5 3 6 -2 -5 8 -3 -7 -1 -10
right_child=1 2 -4 4 -6 7 -8 -9 9 -11
leaf_value=0.0048560323223296184 0.0061076963887955549 -0.0076956630799492973 -0.010948770191582273 -0.0039074909369204852 -0.010992883538772393 -0.0086049994400398486 0.0014893464373857176 -0.012116014649843724 -0.0041481022503987598 0.0010784577455773309
leaf_weight=152.27586221694946 17.37931090593338 14.896551609039305 38.896551191806793 24.827587008476257 103.44827920198441 8.2758623361587542 157.24137961864471 15.724138438701628 130.75862491130829 124.96552008390427
leaf_count=112 21 9 20 30 125 10 118 19 158 133
internal_value=0 -0.000268352 -0.000115444 -0.000473165 -0.000542564 -5.79515e-06 -1.61507e-05 -0.000391227 1.42934e-05 -1.6393e-05
internal_weight=0 356.69 211.034 145.655 128.276 432 172.138 24 408 255.724
internal_count=755 323 147 176 155 432 127 29 403 291
is_linear=0
shrinkage=0.00089825


Tree=59
num_leaves=11
num_cat=0
split_feature=14 54 96 19 18 102 33 0 18 39
split_gain=16.2153 12.8565 8.64085 6.6876 6.60291 4.98098 3.87866 1.28409 1.17368 1.35492
threshold=49.079999923706062 1.0000000180025095e-35 1.6658914685249331 46.379999160766609 2.4252361059188847 13.534576892852785 1.2460429668426516 50.320001602172859 1.7281307578086855 199.68333435058597
decision_type=2 2 2 2 2 2 2 2 2 2
left_child=5 3 6 -2 -5 8 -3 -7 -1 -10
right_child=1 2 -4 4 -6 7 -8 -9 9 -11
leaf_value=0.0028677415953386578 0.0035988383587790204 -0.0046235286273457058 -0.0065781391951821545 -0.0023893369841764349 -0.0066107632564367741 -0.005187230369441579 0.00089234569753976836 -0.0072856119569959452 -0.0024626945041127416 0.0013871126349660218
leaf_weight=152.27586221694946 17.37931090593338 14.896551609039305 38.896551191806793 24.827587008476257 103.44827920198441 8.2758623361587542 157.24137961864471 15.724138438701628 113.37931340932846 142.34483158588409
leaf_count=112 21 9 20 30 125 10 118 19 128 163
internal_value=0 -0.000160529 -6.85295e-05 -0.000283868 -0.000325464 -4.4569e-06 -9.58737e-06 -0.00023224 7.40856e-06 -1.14434e-05
internal_weight=0 356.69 211.034 145.655 128.276 432 172.138 24 408 255.724
internal_count=755 323 147 176 155 432 127 29 403 291
is_linear=0
shrinkage=0.000533218


Tree=60
num_leaves=13
num_cat=0
split_feature=0 54 17 12 34 38 17 42 1 17 42 10
split_gain=17.3251 14.2712 7.19385 3.55836 6.6148 2.27816 1.35402 1.10162 1.33253 1.02825 0.427471 0.350474
threshold=55.460000991821296 1.0000000180025095e-35 61.228584289550788 1.1413075327873232 5.7647643089294442 199.64285278320315 55.138584136962898 14.718465805053713 57.565000534057624 52.336698532104499 17.054573059082035 8.2620482444763201
decision_type=2 2 2 2 2 2 2 2 2 2 2 2
left_child=3 2 9 6 -5 -6 11 8 -3 -2 -4 -1
right_child=1 7 10 4 5 -7 -8 -9 -10 -11 -12 -13
leaf_value=0.0011585521457292058 -0.0062769762962960234 -0.0031434834071330637 0.0010505733767982829 -0.0056797019328485056 -0.0033820035289103961 0.00023419633157895293 -0.00460647112904206 0.0011202546349571992 0.0011848553214860074 -0.0059081291528240085 -0.0022959680439774881 -0.00077791578786571549
leaf_weight=201.93103623390198 10.758621037006376 19.862069606781006 10.75862103700638 17.379309713840485 131.58621054887772 146.48276215791702 12.413793504238127 43.862070381641388 14.896552205085753 74.482761025428772 14.896552205085753 12.413793504238127
leaf_count=172 13 24 13 3 150 159 15 53 18 90 18 15
internal_value=0 -0.000187638 -0.000293095 -2.35187e-05 -5.72702e-05 -3.52115e-05 1.65635e-05 -2.39308e-05 -8.65591e-05 -0.000357968 -3.40811e-05 2.8917e-05
internal_weight=0 189.517 110.897 522.207 295.448 278.069 226.759 78.6207 34.7586 85.2414 25.6552 214.345
internal_count=743 229 134 514 312 309 202 95 42 103 31 187
is_linear=0
shrinkage=0.000458608


Tree=61
num_leaves=14
num_cat=0
split_feature=1 41 14 20 33 103 14 104 103 14 103 41 0
split_gain=22.2635 14.9251 8.57199 5.21482 2.23217 1.69403 1.30691 0.464487 0.722421 0.219252 0.245031 0.221604 0.128343
threshold=52.454999923706062 200.97499847412112 43.680000305175788 59.614999771118171 4.688833713531495 2.3071564435958867 40.525001525878913 200.95452117919925 1.6152058839797976 45.139999389648445 2.0738713741302495 202.21501922607425 53.754999160766609
decision_type=2 2 2 2 2 2 2 2 2 2 2 2 2
left_child=1 2 6 5 -4 12 -1 8 -5 10 -3 -11 -2
right_child=3 9 4 7 -6 -7 -8 -9 -10 11 -12 -13 -14
leaf_value=-0.0082031846676211273 0.00066602660790962792 9.5286513461677617e-05 -0.0042475189255620112 -0.0062639965625853498 -0.0090033289760096426 -0.0067707381375882933 0.0005370422563863793 -0.0021918874886331556 -0.0090919935727511326 -0.00082341370078213138 -0.00034811809580452579 0.0030332274296507498 -0.0033806770739776993
leaf_weight=14.068965971469877 10.75862103700638 13.241379737854002 61.241379499435425 9.1034485697746259 172.13793361186981 43.862070381641388 62.068967521190643 28.137931942939758 148.96552205085754 29.793103814125061 20.689655840396881 76.965517342090607 20.689655840396881
leaf_count=17 13 16 47 11 163 53 75 34 180 27 25 57 25
