tree
version=v4
num_class=1
num_tree_per_iteration=1
label_index=0
max_feature_idx=121
objective=quantile
feature_names=price_lag_1d price_lag_7d price_lag_14d price_lag_30d price_lag_60d return_1d return_3d return_7d return_14d return_30d return_60d price_std_7d price_std_14d price_std_20d price_min_20d price_max_20d price_std_30d price_mean_60d price_std_60d price_min_60d price_max_60d price_zscore_30d vol_regime_60_30 trend_divergence_30_60 price_accel_7d price_tier autocorr_1d autocorr_7d bb_pct_b macd_line macd_signal macd_histogram distance_to_support distance_to_resistance high_low_range_30d volume_missing volume_lag_1d volume_lag_7d volume_mean_7d volume_mean_30d volume_std_30d volume_mean_60d volume_std_60d volume_log_change_1d volume_log_change_7d volume_zscore_30d volume_price_conf_7d volume_price_conf_1d rsi_missing macd_missing is_weekend dow_sin dow_cos month_sin month_cos doy_cos item_age_days is_stattrak is_souvenir is_knife is_glove is_sticker is_case is_capsule is_agent is_music_kit is_graffiti is_charm is_patch quality_rank event_decay_major events_next_30d_major event_density_30d_major event_density_90d_major event_decay_operation events_next_30d_operation event_density_30d_operation event_density_90d_operation event_decay_case_drop events_next_30d_case_drop event_density_30d_case_drop event_density_90d_case_drop event_decay_update events_next_30d_update event_density_30d_update event_density_90d_update event_decay_game_update events_next_30d_game_update event_density_30d_game_update event_density_90d_game_update event_decay_major_weighted event_decay_operation_weighted event_decay_case_drop_weighted event_decay_update_weighted event_decay_game_update_weighted social_mentions_1d social_mentions_7d social_mention_velocity social_sentiment_7d social_score_7d market_return_1d item_return_vs_market_1d market_return_7d item_return_vs_market_7d market_return_14d item_return_vs_market_14d market_return_30d item_return_vs_market_30d market_volatility_30d market_volume_mean_30d market_regime_crash market_regime_bear market_regime_range market_regime_bull market_regime_mania market_regime_duration_days market_return_30d_percentile supply_listings_log supply_listings_zscore supply_change_7d supply_skinport_qty_log supply_to_volume_ratio
feature_infos=[39.849998474121094:66.220001220703125] [39.849998474121094:66.220001220703125] [39.790000915527344:66.220001220703125] [40.729999542236328:66.569999694824219] [39.849998474121094:66.569999694824219] [-6.0415120124816895:5.3940391540527344] [-10.281366348266602:9.4368009567260742] [-17.372880935668945:14.35562801361084] [-21.531669616699219:24.511468887329102] [-24.868003845214844:39.543319702148438] [-29.951061248779297:26.83879280090332] [0.042426407337188721:3.2751080989837646] [0.042426407337188721:4.732576847076416] [0.042426407337188721:5.307133674621582] [39.790000915527344:61.619998931884766] [43.779998779296875:66.220001220703125] [0.042426407337188721:5.4625492095947266] [43.426834106445312:62.902332305908203] [0.042426407337188721:6.0651006698608398] [39.790000915527344:58.759998321533203] [47.880001068115234:66.569999694824219] [-3.4853887557983398:3.0036964416503906] [0.75903922319412231:3.9533336162567139] [-39.368843078613281:101.21376037597656] [-22.131687164306641:18.705087661743164] [3:3] [-17.983921051025391:24.183246612548828] [-115.25129699707031:134.03640747070312] [-0.21316516399383545:1.1863726377487183] [-3.1019792556762695:3.1830518245697021] [-2.2672655582427979:2.7412140369415283] [-1.2678171396255493:0.94621419906616211] [0.018351990729570389:39.335178375244141] [0.054525628685951233:31.854576110839844] [0.12307692319154739:39.335178375244141] none [163:245] [161:245] [176:219] [176:219] [4.0414519309997559:20.036775588989258] [176:219] [4.0414519309997559:19.928762435913086] [-0.28488487005233765:0.30276116728782654] [-0.26826399564743042:0.40341803431510925] [-2.4042847156524658:2.6703879833221436] [-17.372880935668945:14.35562801361084] [-6.0415120124816895:5.3940391540527344] [0:1] [0:1] [0:1] [-0.97492790222167969:0.97492790222167969] [-0.90096884965896606:1] [-0.86602538824081421:1] [-1:0.86602538824081421] [-1:0.99985265731811523] [0:234] none none none none none none none none none none none none none [0:0.96721607446670532] [0:1] [0:1] [0:1] none none none none none none none none none none none none none none none none none none none none none none none none none none [-2.0933716297149658:1.6730349063873291] [-4.7729063034057617:4.9617133140563965] [-5.9873161315917969:5.599886417388916] [-15.224418640136719:14.81980037689209] [-7.3588790893554688:5.6792440414428711] [-21.058666229248047:25.597810745239258] [-2.9261324405670166:2.6404297351837158] [-23.844234466552734:40.982707977294922] [0.43699198961257935:3.9010679721832275] [195.10000610351562:203.39999389648438] none none [0:1] none none [1:30] [0.040816325694322586:0.75268816947937012] none none none none none
tree_sizes=1633 1370 1373 1705 1157 1389 1581 1181 1379 1381 1892 1689 1788 1297 1933 1701 1708 1501 1372 1705 1497 1597 1712 1275 1277 1183 1398 1591 1469 1831

Tree=0
num_leaves=15
num_cat=0
split_feature=15 33 15 109 100 1 108 2 30 115 115 104 102 45
split_gain=1.21349 2.25565 4.63286 2.0152 2.90109 1.17265 0.538205 0.363958 0.594871 0.344216 0.363874 0.321304 0.307798 0.114181
threshold=50.829999923706062 6.5258526802062997 56.260000228881843 200.63249969482425 -1.1911315917968748 47.545000076293952 2.481181383132935 46.880001068115241 -0.0096566843567416055 14.500000000000002 16.500000000000004 -1.0400999188423155 -1.3631384372711179 -1.0147979259490965
decision_type=2 2 2 2 2 2 2 2 2 2 2 2 2 2
left_child=6 2 3 4 -2 -3 9 -8 -9 -1 -11 12 -7 -4
right_child=1 5 13 -5 -6 11 7 8 -10 10 -12 -13 -14 -15
leaf_value=6.7524036999646215 6.6878109793635234 6.9085881920320436 6.8313695905821827 6.7251229985983478 6.9025552526538716 6.7831100127170671 6.7701324250344941 6.7981965751543409 6.9486691807063234 6.9512223676182066 6.7221037708464744 6.7527602795469059 6.8463933635156922 6.7349304032932666
leaf_weight=161.21139717102051 8.0605698227882367 6.5950117707252494 6.5950117707252494 8.0605699419975263 36.638954162597656 28.578384339809418 13.922802627086641 4.3966745138168335 5.8622326850891096 4.3966745138168326 10.258907198905943 94.528501570224762 18.319477140903473 38.837291538715363
leaf_count=94 2 9 9 11 41 39 19 6 8 6 14 93 25 53
internal_value=6.80006 6.80121 6.80373 6.80803 6.80979 6.79965 6.79897 6.80149 6.80439 6.79849 6.80068 6.79907 6.80014 6.79911
internal_weight=0 246.214 98.1924 52.7601 44.6995 148.021 200.049 24.1817 10.2589 175.867 14.6556 141.426 46.8979 45.4323
internal_count=429 282 116 54 43 166 147 33 14 114 20 157 64 62
is_linear=0
shrinkage=1


Tree=1
num_leaves=12
num_cat=0
split_feature=56 18 8 14 3 15 8 39 15 34 107
split_gain=1.65795 2.15465 1.55921 1.86367 0.630785 2.37495 1.52483 0.343081 0.841646 0.460565 0.12146
threshold=10.500000000000002 1.3627039790153506 3.068770289421082 46.219999313354499 46.899999618530281 49.86000061035157 9.5009603500366229 203.03666687011722 52.100000381469734 10.85977077484131 -1.735645532608032
decision_type=2 2 2 2 2 2 2 2 2 2 2
left_child=-1 2 3 -2 5 10 -7 9 -9 -6 -3
right_child=1 4 -4 -5 7 6 -8 8 -10 -11 -12
leaf_value=-0.04764225541096212 0.065190274695930361 0.0251701655334142 -0.024618320320843462 0.11028615887929943 0.11127898794251409 0.14541489800595253 -0.087877494401254405 -0.048457427609648482 0.090674938046993586 -0.047389513900622911 -0.036114750065797369
leaf_weight=161.21139645576477 8.7933490276336723 8.7933490276336652 8.0605699419975263 11.724465370178221 11.724465370178221 10.991686284542082 4.3966745138168326 16.853918969631199 12.45724445581436 161.9441779255867 29.311163425445557
leaf_count=40 12 12 11 16 16 15 6 23 17 221 40
internal_value=0 0.000700265 0.00614746 0.00918518 0 0.00210169 0.00889617 -0.000488174 0.00134766 -0.000929658 -0.00033233
internal_weight=0 285.051 28.5784 20.5178 256.473 53.4929 15.3884 202.98 29.3112 173.669 38.1045
internal_count=429 389 39 28 350 73 21 277 40 237 52
is_linear=0
shrinkage=0.0215021


Tree=2
num_leaves=12
num_cat=0
split_feature=55 18 115 16 3 15 8 39 15 34 107
split_gain=1.65795 2.15465 1.9809 1.89089 0.630785 2.37495 1.52483 0.343081 0.841646 0.460565 0.12146
threshold=0.9805392622947694 1.3627039790153506 18.500000000000004 1.154907286167145 46.899999618530281 49.86000061035157 9.5009603500366229 203.03666687011722 52.100000381469734 10.85977077484131 -1.735645532608032
decision_type=2 2 2 2 2 2 2 2 2 2 2
left_child=1 2 3 -1 5 10 -7 9 -9 -6 -3
right_child=-2 4 -4 -5 7 6 -8 8 -10 -11 -12
leaf_value=0.0039875053726709563 -0.046617844747073374 0.024628952995051856 -0.024088973638026707 0.10791476994607763 0.10888625105523339 0.14228816584517168 -0.085987939811448921 -0.047415488995287282 0.088725232419467434 -0.04637053772123044 -0.035338205488468923
leaf_weight=8.0605699419975334 161.21139645576477 8.7933490276336652 9.5261281132698041 10.991686284542082 11.724465370178221 10.991686284542082 4.3966745138168326 16.853918969631199 12.45724445581436 161.9441779255867 29.311163425445557
leaf_count=11 40 12 13 15 16 15 6 23 17 221 40
internal_value=0 0.000700265 0.00614746 0.0099935 0 0.00210169 0.00889617 -0.000488174 0.00134766 -0.000929658 -0.00033233
internal_weight=0 285.051 28.5784 19.0523 256.473 53.4929 15.3884 202.98 29.3112 173.669 38.1045
internal_count=429 389 39 26 350 73 21 277 40 237 52
is_linear=0
shrinkage=0.0215021


Tree=3
num_leaves=15
num_cat=0
split_feature=3 15 8 15 108 101 39 105 1 104 100 103 0 1
split_gain=0.992341 2.62843 2.55687 1.29589 2.9735 3.19709 0.735468 0.314469 0.297227 0.267461 0.265039 0.404446 0.132476 0.132476
threshold=48.549999237060554 49.86000061035157 2.3324520587921147 53.049999237060554 1.3011792898178103 1.0048371553421023 203.03666687011722 1.3744698166847231 52.219999313354499 -1.0400999188423155 0.4335093498229981 -1.4102200269699094 51.170000076293952 47.725000381469734
decision_type=2 2 2 2 2 2 2 2 2 2 2 2 2 2
left_child=1 10 -3 7 5 -5 9 -2 -8 -6 -1 -12 -9 -4
right_child=3 2 13 4 6 -7 8 12 -10 -11 11 -13 -14 -15
leaf_value=-0.034023727744895822 -0.046070771593231641 0.15407081518503274 0.050701533755757922 0.10559437096054963 0.018565879608408845 0.01216018535615393 0.10233824814222967 -0.0062028727466706948 0.037353121430822055 -0.061711995127499114 0.12888445645835772 -0.084719555279122033 0.086817449644229702 -0.055926747938958805
leaf_weight=40.30284970998764 178.79809486865997 13.190023541450502 3.6638954281806972 12.457244336605074 49.096198737621307 16.853918731212616 4.3966745138168317 13.922802627086641 5.1294535994529724 80.605699419975281 3.6638954281806946 6.5950117707252485 3.6638954281806937 13.922802627086638
leaf_count=55 91 18 5 8 67 5 6 19 7 110 5 9 5 19
internal_value=0 0.00219408 0.0070468 -0.000405722 0.000892837 0.00697288 -0.00029506 -0.00162714 0.00476618 -0.000880917 -0.000464664 0.00165528 0.000194269 0.000194269
internal_weight=0 81.3385 30.7767 364.924 168.539 29.3112 139.228 196.385 9.52613 129.702 50.5618 10.2589 17.5867 17.5867
internal_count=429 111 42 318 203 13 190 115 13 177 69 14 24 24
is_linear=0
shrinkage=0.0215021


Tree=4
num_leaves=10
num_cat=0
split_feature=55 18 115 16 109 39 16 20 108
split_gain=1.59522 2.2005 1.9809 1.89089 0.477047 0.688907 1.3581 0.276714 0.142823
threshold=0.9805392622947694 1.3627039790153506 18.500000000000004 1.154907286167145 200.37333679199222 203.03666687011722 1.505021929740906 61.954999923706062 1.637311637401581
decision_type=2 2 2 2 2 2 2 2 2
left_child=1 2 3 -1 5 7 -7 -3 -6
right_child=-2 4 -4 -5 8 6 -8 -9 -10
leaf_value=0.0040351405222410139 -0.044624840717750004 0.02132808547025775 -0.02224406880266146 0.10332386552948809 0.0094944006803522885 -0.050226403875406535 0.10013775633477273 -0.076340795381564922 -0.049639247523380746
leaf_weight=8.0605699419975334 161.21139645576477 106.98574650287628 9.5261281132698041 10.991686284542082 8.0605699419975263 9.5261281132698077 10.991686284542082 53.492873251438141 67.41567587852478
leaf_count=11 40 146 13 15 11 13 15 73 92
internal_value=0 0.000645279 0.00614746 0.0099935 0 0.00059878 0.00417586 0 -0.0014196
internal_weight=0 285.051 28.5784 19.0523 256.473 180.996 20.5178 160.479 75.4762
internal_count=429 389 39 26 350 247 28 219 103
is_linear=0
shrinkage=0.0215021


Tree=5
num_leaves=12
num_cat=0
split_feature=19 24 108 22 55 108 8 6 103 103 44
split_gain=1.42158 0.954105 1.65926 0.740952 1.38069 2.26233 0.422282 0.229603 0.158884 0.118329 0.116293
threshold=46.854999542236335 -7.0791282653808585 1.6106976270675661 1.3122863769531252 0.6205866038799287 2.1589988470077519 1.0355799794197085 -1.9092115759849546 -0.45311577618122095 -2.1736829280853267 0.024815780110657219
decision_type=2 2 2 2 2 2 2 2 2 2 2
left_child=3 2 -2 4 5 -1 -7 10 9 -5 -3
right_child=1 7 -4 8 -6 6 -8 -9 -10 -11 -12
leaf_value=0.092384171897470307 0.10110218083447134 -0.042653509522972928 -0.03102221201877272 -0.013929124607825616 -0.054942741613128225 0.10809198204131572 -0.011896512767203146 -0.021765773619254216 -0.033540396813896159 0.037432402117700457 0.044832287978762278
leaf_weight=13.922802627086638 5.1294535994529751 29.311163306236267 21.250593483448029 16.12113988399506 25.647267997264862 19.785035312175751 21.983372569084167 205.91092127561569 38.837291538715363 7.3277908563613883 10.258907198905943
leaf_count=19 7 31 29 22 35 27 30 146 53 10 14
internal_value=0 -0.00119517 0.00228055 0.00141526 0.0027647 0.00469328 0.00143306 -0.00166732 -3.34301e-05 0.000906473 0
internal_weight=0 271.861 26.38 143.625 81.3385 55.6912 41.7684 245.481 62.2862 23.4489 39.5701
internal_count=423 227 36 196 111 76 57 191 85 32 45
is_linear=0
shrinkage=0.0215021


Tree=6
num_leaves=14
num_cat=0
split_feature=19 15 1 55 56 27 108 11 115 6 115 13 13
split_gain=1.31122 1.2781 1.51042 1.75388 1.40622 1.07122 2.13338 0.332602 0.23372 0.25885 0.216923 0.185944 0.105995
threshold=46.854999542236335 49.86000061035157 50.109998703002937 0.6205866038799287 178.50000000000003 -10.680877208709715 1.6106976270675661 0.53355947136878978 10.500000000000002 -1.9092115759849546 14.500000000000002 1.4405501484870913 3.9173096418380742
decision_type=2 2 2 2 2 2 2 2 2 2 2 2 2
left_child=1 7 3 4 -3 6 -2 -1 -7 10 -10 -4 -13
right_child=5 2 11 -5 -6 8 -8 -9 9 -11 -12 12 -14
leaf_value=0.12510413734331149 0.098928267124974517 0.090397714076572863 0.074159263051381291 -0.074512333423583085 0.00026030774018670038 -0.041736367594432756 -0.029821803697371731 -0.034549003780437029 0.065126969179289701 -0.020480578030558052 -0.065847390251890708 -0.051012469013072569 0.047033928600586444
leaf_weight=3.6638954281806937 5.862232685089114 19.785035312175754 7.3277908563613883 12.45724445581436 8.7933490276336652 200.78146755695343 24.181709825992584 57.889547765254974 8.0605699419975263 28.578384339809418 4.3966745138168326 30.043942511081696 3.6638954281806937
leaf_count=5 8 27 10 17 12 130 33 79 11 39 6 41 5
internal_value=0 0.00130669 0.00309868 0.00593991 0.00876667 -0.00119517 0.00226542 -0.000758495 -0.00172481 0 0.00218479 0 -0.00055284
internal_weight=0 143.625 82.0713 41.0356 28.5784 271.861 30.0439 61.5534 241.817 41.0356 12.4572 41.0356 33.7078
internal_count=423 196 112 56 39 227 41 84 186 56 17 56 46
is_linear=0
shrinkage=0.0215021


Tree=7
num_leaves=10
num_cat=0
split_feature=19 15 0 103 55 24 108 11 102
split_gain=1.31122 1.2781 1.12681 1.59153 1.6319 0.954105 1.65926 0.332602 0.156655
threshold=46.854999542236335 49.86000061035157 52.829999923706062 -6.8200590610504142 0.6205866038799287 -7.0791282653808585 1.6106976270675661 0.53355947136878978 -0.86702358722686756
decision_type=2 2 2 2 2 2 2 2 2
left_child=1 7 3 -3 -5 6 -2 -1 -7
right_child=5 2 -4 4 -6 8 -8 -9 -10
leaf_value=0.12241413009479651 0.096801097222360299 -0.086612092919943109 -0.010543834745682171 0.086135990205841811 -0.072910158457433413 -0.012402110908514763 -0.029713935196112245 -0.03380612610610953 -0.020105799637424655
leaf_weight=3.6638954281806937 5.1294535994529751 12.45724445581436 27.845605254173279 31.509500682353973 10.258907198905943 33.70783793926239 21.250593483448029 57.889547765254974 211.77315384149551
leaf_count=5 7 17 38 43 14 46 29 79 145
internal_value=0 0.00130669 0.00309868 0.00487326 0.00689536 -0.00119517 0.00228055 -0.000758495 -0.00166732
internal_weight=0 143.625 82.0713 54.2257 41.7684 271.861 26.38 61.5534 245.481
internal_count=423 196 112 74 57 227 36 84 191
is_linear=0
shrinkage=0.0215021


Tree=8
num_leaves=12
num_cat=0
split_feature=19 115 13 102 15 1 104 18 11 13 13
split_gain=1.20568 1.02775 1.58272 1.57369 0.923578 1.1479 1.63266 1.00531 0.28473 0.185944 0.105995
threshold=46.854999542236335 10.500000000000002 1.5838451981544497 -0.11686258390545844 49.86000061035157 50.109998703002937 1.3375741839408877 4.4463920593261728 0.53355947136878978 1.4405501484870913 3.9173096418380742
decision_type=2 2 2 2 2 2 2 2 2 2 2
left_child=4 -2 3 -3 8 6 7 -6 -1 -7 -11
right_child=1 2 -4 -5 5 9 -8 -9 -10 10 -12
leaf_value=0.11978196377105611 -0.037859954162475846 0.094719666034534966 -0.052160516826007509 0.017610341287992076 0.086601860844127521 0.070712571340609279 -2.3624248361295525e-05 -0.13519654343302753 -0.033079221894939496 -0.04968887646993838 0.046249313326838015
leaf_weight=3.6638954281806937 217.63538652658463 8.0605699419975299 31.509500682353973 14.655581712722777 21.250593483448032 7.3277908563613883 16.121139883995056 3.6638954281806937 57.889547765254974 30.043942511081696 3.6638954281806937
leaf_count=5 153 11 43 20 29 10 22 5 79 41 5
internal_value=0 -0.00119517 0.00119753 0.00555354 0.00119812 0.0027216 0.00519906 0.00849142 -0.000508606 0 -0.00055284
internal_weight=0 271.861 54.2257 22.7162 143.625 82.0713 41.0356 24.9145 61.5534 41.0356 33.7078
internal_count=423 227 74 31 196 112 56 34 84 56 46
is_linear=0
shrinkage=0.0215021


Tree=9
num_leaves=12
num_cat=0
split_feature=19 27 13 15 1 104 18 11 13 13 44
split_gain=1.20568 1.07122 2.0579 0.923578 1.1479 1.63266 1.00531 0.28473 0.185944 0.105995 0.100346
threshold=46.854999542236335 -10.680877208709715 1.5220679044723513 49.86000061035157 50.109998703002937 1.3375741839408877 4.4463920593261728 0.53355947136878978 1.4405501484870913 3.9173096418380742 0.11377650126814844
decision_type=2 2 2 2 2 2 2 2 2 2 2
left_child=3 2 -2 7 5 6 -5 -1 -6 -10 -3
right_child=1 10 -4 4 8 -7 -8 -9 9 -11 -12
leaf_value=0.11720639466816324 0.075420917852492789 -0.020374577678847476 -0.027953458891453325 0.084739735111496475 0.069192099408131341 -2.3116276357478341e-05 -0.13228952780962733 -0.032367947683212717 -0.048620459064142287 0.045254853905031492 -0.011454032170431698
leaf_weight=3.6638954281806937 8.0605699419975299 227.16151463985443 21.983372569084167 21.250593483448032 7.3277908563613883 16.121139883995056 3.6638954281806937 57.889547765254974 30.043942511081696 3.6638954281806937 14.655581712722777
leaf_count=5 11 166 30 29 10 22 5 79 41 5 20
internal_value=0 -0.00119517 0.00226542 0.00119812 0.0027216 0.00519906 0.00849142 -0.000508606 0 -0.00055284 -0.00172481
internal_weight=0 271.861 30.0439 143.625 82.0713 41.0356 24.9145 61.5534 41.0356 33.7078 241.817
internal_count=423 227 41 196 112 56 34 84 56 46 186
is_linear=0
shrinkage=0.0215021


Tree=10
num_leaves=17
num_cat=0
split_feature=39 0 5 55 54 7 34 42 9 32 43 31 1 2 102 2
split_gain=1.48378 3.5291 1.15679 1.08777 1.3581 0.574507 1.72417 0.969776 0.773101 0.841637 0.726826 0.48952 0.371442 0.23135 0.288869 0.103614
threshold=202.72499847412112 52.179998397827156 0.88653412461280834 0.6205866038799287 -0.68301269412040699 -0.56187480688095082 10.85977077484131 13.491974830627443 1.4590824842453005 8.6736545562744158 -0.013748624827712773 0.18103311955928805 50.674999237060554 48.539999008178718 -0.60332611203193653 48.86000061035157
decision_type=2 2 2 2 2 2 2 2 2 2 2 2 2 2 2 2
left_child=5 3 -3 4 -2 6 7 -1 -8 -10 -9 -6 13 -7 -15 -14
right_child=1 2 -4 -5 11 12 8 10 9 -11 -12 -13 15 14 -16 -17
leaf_value=-0.04500055633210525 -0.019936480563872559 0.044281777493490007 0.013009489168203405 -0.039154461050461234 0.12741584129321171 -0.052937046409765647 -0.080010839690258725 0.0016804065296506007 0.06421835449323586 -0.009422671756370099 0.10200072369862236 0.002721357374355267 0.010147153782935701 0.032055051393489804 0.013399808793504572 -0.044279861991969066
leaf_weight=5.1294535994529751 9.5261281132698077 15.388360679149629 5.1294535994529715 55.69120979309082 7.3277908563613874 36.638954281806946 85.002373933792114 4.3966745138168344 8.0605699419975299 18.319477140903473 9.5261281132698024 3.6638954281806946 2.9311163425445548 7.3277908563613918 21.250593483448029 156.81472277641296
leaf_count=7 13 12 7 22 10 50 116 6 11 25 13 5 4 10 29 97
internal_value=0 0.00231553 0.0099008 0 0.00417586 -0.000668195 0.000338609 0.00616026 -0.000535343 0.00228055 0.00892423 0.00900011 -0.00134527 0 0.00143288 -0.00189915
internal_weight=0 96.7268 20.5178 76.209 20.5178 355.398 130.435 19.0523 111.382 26.38 13.9228 10.9917 224.963 65.2173 28.5784 159.746
internal_count=437 69 19 50 28 368 178 26 152 36 19 15 190 89 39 101
is_linear=0
shrinkage=0.0215021


Tree=11
num_leaves=15
num_cat=0
split_feature=39 33 33 38 0 115 13 15 7 3 8 14 38 4
split_gain=1.53069 3.78904 1.3108 1.0938 1.01514 0.833394 1.85906 1.23831 1.35604 0.63806 0.590701 0.826216 0.229661 0.199055
threshold=202.72499847412112 3.5158660411834721 8.3696899414062518 205.07142639160159 45.23500061035157 10.500000000000002 1.5838451981544497 50.829999923706062 4.283808946609498 46.899999618530281 -0.59609922766685475 44.510000228881843 202.21428680419925 48.164999008178718
decision_type=2 2 2 2 2 2 2 2 2 2 2 2 2 2
left_child=5 3 12 -2 -4 9 7 -7 -9 10 11 -1 -3 -11
right_child=1 2 4 -5 -6 6 -8 8 -10 13 -12 -13 -14 -15
leaf_value=-0.00034679653187475227 0.04332962431163536 0.080937149837649353 -0.035227045896522799 0.076064052561902754 0.085778343157356482 -0.00073807947283023112 -0.049485782542914268 0.095567886559542833 -0.0063436785469485283 0.020064201600943826 -0.0072242658764896878 0.051768909998534916 -0.038312556168063928 -0.043327749997505056
leaf_weight=5.1294535994529706 13.190023422241213 8.0605699419975263 5.1294535994529715 4.3966745138168326 8.7933490276336652 11.724465370178221 40.30284970998764 16.853918969631199 5.1294535994529715 17.586698055267334 27.11282616853714 6.5950117707252502 57.156767964363098 224.96317774057388
leaf_count=7 9 11 7 6 12 16 55 23 7 24 37 9 24 190
internal_value=0 0.00231553 0 0.0109259 0.00585936 -0.000712343 0.00115502 0.00493857 0.0078068 -0.00128303 0.000912213 0.00480791 -0.00107109 -0.00172608
internal_weight=0 96.7268 79.1401 17.5867 13.9228 355.398 74.0107 33.7078 21.9834 281.387 38.8373 11.7245 65.2173 242.55
internal_count=437 69 54 15 19 368 101 46 30 267 53 16 35 214
is_linear=0
shrinkage=0.0215021


Tree=12
num_leaves=16
num_cat=0
split_feature=39 33 44 38 33 3 29 15 104 108 105 33 44 44 8
split_gain=1.53069 3.78904 1.68291 1.0938 0.703872 0.619265 1.00344 1.03536 0.404883 1.2321 0.562574 0.307294 0.158442 0.133606 0.103821
threshold=202.72499847412112 3.5158660411834721 0.018437225371599201 205.07142639160159 6.5258526802062997 48.549999237060554 0.4199769943952561 49.86000061035157 -0.21530213207006452 1.637311637401581 -1.1418201923370359 13.207483291625978 0.11377650126814844 0.13581754267215732 -7.7545785903930655
decision_type=2 2 2 2 2 2 2 2 2 2 2 2 2 2 2
left_child=5 3 14 -2 -4 6 7 -1 9 10 -7 -6 -10 -11 -3
right_child=1 2 4 -5 11 8 -8 -9 12 13 -12 -13 -14 -15 -16
leaf_value=0.000531131598043573 0.042397944465157753 0.083933924821089287 -0.044295722418733363 0.074428512306495831 0.11020616968584947 -0.049630127550098165 -0.072412713461853698 0.1062869531401222 -0.042396110452800874 -0.043638228352006633 0.086813129779209006 0.040515331570819484 0.019720833523863598 0.03522195214830616 -0.0374887540461692
leaf_weight=15.388360798358919 13.190023422241213 0.73277908563613792 4.3966745138168362 4.3966745138168326 10.258907198905943 3.6638954281806955 30.043942511081696 8.7933490276336652 200.04868882894516 61.553443193435669 10.99168628454208 3.6638954281806937 19.785035312175751 5.1294535994529715 60.087884306907654
leaf_count=21 9 1 6 6 14 5 41 12 156 84 15 5 27 7 28
internal_value=0 0.00231553 0 0.0109259 0.00567253 -0.000712343 0.00119753 0.00450039 -0.00113149 0 0.00549606 0.00790261 -0.00161137 -0.00109428 -0.00150061
internal_weight=0 96.7268 79.1401 17.5867 18.3195 355.398 54.2257 24.1817 301.172 81.3385 14.6556 13.9228 219.834 66.6829 60.8207
internal_count=437 69 54 15 25 368 74 33 294 111 20 19 183 91 29
is_linear=0
shrinkage=0.0215021


Tree=13
num_leaves=11
num_cat=0
split_feature=56 108 5 13 39 116 3 29 46 44
split_gain=1.4005 2.39773 0.912871 1.25549 0.752745 0.823704 0.630968 0.88153 0.306557 0.182703
threshold=10.500000000000002 1.6106976270675661 1.740560054779053 1.6914557218551638 202.84999847412112 0.21272727847099307 48.549999237060554 0.4199769943952561 -3.4095699787139888 -0.12128721177577971
decision_type=2 2 2 2 2 2 2 2 2 2
left_child=-1 2 3 -2 6 -6 7 -3 -7 -8
right_child=1 4 -4 -5 5 8 9 -9 -10 -11
leaf_value=-0.036805934566002507 0.098664182173211837 0.048370369977859824 -0.0043215869616510649 -0.048562973372070301 0.076827158546055069 0.12046204012185673 0.00068696998007671374 -0.070855684827680884 -0.0015512449756444069 -0.047510124795581046
leaf_weight=163.40973371267319 20.517814397811893 22.716151654720306 8.7933490276336652 5.1294535994529715 7.3277908563613883 5.1294535994529715 16.121139883995056 30.043942511081696 27.845605254173279 145.09025895595551
leaf_count=43 28 31 12 7 10 7 22 41 38 198
internal_value=0 0.000447111 0.00567083 0.00762377 -0.000205465 0.00231253 -0.000792333 0.000997569 6.1851e-05 -0.00151406
internal_weight=0 288.715 34.4406 25.6473 254.274 40.3028 213.971 52.7601 32.9751 161.211
internal_count=437 394 47 35 347 55 292 72 45 220
is_linear=0
shrinkage=0.0215021


Tree=14
num_leaves=17
num_cat=0
split_feature=41 17 15 101 43 100 44 16 3 106 24 15 44 28 104 45
split_gain=0.752649 1.03415 2.35275 2.59032 1.58125 0.518335 0.549034 0.571841 0.494093 0.442235 0.283696 0.162687 0.194301 0.160498 0.140798 0.128558
threshold=199.70832824707034 52.172582626342781 59.530000686645515 1.0048371553421023 0.072445679455995574 0.4335093498229981 0.047104934230446822 1.7550656795501711 44.995000839233406 1.0000000180025095e-35 1.0000000180025095e-35 63.154998779296882 0.11377650126814844 0.070269558578729643 -0.85611259937286366 0.7311781942844392
decision_type=2 2 2 2 2 2 2 2 2 2 2 2 2 2 2 2
left_child=8 5 3 4 -3 10 -7 -8 9 -1 -2 12 -10 15 -5 -4
right_child=1 2 13 14 -6 6 7 -9 11 -11 -12 -13 -14 -15 -16 -17
leaf_value=0.11787184791894459 -0.0026335321595951826 0.082824969801590487 -0.083708136684869844 0.039834349062833077 -0.11810364595102993 -0.0011366853838794605 0.10571500918202953 -0.095091982465735969 -0.045869519096664167 -0.0005203555589435617 0.025322724552481843 0.056794447658857466 0.017175301800426004 -0.085530258657240427 -0.0060319951473580382 0.035046789422355104
leaf_weight=5.8622326850891096 87.933489441871643 22.71615153551102 5.8622326850891096 3.6638954281806972 4.3966745138168326 25.647267997264862 7.3277908563613874 3.6638954281806946 164.14251399040222 6.5950117707252502 26.380047082901001 5.8622326850891104 17.586698055267334 39.570070624351501 21.250593245029449 3.6638954281806946
leaf_count=8 57 22 8 5 6 35 10 5 134 9 36 8 24 54 11 5
internal_value=0 0.00057385 0.00227775 0.00545607 0.00987651 -0.000437732 0.00150186 0.00521608 -0.00116759 0.00218479 -0.00125646 -0.00151949 -0.00167129 -0.000727254 0 0.000479189
internal_weight=0 252.076 101.124 52.0273 27.1128 150.952 36.639 10.9917 200.049 12.4572 114.314 187.591 181.729 49.0962 24.9145 9.52613
internal_count=437 254 111 44 28 143 50 15 183 17 93 166 158 67 16 13
is_linear=0
shrinkage=0.0215021


Tree=15
num_leaves=15
num_cat=0
split_feature=3 8 54 116 39 115 102 28 9 115 7 106 102 45
split_gain=0.847834 0.504787 0.86317 0.455123 0.565806 0.444179 0.435839 0.716012 0.40656 0.321325 0.263022 0.192488 0.151506 0.129893
threshold=47.319999694824226 7.6119720935821542 -0.93301269412040699 0.23356989771127704 203.03666687011722 9.5000000000000018 -0.078307550400495515 0.56104409694671642 -1.8106890320777891 18.500000000000004 -1.379659056663513 2.273766398429871 3.0481821298599248 -0.61669814586639393
decision_type=2 2 2 2 2 2 2 2 2 2 2 2 2 2
left_child=1 2 -1 4 13 11 -4 -8 -6 10 -7 12 -5 -2
right_child=3 -3 6 5 8 9 7 -9 -10 -11 -12 -13 -14 -15
leaf_value=0.10236468046282472 0.064574025599706639 -0.061623177203999548 -0.033573518570028826 -0.035834632320973704 0.078696302288567319 0.081044055326213033 0.10344190977048805 -0.012374716733323961 0.038977825130096615 -0.04550226219192819 -0.0011122442104151071 0.15511094856454236 0.010944226940229016 -0.064831924697766247
leaf_weight=8.0605699419975227 12.45724445581436 13.922802627086638 16.853918969631195 210.30759590864182 3.6638954281806946 18.319477140903473 8.0605699419975334 6.5950117707252494 5.1294535994529706 29.311163425445557 17.586698055267334 5.8622326850891104 11.724465370178221 26.380047082901001
leaf_count=11 17 19 23 161 5 25 11 9 7 40 24 8 16 36
internal_value=0 0.00181517 0.00315944 -0.00097304 0.000684806 -0.00131754 0.000637389 0.00354549 0.00525856 0 0.00157341 -0.00176767 -0.00189862 0
internal_weight=0 53.4929 39.5701 340.742 47.6306 293.112 31.5095 14.6556 8.79335 65.2173 35.9062 227.894 222.032 38.8373
internal_count=412 73 54 339 65 274 43 20 12 89 49 185 177 53
is_linear=0
shrinkage=0.0215021


Tree=16
num_leaves=15
num_cat=0
split_feature=19 45 2 53 109 27 106 42 24 116 45 6 3 45
split_gain=1.26303 1.04719 1.17972 0.921187 0.746487 0.678437 0.397323 0.251966 0.472381 0.219436 0.211657 0.173346 0.120618 0.108345
threshold=46.854999542236335 -0.56005913019180287 46.880001068115241 1.0000000180025095e-35 200.31333923339847 -7.8269250392913809 0.84206849336624157 15.19589138031006 5.6965510845184335 0.45785501599311834 0.15270813554525378 -5.0787127017974845 46.899999618530281 0.78042766451835643
decision_type=2 2 2 2 2 2 2 2 2 2 2 2 2 2
left_child=1 2 -1 -4 -5 7 9 -2 -9 -3 -8 -7 -11 -12
right_child=5 6 3 4 -6 11 10 8 -10 12 13 -13 -14 -15
leaf_value=-0.023835783253200581 -0.00033819437805312325 -0.036721995639165755 -0.012108633785006984 0.10016362030378882 0.058958437186732854 0.037533911045598611 -0.079789857206993942 0.079301434331366938 -0.1211313494697011 0.067391807252855179 0.15177573052281096 -0.02348083662473158 -0.035778000458349862 0.032497329201157311
leaf_weight=15.388360798358915 19.785035312175751 64.484559535980225 5.1294535994529751 15.388360798358919 7.3277908563613883 9.5261281132698041 8.0605699419975299 7.3277908563613874 5.1294535994529724 3.6638954281806937 5.8622326850891096 211.77315407991409 10.991686284542082 4.3966745138168335
leaf_count=21 27 88 7 21 10 13 11 10 7 5 8 163 15 6
internal_value=0 0.00104552 0.00378123 0.00635466 0.00815616 -0.00143547 0 0.00104381 0.00331369 -0.000866623 0.00249256 -0.00189779 0.00061963 0.00433518
internal_weight=0 140.694 43.234 27.8456 22.7162 253.542 97.4596 32.2423 12.4572 79.1401 18.3195 221.299 14.6556 10.2589
internal_count=412 192 59 38 31 220 133 44 17 108 25 176 20 14
is_linear=0
shrinkage=0.0215021


Tree=17
num_leaves=13
num_cat=0
split_feature=1 15 28 7 42 55 40 11 103 7 17 107
split_gain=0.723288 0.978011 1.28696 0.629318 0.722575 1.05844 0.60354 0.367527 0.354844 0.189422 0.217491 0.135978
threshold=50.034999847412116 50.829999923706062 0.24579533189535144 -1.379659056663513 14.834072589874269 -0.13690101355314252 14.147438049316408 0.8097045123577119 -1.6784525513648985 -5.7045104503631583 47.733402252197273 4.3994600772857675
decision_type=2 2 2 2 2 2 2 2 2 2 2 2
left_child=1 8 -3 4 11 -6 -4 -8 9 -1 -11 -2
right_child=3 2 6 -5 5 -7 7 -9 -10 10 -12 -13
leaf_value=-0.044342062019938795 -0.092509791687624326 -0.014912150728666874 0.053723737932752619 -0.0040090604411345205 -0.048558290705610387 0.084296125691573465 0.081170110275391699 0.10565894157124829 -0.043040889886523728 0.064148409036205015 -0.0070439095621995292 0.033959816494500646
leaf_weight=7.3277908563613918 49.096198737621307 21.250593483448029 5.862232685089114 197.11757236719131 10.991686284542086 8.0605699419975263 5.862232685089114 11.724465370178221 52.760094165802002 10.258907198905943 3.6638954281806937 10.258907198905943
leaf_count=10 67 29 8 143 15 11 8 16 72 14 5 14
internal_value=0 0.000712425 0.00325202 -0.0012078 0.00018443 0.00386032 0.00659036 0.0084494 -0.000570765 0.00120183 0.00279448 -0.00070822
internal_weight=0 118.71 44.6995 275.525 78.4074 19.0523 23.4489 17.5867 74.0107 21.2506 13.9228 59.3551
internal_count=412 162 61 250 107 26 32 24 101 29 19 81
is_linear=0
shrinkage=0.0215021


Tree=18
num_leaves=12
num_cat=0
split_feature=32 0 3 2 2 27 32 55 103 27 37
split_gain=1.13413 3.03622 0.793644 0.722127 0.902176 0.418539 0.617469 0.638746 0.321634 0.26941 0.214771
threshold=0.91098743677139293 52.510000228881843 47.319999694824226 48.86000061035157 51.159999847412116 -7.8269250392913809 3.5723129510879521 -0.23802450299262998 -1.4102200269699094 27.959856986999515 210.50000000000003
decision_type=2 2 2 2 2 2 2 2 2 2 2
left_child=1 -1 3 8 -5 6 7 -4 -2 -7 -11
right_child=2 -3 5 4 -6 9 -8 -9 -10 10 -12
leaf_value=-0.014591507507723823 0.031309626297671249 0.029083370631299059 -0.066013407686703773 0.10338704773358 -0.0065576523363133033 -0.031448798008838423 -0.0029885607172804528 0.082483578209552211 -0.046034540154971208 -0.034083225282643397 0.061352456140923398
leaf_weight=25.647267878055573 9.5261281132698041 10.258907079696653 3.6638954281806946 7.3277908563613874 4.3966745138168335 220.56650334596634 46.897861480712891 5.1294535994529706 30.776721596717834 23.448930740356449 6.5950117707252494
leaf_count=26 13 5 5 10 6 193 64 7 42 32 9
internal_value=0 0.0032583 -0.000636479 0.00162938 0.00599936 -0.00109727 0.000285236 0.00525856 0 -0.00148965 0
internal_weight=0 35.9062 358.329 52.0273 11.7245 306.302 55.6912 8.79335 40.3028 250.61 30.0439
internal_count=412 31 381 71 16 310 76 12 55 234 41
is_linear=0
shrinkage=0.0215021


Tree=19
num_leaves=15
num_cat=0
split_feature=1 15 21 21 27 11 100 24 107 55 7 42 116 44
split_gain=0.688686 0.678198 0.974254 0.844552 0.647317 0.547373 0.296057 0.332002 0.32379 0.27424 0.585994 0.339077 0.198907 0.123107
threshold=50.210000991821296 50.55999946594239 -0.49976110458374018 1.4827851653099062 -7.8269250392913809 0.99626085162162792 0.4335093498229981 0.40686640143394476 -1.3665739893913267 -0.23802450299262998 -2.569416761398315 15.19589138031006 0.50333464145660411 -0.097401112318038927
decision_type=2 2 2 2 2 2 2 2 2 2 2 2 2 2
left_child=1 6 13 5 9 -4 -1 8 -8 -2 11 -11 -6 -3
right_child=4 2 3 -5 12 -7 7 -9 -10 10 -12 -13 -14 -15
leaf_value=-0.041439201847795912 -0.035781930117870835 0.079738527532851808 0.10116400448567606 -0.0018299750296294848 -0.0064166487476828597 0.093514950572946121 0.09967765485186357 -0.038276039551994795 0.030636402186322263 0.025296092118527028 -0.044366130205366144 0.080710004385544612 0.15023255081045039 -0.045275162809299468
leaf_weight=48.363419651985168 25.647267997264862 4.3966745138168362 6.5950117707252565 5.1294535994529715 218.36816585063934 10.258907198905943 5.1294535994529724 11.724465370178221 6.595011770725252 4.3966745138168353 11.724465370178221 5.1294535994529724 5.1294535994529715 25.647267997264862
leaf_count=66 35 6 9 7 172 14 7 16 9 6 16 7 7 35
internal_value=0 0.000595273 0.00251246 0.00579393 -0.00124797 0.00801412 -0.000523403 0.000906473 0.00361645 0.00072773 0.00258697 0.00619518 -0.0017602 0
internal_weight=0 123.84 52.0273 21.9834 270.395 16.8539 71.8124 23.4489 11.7245 46.8979 21.2506 9.52613 223.498 30.0439
internal_count=412 169 71 30 243 23 98 32 16 64 29 13 179 41
is_linear=0
shrinkage=0.0215021


Tree=20
num_leaves=13
num_cat=0
split_feature=46 13 29 116 23 30 116 24 22 37 37 39
split_gain=1.16114 1.85802 1.75266 0.694455 0.628244 0.320738 0.303493 0.241634 0.174533 0.158124 0.104538 0.100656
threshold=-0.51801618933677662 1.5220679044723513 -0.58531731367111195 0.27789364755153662 2.9324221611022954 0.58791047334671032 0.21272727847099307 6.3021006584167489 0.99588769674301159 228.50000000000003 196.50000000000003 197.94493103027347
decision_type=2 2 2 2 2 2 2 2 2 2 2 2
left_child=1 2 -1 -4 6 -6 7 -2 10 -10 -8 -3
right_child=4 11 3 -5 5 -7 8 -9 9 -11 -12 -13
leaf_value=-0.078073972438817626 -0.002997884550881796 0.018896162195036662 0.026722577607933697 0.0975343715060005 -0.058029499856940149 0.13004787924151129 0.11887071235047128 0.078023978185369727 -0.017013101208668203 0.0044114620758347739 -0.044920342346069481 -0.046699995007691807
leaf_weight=9.5261281132698077 17.586698055267338 14.655581712722777 4.3966745138168362 16.121139883995056 3.6638954281806928 5.8622326850891113 4.3966745138168362 5.8622326850891104 278.45605075359344 8.7933490276336652 13.190023541450499 32.242279767990112
leaf_count=13 24 20 6 22 5 8 6 8 245 12 18 44
internal_value=0 0.00163411 0.00576194 0.00918518 -0.00119505 0.00333719 -0.00140635 0.00027493 -0.00160658 -0.00173717 0 -0.00066262
internal_weight=0 76.9418 30.0439 20.5178 337.811 9.52613 328.285 23.4489 304.836 287.249 17.5867 46.8979
internal_count=431 105 41 28 326 13 313 32 281 257 24 64
is_linear=0
shrinkage=0.0215021


Tree=21
num_leaves=14
num_cat=0
split_feature=46 13 29 40 103 23 116 24 3 22 37 109 37
split_gain=1.01343 1.58685 1.52671 0.814647 0.713923 0.628244 0.303493 0.241634 0.208537 0.174533 0.158124 0.10597 0.104538
threshold=-0.51801618933677662 1.5220679044723513 -0.58531731367111195 13.232773303985597 -0.9264334738254546 2.9324221611022954 0.21272727847099307 6.3021006584167489 46.594999313354499 0.99588769674301159 228.50000000000003 197.96999359130862 196.50000000000003
decision_type=2 2 2 2 2 2 2 2 2 2 2 2 2
left_child=1 2 -1 -4 -5 6 7 -2 -7 12 -11 -3 -8
right_child=5 11 3 4 -6 8 9 -9 -10 10 -12 -13 -14
leaf_value=-0.076395214595626232 -0.0029334236038393055 0.097248255802630468 0.059204815768885449 0.096891563277604842 0.091914785124939849 0.1272515709399428 0.11631473710737111 0.076346295325844055 0.071506519470680999 -0.016647283046752042 0.0043166061804779405 -0.04175654310785739 -0.043954458650431974
leaf_weight=9.5261281132698077 17.586698055267338 3.6638954281806937 5.1294535994529751 11.724465370178224 3.6638954281806901 3.6638954281806928 4.3966745138168362 5.8622326850891104 5.8622326850891113 278.45605075359344 8.7933490276336652 43.233966052532196 13.190023541450499
leaf_count=13 24 5 7 16 5 5 6 8 8 245 12 59 18
internal_value=0 0.00143325 0.00526244 0.00846956 0.0107621 -0.00119505 -0.00140635 0.00027493 0.00333719 -0.00160658 -0.00173717 -0.00066262 0
internal_weight=0 76.9418 30.0439 20.5178 15.3884 337.811 328.285 23.4489 9.52613 304.836 287.249 46.8979 17.5867
internal_count=431 105 41 28 21 326 313 32 13 281 257 64 24
is_linear=0
shrinkage=0.0215021


Tree=22
num_leaves=15
num_cat=0
split_feature=39 51 32 41 46 13 8 56 104 56 56 23 3 102
split_gain=1.4367 2.26819 1.69819 0.720147 0.504573 0.498259 0.467621 0.359655 0.76457 0.338646 0.311463 0.248868 0.117938 0.103521
threshold=202.72499847412112 -0.87837970256805409 3.5723129510879521 202.70000457763675 -0.51801618933677662 1.1725760102272036 -2.8701268434524532 92.500000000000014 -0.42347940802574152 209.50000000000003 222.00000000000003 2.9324221611022954 46.594999313354499 -0.46477836370468134
decision_type=2 2 2 2 2 2 2 2 2 2 2 2 2 2
left_child=4 2 -2 5 7 -3 -7 8 -1 -9 -11 13 -13 -6
right_child=1 3 -4 -5 11 6 -8 9 -10 10 -12 12 -14 -15
leaf_value=0.074793991642808894 0.0019880892904161496 -0.016710857343469037 -0.044797989736224335 -0.016289330759842818 -0.0013126640616610097 0.1154746246379771 0.034338644261633876 -0.045720291119415168 -0.056916141953634786 0.095157209746362686 -0.10938934089127142 0.12451538926376048 -0.049194989850218404 -0.037736898094904846
leaf_weight=8.0605699419975299 10.258907079696653 11.724465370178224 4.3966745138168326 38.104511976242065 63.751780450344086 6.5950117707252529 11.724465370178221 35.906175196170807 11.724465370178221 3.6638954281806937 3.6638954281806946 3.6638954281806928 4.3966745138168335 197.11757284402847
leaf_count=11 5 16 6 16 87 9 16 49 16 5 5 5 6 179
internal_value=0 0.00211856 0.00939721 7.58604e-05 -0.000989249 0.00276492 0.00487754 0.000497052 0.00291314 -0.000188557 0.00291883 -0.00141787 0.000882255 -0.00157554
internal_weight=0 82.804 14.6556 68.1485 331.949 30.0439 18.3195 63.019 19.785 43.234 7.32779 268.93 8.06057 260.869
internal_count=431 68 11 57 363 41 25 86 27 59 10 277 11 266
is_linear=0
shrinkage=0.0215021


Tree=23
num_leaves=11
num_cat=0
split_feature=39 11 32 46 108 3 108 3 44 38
split_gain=1.39085 2.30672 1.81957 0.635729 0.59231 0.531106 0.480616 0.240246 0.158708 0.117938
threshold=202.72499847412112 0.62622258067131054 3.0083425045013432 -2.4352791309356685 2.4245550632476811 51.639999389648445 1.6106976270675661 48.549999237060554 0.093382973223924651 205.92857360839847
decision_type=2 2 2 2 2 2 2 2 2 2
left_child=3 2 -2 6 8 -6 -1 -5 -3 -10
right_child=1 4 -4 7 5 -7 -8 -9 9 -11
leaf_value=0.052433794230250741 0.065902054269924473 -0.015939075214758895 -0.0051626187298998809 -0.0010821353433119606 0.11299167256387199 -0.01635153807284034 -0.02579704794238994 -0.03692547385612692 0.11417304008411565 -0.050738430581749483
leaf_weight=8.7933490276336652 11.724465250968935 48.36341917514801 5.1294535994529715 52.027315080165863 5.8622326850891096 3.6638954281806946 36.638954281806946 234.48930621147156 3.6638954281806928 4.3966745138168335
leaf_count=12 7 30 7 71 8 5 50 230 5 6
internal_value=0 0.00211856 0.00887259 -0.000941996 0 0.00476618 0.00115332 -0.00135318 -0.000635251 0.000882255
internal_weight=0 82.804 16.8539 331.949 65.9501 9.52613 45.4323 286.517 56.424 8.06057
internal_count=431 68 14 363 54 13 62 301 41 11
is_linear=0
shrinkage=0.0215021


Tree=24
num_leaves=11
num_cat=0
split_feature=46 13 19 1 22 14 39 31 43 107
split_gain=0.906273 0.83877 0.772892 0.60155 0.551448 0.767015 0.449165 0.185455 0.123441 0.120618
threshold=-2.4352791309356685 1.5220679044723513 48.640001296997077 50.475000381469734 1.148189425468445 46.219999313354499 197.48683929443362 0.54353812336921703 0.12928441166877749 1.8108453750610354
decision_type=2 2 2 2 2 2 2 2 2 2
left_child=1 2 9 4 5 -2 -7 -5 -6 -1
right_child=3 -3 -4 7 8 6 -8 -9 -10 -11
leaf_value=-0.00050962410778809873 -0.0040833987911923332 -0.02524235608783611 0.072058321396573533 -0.015596350915044755 -0.01408084342254998 -0.0071793407142926738 0.087915604275248097 0.066801058177555328 0.026396374501580742 0.11056210928424559
leaf_weight=10.991686284542086 30.776721596717834 34.440617024898529 5.1294535994529715 230.82541018724442 62.286222279071808 7.3277908563613918 16.853918969631195 5.8622326850891104 6.5950117707252494 3.6638954281806937
leaf_count=15 42 47 7 180 85 10 23 8 9 5
internal_value=0 0.00176303 0.0051339 -0.0010809 0 0.00171224 0.00450039 -0.00171565 -0.00112727 0.00061963
internal_weight=0 54.2257 19.785 360.527 123.84 54.9584 24.1817 236.688 68.8812 14.6556
internal_count=431 74 27 357 169 75 33 188 94 20
is_linear=0
shrinkage=0.0215021


Tree=25
num_leaves=10
num_cat=0
split_feature=19 15 39 39 53 101 4 27 56
split_gain=0.972406 1.49511 1.23431 1.3875 1.9596 0.741416 0.903603 0.679057 0.750186
threshold=46.854999542236335 49.86000061035157 201.8619079589844 205.03333282470706 0.68301269412040722 -0.81819480657577504 51.750000000000007 -7.2627646923065177 20.500000000000004
decision_type=2 2 2 2 2 2 2 2 2
left_child=1 -1 5 4 -4 6 -3 8 -2
right_child=7 2 3 -5 -6 -7 -8 -9 -10
leaf_value=-0.035819248365735301 0.074156051346859875 0.086025230241422154 0.0040982379167726337 -0.0080803207598236435 0.09133284985045842 -0.0039955969600127652 -0.13959247391288723 -0.015260995922773612 -0.0013518291107088589
leaf_weight=59.355105936527252 4.3966745138168326 10.991686284542086 9.5261281132698095 7.3277908563613883 13.1900235414505 39.570070624351501 7.3277908563613883 202.24702620506287 32.975058853626251
leaf_count=81 6 15 13 10 18 54 10 168 45
internal_value=0 0.000903869 0.00275462 0.00626145 0.00880681 0.000460391 0.00408255 -0.0012635 0.00102767
internal_weight=0 147.289 87.9335 30.0439 22.7162 57.8895 18.3195 239.619 37.3717
internal_count=420 201 120 41 31 79 25 219 51
is_linear=0
shrinkage=0.0215021


Tree=26
num_leaves=12
num_cat=0
split_feature=19 15 39 39 53 101 4 46 105 40 24
split_gain=0.972406 1.49511 1.23431 1.3875 1.9596 0.741416 0.903603 0.668957 0.699545 0.253726 0.102621
threshold=46.854999542236335 49.86000061035157 201.8619079589844 205.03333282470706 0.68301269412040722 -0.81819480657577504 51.750000000000007 -2.4352791309356685 -1.8853165507316587 14.007071971893312 -7.0791282653808585
decision_type=2 2 2 2 2 2 2 2 2 2 2
left_child=1 -1 5 4 -4 6 -3 8 -2 -10 -9
right_child=7 2 3 -5 -6 -7 -8 10 9 -11 -12
leaf_value=-0.035049057708684758 -0.068740045149925419 0.084175503303378835 0.0040101170125693923 -0.0079065765346058685 0.089368997708214312 -0.0039096830565014387 -0.13659093635675235 -0.0031814072090685062 0.014981172580956334 0.068914398814400563 -0.014932851782031395
leaf_weight=59.355105936527252 19.052256226539615 10.991686284542086 9.5261281132698095 7.3277908563613883 13.1900235414505 39.570070624351501 7.3277908563613883 14.655581712722777 4.3966745138168317 5.8622326850891113 195.65201443433762
leaf_count=81 26 15 13 10 18 54 10 20 6 8 159
internal_value=0 0.000903869 0.00275462 0.00626145 0.00880681 0.000460391 0.00408255 -0.0012635 0.00134766 0.00567512 -0.00173591
internal_weight=0 147.289 87.9335 30.0439 22.7162 57.8895 18.3195 239.619 29.3112 10.2589 210.308
internal_count=420 201 120 41 31 79 25 219 40 14 179
is_linear=0
shrinkage=0.0215021


Tree=27
num_leaves=14
num_cat=0
split_feature=27 108 19 41 2 30 21 4 4 17 24 108 46
split_gain=0.928029 1.80093 0.756234 1.04964 0.714151 0.48952 0.256059 0.304226 0.486273 0.251258 0.43921 0.134091 0.103022
threshold=-7.2627646923065177 1.7076801657676699 46.854999542236335 201.66397857666018 48.86000061035157 -0.0096566843567416055 0.64839631319046032 50.074998855590827 48.420000076293952 52.172582626342781 5.1470170021057138 1.7610019445419314 -3.2713537216186519
decision_type=2 2 2 2 2 2 2 2 2 2 2 2 2
left_child=1 5 3 9 11 -1 7 8 -3 -2 -11 -5 -4
right_child=2 6 12 4 -6 -7 -8 -9 -10 10 -12 -13 -14
leaf_value=0.023173624636142948 -0.034295427802495074 -0.06955755560725943 -0.055285966481948695 0.091280398267753859 0.08236554946138791 0.072629944287206843 -0.040397481138980222 -0.00603008830820209 0.11828943064332294 -0.0021015982344726263 0.06975103693001769 -0.0032250224612682303 -0.014611763444045966
leaf_weight=3.6638954281806946 58.622326850891113 8.0605699419975263 15.388360798358915 3.6638954281806972 8.0605699419975263 7.3277908563613874 29.311163425445557 30.776721596717834 6.5950117707252494 14.65558171272278 3.6638954281806937 10.258907198905943 186.85866540670395
leaf_count=5 80 11 21 5 11 10 40 42 9 20 5 14 147
internal_value=0 0.00143327 -0.00102737 0.000335025 0.00445202 0.00900011 0 0.00115332 0.00354549 -0.000629783 0.000902579 0 -0.00179685
internal_weight=0 85.7352 301.172 98.9252 21.9834 10.9917 74.7435 45.4323 14.6556 76.9418 18.3195 13.9228 202.247
internal_count=420 117 303 135 30 15 102 62 20 105 25 19 168
is_linear=0
shrinkage=0.0215021


Tree=28
num_leaves=13
num_cat=0
split_feature=45 45 11 27 108 19 42 2 7 30 33 33
split_gain=0.836398 2.15889 1.53122 1.0395 2.02947 1.02107 0.779261 0.697034 0.283949 0.136809 0.123848 0.233689
threshold=-0.56005913019180287 -0.68880152702331532 0.53355947136878978 -7.2627646923065177 1.7076801657676699 46.915000915527351 14.116540908813478 49.264999389648445 -3.3591496944427486 0.67455801367759716 9.9964232444763201 14.894316196441652
decision_type=2 2 2 2 2 2 2 2 2 2 2 2
left_child=1 5 -3 4 -2 6 7 -1 9 -5 -6 -12
right_child=3 2 -4 8 10 -7 -8 -9 -10 -11 11 -13
leaf_value=0.061405640940351884 0.071068244724420374 0.057209370604812092 0.026494725235739966 -0.037869698384256967 -0.050427761032832648 -0.039079481282179987 0.00017727980861160359 0.068251240049453418 -0.016869640647210485 0.044906603779647294 0.10546696336574399 -0.050003931184447917
leaf_weight=5.8622326850891104 10.258907198905943 9.5261279940605181 6.5950117707252494 35.173396110534668 39.570070624351501 52.760093927383423 20.51781439781189 8.7933490276336652 183.92754942178726 3.6638954281806937 5.1294535994529706 5.1294535994529724
leaf_count=8 14 4 9 48 54 54 28 12 170 5 7 7
internal_value=0 0.0015577 0.00843681 -0.000677975 0.00164638 0 0.00293672 0.00647135 -0.00140764 0 0 0.00165528
internal_weight=0 104.055 16.1211 282.853 60.0879 87.9335 35.1734 14.6556 222.765 38.8373 49.829 10.2589
internal_count=420 115 13 305 82 102 48 20 223 53 68 14
is_linear=0
shrinkage=0.0215021


Tree=29
num_leaves=16
num_cat=0
split_feature=7 18 18 44 27 20 101 2 22 13 44 31 55 45 23
split_gain=0.924345 1.32957 1.30453 0.761988 0.678496 0.640822 0.371866 0.410659 1.05757 0.310546 0.427686 0.267627 0.185835 0.14969 0.133247
threshold=-0.56187480688095082 1.3627039790153506 1.169990122318268 -0.097401112318038927 -10.680877208709715 62.010000228881843 1.0651460886001589 52.745000839233406 1.5684965252876284 1.5220679044723513 0.018437225371599201 0.66365265846252453 -1.0000000180025095e-35 0.95331546664237987 0.45003333687782293
decision_type=2 2 2 2 2 2 2 2 2 2 2 2 2 2 2
left_child=1 2 -1 5 6 12 7 8 -2 10 -5 -6 -3 -11 -13
right_child=4 3 -4 9 11 -7 -8 -9 -10 13 -12 14 -14 -15 -16
leaf_value=-0.0008196869022828163 0.1157421423074551 0.055979246446826725 0.069540125051421015 -0.014371026425031007 -0.013934845741743954 -0.099869314927076916 -0.011132770298467369 -0.038444543650431491 -0.047735781535576664 -0.049343456024338442 0.050590733515904908 -0.0028322467307424033 0.093119642590254154 0.0011555037961095613 0.060085287970921608
leaf_weight=5.1294535994529715 5.1294535994529777 8.793349027633667 8.7933490276336652 17.586698055267334 192.72089809179306 5.8622326850891104 10.991686284542082 8.0605699419975263 4.3966745138168335 64.484559535980225 22.716151654720306 7.3277908563613874 3.6638954281806955 17.586698055267334 3.6638954281806946
leaf_count=7 7 12 12 24 155 8 15 11 6 88 31 10 5 24 5
internal_value=0 0.000861443 0.00688098 4.82381e-05 -0.00123571 0.00408255 0.00143288 0.00349632 0.00619518 -0.000424242 0.000804848 -0.0017226 0.00670039 -0.00128872 0.0001707
internal_weight=0 154.616 13.9228 140.694 232.291 18.3195 28.5784 17.5867 9.52613 122.374 40.3028 203.713 12.4572 82.0713 10.9917
internal_count=420 211 19 192 209 25 39 24 13 167 55 170 17 112 15
is_linear=0
shrinkage=0.0215021


end of trees

feature_importances:
price_max_20d=20
volume_mean_30d=17
price_std_20d=15
price_lag_30d=14
market_volatility_30d=14
volume_log_change_7d=12
price_min_60d=11
price_lag_7d=10
autocorr_7d=10
doy_cos=10
market_regime_duration_days=10
price_lag_14d=9
return_14d=9
price_accel_7d=9
volume_zscore_30d=9
return_7d=8
price_std_7d=8
distance_to_resistance=8
volume_price_conf_7d=8
price_std_60d=7
item_age_days=7
market_return_7d=7
item_return_vs_market_7d=7
market_return_14d=7
market_return_30d_percentile=7
price_lag_1d=5
price_lag_60d=5
vol_regime_60_30=5
distance_to_support=5
volume_lag_7d=5
volume_std_60d=5
item_return_vs_market_1d=5
item_return_vs_market_30d=5
price_std_30d=4
trend_divergence_30_60=4
macd_line=4
macd_signal=4
volume_mean_7d=4
market_return_1d=4
market_volume_mean_30d=4
return_3d=3
price_min_20d=3
price_mean_60d=3
price_zscore_30d=3
bb_pct_b=3
macd_histogram=3
high_low_range_30d=3
volume_std_30d=3
volume_mean_60d=3
volume_log_change_1d=3
month_sin=3
item_return_vs_market_14d=3
market_return_30d=3
return_1d=2
return_30d=2
price_max_60d=2
month_cos=2
dow_sin=1

parameters:
[boosting: gbdt]
[objective: quantile]
[metric: quantile]
[tree_learner: serial]
[device_type: cpu]
[data_sample_strategy: bagging]
[data: ]
[valid: ]
[num_iterations: 1000]
[learning_rate: 0.0215021]
[num_leaves: 63]
[num_threads: -1]
[seed: 91]
[deterministic: 0]
[force_col_wise: 0]
[force_row_wise: 0]
[histogram_pool_size: -1]
[max_depth: 5]
[min_data_in_leaf: 5]
[min_sum_hessian_in_leaf: 0.001]
[bagging_fraction: 0.7]
[pos_bagging_fraction: 1]
[neg_bagging_fraction: 1]
[bagging_freq: 5]
[bagging_seed: 2784]
[feature_fraction: 0.8]
[feature_fraction_bynode: 1]
[feature_fraction_seed: 29510]
[extra_trees: 0]
[extra_seed: 8681]
[early_stopping_round: 0]
[early_stopping_min_delta: 0]
[first_metric_only: 0]
[max_delta_step: 0]
[lambda_l1: 1]
[lambda_l2: 1.5]
[linear_lambda: 0]
[min_gain_to_split: 0.1]
[drop_rate: 0.1]
[max_drop: 50]
[skip_drop: 0.5]
[xgboost_dart_mode: 0]
[uniform_drop: 0]
[drop_seed: 8477]
[top_rate: 0.2]
[other_rate: 0.1]
[min_data_per_group: 100]
[max_cat_threshold: 32]
[cat_l2: 10]
[cat_smooth: 10]
[max_cat_to_onehot: 4]
[top_k: 20]
[monotone_constraints: ]
[monotone_constraints_method: basic]
[monotone_penalty: 0]
[feature_contri: ]
[forcedsplits_filename: ]
[refit_decay_rate: 0.9]
[cegb_tradeoff: 1]
[cegb_penalty_split: 0]
[cegb_penalty_feature_lazy: ]
[cegb_penalty_feature_coupled: ]
[path_smooth: 0]
[interaction_constraints: ]
[verbosity: -1]
[saved_feature_importance_type: 0]
[use_quantized_grad: 0]
[num_grad_quant_bins: 4]
[quant_train_renew_leaf: 0]
[stochastic_rounding: 1]
[linear_tree: 0]
[max_bin: 63]
[max_bin_by_feature: ]
[min_data_in_bin: 3]
[bin_construct_sample_cnt: 200000]
[data_random_seed: 335]
[is_enable_sparse: 1]
[enable_bundle: 1]
[use_missing: 1]
[zero_as_missing: 0]
[feature_pre_filter: 0]
[pre_partition: 0]
[two_round: 0]
[header: 0]
[label_column: ]
[weight_column: ]
[group_column: ]
[ignore_column: ]
[categorical_feature: ]
[forcedbins_filename: ]
[precise_float_parser: 0]
[parser_config_file: ]
[objective_seed: 29977]
[num_class: 1]
[is_unbalance: 0]
[scale_pos_weight: 1]
[sigmoid: 1]
[boost_from_average: 1]
[reg_sqrt: 0]
[alpha: 0.9]
[fair_c: 1]
[poisson_max_delta_step: 0.7]
[tweedie_variance_power: 1.5]
[lambdarank_truncation_level: 30]
[lambdarank_norm: 1]
[label_gain: ]
[lambdarank_position_bias_regularization: 0]
[eval_at: ]
[multi_error_top_k: 1]
[auc_mu_weights: ]
[num_machines: 1]
[local_listen_port: 12400]
[time_out: 120]
[machine_list_filename: ]
[machines: ]
[gpu_platform_id: -1]
[gpu_device_id: -1]
[gpu_use_dp: 0]
[num_gpu: 1]

end of parameters

pandas_categorical:[]
